[n]
3

[smoother]
kylm.model.ngram.smoother.KNSmoother

[closed]
true

[max_length]
25

[vocab_cutoff]
0

[start_symbol]
<s>

[terminal_symbol]
</s>

[unknown_symbol]
<unk>

\data\
ngram 1=5344
ngram 2=35861
ngram 3=78496
\1-grams: 
-99.0000	<s>	-0.8846
-1.3972	</s>
-4.5546	"(x	-0.1487
-4.2536	";	-0.1487
-3.4407	"A	-0.4497
-4.5546	"A's	-0.1487
-3.7765	"AP	-0.4497
-4.5546	"AP"	-0.1487
-4.0775	"AQ	-0.2737
-4.0775	"AQ"	-0.1487
-4.5546	"AR	-0.1487
-4.5546	"Agnosticism	-0.1487
-4.5546	"Alexander's	-0.1487
-3.6515	"All	-0.4497
-4.5546	"Almost	-0.1487
-4.5546	"An	-0.1487
-4.5546	"And	-0.1487
-4.0775	"Anything	-0.3248
-4.5546	"Arabian	-0.1487
-4.0775	"B	-0.3248
-4.5546	"BP	-0.1487
-4.5546	"Because	-0.1487
-4.2536	"Beliefs	-0.4497
-4.2536	"Blue	-0.4497
-4.2536	"But	-0.1487
-4.5546	"Chimæras	-0.1487
-4.5546	"Each	-0.1487
-4.0775	"Every	-0.3248
-4.5546	"Expedient	-0.1487
-4.5546	"External	-0.1487
-4.5546	"False	-0.1487
-4.5546	"For	-0.1487
-4.5546	"George	-0.1487
-4.5546	"Griffins	-0.1487
-4.5546	"Hens	-0.1487
-4.5546	"Hens'	-0.1487
-3.7765	"How	-0.6258
-4.5546	"How"	-0.1487
-4.5546	"Hullo!	-0.1487
-4.5546	"Hylas	-0.1487
-3.3505	"I	-0.4691
-4.2536	"I"	-0.1487
-3.6515	"If	-0.4497
-4.0775	"In	-0.3248
-3.4407	"It	-0.6258
-3.7765	"Lions	-0.9269
-4.2536	"Love	-0.1487
-4.5546	"Must	-0.1487
-3.7765	"My	-0.9269
-4.5546	"Napoleon	-0.1487
-3.9526	"No	-0.1487
-4.5546	"No;	-0.1487
-4.5546	"Not	-0.1487
-4.5546	"Nothing	-0.1487
-4.0775	"Our	-0.1487
-4.2536	"P	-0.1487
-4.5546	"Principles	-0.1487
-4.5546	"Real	-0.1487
-4.5546	"Relations	-0.1487
-4.5546	"Seeing"	-0.1487
-4.5546	"So	-0.1487
-4.5546	"Something	-0.1487
-4.5546	"Space	-0.1487
-3.8557	"Temporal	-0.8477
-3.4407	"That	-0.4732
-3.6515	"The	-0.2456
-3.4754	"There	-0.9616
-4.5546	"There's	-0.1487
-4.5546	"Things	-0.1487
-3.2759	"This	-0.5801
-4.2536	"Thou	-0.4497
-3.1567	"Time	-0.6928
-4.2536	"Time"	-0.1487
-4.5546	"To	-0.1487
-4.0775	"True	-0.3248
-3.8557	"Unicorns	-0.4497
-4.5546	"Virtue"	-0.1487
-4.2536	"Vorstellungen"	-0.1487
-4.2536	"We	-0.4497
-3.7765	"What	-0.3528
-4.5546	"Whatever	-0.1487
-4.0775	"a	-0.1487
-4.5546	"absolute	-0.1487
-4.5546	"absolute"	-0.1487
-4.5546	"activity	-0.1487
-4.5546	"after-images	-0.1487
-4.5546	"after-sensations	-0.1487
-4.2536	"agree	-0.4497
-4.5546	"agreed	-0.1487
-4.5546	"agreement	-0.1487
-4.5546	"agreement"	-0.1487
-4.2536	"all	-0.1487
-4.5546	"an	-0.1487
-4.2536	"and	-0.1487
-4.5546	"any	-0.1487
-4.5546	"anything	-0.1487
-4.5546	"anywhere"	-0.1487
-4.5546	"apodeictic")	-0.1487
-4.2536	"appearances"	-0.1487
-4.2536	"are	-0.1487
-4.5546	"arguments	-0.1487
-4.5546	"as	-0.1487
-4.5546	"assimilate	-0.1487
-4.5546	"at	-0.1487
-4.5546	"attention	-0.1487
-4.5546	"awareness	-0.1487
-4.5546	"bad	-0.1487
-4.5546	"be	-0.1487
-4.5546	"beautiful	-0.1487
-3.9526	"beautiful"	-0.1487
-3.5132	"being	-0.3596
-4.5546	"being"	-0.1487
-4.5546	"beliefs	-0.1487
-4.5546	"believe"	-0.1487
-4.2536	"belonging	-0.4497
-4.5546	"belongs	-0.1487
-4.2536	"better	-0.1487
-3.7095	"better"	-0.2948
-4.5546	"bigger"	-0.1487
-4.5546	"blue	-0.1487
-3.7095	"blue"	-0.3918
-4.5546	"by	-0.1487
-4.0775	"can	-0.3248
-4.5546	"can":	-0.1487
-4.5546	"causality"	-0.1487
-4.5546	"cause	-0.1487
-4.2536	"circular	-0.4497
-4.5546	"circular"	-0.1487
-4.5546	"coloured	-0.1487
-4.5546	"coloured"	-0.1487
-4.5546	"committed	-0.1487
-4.5546	"conceptions	-0.1487
-4.5546	"conjoined"	-0.1487
-4.5546	"conjunction"	-0.1487
-4.5546	"connected	-0.1487
-4.2536	"consciousness	-0.4497
-4.2536	"consciousness"	-0.1487
-4.5546	"consciousness"--that	-0.1487
-4.2536	"constant	-0.1487
-4.2536	"constantly	-0.1487
-4.2536	"containing	-0.1487
-4.2536	"content	-0.4497
-3.6004	"content"	-0.2948
-4.5546	"content"--either	-0.1487
-4.2536	"contents	-0.4497
-3.9526	"contents"	-0.2279
-4.5546	"copy"	-0.1487
-4.5546	"covet"	-0.1487
-4.5546	"deliverances	-0.1487
-4.5546	"demonstrative"	-0.1487
-4.5546	"differ	-0.1487
-4.0775	"different	-0.2737
-3.9526	"direct	-0.2737
-4.2536	"directly	-0.1487
-4.2536	"duty	-0.4497
-4.2536	"duty"	-0.1487
-4.5546	"each	-0.1487
-4.5546	"eggs	-0.1487
-4.5546	"entails"	-0.1487
-4.5546	"entails)	-0.1487
-4.5546	"erlebt	-0.1487
-4.5546	"esse	-0.1487
-4.5546	"eternal	-0.1487
-4.5546	"evil	-0.1487
-4.5546	"excellence"	-0.1487
-4.5546	"excellences	-0.1487
-4.0775	"exist"	-0.1487
-4.2536	"existence	-0.3248
-3.8557	"existence"	-0.2067
-4.5546	"existing	-0.1487
-4.5546	"exists	-0.1487
-4.0775	"exists"	-0.1487
-4.5546	"exists"?	-0.1487
-4.5546	"expedient	-0.1487
-4.5546	"experience"	-0.1487
-4.5546	"experienced	-0.1487
-4.2536	"experienced"	-0.1487
-4.5546	"experiment	-0.1487
-4.0775	"external	-0.1487
-4.5546	"external"	-0.1487
-4.5546	"fatherhood	-0.1487
-4.5546	"fatherhood"	-0.1487
-4.5546	"feel	-0.1487
-4.5546	"follow	-0.1487
-4.5546	"follows	-0.1487
-4.5546	"follows"	-0.1487
-4.5546	"follows";	-0.1487
-4.5546	"form	-0.1487
-4.5546	"formal	-0.1487
-4.5546	"foundation	-0.1487
-4.0775	"founded	-0.3248
-4.5546	"get	-0.1487
-4.2536	"given	-0.1487
-4.5546	"given"	-0.1487
-4.5546	"glass"	-0.1487
-3.6515	"good	-0.4040
-3.5546	"good"	-0.3450
-4.5546	"good"--but	-0.1487
-4.0775	"goodness	-0.6258
-4.5546	"green"	-0.1487
-4.5546	"grounded"	-0.1487
-4.2536	"have	-0.1487
-4.2536	"having	-0.1487
-4.5546	"hearing	-0.1487
-4.2536	"hens"	-0.4497
-4.5546	"history	-0.1487
-4.5546	"how	-0.1487
-4.5546	"howler";	-0.1487
-4.5546	"idea"	-0.1487
-3.9526	"ideal"	-0.2456
-4.5546	"ideal"--something	-0.1487
-4.5546	"ideas	-0.1487
-4.2536	"ideas"	-0.1487
-4.5546	"ideas")	-0.1487
-4.5546	"identity	-0.1487
-4.2536	"if	-0.4497
-4.2536	"images	-0.1487
-4.0775	"images"	-0.1487
-4.5546	"images";	-0.1487
-4.5546	"imaginary";	-0.1487
-4.5546	"immediately	-0.1487
-4.2536	"immutable	-0.4497
-4.5546	"implication	-0.1487
-4.5546	"implication"	-0.1487
-4.2536	"implies"	-0.1487
-4.5546	"impossibility"	-0.1487
-4.0775	"impossible"	-0.3248
-3.7095	"in	-0.5167
-4.5546	"inseparable	-0.1487
-4.5546	"instinct"	-0.1487
-4.0775	"instrumental"	-0.6258
-4.5546	"intelligible	-0.1487
-4.2536	"intermediate	-0.4497
-3.9526	"internal	-0.5467
-3.9526	"internal"	-0.2456
-4.5546	"internal";	-0.1487
-4.5546	"internality	-0.1487
-4.0775	"internality"	-0.3248
-3.7095	"intrinsic	-0.4497
-3.7095	"intrinsic"	-0.1999
-4.5546	"intrinsic"--a	-0.1487
-4.5546	"intrinsic?"	-0.1487
-4.5546	"intrinsical";	-0.1487
-4.0775	"intrinsically	-0.1487
-4.5546	"intuitive"	-0.1487
-3.5132	"is	-0.3986
-3.8557	"it	-0.3706
-4.5546	"judged"	-0.1487
-4.5546	"judgments	-0.1487
-4.5546	"knew	-0.1487
-4.5546	"know"	-0.1487
-4.2536	"lay"	-0.4497
-4.5546	"leave	-0.1487
-4.5546	"like	-0.1487
-4.5546	"likeness"	-0.1487
-4.5546	"logically	-0.1487
-4.2536	"love"	-0.1487
-4.2536	"made"	-0.1487
-3.8557	"make	-0.8477
-4.2536	"make"	-0.1487
-4.5546	"making	-0.1487
-4.2536	"making"	-0.1487
-4.5546	"mammalian"	-0.1487
-4.2536	"man-made	-0.1487
-4.5546	"mark	-0.1487
-3.8557	"material	-0.4497
-4.5546	"materially	-0.1487
-4.2536	"matter	-0.1487
-4.0775	"matters	-0.6258
-4.2536	"me	-0.3248
-4.5546	"me"	-0.1487
-4.2536	"mental	-0.1487
-4.5546	"mere	-0.1487
-4.5546	"metaphysical"	-0.1487
-4.5546	"metaphysics	-0.1487
-4.2536	"modify	-0.4497
-3.7765	"modify"	-0.2737
-4.5546	"moon	-0.1487
-3.8557	"moral	-0.3706
-4.0775	"morally	-0.3248
-4.2536	"must	-0.1487
-4.0775	"must"	-0.1487
-4.2536	"mutable	-0.4497
-4.2536	"my	-0.1487
-4.5546	"naturalistic"	-0.1487
-4.0775	"necessary	-0.3248
-4.5546	"necessary"	-0.1487
-4.5546	"no	-0.1487
-4.5546	"non-intrinsic	-0.1487
-4.2536	"non-subjective	-0.4497
-4.2536	"not	-0.1487
-4.5546	"notions"	-0.1487
-4.5546	"object	-0.1487
-4.5546	"object"	-0.1487
-3.6004	"objective	-0.7130
-3.6004	"objective"	-0.1901
-4.5546	"objective;"	-0.1487
-3.7765	"objectivity	-0.6928
-3.7095	"objectivity"	-0.2948
-4.0775	"objects	-0.3248
-4.2536	"objects"	-0.1487
-4.5546	"observation	-0.1487
-3.9526	"observation"	-0.3706
-4.5546	"observe	-0.1487
-4.2536	"observe"	-0.1487
-4.2536	"of	-0.1487
-4.5546	"orange	-0.1487
-4.5546	"orange"	-0.1487
-4.5546	"other	-0.1487
-4.0775	"ought	-0.6258
-3.6515	"ought"	-0.2579
-4.0775	"our	-0.1487
-4.5546	"our"	-0.1487
-4.5546	"ours	-0.1487
-4.5546	"ours"	-0.1487
-4.5546	"over-ligned"	-0.1487
-3.4407	"p	-0.5959
-4.5546	"part	-0.1487
-4.2536	"part"	-0.1487
-4.5546	"parts"	-0.1487
-4.0775	"pay	-0.2456
-3.5132	"paying	-0.4797
-4.2536	"paying"	-0.4497
-4.2536	"pays	-0.1487
-4.2536	"perceive	-0.4497
-3.9526	"perceive"	-0.2157
-4.0775	"perceived	-0.4497
-4.2536	"perceived"	-0.1487
-4.2536	"perception	-0.4497
-4.5546	"perceptually	-0.1487
-4.0775	"physical	-0.3248
-4.5546	"point	-0.1487
-4.5546	"pointed	-0.1487
-4.0775	"points	-0.3248
-4.5546	"politics	-0.1487
-4.5546	"popular	-0.1487
-4.5546	"positivistic"	-0.1487
-4.5546	"possible	-0.1487
-4.5546	"pragmatist	-0.1487
-4.5546	"presented	-0.1487
-4.5546	"presented"	-0.1487
-4.5546	"primary"	-0.1487
-4.5546	"profitable	-0.1487
-4.5546	"pure	-0.1487
-4.5546	"purely	-0.1487
-4.0775	"q	-0.2737
-4.5546	"rQ	-0.1487
-3.7095	"real	-0.9938
-3.5132	"real"	-0.4040
-4.2536	"real":	-0.1487
-4.2536	"reality	-0.1487
-3.8557	"reality"	-0.1487
-4.5546	"really	-0.1487
-4.2536	"reason	-0.1487
-4.5546	"reason"	-0.1487
-4.5546	"red"	-0.1487
-4.5546	"relation"	-0.1487
-4.2536	"relational	-0.1487
-4.0775	"relations	-0.6258
-4.2536	"relations"	-0.1487
-4.5546	"relative":	-0.1487
-4.2536	"right"	-0.4497
-4.5546	"secondary	-0.1487
-3.7765	"see"	-0.1487
-4.5546	"seeing	-0.1487
-4.5546	"seems	-0.1487
-4.5546	"self-evident	-0.1487
-4.5546	"self-sufficient":	-0.1487
-4.2536	"sensation	-0.1487
-4.5546	"sensations	-0.1487
-4.5546	"sense-contents	-0.1487
-4.5546	"sense-contents!"	-0.1487
-4.5546	"sense-contents"	-0.1487
-4.5546	"sense-contents";	-0.1487
-4.5546	"sense-data	-0.1487
-4.0775	"sense-data"	-0.1487
-4.5546	"sense-datum"	-0.1487
-4.2536	"sensibles	-0.3248
-4.5546	"sensibles"	-0.1487
-4.5546	"sensibles";	-0.1487
-4.5546	"sensory	-0.1487
-4.5546	"side	-0.1487
-4.5546	"sign	-0.1487
-4.5546	"sign"	-0.1487
-4.5546	"so	-0.1487
-4.5546	"sophistry	-0.1487
-4.5546	"source	-0.1487
-4.0775	"source"	-0.1487
-4.5546	"sources	-0.1487
-4.0775	"sources"	-0.3248
-4.5546	"spiritual	-0.1487
-4.5546	"spiritual"	-0.1487
-4.5546	"static"	-0.1487
-4.5546	"strong	-0.1487
-3.7765	"subjective	-0.5167
-3.7765	"subjective"	-0.1999
-4.5546	"subjective";	-0.1487
-4.2536	"subjectivity	-0.1487
-4.5546	"substance	-0.1487
-4.5546	"substance"	-0.1487
-4.5546	"sweet	-0.1487
-4.5546	"systematically	-0.1487
-4.0775	"temporal	-0.1487
-4.5546	"terms	-0.1487
-4.2536	"that	-0.1487
-3.6004	"the	-0.2157
-4.5546	"there	-0.1487
-4.2536	"thing	-0.1487
-4.5546	"thing"	-0.1487
-4.5546	"things	-0.1487
-4.0775	"things"	-0.1487
-3.8557	"this	-0.2456
-4.5546	"this"	-0.1487
-4.2536	"through	-0.4497
-4.5546	"thy	-0.1487
-4.5546	"to	-0.1487
-4.5546	"to-morrow"	-0.1487
-4.2536	"true	-0.1487
-4.5546	"true")	-0.1487
-4.5546	"truth	-0.1487
-4.5546	"truth"	-0.1487
-4.5546	"truth-making"	-0.1487
-4.5546	"truths	-0.1487
-4.5546	"ugly;"	-0.1487
-4.5546	"unconditional"	-0.1487
-4.5546	"unicorns"	-0.1487
-4.0775	"unreal	-0.3248
-4.5546	"unreal"	-0.1487
-4.2536	"useful	-0.3248
-4.5546	"useful"	-0.1487
-4.5546	"usefulness"	-0.1487
-4.0775	"utility	-0.1487
-4.2536	"utility"	-0.1487
-4.5546	"validly	-0.1487
-4.2536	"verifiability"	-0.4497
-4.5546	"verification	-0.1487
-4.0775	"verification"	-0.3248
-4.5546	"verified	-0.1487
-4.2536	"verify"	-0.1487
-4.5546	"virtue	-0.1487
-4.5546	"virtue";	-0.1487
-3.9526	"we	-0.1487
-4.2536	"what	-0.1487
-4.5546	"what"--if	-0.1487
-4.5546	"which	-0.1487
-4.5546	"work	-0.1487
-4.0775	"works	-0.3248
-4.2536	"would	-0.4497
-4.2536	"wrong	-0.4497
-3.9526	"wrong"	-0.1487
-3.4085	"xP	-1.0238
-4.5546	"xQ	-0.1487
-4.5546	"yellow	-0.1487
-4.0775	"yellow"	-0.1487
-4.5546	"yellowness"	-0.1487
-4.5546	"you	-0.1487
-4.5546	"°"	-0.1487
-4.2536	"°yP°	-0.1487
-4.5546	'"That	-0.1487
-4.5546	'--the	-0.1487
-4.5546	';	-0.1487
-4.2536	'A	-0.4497
-4.5546	'B	-0.1487
-4.5546	'Blue	-0.1487
-4.5546	'Both	-0.1487
-4.5546	'C	-0.1487
-4.2536	'Esse	-0.4497
-4.5546	'I	-0.1487
-4.5546	'Idealism'	-0.1487
-4.5546	'Is	-0.1487
-4.5546	'Principles	-0.1487
-4.2536	'Reality	-0.4497
-4.0775	'Time	-0.3248
-4.5546	'Time'	-0.1487
-4.5546	'What	-0.1487
-4.2536	'analytic'	-0.1487
-4.5546	'appear'	-0.1487
-4.5546	'awareness'	-0.1487
-4.5546	'be	-0.1487
-4.2536	'beautiful	-0.1487
-4.5546	'beauty'	-0.1487
-3.9526	'being	-0.4497
-4.5546	'being'	-0.1487
-4.5546	'better	-0.1487
-4.5546	'blue	-0.1487
-4.5546	'blue'	-0.1487
-4.5546	'blueness'	-0.1487
-4.2536	'cannot'	-0.4497
-4.5546	'causes	-0.1487
-4.5546	'consciousness	-0.1487
-4.5546	'consciousness'	-0.1487
-4.2536	'content'	-0.1487
-4.2536	'difference	-0.4497
-4.5546	'different	-0.1487
-4.5546	'differing	-0.1487
-4.5546	'effect	-0.1487
-3.7095	'esse	-0.5747
-4.0775	'esse'	-0.3248
-4.5546	'eternal'	-0.1487
-4.5546	'exists	-0.1487
-4.2536	'experience'	-0.1487
-4.5546	'experiencing'	-0.1487
-4.5546	'goodness'	-0.1487
-4.5546	'green'	-0.1487
-4.5546	'grey'	-0.1487
-4.5546	'greys	-0.1487
-3.9526	'having	-0.5467
-4.5546	'illegitimate	-0.1487
-4.5546	'image'	-0.1487
-4.5546	'impossibility	-0.1487
-4.5546	'impossibility'	-0.1487
-4.5546	'impossible	-0.1487
-4.2536	'intrinsic	-0.4497
-4.0775	'intrinsic'	-0.3248
-4.0775	'intrinsically	-0.3248
-4.2536	'is	-0.1487
-4.5546	'knowing	-0.1487
-4.5546	'knowing'	-0.1487
-4.5546	'knowledge'	-0.1487
-4.5546	'moon'	-0.1487
-4.0775	'must	-0.3248
-4.2536	'must'	-0.1487
-4.5546	'necessarily'	-0.1487
-4.0775	'necessity'	-0.3248
-4.5546	'not	-0.1487
-4.5546	'object'	-0.1487
-4.5546	'one'	-0.1487
-4.5546	'ones	-0.1487
-4.2536	'organic	-0.1487
-4.5546	'percipi'	-0.1487
-4.2536	'percipi':	-0.1487
-4.2536	'real'	-0.1487
-4.2536	'reality	-0.1487
-4.5546	'reality'	-0.1487
-4.5546	'redness'	-0.1487
-4.5546	'sensation	-0.1487
-4.2536	'sensation'	-0.1487
-4.5546	'spirit	-0.1487
-4.5546	'subjective	-0.1487
-4.5546	'sweet	-0.1487
-4.5546	'sweet'	-0.1487
-4.2536	'synthetic'	-0.1487
-4.2536	'that	-0.1487
-4.5546	'the	-0.1487
-4.5546	'thing'	-0.1487
-4.5546	'thought	-0.1487
-4.5546	'thought'	-0.1487
-4.5546	'true'	-0.1487
-4.5546	'twice	-0.1487
-4.5546	'white'	-0.1487
-4.5546	'whites	-0.1487
-4.5546	'yellow'	-0.1487
-4.5546	'yellowness'	-0.1487
-3.0922	(1)	-0.4691
-3.2759	(2)	-0.3745
-4.5546	(2nd	-0.1487
-3.7095	(3)	-0.1487
-4.0775	(4)	-0.1487
-4.5546	(5)	-0.1487
-4.5546	(First	-0.1487
-4.0775	(I	-0.1487
-4.5546	(I)	-0.1487
-4.5546	(II)	-0.1487
-4.5546	(III)	-0.1487
-4.5546	(IV)	-0.1487
-4.5546	(IX)	-0.1487
-4.5546	(Luke	-0.1487
-4.5546	(Mind	-0.1487
-4.2536	(Professor	-0.4497
-4.5546	(See	-0.1487
-4.5546	(VIII	-0.1487
-4.5546	(a	-0.1487
-3.7765	(a)	-0.2279
-4.5546	(according	-0.1487
-4.5546	(again	-0.1487
-4.5546	(although	-0.1487
-4.2536	(among	-0.1487
-3.6004	(and	-0.2579
-3.4754	(as	-0.4797
-4.0775	(b)	-0.2737
-4.5546	(beside	-0.1487
-4.5546	(by	-0.1487
-4.0775	(c)	-0.1487
-4.5546	(correctly)	-0.1487
-3.9526	(d)	-0.2737
-4.5546	(d);	-0.1487
-4.5546	(directly	-0.1487
-4.5546	(e	-0.1487
-4.0775	(e)	-0.3248
-4.0775	(even	-0.3248
-4.5546	(falsely)	-0.1487
-4.5546	(following	-0.1487
-4.2536	(for	-0.1487
-4.5546	(h)	-0.1487
-4.5546	(he	-0.1487
-4.5546	(i)	-0.1487
-4.5546	(ideas	-0.1487
-3.3785	(if	-0.3114
-3.6515	(in	-0.6258
-4.5546	(indeed	-0.1487
-4.0775	(it	-0.3248
-4.2536	(namely	-0.1487
-4.2536	(on	-0.1487
-3.9526	(or	-0.1487
-4.5546	(other	-0.1487
-3.5132	(p	-1.1901
-4.5546	(perhaps	-0.1487
-4.2536	(pp	-0.4497
-4.5546	(presented	-0.1487
-3.8557	(q	-0.4497
-4.5546	(r	-0.1487
-4.5546	(rightly	-0.1487
-4.2536	(so	-0.4497
-4.5546	(some	-0.1487
-4.5546	(that	-0.1487
-4.0775	(the	-0.1487
-4.5546	(they	-0.1487
-3.8557	(though	-0.2456
-4.0775	(to	-0.3248
-4.5546	(under	-0.1487
-4.2536	(validly	-0.4497
-4.5546	(viz	-0.1487
-4.5546	(we	-0.1487
-3.8557	(what	-0.2456
-3.9526	(whatever	-0.2456
-4.2536	(when	-0.1487
-4.5546	(where	-0.1487
-4.0775	(whether	-0.3248
-4.0775	(which	-0.1487
-4.5546	(with	-0.1487
-4.0775	(x	-0.3248
-4.5546	(y	-0.1487
-4.2536	(°x	-0.4497
-4.2536	(°y	-0.2737
-4.2536	(β)	-0.1487
-3.2993	*	-0.2641
-4.2536	+	-0.1487
-1.4141	,	-1.1336
-2.2044	,"	-0.7555
-4.5546	,"--a	-0.1487
-3.2122	,'	-0.3248
-4.5546	,--a	-0.1487
-4.5546	,[1]	-0.1487
-4.5546	,[2]	-0.1487
-4.5546	--a	-0.1487
-4.5546	--considerations	-0.1487
-4.5546	--or	-0.1487
-4.5546	--which	-0.1487
-1.6314	.	-1.1430
-2.3756	."	-0.7592
-4.5546	."[1]	-0.1487
-4.5546	."[2]	-0.1487
-3.4754	.'	-0.2737
-4.5546	.)	-0.1487
-4.5546	.--do	-0.1487
-4.5546	.--which	-0.1487
-4.5546	.15	-0.1487
-4.5546	.;	-0.1487
-4.5546	.S	-0.1487
-4.2536	.[1]	-0.1487
-4.5546	.]	-0.1487
-4.5546	.e	-0.1487
-4.2536	.g	-0.4497
-4.5546	.m	-0.1487
-4.5546	.°	-0.1487
-3.9526	1	-0.1487
-4.5546	10	-0.1487
-4.5546	100-101	-0.1487
-4.5546	105	-0.1487
-4.5546	11	-0.1487
-4.5546	12	-0.1487
-4.5546	13	-0.1487
-4.5546	131-2	-0.1487
-4.5546	142)	-0.1487
-4.5546	160)	-0.1487
-4.5546	166)	-0.1487
-4.5546	17-18	-0.1487
-4.5546	179)	-0.1487
-4.5546	1800	-0.1487
-4.5546	1807	-0.1487
-4.5546	1902	-0.1487
-4.5546	1903	-0.1487
-4.5546	1907	-0.1487
-4.5546	1907;	-0.1487
-4.5546	1909	-0.1487
-4.5546	1910	-0.1487
-4.2536	1921	-0.1487
-4.5546	1922	-0.1487
-4.2536	2	-0.1487
-4.5546	2+2=4	-0.1487
-4.5546	201)	-0.1487
-4.5546	206)	-0.1487
-4.5546	209)	-0.1487
-4.5546	21)	-0.1487
-4.5546	218)	-0.1487
-4.5546	21st	-0.1487
-4.5546	222)	-0.1487
-4.5546	231-232)	-0.1487
-4.5546	242)	-0.1487
-4.5546	27)	-0.1487
-4.5546	286	-0.1487
-4.5546	286)	-0.1487
-4.5546	287	-0.1487
-4.5546	289	-0.1487
-4.5546	290)	-0.1487
-4.5546	2=	-0.1487
-4.5546	2nd	-0.1487
-4.5546	3	-0.1487
-4.5546	34)	-0.1487
-4.5546	35	-0.1487
-4.5546	35)	-0.1487
-4.5546	364)	-0.1487
-4.5546	392)	-0.1487
-4.2536	4	-0.4497
-4.5546	43)	-0.1487
-4.5546	46)	-0.1487
-4.5546	555)	-0.1487
-4.5546	6	-0.1487
-4.2536	75)	-0.4497
-4.5546	89	-0.1487
-4.5546	93	-0.1487
-3.4085	=	-0.2579
-2.7838	A	-0.5379
-3.8557	A"	-0.3918
-4.5546	A";	-0.1487
-3.7765	A's	-0.2948
-4.2536	A)	-0.1487
-4.5546	A--must	-0.1487
-4.5546	A--numerically	-0.1487
-4.2536	A:	-0.1487
-4.5546	A;	-0.1487
-4.2536	AND	-0.1487
-3.7765	AP	-0.3248
-4.5546	AP)	-0.1487
-3.8557	AQ	-0.3248
-4.2536	AQ"	-0.1487
-3.9526	AR	-0.2456
-4.2536	AR"	-0.1487
-4.5546	About	-0.1487
-4.2536	Absolute	-0.1487
-4.5546	Absolute;	-0.1487
-4.2536	Accordingly	-0.1487
-4.5546	After	-0.1487
-4.5546	Again	-0.1487
-4.5546	Against	-0.1487
-4.5546	Agnostic's	-0.1487
-4.2536	Agnosticism	-0.1487
-4.0775	Alexander	-0.6258
-3.7765	All	-0.3918
-4.2536	Almost	-0.2737
-4.5546	Alps	-0.1487
-4.5546	Although	-0.1487
-4.2536	Among	-0.1487
-4.0775	An	-0.1487
-3.1744	And	-0.3946
-4.5546	Another	-0.1487
-4.2536	Any	-0.1487
-4.5546	Anything	-0.1487
-4.2536	Apparently	-0.4497
-3.9526	Appearance	-0.7508
-4.5546	Appendix	-0.1487
-4.0775	Are	-0.1487
-4.5546	Areal?	-0.1487
-4.5546	Aristotelian	-0.1487
-3.7765	Aristotle	-0.1487
-4.2536	Aristotle's	-0.1487
-4.2536	As	-0.2279
-4.5546	Assuming	-0.1487
-4.5546	At	-0.1487
-4.5546	A°)	-0.1487
-4.5546	A°)"	-0.1487
-4.5546	A°)}	-0.1487
-4.5546	A°)}"	-0.1487
-4.5546	A°)}";	-0.1487
-3.1396	B	-0.5211
-4.2536	B"	-0.1487
-4.5546	B'	-0.1487
-4.0775	B's	-0.1487
-4.5546	B's:	-0.1487
-4.5546	B's?	-0.1487
-4.5546	B:	-0.1487
-3.9526	B;	-0.3248
-4.5546	BE	-0.1487
-4.5546	BQ"	-0.1487
-4.5546	Bad	-0.1487
-4.5546	Barbara	-0.1487
-4.5546	Beliefs	-0.1487
-3.9526	Berkeley	-0.2279
-4.2536	Berkeley's	-0.1487
-4.5546	Both	-0.1487
-4.0775	Bradley	-0.1658
-4.2536	Bradley's	-0.1487
-3.5546	But	-0.3188
-4.0775	By	-0.1487
-3.8557	C	-0.6258
-4.5546	C'	-0.1487
-4.5546	CAMBRIDGE	-0.1487
-4.5546	CONCEPTION	-0.1487
-4.5546	Caesar	-0.1487
-4.5546	Cambridge	-0.1487
-3.7765	Can	-0.2737
-4.0775	Certain	-0.1487
-3.8557	Certainly	-0.1487
-4.5546	Chairs	-0.1487
-4.0775	Change	-0.1487
-4.5546	Christ	-0.1487
-4.5546	Christianity	-0.1487
-4.5546	Co	-0.1487
-4.5546	Commandment	-0.1487
-4.5546	Commandments	-0.1487
-4.5546	Commandments:	-0.1487
-4.5546	Committee	-0.1487
-3.8557	Common	-0.5467
-4.5546	Conception	-0.1487
-4.5546	Conditions	-0.1487
-4.2536	Custom	-0.1487
-3.9526	D	-0.2737
-4.5546	D'	-0.1487
-4.5546	D;	-0.1487
-4.5546	December	-0.1487
-4.5546	Deity	-0.1487
-4.5546	Development	-0.1487
-4.5546	Did	-0.1487
-4.5546	Difference	-0.1487
-4.5546	Different	-0.1487
-4.0775	Do	-0.1487
-3.8557	Does	-0.2456
-4.5546	Don't	-0.1487
-4.5546	Dr	-0.1487
-4.0775	E	-0.1487
-4.5546	END	-0.1487
-4.5546	EXTERNAL	-0.1487
-4.2536	Each	-0.3248
-4.5546	Edition	-0.1487
-4.5546	Edition)	-0.1487
-4.5546	Editor	-0.1487
-3.7095	Edward	-0.3036
-4.5546	Eighth	-0.1487
-4.2536	Either	-0.2456
-4.5546	Empiricism	-0.1487
-4.5546	England	-0.1487
-4.5546	England"	-0.1487
-4.5546	Enquiry	-0.1487
-4.5546	Error	-0.1487
-4.5546	Essays	-0.1487
-4.0775	Esse	-0.4497
-3.9526	Ethics	-0.1487
-4.2536	Euclidean	-0.1487
-4.2536	Europeans	-0.1487
-4.2536	Even	-0.2067
-4.5546	Every	-0.1487
-4.2536	Everybody	-0.1487
-4.5546	Evolutionary	-0.1487
-4.5546	Existence	-0.1487
-4.2536	Experience	-0.1487
-4.5546	External	-0.1487
-3.8557	F	-0.2279
-4.5546	Facts	-0.1487
-4.5546	False	-0.1487
-4.5546	Few	-0.1487
-4.5546	Finally	-0.1487
-4.0775	First	-0.3248
-4.5546	Fiscal	-0.1487
-3.6515	For	-0.3000
-4.2536	Formal	-0.2737
-4.5546	French	-0.1487
-4.0775	From	-0.4497
-3.8557	G	-0.4497
-3.7765	George	-0.3706
-4.2536	Germans	-0.1487
-4.5546	God	-0.1487
-4.5546	God;	-0.1487
-4.2536	Great	-0.1487
-4.5546	Greeks	-0.1487
-4.5546	Green	-0.1487
-4.5546	HUME'S	-0.1487
-4.5546	Having	-0.1487
-3.6515	He	-0.2234
-4.5546	Heaven	-0.1487
-4.5546	Hegel's	-0.1487
-4.5546	Hegel)	-0.1487
-4.5546	Hence	-0.1487
-3.9526	Here	-0.5167
-4.0775	His	-0.1487
-4.5546	House	-0.1487
-4.5546	House;	-0.1487
-3.6004	How	-0.2870
-4.2536	However	-0.3248
-4.5546	Human	-0.1487
-3.3785	Hume	-0.2985
-3.7765	Hume's	-0.1999
-2.1817	I	-0.8184
-4.5546	IDEALISM	-0.1487
-4.2536	II	-0.1487
-4.2536	III	-0.1487
-4.5546	INTERNAL	-0.1487
-4.5546	INTRINSIC	-0.1487
-4.5546	IV	-0.1487
-4.2536	IX	-0.1487
-4.5546	IX)	-0.1487
-4.5546	Ibid	-0.1487
-3.6515	Idealism	-0.3036
-3.8557	Idealist	-0.1999
-4.2536	Idealist's	-0.1487
-3.7765	Idealistic	-0.2279
-3.4085	Idealists	-0.2737
-4.5546	Idealists--the	-0.1487
-4.5546	Idealists:	-0.1487
-4.2536	Ideas	-0.4497
-4.0775	Identity	-0.6258
-3.4407	If	-0.2991
-4.5546	Imaginary	-0.1487
-3.4085	In	-0.3545
-4.0775	Indeed	-0.1487
-4.5546	Indiscernibles	-0.1487
-4.5546	Inductive	-0.1487
-4.5546	Internal	-0.1487
-4.5546	International	-0.1487
-4.2536	Into	-0.4497
-4.5546	Intrinsic	-0.1487
-3.1744	Is	-0.5844
-3.1396	It	-0.5211
-4.5546	Italics	-0.1487
-4.5546	Its	-0.1487
-4.5546	JAMES	-0.1487
-4.5546	JUDGMENTS	-0.1487
-3.9526	James	-0.2330
-4.2536	James'	-0.1487
-4.5546	January	-0.1487
-4.2536	Jew	-0.1487
-4.5546	Jews	-0.1487
-4.5546	Joachim	-0.1487
-4.2536	Journal	-0.1487
-4.5546	Judgments	-0.1487
-4.0775	Julius	-0.6258
-4.2536	Just	-0.3248
-3.9526	Kant	-0.1487
-4.2536	King	-0.3248
-4.5546	Knowledge	-0.1487
-3.9526	Lecture	-0.2737
-4.2536	Lectures	-0.1487
-4.5546	Leibniz;	-0.1487
-4.5546	Leicester	-0.1487
-3.7765	Let	-0.5009
-4.5546	Locke's	-0.1487
-4.2536	Logic	-0.1487
-4.5546	Logic;	-0.1487
-4.5546	Longmans	-0.1487
-4.5546	MOORE	-0.1487
-4.5546	MORAL	-0.1487
-4.2536	Many	-0.2279
-4.5546	Mathematica	-0.1487
-4.2536	Mathematics	-0.2737
-4.5546	Matter	-0.1487
-4.5546	Men	-0.1487
-4.5546	Merely	-0.1487
-4.2536	Mill	-0.1487
-4.5546	Mill-Russell	-0.1487
-4.5546	Mind	-0.1487
-4.5546	Modern	-0.1487
-3.7095	Moral	-0.5467
-4.0775	Moreover	-0.3706
-4.5546	Most	-0.1487
-3.1075	Mr	-1.3101
-4.2536	Must	-0.1487
-4.2536	My	-0.2157
-4.5546	N	-0.1487
-4.5546	NATURE	-0.1487
-4.5546	Name	-0.1487
-4.2536	Namely	-0.1487
-4.5546	Napoleon's	-0.1487
-4.5546	Nature	-0.1487
-4.5546	Nay	-0.1487
-3.9526	New	-0.2157
-4.5546	Nights"	-0.1487
-3.9526	No	-0.3248
-4.5546	Nobody	-0.1487
-4.5546	None	-0.1487
-4.5546	Nor	-0.1487
-4.0775	Not	-0.1487
-4.5546	November	-0.1487
-4.0775	Now	-0.2834
-4.5546	O	-0.1487
-4.5546	OBJECTS	-0.1487
-3.7095	OF	-0.2067
-3.9526	Obviously	-0.4497
-4.5546	October	-0.1487
-3.9526	Of	-0.2067
-4.5546	Often	-0.1487
-4.0775	Old	-0.1487
-4.0775	On	-0.3918
-3.9526	One	-0.2157
-3.9526	Only	-0.2456
-4.5546	Op	-0.1487
-3.7765	Or	-0.2389
-4.5546	Origin	-0.1487
-4.5546	Other	-0.1487
-4.5546	Others	-0.1487
-4.0775	Our	-0.2456
-3.1929	P	-0.5995
-4.0775	P"	-0.1487
-4.5546	P";	-0.1487
-4.5546	P:	-0.1487
-4.5546	PERCEPTION	-0.1487
-4.2536	PHILOSOPHY	-0.4497
-4.5546	Pacific	-0.1487
-4.2536	Part	-0.1487
-4.5546	Paul's;	-0.1487
-4.5546	People	-0.1487
-3.9526	Perhaps	-0.3528
-4.5546	Permanent	-0.1487
-4.2536	Philosophers	-0.1487
-4.0775	Philosophical	-0.2737
-3.8557	Philosophy	-0.2389
-4.5546	Philosophy;	-0.1487
-3.8557	Pickwickian	-0.2279
-4.0775	Plainly	-0.2737
-4.5546	Policy	-0.1487
-4.5546	Popular	-0.1487
-4.5546	Possibility	-0.1487
-4.5546	Possibly	-0.1487
-4.5546	Pragmatism	-0.1487
-4.5546	Pragmatism:	-0.1487
-4.5546	Pragmatism;	-0.1487
-4.5546	Pragmatists	-0.1487
-4.2536	Principia	-0.4497
-4.2536	Principles	-0.3706
-4.5546	Proceedings	-0.1487
-4.2536	Prof	-0.4497
-3.1075	Professor	-1.2031
-4.5546	Propositions	-0.1487
-4.5546	Provided	-0.1487
-4.5546	Psychology	-0.1487
-4.5546	Put	-0.1487
-3.6004	Q	-0.6606
-4.5546	Q"	-0.1487
-4.5546	Q:	-0.1487
-4.5546	Quarterly	-0.1487
-4.5546	Quite	-0.1487
-3.7765	R	-0.3528
-4.0775	R"	-0.1487
-4.2536	REALITY	-0.1487
-4.5546	REFUTATION	-0.1487
-4.5546	RELATIONS	-0.1487
-3.9526	Reality	-0.3248
-4.5546	Reality--particularly	-0.1487
-4.5546	Refutation	-0.1487
-3.7765	Reid	-0.1487
-4.5546	Reid)	-0.1487
-4.5546	Relations	-0.1487
-4.5546	Relations"	-0.1487
-4.5546	Revolution	-0.1487
-4.0775	Roc	-0.1487
-4.5546	Roc--meaning	-0.1487
-4.5546	Roc:	-0.1487
-4.5546	Roc;	-0.1487
-4.5546	Roc?	-0.1487
-4.5546	Rome	-0.1487
-4.2536	Russell	-0.1901
-4.5546	Russell's	-0.1487
-4.5546	SENSE-DATA	-0.1487
-4.5546	SOME	-0.1487
-4.5546	STATUS	-0.1487
-4.5546	Sailor	-0.1487
-4.5546	Scepticism--that	-0.1487
-4.5546	Secretary	-0.1487
-4.2536	Senate	-0.1487
-4.5546	Senate-House	-0.1487
-4.5546	Sensation	-0.1487
-4.5546	Sensationalism	-0.1487
-4.5546	Sense	-0.1487
-4.5546	Sense)	-0.1487
-4.2536	Since	-0.1487
-3.8557	Sindbad	-0.6258
-3.9526	Sindbad's	-0.2737
-3.9526	So	-0.3248
-4.2536	Society	-0.3248
-4.5546	Society"	-0.1487
-4.5546	Society;	-0.1487
-4.0775	Some	-0.2456
-4.5546	Something	-0.1487
-4.2536	Sometimes	-0.4497
-4.5546	St	-0.1487
-4.5546	Standard	-0.1487
-4.5546	Stated	-0.1487
-4.0775	Still	-0.1487
-4.5546	Strachey	-0.1487
-4.5546	Strachey's	-0.1487
-4.5546	Studies	-0.1487
-4.5546	Subsequent	-0.1487
-4.2536	Such	-0.2737
-4.2536	Suppose	-0.2456
-4.5546	Supposing	-0.1487
-3.9526	Surely	-0.2157
-4.2536	T	-0.4497
-4.5546	THE	-0.1487
-4.2536	Take	-0.2456
-4.5546	Taylor	-0.1487
-4.5546	Taylor's	-0.1487
-4.2536	Ten	-0.3248
-4.0775	Testament	-0.2157
-3.3785	That	-0.3298
-3.4407	The	-0.2579
-4.5546	Their	-0.1487
-4.5546	Then	-0.1487
-4.2536	Theoretically	-0.4497
-4.5546	Theories	-0.1487
-3.7095	There	-0.3986
-4.2536	These	-0.2067
-4.0775	They	-0.2405
-4.2536	Things	-0.1487
-4.5546	Thinking:	-0.1487
-3.5546	This	-0.2948
-4.5546	Thomas	-0.1487
-4.2536	Those	-0.1487
-4.0775	Thus	-0.1487
-3.2993	Time	-0.4812
-4.2536	Time"	-0.1487
-4.2536	Time;	-0.1487
-4.2536	Time;"	-0.1487
-4.2536	Times	-0.1487
-4.5546	Times"	-0.1487
-4.5546	Times--if	-0.1487
-4.5546	Times?	-0.1487
-3.6004	To	-0.2502
-4.5546	Towards	-0.1487
-4.5546	Treatise	-0.1487
-4.2536	Truth	-0.2737
-4.2536	Two	-0.1487
-4.5546	Understanding	-0.1487
-3.8557	Universe	-0.2948
-4.5546	Universe;	-0.1487
-4.5546	Unless	-0.1487
-4.5546	Upon	-0.1487
-4.5546	Usually	-0.1487
-4.2536	V	-0.2737
-4.5546	VALUE	-0.1487
-4.0775	VI	-0.2737
-3.9526	VII	-0.2456
-4.5546	VIII	-0.1487
-4.5546	Value	-0.1487
-4.5546	Vast	-0.1487
-4.5546	Very	-0.1487
-4.5546	Views	-0.1487
-4.5546	Vol	-0.1487
-4.5546	WILLIAM	-0.1487
-4.5546	Was	-0.1487
-4.5546	Ways	-0.1487
-3.5546	We	-0.3425
-3.7765	Westermarck	-0.3248
-4.5546	Westermarck's	-0.1487
-3.1233	What	-0.3848
-4.2536	Whatever	-0.1487
-3.8557	When	-0.3248
-4.5546	Whenever	-0.1487
-4.5546	Where	-0.1487
-4.2536	Whereas	-0.1487
-4.2536	Whether	-0.1487
-3.7765	Which	-0.6928
-4.2536	While	-0.4497
-4.2536	Whitehead	-0.1487
-4.5546	Why	-0.1487
-4.2536	Will	-0.1487
-4.2536	William	-0.4497
-4.0775	With	-0.2456
-4.5546	World	-0.1487
-4.5546	Would	-0.1487
-4.0775	X	-0.3248
-4.5546	X)	-0.1487
-4.5546	X;	-0.1487
-4.5546	Y	-0.1487
-4.5546	Y;	-0.1487
-4.0775	Yet	-0.2737
-4.5546	You	-0.1487
-4.5546	[1]	-0.1487
-4.5546	[2]	-0.1487
-4.5546	[I	-0.1487
-4.5546	[Propositions	-0.1487
-4.5546	[any	-0.1487
-4.5546	[mine]	-0.1487
-2.1106	a	-0.6140
-4.2536	ability	-0.1487
-3.7095	able	-0.4497
-2.6913	about	-0.5713
-3.6004	above	-0.2579
-4.5546	above:	-0.1487
-4.5546	absence	-0.1487
-3.9526	absolute	-0.2279
-3.3505	absolutely	-0.3406
-4.5546	absolve	-0.1487
-4.5546	absolved	-0.1487
-4.5546	abstract	-0.1487
-4.5546	abstracted--that	-0.1487
-4.2536	abstraction	-0.1487
-4.5546	abstractions	-0.1487
-4.5546	abstractions'	-0.1487
-4.2536	abstractly	-0.1487
-3.9526	absurd	-0.2737
-4.5546	abundant	-0.1487
-4.0775	accept	-0.2456
-3.8557	accepted	-0.2456
-4.5546	accident	-0.1487
-3.8557	accompanied	-0.5167
-4.5546	accompaniments	-0.1487
-4.2536	accordance	-0.4497
-3.9526	according	-0.4497
-4.2536	accordingly	-0.1487
-4.5546	accordingly:	-0.1487
-3.6004	account	-0.3706
-4.2536	accurate	-0.1487
-3.9526	accurately	-0.2456
-4.5546	accuse	-0.1487
-4.2536	accusing	-0.4497
-4.5546	accustomed	-0.1487
-4.5546	acknowledge	-0.1487
-4.5546	acknowledged	-0.1487
-4.5546	acquaintance	-0.1487
-4.5546	acquainted	-0.1487
-4.5546	acquired--is	-0.1487
-4.5546	acquires	-0.1487
-4.5546	acquiring	-0.1487
-3.7765	act	-0.3248
-4.5546	act;	-0.1487
-4.5546	acting	-0.1487
-3.5546	action	-0.3626
-3.4407	actions	-0.4084
-4.2536	actions;	-0.1487
-4.5546	active	-0.1487
-4.5546	actively	-0.1487
-4.0775	activity	-0.2456
-4.5546	activity--where	-0.1487
-3.7095	acts	-0.4120
-3.5546	actual	-0.2031
-2.9526	actually	-0.3217
-4.0775	add	-0.2737
-4.5546	added	-0.1487
-4.5546	addicted	-0.1487
-4.2536	addition	-0.1487
-4.5546	additional	-0.1487
-4.5546	address	-0.1487
-4.0775	adds	-0.1487
-4.5546	adds)	-0.1487
-4.5546	adds:	-0.1487
-4.5546	adequate	-0.1487
-4.5546	adhere	-0.1487
-4.5546	admirers	-0.1487
-4.5546	admission	-0.1487
-3.1929	admit	-0.5924
-4.5546	admit)	-0.1487
-3.6515	admits	-0.4497
-3.6515	admitted	-0.4249
-4.5546	admittedly	-0.1487
-3.7765	admitting	-0.3248
-3.8557	adopt	-0.2157
-3.7765	adopted	-0.2157
-4.5546	adopting	-0.1487
-4.5546	advanced	-0.1487
-4.2536	advantage	-0.4497
-4.5546	advocate	-0.1487
-4.5546	advocating	-0.1487
-4.2536	aesthetic	-0.1487
-4.5546	aesthetics	-0.1487
-4.5546	affairs	-0.1487
-4.0775	affect	-0.1487
-4.2536	affects	-0.1487
-4.0775	affirm	-0.2456
-4.5546	affirmative	-0.1487
-4.5546	affirmed	-0.1487
-4.2536	affirms	-0.1487
-4.5546	afford	-0.1487
-4.0775	afraid	-0.1487
-3.7765	after	-0.3248
-4.5546	after-images	-0.1487
-4.5546	afternoon	-0.1487
-4.2536	afterwards	-0.1487
-3.0231	again	-0.4497
-4.5546	again:	-0.1487
-4.5546	again;	-0.1487
-3.4085	against	-0.4497
-4.5546	agency	-0.1487
-4.5546	agent	-0.1487
-4.5546	agent's	-0.1487
-3.4407	agree	-0.4176
-4.5546	agree;	-0.1487
-4.5546	agreeableness	-0.1487
-3.8557	agreed	-0.2157
-4.2536	agreement	-0.1487
-4.5546	aims	-0.1487
-4.5546	air	-0.1487
-4.5546	akin	-0.1487
-3.9526	alike	-0.2579
-4.5546	alike'	-0.1487
-4.5546	alike--have	-0.1487
-4.5546	alike:	-0.1487
-4.2536	alike;	-0.1487
-2.5546	all	-0.5678
-4.0775	all)	-0.1487
-4.5546	all--for	-0.1487
-4.5546	all:	-0.1487
-4.2536	all;	-0.1487
-4.5546	all?	-0.1487
-4.5546	alleged)	-0.1487
-4.5546	allied	-0.1487
-3.6004	allow	-0.4497
-4.2536	allowed	-0.3248
-4.0775	allowing	-0.3248
-4.0775	allows	-0.3248
-4.5546	alluded	-0.1487
-4.5546	allusions	-0.1487
-3.2993	almost	-0.5467
-3.2324	alone	-0.4198
-4.5546	alone--but	-0.1487
-4.5546	alone?	-0.1487
-3.8557	along	-0.4497
-3.7765	already	-0.1487
-2.6515	also	-0.4185
-4.5546	also"	-0.1487
-4.5546	also--that	-0.1487
-4.5546	also:	-0.1487
-4.2536	also;	-0.1487
-4.2536	alter	-0.4497
-4.2536	alterations	-0.1487
-4.5546	altered	-0.1487
-3.6515	alternative	-0.1901
-3.7765	alternatives	-0.2456
-4.5546	alters	-0.1487
-3.5546	although	-0.2514
-4.0775	altogether	-0.1487
-4.5546	altogether;	-0.1487
-2.9983	always	-0.3399
-4.5546	alwayst	-0.1487
-3.4085	am	-0.2428
-3.7765	ambiguity	-0.2279
-4.5546	ambiguity--this	-0.1487
-3.5546	ambiguous	-0.3248
-4.5546	ambiguous;	-0.1487
-4.5546	amended	-0.1487
-3.2122	among	-0.4865
-4.5546	amongst	-0.1487
-3.7765	amount	-0.2948
-4.0775	amounts	-0.3248
-4.5546	ample	-0.1487
-2.5861	an	-0.5077
-4.5546	analogous	-0.1487
-4.2536	analogy	-0.1487
-4.2536	analysable	-0.4497
-4.5546	analysable;	-0.1487
-4.5546	analysed	-0.1487
-3.6004	analysis	-0.4176
-3.9526	analytic	-0.1487
-4.5546	analytically	-0.1487
-1.7700	and	-0.5879
-4.5546	anger	-0.1487
-4.0775	angle	-0.3248
-4.0775	angle"	-0.4497
-4.2536	angle)	-0.1487
-4.5546	angle)"	-0.1487
-4.5546	angrily	-0.1487
-4.0775	angry	-0.1487
-4.5546	angry;	-0.1487
-4.5546	animal	-0.1487
-4.2536	animals	-0.1487
-2.9526	another	-0.4431
-4.0775	another's	-0.3248
-4.5546	another--in	-0.1487
-4.5546	another--namely	-0.1487
-4.2536	another--that	-0.1487
-4.5546	another--the	-0.1487
-4.0775	another:	-0.1487
-3.6004	another;	-0.3450
-3.8557	another?	-0.2067
-3.1929	answer	-0.4797
-4.5546	answer:	-0.1487
-4.5546	answer;	-0.1487
-3.9526	answered	-0.3248
-4.5546	answering	-0.1487
-4.0775	answers	-0.1487
-4.5546	antinomy:	-0.1487
-3.6004	anxious	-1.1030
-2.4902	any	-0.5235
-4.0775	any)	-0.2279
-3.7765	anybody	-0.1999
-3.4754	anyone	-0.2279
-4.5546	anyone;	-0.1487
-2.9112	anything	-0.6510
-4.5546	anything";	-0.1487
-4.5546	anything--when	-0.1487
-4.5546	anything;	-0.1487
-4.5546	anyway	-0.1487
-3.9526	anywhere	-0.4497
-3.7765	apart	-0.9269
-4.5546	apology	-0.1487
-4.5546	apology?"	-0.1487
-4.5546	apparent	-0.1487
-3.7765	apparently	-0.1487
-4.0775	appeal	-0.6258
-4.5546	appeals	-0.1487
-3.6515	appear	-0.5467
-4.0775	appearance	-0.3248
-4.5546	appearance"	-0.1487
-3.7765	appearances	-0.3248
-4.5546	appearances--the	-0.1487
-3.9526	appeared	-0.4497
-4.5546	appearing	-0.1487
-3.4407	appears	-0.6010
-4.5546	appears)	-0.1487
-4.5546	application	-0.1487
-3.8557	applied	-0.1487
-3.7765	applies	-0.3248
-3.3785	apply	-0.4709
-4.0775	apprehend	-0.1735
-3.9526	apprehended	-0.3084
-4.2536	apprehending	-0.2737
-4.5546	apprehending:	-0.1487
-4.2536	apprehends	-0.1487
-4.0775	apprehension	-0.1999
-4.5546	apprehension"	-0.1487
-4.2536	approach	-0.4497
-4.0775	approximately	-0.4497
-3.9526	apt	-0.4497
-4.5546	arbitrarily	-0.1487
-4.5546	arbitrary	-0.1487
-2.2366	are	-0.5087
-4.5546	are--a	-0.1487
-4.5546	are--is	-0.1487
-4.5546	are;	-0.1487
-3.9526	area	-0.2456
-4.5546	area?	-0.1487
-4.2536	areas	-0.1487
-4.5546	arguable	-0.1487
-4.5546	argue	-0.1487
-4.2536	argued	-0.1487
-4.5546	argues	-0.1487
-4.2536	arguing	-0.1487
-4.5546	arguing)	-0.1487
-3.1396	argument	-0.4076
-4.5546	argument)	-0.1487
-4.5546	argument:	-0.1487
-3.2324	arguments	-0.4159
-3.6515	arise	-0.2737
-4.5546	arise;	-0.1487
-4.0775	arise?"	-0.3248
-3.8557	arises	-0.2948
-4.5546	arising	-0.1487
-4.5546	army	-0.1487
-4.5546	arranged	-0.1487
-4.5546	arrangement	-0.1487
-4.0775	arrive	-0.6258
-4.0775	arrived	-0.1487
-4.0775	arrow-heads	-0.1487
-4.5546	arrowheads	-0.1487
-4.5546	art	-0.1487
-4.0775	article	-0.1487
-4.2536	articles	-0.1487
-4.5546	arty	-0.1487
-2.1249	as	-0.6361
-4.5546	ascribe	-0.1487
-4.5546	aside	-0.1487
-3.6004	ask	-0.3162
-4.5546	ask)	-0.1487
-4.5546	ask--from	-0.1487
-3.9526	ask:	-0.3918
-4.5546	ask;	-0.1487
-3.9526	asked	-0.2737
-4.5546	asked:	-0.1487
-3.5132	asking	-0.5104
-4.2536	asking:	-0.3248
-4.5546	asks	-0.1487
-4.0775	asleep	-0.3248
-4.5546	asleep;	-0.1487
-4.2536	aspect	-0.2737
-4.0775	aspects	-0.3248
-4.5546	ass	-0.1487
-4.0775	assent	-0.4497
-3.0495	assert	-0.4646
-4.5546	assert:	-0.1487
-4.5546	assert;	-0.1487
-4.2536	assert?	-0.1487
-3.2993	asserted	-0.3248
-4.5546	asserted)	-0.1487
-4.2536	asserted;	-0.1487
-4.5546	asserted?--for	-0.1487
-3.2122	asserting	-0.4845
-3.1929	assertion	-0.4761
-4.5546	assertion:	-0.1487
-4.5546	assertion;	-0.1487
-3.6004	assertions	-0.2067
-3.1567	asserts	-0.5198
-4.5546	asserts:	-0.1487
-4.5546	assigned	-0.1487
-4.5546	assigning	-0.1487
-4.5546	assimilate	-0.1487
-4.5546	association	-0.1487
-3.3785	assume	-0.4940
-4.5546	assume)	-0.1487
-3.6515	assumed	-0.4040
-4.0775	assumes	-0.2737
-3.6004	assuming	-0.4120
-3.4407	assumption	-0.3248
-4.5546	assumption;	-0.1487
-4.5546	assumption?	-0.1487
-3.7095	assumptions	-0.1945
-4.0775	assure	-0.2737
-4.5546	astronomy	-0.1487
-2.2713	at	-0.9421
-4.2536	atmosphere	-0.1487
-4.5546	attach	-0.1487
-4.2536	attached	-0.4497
-4.2536	attaching	-0.1487
-3.9526	attack	-0.1487
-4.5546	attacks	-0.1487
-4.5546	attain	-0.1487
-4.5546	attainment	-0.1487
-3.7765	attempt	-0.5167
-4.2536	attempted	-0.4497
-4.5546	attempting	-0.1487
-4.0775	attend	-0.2737
-4.5546	attendant	-0.1487
-3.9526	attending	-0.7508
-3.6515	attention	-0.2627
-4.5546	attention;	-0.1487
-4.5546	attentive	-0.1487
-4.5546	attentively	-0.1487
-3.9526	attitude	-0.4497
-4.5546	attitude"	-0.1487
-3.9526	attribute	-0.4497
-4.2536	attributes	-0.1487
-3.9526	attributing	-0.7508
-4.0775	audience	-0.3248
-4.5546	auditory	-0.1487
-3.8557	avoid	-0.1487
-4.2536	avoided	-0.1487
-4.5546	avoided;	-0.1487
-4.5546	avoiding	-0.1487
-4.5546	awake	-0.1487
-3.3242	aware	-0.5637
-4.0775	aware:	-0.1487
-3.6515	awareness	-0.3450
-4.5546	awareness:	-0.1487
-4.5546	awareness;	-0.1487
-3.8557	away	-0.3706
-4.5546	awkward	-0.1487
-4.5546	axiom	-0.1487
-4.0775	back	-0.3248
-3.5546	bad	-0.3084
-4.5546	badly	-0.1487
-4.2536	balance	-0.4497
-4.2536	ball	-0.4497
-4.2536	balloon	-0.1487
-4.5546	bar	-0.1487
-4.5546	barest	-0.1487
-4.5546	barren	-0.1487
-4.5546	base	-0.1487
-3.6515	based	-0.5467
-4.5546	baseless	-0.1487
-3.8557	basis	-0.8477
-4.5546	basis?	-0.1487
-2.5634	be	-0.5233
-4.2536	be)	-0.1487
-4.5546	be);	-0.1487
-4.5546	be--do	-0.1487
-4.5546	be--namely	-0.1487
-4.5546	be:	-0.1487
-4.5546	be;	-0.1487
-4.5546	be?	-0.1487
-4.5546	bead	-0.1487
-3.9526	bear	-0.2737
-4.2536	beard	-0.4497
-4.0775	bearing	-0.3248
-4.5546	bearing;	-0.1487
-4.5546	bears	-0.1487
-4.2536	beautiful	-0.1487
-4.5546	beautiful"	-0.1487
-3.9526	beauty	-0.2279
-3.0775	because	-0.5261
-3.7095	become	-0.2157
-4.0775	becomes	-0.1487
-4.5546	bed?	-0.1487
-3.2759	been	-0.3028
-3.2324	before	-0.3613
-4.5546	before--the	-0.1487
-4.0775	beg	-0.3248
-4.0775	began	-0.3248
-4.5546	beggarly	-0.1487
-4.2536	begging	-0.4497
-3.6515	begin	-0.4040
-4.5546	beginning	-0.1487
-4.2536	begins	-0.1487
-4.5546	behave	-0.1487
-4.2536	behaviour	-0.1487
-4.0775	behind	-0.3248
-2.9748	being	-0.3024
-4.5546	being--a	-0.1487
-3.1075	belief	-0.5183
-4.5546	belief"	-0.1487
-4.5546	belief--any	-0.1487
-4.5546	belief:	-0.1487
-4.0775	belief;	-0.3248
-4.0775	belief?	-0.1487
-3.0633	beliefs	-0.5261
-4.2536	beliefs?	-0.1487
-3.1233	believe	-0.4834
-4.5546	believe"	-0.1487
-4.5546	believe:	-0.1487
-3.6004	believed	-0.3084
-4.5546	believed--were	-0.1487
-3.4407	believes	-0.5467
-4.5546	believes;	-0.1487
-3.6004	believing	-0.3162
-4.5546	believing"	-0.1487
-3.2324	belong	-0.9446
-4.5546	belong--about	-0.1487
-4.0775	belonged	-0.1487
-3.7765	belonging	-0.9269
-3.3242	belongs	-0.9504
-4.5546	belongs--I	-0.1487
-4.5546	belongs:	-0.1487
-4.5546	beneficent	-0.1487
-4.5546	benefits	-0.1487
-4.5546	benevolent	-0.1487
-3.9526	beside	-0.2279
-4.0775	besides	-0.2157
-4.5546	besides:	-0.1487
-3.8557	best	-0.1487
-4.5546	bestowed	-0.1487
-3.3242	better	-0.4368
-4.5546	better:	-0.1487
-2.8825	between	-0.5289
-3.7765	beyond	-0.4497
-4.2536	big	-0.1487
-3.9526	bigger	-0.7508
-4.5546	billiard	-0.1487
-4.5546	billiard-ball	-0.1487
-4.5546	billiard-balls	-0.1487
-4.5546	bird	-0.1487
-4.5546	birth	-0.1487
-4.5546	bit	-0.1487
-3.7095	black	-0.3918
-4.5546	black;	-0.1487
-4.2536	blackish	-0.4497
-4.5546	blemishes	-0.1487
-4.5546	blemishes;	-0.1487
-4.5546	blemishes?	-0.1487
-4.5546	bless	-0.1487
-4.5546	blessing	-0.1487
-4.0775	blind	-0.3248
-4.2536	blood	-0.1487
-4.5546	blow	-0.1487
-4.5546	blowing	-0.1487
-4.5546	blown	-0.1487
-3.0361	blue	-0.4666
-4.2536	blue"	-0.1487
-4.5546	blue--namely	-0.1487
-3.9526	blue:	-0.1487
-4.0775	blue;	-0.1487
-4.5546	blush	-0.1487
-4.5546	blushing	-0.1487
-4.0775	bodies	-0.1487
-4.5546	bodies;	-0.1487
-3.5546	body	-0.3324
-4.5546	boldly	-0.1487
-3.5546	book	-0.3986
-4.5546	book";	-0.1487
-4.5546	book--indeed	-0.1487
-3.6004	books	-0.4911
-4.5546	bore	-0.1487
-2.7095	both	-0.3950
-4.2536	bound	-0.4497
-4.5546	brain	-0.1487
-4.5546	brains	-0.1487
-4.5546	breadth	-0.1487
-4.5546	breadths	-0.1487
-4.2536	break	-0.1487
-4.5546	breakfast-table	-0.1487
-4.2536	brevity	-0.4497
-4.5546	brevity's	-0.1487
-4.5546	briefer	-0.1487
-3.6004	briefly	-0.2456
-4.5546	bright	-0.1487
-3.9526	bring	-0.3248
-3.9526	bringing	-0.4497
-4.0775	brings	-0.3248
-3.9526	brought	-0.3248
-4.2536	burn	-0.4497
-4.5546	burn";	-0.1487
-4.2536	burning	-0.1487
-4.0775	business	-0.1487
-2.4577	but	-0.5797
-4.5546	but:	-0.1487
-2.3216	by	-0.5279
-4.5546	calculated	-0.1487
-3.2759	call	-0.3430
-3.4085	called	-0.2415
-3.9526	calling	-0.3706
-3.8557	calls	-0.2157
-3.7765	came	-0.2948
-2.4791	can	-0.5922
-4.0775	can't	-0.1487
-4.5546	can;	-0.1487
-2.9112	cannot	-0.5230
-4.0775	capable	-0.3248
-4.2536	capacity	-0.1487
-4.5546	capital	-0.1487
-3.9526	card	-0.2948
-3.8557	cards	-0.1487
-4.5546	careful	-0.1487
-4.2536	carefully	-0.1487
-4.5546	carried	-0.1487
-4.5546	carries	-0.1487
-4.2536	carry	-0.1487
-3.1929	case	-0.5207
-4.5546	case:	-0.1487
-4.5546	case;	-0.1487
-4.5546	case?	-0.1487
-3.0633	cases	-0.5361
-4.5546	cases--I	-0.1487
-4.5546	cases;	-0.1487
-4.5546	cases?"	-0.1487
-4.0775	catch	-0.1487
-4.2536	catching	-0.4497
-4.5546	caught	-0.1487
-3.4407	causal	-0.4497
-3.9526	causally	-0.5167
-3.4085	cause	-0.3114
-4.5546	cause:	-0.1487
-4.5546	cause;	-0.1487
-3.7765	caused	-0.3528
-3.6004	causes	-0.1999
-4.5546	causes"	-0.1487
-4.5546	causes:	-0.1487
-4.5546	causing	-0.1487
-3.8557	cease	-0.8477
-4.5546	ceased	-0.1487
-4.5546	ceases	-0.1487
-4.2536	century	-0.4497
-2.7158	certain	-0.4354
-4.5546	certain--only	-0.1487
-4.5546	certain;	-0.1487
-2.8303	certainly	-0.4551
-3.6515	certainty	-0.2870
-4.5546	certainty:	-0.1487
-4.5546	chain	-0.1487
-4.2536	chair	-0.1487
-4.5546	challenge	-0.1487
-4.5546	chance	-0.1487
-3.2324	change	-0.4497
-4.5546	change--that	-0.1487
-4.5546	change:	-0.1487
-4.5546	change;	-0.1487
-3.8557	changed	-0.2948
-3.6004	changes	-0.2579
-4.2536	changing	-0.1487
-3.8557	chapter	-0.2279
-3.3242	character	-0.4650
-4.5546	character--as	-0.1487
-4.5546	character--some	-0.1487
-4.5546	character;	-0.1487
-3.5132	characteristic	-0.3406
-3.7765	characteristics	-0.2948
-4.0775	characters	-0.6258
-4.5546	characters;	-0.1487
-4.2536	charge	-0.3248
-4.5546	chariot	-0.1487
-4.5546	chase	-0.1487
-4.5546	cheek	-0.1487
-4.5546	chemistry	-0.1487
-4.0775	chief	-0.1487
-3.9526	chiefly	-0.1487
-4.2536	child	-0.1487
-4.5546	child's	-0.1487
-4.5546	childish	-0.1487
-4.2536	childishly	-0.1487
-4.2536	children	-0.1487
-4.5546	chimera	-0.1487
-4.5546	chimera;	-0.1487
-4.2536	choose	-0.1487
-4.2536	chooses	-0.4497
-4.5546	choosing	-0.1487
-4.5546	chose	-0.1487
-4.5546	chose;	-0.1487
-3.9526	chosen	-0.2279
-3.9526	circle	-0.1487
-3.6004	circular	-0.3792
-4.5546	circular;	-0.1487
-4.5546	circular?	-0.1487
-3.4754	circumstances	-0.4797
-4.5546	cit	-0.1487
-3.9526	claim	-0.2737
-4.5546	claimed	-0.1487
-4.5546	claims	-0.1487
-3.2993	class	-0.5167
-4.5546	class;	-0.1487
-3.7765	classes	-0.4040
-4.2536	classes--(1)	-0.4497
-4.5546	classes:	-0.1487
-4.5546	classes?	-0.1487
-3.0775	clear	-0.6103
-4.5546	clear?	-0.1487
-3.9526	clearer	-0.1487
-4.5546	clearest	-0.1487
-3.0633	clearly	-0.3378
-4.2536	clearness	-0.1487
-3.8557	clock	-0.3706
-4.5546	clock;"	-0.1487
-4.5546	close	-0.1487
-4.5546	closed	-0.1487
-4.2536	closely	-0.1487
-4.5546	closing	-0.1487
-4.5546	cloth	-0.1487
-4.5546	clothes	-0.1487
-4.5546	cloud	-0.1487
-4.0775	clouds	-0.4497
-4.5546	clumsily	-0.1487
-4.5546	clumsy	-0.1487
-4.2536	cogent	-0.4497
-3.8557	coin	-0.3706
-4.5546	coincided	-0.1487
-4.5546	coincides	-0.1487
-3.9526	coins	-0.2330
-4.2536	coins;	-0.4497
-4.0775	cold	-0.2737
-4.5546	cold)	-0.1487
-3.9526	collection	-0.7508
-3.3785	colour	-0.3406
-4.2536	colour-blind	-0.1487
-3.6004	coloured	-0.3248
-4.5546	coloured"	-0.1487
-3.6515	colours	-0.4497
-4.5546	combined	-0.1487
-4.5546	combines	-0.1487
-3.2122	come	-0.5009
-3.4085	comes	-0.4797
-4.5546	comfortable	-0.1487
-4.5546	coming	-0.1487
-4.2536	commandment	-0.4497
-4.5546	commences	-0.1487
-4.2536	committed	-0.1487
-4.5546	committing	-0.1487
-3.3505	common	-0.3332
-4.5546	common!	-0.1487
-4.5546	common--that	-0.1487
-4.2536	common-sense	-0.1487
-4.5546	common:	-0.1487
-4.5546	common?	-0.1487
-4.5546	commoner	-0.1487
-4.2536	commonest	-0.1487
-3.2122	commonly	-0.3437
-3.7765	commonplace	-0.4497
-4.0775	commonplace?	-0.1487
-4.5546	commonplaces	-0.1487
-4.2536	comparable	-0.4497
-4.2536	comparative	-0.1487
-3.7765	comparatively	-0.2948
-4.0775	compare	-0.1487
-4.2536	comparing	-0.1487
-4.2536	comparison	-0.1487
-4.5546	compel	-0.1487
-4.5546	complains	-0.1487
-3.9526	complete	-0.1999
-3.6004	completely	-0.1945
-3.9526	complex	-0.1487
-4.5546	complexion	-0.1487
-4.0775	complicated	-0.2737
-4.5546	complicated;	-0.1487
-4.2536	composed	-0.4497
-4.5546	conceal	-0.1487
-3.8557	conceivable	-0.3918
-4.0775	conceivably	-0.3706
-3.6515	conceive	-0.2870
-3.8557	conceived	-0.1487
-4.2536	conceiving	-0.1487
-4.5546	concentrate	-0.1487
-3.6004	conception	-0.3000
-4.5546	conception:	-0.1487
-3.6515	conceptions	-0.3828
-4.5546	concern;	-0.1487
-3.3242	concerned	-0.5987
-4.5546	concerned:	-0.1487
-4.2536	concerned;	-0.4497
-3.6515	concerning	-0.6716
-4.2536	concerns	-0.1487
-3.7095	conclude	-0.5747
-4.2536	concludes	-0.4497
-4.0775	concluding	-0.2456
-3.2993	conclusion	-0.2977
-3.8557	conclusions	-0.3706
-3.6515	conclusive	-0.2456
-4.2536	conclusively	-0.1487
-4.0775	concrete	-0.1487
-4.2536	condemn	-0.1487
-4.2536	condemning	-0.1487
-3.5546	condition	-0.4497
-4.5546	conditional	-0.1487
-3.3785	conditions	-0.4650
-4.5546	conditions;	-0.1487
-4.5546	conduce	-0.1487
-4.5546	conduct	-0.1487
-4.5546	confer	-0.1487
-4.2536	confess	-0.2279
-4.5546	confidently	-0.1487
-4.5546	configuration	-0.1487
-4.5546	configurations	-0.1487
-4.0775	confine	-0.2737
-4.0775	confined	-0.6258
-4.5546	confining	-0.1487
-3.8557	confirm	-0.5467
-4.0775	confirms	-0.3248
-4.2536	conflict	-0.1487
-4.5546	conflict?	-0.1487
-4.2536	conflicts	-0.1487
-4.5546	conforms	-0.1487
-4.0775	confuse	-0.3248
-4.0775	confused	-0.2737
-4.5546	confused:	-0.1487
-4.2536	confusing	-0.1487
-3.7095	confusion	-0.3036
-3.7095	conjoined	-0.3450
-4.5546	conjoined"	-0.1487
-4.0775	conjunction	-0.2737
-4.5546	conjunction"	-0.1487
-4.5546	conjunctions	-0.1487
-4.5546	conjunctions"	-0.1487
-4.5546	conjunctions--for	-0.1487
-4.0775	conjunctive	-0.2737
-4.5546	conjuring	-0.1487
-4.5546	connect	-0.1487
-3.5546	connected	-0.6258
-4.5546	connected"	-0.1487
-4.5546	connected:	-0.1487
-4.5546	connected?	-0.1487
-3.4754	connection	-0.5167
-4.5546	connection?	-0.1487
-4.5546	connections	-0.1487
-4.0775	connexion	-0.1487
-4.0775	connexions	-0.1487
-4.5546	conquests	-0.1487
-4.5546	conscious	-0.1487
-3.3785	consciousness	-0.4040
-4.5546	consciousness"	-0.1487
-4.5546	consciousness--whether	-0.1487
-3.9526	consequence	-0.2456
-3.6515	consequences	-0.3706
-3.5132	consider	-0.3248
-4.5546	consider:	-0.1487
-4.0775	considerable	-0.2067
-4.5546	considerably	-0.1487
-4.2536	consideration	-0.4497
-3.7765	considerations	-0.3918
-3.7095	considered	-0.1999
-4.5546	considered;	-0.1487
-3.7095	considering	-0.2157
-4.5546	considering--namely	-0.1487
-4.2536	considers	-0.1487
-3.7095	consist	-0.3918
-4.0775	consisted	-0.3248
-4.2536	consistency	-0.4497
-3.9526	consistent	-0.4497
-4.0775	consistently	-0.1487
-4.0775	consisting	-0.3248
-3.7095	consists	-0.4497
-4.2536	constant	-0.1487
-3.2324	constantly	-0.3055
-3.9526	constituent	-0.2157
-3.7095	constituents	-0.2948
-3.6004	constitute	-0.4911
-4.2536	constituted	-0.1487
-3.7765	constitutes	-0.2737
-3.9526	constitution	-0.4497
-3.9526	contain	-0.1487
-4.0775	contained	-0.3248
-4.5546	containing	-0.1487
-3.6515	contains	-0.2359
-4.5546	contemplate	-0.1487
-4.0775	contemporary	-0.2737
-4.5546	contempt	-0.1487
-4.0775	contend	-0.3248
-4.5546	contended	-0.1487
-3.4085	content	-0.5562
-4.5546	content:	-0.1487
-3.8557	contention	-0.5467
-3.8557	contents	-0.2456
-4.5546	contents--myself	-0.1487
-4.2536	contexts	-0.4497
-4.5546	continuance;	-0.1487
-3.7095	continue	-0.9938
-4.0775	continued	-0.1487
-3.9526	contradict	-0.1945
-4.5546	contradicted	-0.1487
-3.8557	contradicting	-0.3918
-3.7765	contradiction	-0.1487
-3.6515	contradictory	-0.2870
-4.5546	contradictory--in	-0.1487
-4.5546	contradicts	-0.1487
-4.2536	contrary	-0.2067
-4.5546	contrast	-0.1487
-4.5546	contrasted	-0.1487
-4.2536	contributed	-0.4497
-4.0775	control	-0.1487
-4.5546	control:	-0.1487
-4.2536	controversy	-0.1487
-4.5546	convenience	-0.1487
-3.9526	convenient	-0.2737
-4.5546	convenient;	-0.1487
-3.8557	convention	-0.3248
-3.9526	conventions	-0.2737
-4.2536	converse	-0.2456
-4.2536	conversely	-0.1487
-4.0775	convey	-0.2456
-4.5546	conveyed	-0.1487
-3.9526	conviction	-0.2737
-4.5546	conviction--the	-0.1487
-3.6515	convinced	-0.4845
-4.5546	convincing	-0.1487
-4.5546	copula	-0.1487
-4.0775	copy	-0.6258
-4.5546	corollary	-0.1487
-3.5546	correct	-0.1809
-4.0775	correctly	-0.2737
-4.2536	correspond	-0.1487
-4.2536	corresponded	-0.4497
-4.5546	correspondent	-0.1487
-4.5546	correspondent's	-0.1487
-4.5546	correspondent?	-0.1487
-3.6515	corresponding	-0.2456
-4.2536	corresponds	-0.3248
-4.2536	corroborate	-0.4497
-2.9526	could	-0.5663
-4.5546	couldn't	-0.1487
-4.2536	count	-0.4497
-3.9526	counterpart	-0.5467
-4.5546	counterparts"	-0.1487
-4.5546	country;	-0.1487
-3.9526	course	-0.2627
-4.2536	course;	-0.1487
-4.5546	covers	-0.1487
-4.2536	covet	-0.1487
-4.5546	coveting	-0.1487
-3.9526	covetous	-0.2737
-4.2536	covetousness	-0.4497
-4.2536	criterion	-0.1487
-4.5546	criticises	-0.1487
-4.5546	critics	-0.1487
-4.5546	crudely	-0.1487
-4.5546	culture	-0.1487
-4.5546	cumbrous	-0.1487
-4.5546	cups	-0.1487
-4.5546	curious	-0.1487
-4.5546	curse	-0.1487
-3.8557	custom	-0.2456
-4.5546	cuts	-0.1487
-4.0775	danger	-0.6258
-4.5546	daresay	-0.1487
-4.5546	dark	-0.1487
-4.0775	data	-0.2456
-4.5546	dates	-0.1487
-3.7095	day	-0.2213
-3.9526	dead	-0.3248
-4.5546	dead;	-0.1487
-3.7765	deal	-0.3450
-4.0775	dealing	-0.1487
-4.5546	dealt	-0.1487
-4.2536	death	-0.1487
-4.5546	deceive	-0.1487
-4.5546	deceived	-0.1487
-4.5546	decent	-0.1487
-4.2536	deception	-0.1487
-4.5546	deceptive	-0.1487
-4.2536	decide	-0.1487
-4.2536	declare	-0.1487
-4.2536	declared	-0.1487
-3.8557	declares	-0.3918
-4.5546	declaring	-0.1487
-4.5546	decrease	-0.1487
-4.2536	deduced	-0.3248
-4.2536	deducible	-0.3248
-4.2536	defect	-0.1487
-4.5546	defective	-0.1487
-4.5546	defence	-0.1487
-4.5546	defend	-0.1487
-4.5546	defenders	-0.1487
-4.5546	definable	-0.1487
-3.9526	define	-0.1809
-4.5546	define;	-0.1487
-3.6515	defined	-0.5467
-4.2536	defining	-0.1487
-4.0775	definite	-0.1487
-3.9526	definitely	-0.1487
-3.1929	definition	-0.5663
-4.0775	definitions	-0.2737
-3.3785	degree	-0.4691
-4.2536	degrees	-0.3248
-4.5546	deliberate	-0.1487
-4.0775	deliverance	-0.6258
-4.5546	delusion;	-0.1487
-3.7765	denial	-0.2279
-4.5546	denial:	-0.1487
-4.0775	denied	-0.2456
-3.6515	denies	-0.3528
-4.5546	denote	-0.1487
-4.2536	denoted	-0.4497
-4.5546	denotes	-0.1487
-4.2536	denoting	-0.1487
-3.4754	deny	-0.3828
-3.5132	denying	-0.4497
-3.9526	department	-0.4497
-4.2536	departments	-0.1487
-4.5546	departs	-0.1487
-3.5132	depend	-0.4040
-4.5546	depended	-0.1487
-4.5546	dependence	-0.1487
-3.9526	dependent	-0.2279
-4.5546	depending	-0.1487
-3.4407	depends	-0.6460
-4.5546	derive	-0.1487
-3.9526	derived	-0.2737
-3.8557	describe	-0.2456
-4.2536	described	-0.1487
-4.5546	described?	-0.1487
-4.5546	describes	-0.1487
-4.5546	describing	-0.1487
-3.7765	description	-0.2579
-4.5546	description--things	-0.1487
-4.5546	description;	-0.1487
-4.2536	deserve	-0.1487
-4.2536	deserves	-0.1487
-3.9526	designed	-0.4497
-3.9526	desirable	-0.2157
-3.5132	desire	-0.2737
-4.5546	desire;	-0.1487
-3.5546	desires	-0.2737
-4.5546	desperately	-0.1487
-4.5546	despitefully	-0.1487
-4.2536	destroyed	-0.1487
-4.5546	destroyed;	-0.1487
-4.5546	detailed	-0.1487
-4.5546	details	-0.1487
-4.5546	detain	-0.1487
-4.5546	detect	-0.1487
-4.2536	determine	-0.3248
-4.5546	developed	-0.1487
-4.5546	devoutly	-0.1487
-4.5546	diamonds	-0.1487
-4.5546	diaphanous	-0.1487
-4.5546	dictate	-0.1487
-4.5546	dictum	-0.1487
-3.0361	did	-0.4563
-4.0775	didn't	-0.1487
-4.5546	died	-0.1487
-3.2993	differ	-0.7323
-4.5546	differ?	-0.1487
-3.1567	difference	-0.5545
-4.2536	difference;	-0.1487
-4.5546	differences	-0.1487
-2.7417	different	-0.4576
-4.2536	different'	-0.3248
-4.5546	different--that	-0.1487
-3.7765	differing	-0.5167
-3.6004	differs	-0.6716
-3.5132	difficult	-0.4797
-3.8557	difficulties	-0.3248
-4.5546	difficulties;	-0.1487
-3.4085	difficulty	-0.4955
-4.5546	difficulty--the	-0.1487
-4.5546	digression	-0.1487
-4.5546	dilemma	-0.1487
-4.5546	dimensions	-0.1487
-4.2536	diminishing	-0.4497
-4.5546	diminution	-0.1487
-3.6004	direct	-0.4797
-4.5546	direction	-0.1487
-4.5546	direction--in	-0.1487
-4.5546	directions	-0.1487
-3.0106	directly	-0.5496
-4.2536	disadvantage	-0.4497
-4.5546	disadvantageous	-0.1487
-4.5546	disagreed	-0.1487
-4.5546	disagreement	-0.1487
-4.5546	disagreements	-0.1487
-4.2536	disapproval	-0.4497
-4.0775	disc	-0.2157
-4.2536	discarded	-0.1487
-4.5546	discord	-0.1487
-4.5546	discount	-0.1487
-4.2536	discover	-0.1487
-4.5546	discover)	-0.1487
-4.0775	discovered	-0.1487
-4.5546	discovering	-0.1487
-4.5546	discredit	-0.1487
-4.5546	discreditable	-0.1487
-3.9526	discuss	-0.2213
-4.5546	discuss;	-0.1487
-3.9526	discussed	-0.2737
-4.5546	discussed--such	-0.1487
-3.8557	discussing	-0.2279
-3.6515	discussion	-0.3036
-4.5546	disobey	-0.1487
-4.0775	disproof	-0.1487
-4.2536	disprove	-0.2157
-4.5546	disproving	-0.1487
-4.5546	disputable	-0.1487
-3.8557	dispute	-0.2456
-4.5546	dispute:	-0.1487
-4.0775	disputed	-0.2279
-4.5546	disputed)	-0.1487
-4.5546	disputes	-0.1487
-4.5546	disputing	-0.1487
-4.5546	dissected	-0.1487
-3.7765	distance	-0.4040
-4.5546	distances	-0.1487
-4.5546	distant	-0.1487
-3.4754	distinct	-0.2870
-3.4407	distinction	-0.5167
-4.2536	distinctly	-0.1487
-3.5546	distinguish	-0.3425
-3.6004	distinguished	-0.3450
-4.5546	distinguished;	-0.1487
-3.8557	distinguishes	-0.3248
-3.9526	distinguishing	-0.1487
-4.5546	divide	-0.1487
-4.5546	divided	-0.1487
-4.2536	divides	-0.1487
-4.5546	divinity	-0.1487
-3.8557	division	-0.1487
-4.5546	division:	-0.1487
-2.5252	do	-0.6025
-3.8557	do)	-0.2456
-4.5546	do:	-0.1487
-4.2536	do;	-0.1487
-4.5546	do?	-0.1487
-4.5546	do]	-0.1487
-4.5546	doctor	-0.1487
-3.4754	doctrine	-0.3135
-4.2536	doctrines	-0.1487
-2.5503	does	-0.6071
-4.5546	does--are	-0.1487
-4.5546	does;	-0.1487
-3.9526	dogma	-0.2948
-4.5546	dogmatically	-0.1487
-4.5546	dogmatize	-0.1487
-3.5132	doing	-0.2737
-4.5546	doll	-0.1487
-3.7095	don't	-0.2456
-3.6515	done	-0.2456
-4.5546	done;	-0.1487
-4.5546	done?	-0.1487
-4.5546	door	-0.1487
-4.5546	dots	-0.1487
-3.3242	doubt	-0.4497
-4.2536	doubted	-0.2737
-4.5546	doubted)	-0.1487
-3.5132	doubtful	-0.5747
-4.5546	doubtful)	-0.1487
-4.5546	doubtful--in	-0.1487
-4.5546	doubtful;	-0.1487
-4.5546	doubting	-0.1487
-4.2536	doubts	-0.1487
-3.9526	down	-0.1487
-4.5546	down-right	-0.1487
-4.2536	draw	-0.2737
-4.5546	drawing	-0.1487
-4.0775	drawn	-0.1487
-4.5546	dreams	-0.1487
-4.0775	drop	-0.2737
-4.5546	dubious	-0.1487
-4.0775	due	-0.6258
-3.9526	during	-0.1487
-4.5546	duties	-0.1487
-3.4085	duty	-0.4217
-4.5546	duty--"rules	-0.1487
-4.5546	duty--the	-0.1487
-4.5546	duty;	-0.1487
-4.0775	dwell	-0.2456
-4.5546	dwelt	-0.1487
-3.8557	e	-0.8477
-3.1233	each	-0.4217
-3.7765	earlier	-0.1835
-4.5546	ears	-0.1487
-4.5546	earth	-0.1487
-3.5546	easily	-0.2067
-3.4754	easy	-0.4797
-4.5546	edn	-0.1487
-3.9526	effect	-0.1487
-4.5546	effect;	-0.1487
-4.0775	effects	-0.1487
-4.5546	effects:	-0.1487
-4.5546	effort	-0.1487
-3.6515	egg	-0.3000
-4.5546	egg;	-0.1487
-3.8557	eggs	-0.2948
-4.5546	eggs"	-0.1487
-4.5546	eggs;	-0.1487
-4.5546	eighth	-0.1487
-2.8222	either	-0.4600
-4.2536	elaborate	-0.1487
-3.5546	element	-0.2535
-4.0775	elements	-0.4497
-4.5546	elephant	-0.1487
-4.5546	ellipse	-0.1487
-3.7095	elliptical	-0.2948
-4.5546	elliptical;	-0.1487
-3.3785	else	-0.3918
-4.2536	else's	-0.1487
-4.5546	else--either	-0.1487
-4.5546	else--something	-0.1487
-4.5546	else--that	-0.1487
-4.0775	else;	-0.2737
-4.5546	else?	-0.1487
-3.9526	elsewhere	-0.3706
-4.5546	embedded	-0.1487
-4.5546	embody	-0.1487
-3.9526	eminently	-0.2737
-4.2536	emotion	-0.1487
-4.5546	emotions	-0.1487
-4.5546	emphasising	-0.1487
-4.5546	emphatic	-0.1487
-3.7095	emphatically	-0.5009
-3.7095	empirical	-0.2456
-4.2536	employed	-0.1487
-4.5546	employment	-0.1487
-4.5546	emptiness	-0.1487
-4.2536	enable	-0.3248
-4.0775	enables	-0.2737
-4.5546	encamped	-0.1487
-4.0775	end	-0.3248
-4.5546	endowments	-0.1487
-4.5546	ends	-0.1487
-3.9526	enemies	-0.2279
-4.5546	enemy	-0.1487
-3.9526	engaged	-0.4497
-4.5546	enjoined	-0.1487
-3.7765	enormous	-0.5167
-4.5546	enormous?	-0.1487
-3.4754	enough	-0.3828
-4.5546	enough;	-0.1487
-4.2536	enquire	-0.1487
-4.0775	enquiry	-0.3248
-4.5546	enquiry:	-0.1487
-4.0775	entail	-0.2737
-3.1567	entails	-0.3194
-4.5546	enter	-0.1487
-4.5546	enter:	-0.1487
-4.5546	enters	-0.1487
-4.0775	entertain	-0.1487
-4.5546	entertained	-0.1487
-3.5132	entirely	-0.2627
-3.7095	entities	-0.4120
-3.9526	entitle	-0.7508
-4.5546	entitled	-0.1487
-4.5546	entitles	-0.1487
-3.5546	entity	-0.4761
-4.5546	enumerate	-0.1487
-3.7765	equal	-0.1487
-3.2993	equally	-0.2552
-4.5546	equally--is	-0.1487
-4.5546	equivalence	-0.1487
-3.3785	equivalent	-0.7130
-4.0775	equivalents	-0.3248
-4.2536	erecting	-0.1487
-4.5546	erroneous	-0.1487
-3.6515	error	-0.1999
-4.2536	error:	-0.1487
-4.5546	escape	-0.1487
-4.5546	escaped	-0.1487
-4.0775	especially	-0.1487
-3.1744	esse	-0.5844
-4.5546	esse?	-0.1487
-4.2536	essence	-0.1487
-3.5546	essential	-0.4497
-4.0775	essentially	-0.1487
-4.5546	establish	-0.1487
-4.2536	established	-0.1487
-4.5546	estimate	-0.1487
-4.5546	estimating	-0.1487
-3.9526	etc	-0.4040
-4.5546	etc;	-0.1487
-4.0775	eternal	-0.1487
-4.5546	ethers	-0.1487
-4.0775	ethical	-0.1487
-4.2536	ethics	-0.1487
-4.5546	etymologies	-0.1487
-4.2536	etymology	-0.1487
-4.5546	evaded	-0.1487
-2.9212	even	-0.4050
-4.5546	even:	-0.1487
-3.5546	event	-0.3084
-3.4407	events	-0.3570
-4.5546	events--ideas	-0.1487
-2.8303	ever	-0.3691
-4.5546	everlastingly	-0.1487
-3.2122	every	-0.3807
-3.6004	everybody	-0.3450
-4.5546	everybody;	-0.1487
-4.5546	everyday	-0.1487
-3.9526	everyone	-0.2948
-3.6515	everything	-0.6258
-3.4754	evidence	-0.3135
-3.6515	evident	-0.3706
-3.9526	evidently	-0.2279
-4.2536	evil	-0.1487
-4.5546	evils	-0.1487
-4.2536	evolution	-0.1487
-4.2536	evolutionary	-0.4497
-4.2536	ex	-0.1487
-3.8557	exact	-0.2456
-2.9864	exactly	-0.6969
-4.5546	exaggerate	-0.1487
-4.5546	exaggerated	-0.1487
-4.5546	exalted	-0.1487
-4.5546	examine	-0.1487
-3.7765	example	-0.4497
-4.5546	example--the	-0.1487
-4.5546	example--to	-0.1487
-4.2536	examples	-0.1487
-3.8557	exceedingly	-0.3706
-3.6515	excellence	-0.3036
-4.5546	excellence--he	-0.1487
-4.5546	excellence--the	-0.1487
-4.2536	excellence;	-0.4497
-4.2536	excellences	-0.1487
-3.7765	excellent	-0.2067
-3.3505	except	-0.3745
-4.2536	exception	-0.2737
-4.5546	exception:	-0.1487
-4.5546	exception;	-0.1487
-4.2536	exceptions	-0.1487
-4.2536	excessively	-0.1487
-3.7765	excite	-0.2456
-4.0775	excites	-0.1487
-4.2536	exciting	-0.1487
-4.0775	exclude	-0.1487
-4.5546	excluded	-0.1487
-3.9526	excludes	-0.1487
-3.9526	exclusively	-0.4497
-4.5546	excusable	-0.1487
-3.8557	excuse	-0.2456
-4.5546	excuse:	-0.1487
-4.0775	exercise	-0.1487
-4.0775	exhibit	-0.1487
-4.5546	exhibit--Time	-0.1487
-4.5546	exhibit--or	-0.1487
-4.0775	exhibits	-0.2067
-4.5546	exhibits"	-0.1487
-4.5546	exhibits";	-0.1487
-4.5546	exhibits--change	-0.1487
-2.8303	exist	-0.6577
-4.5546	exist"	-0.1487
-4.5546	exist":	-0.1487
-4.0775	exist)	-0.1487
-4.5546	exist--unless	-0.1487
-4.0775	exist:	-0.1487
-3.7765	exist;	-0.2067
-3.8557	exist?	-0.2157
-4.0775	exist?"	-0.1487
-3.1567	existed	-0.5421
-4.5546	existed;	-0.1487
-4.5546	existed?	-0.1487
-4.5546	existed?"	-0.1487
-3.2993	existence	-0.4382
-4.5546	existence?"	-0.1487
-4.2536	existing	-0.1487
-4.5546	existing;	-0.1487
-2.9212	exists	-0.6436
-3.8557	exists"	-0.2157
-4.5546	exists"--in	-0.1487
-4.5546	exists";	-0.1487
-4.5546	exists'	-0.1487
-3.9526	exists;	-0.4497
-4.0775	exists?	-0.1487
-3.9526	expect	-0.1487
-4.0775	expectations	-0.3248
-3.6515	expedient	-0.3248
-4.5546	expedient:	-0.1487
-4.5546	expedient?	-0.1487
-4.5546	expediently	-0.1487
-2.9636	experience	-0.5658
-4.2536	experience"	-0.1487
-4.5546	experience";	-0.1487
-4.5546	experience--from	-0.1487
-4.5546	experience--the	-0.1487
-4.2536	experience:	-0.1487
-4.2536	experience;	-0.1487
-3.9526	experience?	-0.1487
-3.2993	experienced	-0.5720
-4.5546	experienced"	-0.1487
-4.5546	experienced'	-0.1487
-4.0775	experienced;	-0.2737
-3.2759	experiences	-0.4340
-4.5546	experiences--the	-0.1487
-3.9526	experiencing	-0.1487
-4.5546	experient	-0.1487
-3.7765	explain	-0.2737
-3.4754	explained	-0.3861
-4.5546	explained)	-0.1487
-4.2536	explaining	-0.1487
-4.5546	explains	-0.1487
-3.3505	explanation	-0.6716
-4.5546	explanation?	-0.1487
-4.5546	explanations	-0.1487
-4.5546	explicit	-0.1487
-4.2536	explicitly	-0.1487
-4.0775	exposed	-0.3248
-3.1567	express	-0.4845
-4.5546	express--namely	-0.1487
-3.2759	expressed	-0.5881
-3.7765	expresses	-0.2067
-3.7095	expressing	-0.2330
-3.5546	expression	-0.2579
-4.5546	expression:	-0.1487
-3.5546	expressions	-0.2157
-4.5546	expressions:	-0.1487
-3.5546	expressly	-0.1487
-4.5546	extend	-0.1487
-4.5546	extended	-0.1487
-3.6004	extent	-0.2870
-4.5546	extent;	-0.1487
-3.1396	external	-0.4784
-4.5546	external";	-0.1487
-4.5546	extinguish	-0.1487
-4.5546	extraordinary	-0.1487
-3.9526	extreme	-0.1487
-3.5132	extremely	-0.3378
-4.5546	eye	-0.1487
-4.2536	eyes	-0.2737
-4.5546	eyes;	-0.1487
-3.8557	face	-0.2279
-4.2536	faced	-0.4497
-2.9636	fact	-0.4497
-4.2536	fact"	-0.2456
-4.2536	fact)	-0.1487
-4.5546	fact--the	-0.1487
-4.2536	fact:	-0.1487
-4.5546	fact]	-0.1487
-2.9864	facts	-0.4696
-4.5546	facts"	-0.1487
-4.5546	facts--facts	-0.1487
-4.5546	facts--supposing	-0.1487
-4.5546	facts--the	-0.1487
-4.2536	facts:	-0.3248
-4.2536	facts;	-0.1487
-4.5546	facts?	-0.1487
-4.0775	faculties	-0.3248
-3.7765	fail	-0.6258
-4.0775	failed	-0.6258
-4.0775	fails	-0.3248
-4.5546	fails;	-0.1487
-4.5546	failure	-0.1487
-4.5546	fair	-0.1487
-4.0775	fairly	-0.1487
-3.8557	fall	-0.3918
-4.5546	fall:	-0.1487
-4.2536	fallacious	-0.4497
-4.0775	fallacy	-0.1487
-4.5546	fallacy;	-0.1487
-4.5546	fallible	-0.1487
-4.5546	falls?	-0.1487
-3.0775	false	-0.5027
-4.5546	false"	-0.1487
-4.5546	false"--is	-0.1487
-4.5546	false";	-0.1487
-4.5546	false--whether	-0.1487
-4.2536	false:	-0.1487
-3.6515	false;	-0.3596
-4.0775	false?	-0.1487
-4.0775	falsehood	-0.1487
-4.5546	falsehood--the	-0.1487
-4.0775	falsely	-0.1487
-4.5546	falsely)	-0.1487
-4.5546	falsity	-0.1487
-3.5546	familiar	-0.3378
-4.5546	familiar;	-0.1487
-4.5546	famous	-0.1487
-3.3505	far	-0.4631
-4.5546	farther	-0.1487
-4.2536	fashion	-0.1487
-4.5546	fashionable	-0.1487
-4.0775	fast	-0.1487
-3.9526	fatal	-0.2737
-3.5132	father	-0.6258
-4.5546	father's	-0.1487
-4.2536	fatherhood	-0.2737
-4.5546	fatherhood;	-0.1487
-4.5546	fault--they	-0.1487
-4.2536	faults	-0.1487
-3.8557	favour	-0.2737
-4.2536	favoured	-0.1487
-4.5546	fear	-0.1487
-3.3785	feel	-0.3613
-3.1929	feeling	-0.5651
-4.5546	feeling--the	-0.1487
-3.2324	feelings	-0.5341
-4.5546	feelings--and	-0.1487
-4.5546	feelings--or	-0.1487
-4.5546	feelings:	-0.1487
-4.5546	feelings?	-0.1487
-4.5546	feels	-0.1487
-4.5546	fellow-countrymen	-0.1487
-3.4407	felt	-0.3358
-4.2536	few	-0.1487
-4.5546	few)	-0.1487
-4.5546	fiction	-0.1487
-4.0775	field	-0.2737
-4.5546	field;	-0.1487
-4.5546	fiery	-0.1487
-4.2536	fifth	-0.1487
-4.5546	final	-0.1487
-3.7765	finally	-0.2737
-3.5132	find	-0.3496
-4.5546	finding	-0.1487
-4.2536	finger	-0.1487
-4.5546	finger:	-0.1487
-4.2536	fingers	-0.1487
-4.5546	finite	-0.1487
-3.9526	fire	-0.1487
-4.5546	firmly	-0.1487
-3.0922	first	-0.2977
-4.5546	first--that	-0.1487
-4.5546	first:	-0.1487
-4.5546	fitted	-0.1487
-3.8557	five	-0.3528
-4.5546	fix	-0.1487
-4.2536	fixed	-0.4497
-4.5546	fixity	-0.1487
-4.2536	flame	-0.1487
-4.5546	flames	-0.1487
-4.0775	flatly	-0.3248
-4.5546	flatter	-0.1487
-4.5546	flies	-0.1487
-4.5546	flint	-0.1487
-4.5546	floor	-0.1487
-4.0775	florin	-0.2579
-4.5546	florin:	-0.1487
-4.5546	flow	-0.1487
-4.2536	flower	-0.1487
-4.5546	flower--and	-0.1487
-4.5546	flower:	-0.1487
-3.1396	follow	-0.9471
-3.6004	followed	-0.3248
-4.5546	followers	-0.1487
-4.2536	following	-0.1487
-3.1396	follows	-0.7050
-4.5546	follows--that	-0.1487
-4.5546	follows:	-0.1487
-4.5546	follows:--	-0.1487
-4.5546	follows:--A	-0.1487
-4.5546	follows:--I	-0.1487
-4.5546	follows:--To	-0.1487
-4.5546	follows?	-0.1487
-4.5546	fond	-0.1487
-3.9526	foot	-0.2279
-4.5546	foot--this	-0.1487
-2.3091	for	-0.6962
-4.5546	fora	-0.1487
-4.5546	forbidden	-0.1487
-3.7095	force	-0.5009
-4.5546	forced	-0.1487
-4.5546	forcing	-0.1487
-4.5546	foreigner	-0.1487
-4.5546	foreigners	-0.1487
-4.2536	forget	-0.1487
-3.9526	forgotten	-0.4497
-3.2759	form	-0.4249
-4.2536	form:	-0.1487
-4.5546	form;	-0.1487
-4.0775	formal	-0.2456
-4.5546	formed	-0.1487
-4.0775	former	-0.1767
-4.5546	former:--in	-0.1487
-3.7095	formerly	-0.2157
-4.5546	forming	-0.1487
-3.5132	forms	-0.4911
-4.5546	forms;	-0.1487
-4.0775	forward	-0.1487
-3.9526	found	-0.2213
-3.5546	foundation	-0.4497
-3.7095	founded	-0.6928
-3.6515	four	-0.2279
-4.5546	four'	-0.1487
-4.5546	four;	-0.1487
-4.2536	fourth	-0.1487
-4.5546	free	-0.1487
-4.5546	freely	-0.1487
-4.5546	frequency	-0.1487
-4.5546	frequent	-0.1487
-3.7095	frequently	-0.2067
-4.5546	friends	-0.1487
-2.4683	from	-0.6010
-4.5546	from'	-0.1487
-4.5546	from--A:	-0.1487
-4.5546	front	-0.1487
-4.5546	fulfil	-0.1487
-4.2536	fulfilled	-0.1487
-4.5546	full	-0.1487
-4.5546	full)	-0.1487
-4.5546	full;	-0.1487
-3.6515	fully	-0.3036
-4.5546	function	-0.1487
-3.6004	fundamental	-0.3344
-4.5546	fundamentally	-0.1487
-4.5546	furnish	-0.1487
-3.2122	further	-0.2456
-4.5546	fuss	-0.1487
-3.5132	future	-0.2737
-4.5546	future--about	-0.1487
-4.5546	future;	-0.1487
-4.5546	gain	-0.1487
-4.5546	gained	-0.1487
-4.5546	game	-0.1487
-4.5546	games	-0.1487
-4.5546	gather	-0.1487
-4.2536	gave	-0.1487
-3.5132	general	-0.2193
-3.3242	generalisation	-0.4263
-4.5546	generalisation--for	-0.1487
-4.5546	generalisation--the	-0.1487
-4.2536	generalisation:	-0.3248
-4.2536	generalisation;	-0.1487
-4.0775	generalisation?	-0.1487
-3.3505	generalisations	-0.3918
-4.5546	generalisations--for	-0.1487
-3.1396	generally	-0.3737
-4.5546	generations	-0.1487
-4.5546	geography	-0.1487
-3.7095	get	-0.2279
-4.5546	gets	-0.1487
-4.0775	getting	-0.1487
-3.1233	give	-0.6157
-3.1744	given	-0.3433
-4.5546	given-thing	-0.1487
-4.5546	given;	-0.1487
-3.4754	gives	-0.3570
-4.5546	gives)	-0.1487
-3.5132	giving	-0.2948
-4.5546	glad	-0.1487
-4.5546	glance	-0.1487
-4.5546	glance"	-0.1487
-3.8557	glass	-0.2279
-4.5546	glass:	-0.1487
-4.5546	glass;	-0.1487
-3.7765	go	-0.4497
-4.5546	go;	-0.1487
-3.7095	goes	-0.2737
-4.5546	goes)	-0.1487
-4.5546	goes--which	-0.1487
-3.6004	going	-0.5881
-4.2536	gold	-0.1487
-4.5546	gone	-0.1487
-2.9748	good	-0.4497
-4.5546	good"	-0.1487
-4.2536	good;	-0.4497
-3.6515	goodness	-0.2948
-4.5546	goodness:	-0.1487
-4.5546	goods	-0.1487
-3.6515	got	-0.3626
-4.5546	got--a	-0.1487
-4.5546	got--namely	-0.1487
-4.5546	grammatical	-0.1487
-4.5546	grammatically	-0.1487
-4.5546	grand	-0.1487
-4.0775	grant	-0.1487
-4.2536	granted	-0.1487
-4.5546	granted:	-0.1487
-4.5546	grate	-0.1487
-4.2536	grave	-0.1487
-3.3242	great	-0.2977
-3.8557	greater	-0.2456
-4.5546	greatest	-0.1487
-3.7765	green	-0.3706
-4.5546	green--is	-0.1487
-4.5546	green;	-0.1487
-4.5546	greets	-0.1487
-4.5546	grey	-0.1487
-4.5546	griffin	-0.1487
-4.5546	griffin?	-0.1487
-4.0775	gross	-0.1487
-4.5546	grossest	-0.1487
-4.2536	grossly	-0.1487
-3.7095	ground	-0.2579
-4.2536	ground;	-0.1487
-4.5546	ground?	-0.1487
-4.0775	grounded	-0.6258
-3.8557	grounds	-0.4497
-4.5546	grown	-0.1487
-4.5546	guide	-0.1487
-4.2536	guilty	-0.4497
-4.5546	habit	-0.1487
-2.8064	had	-0.4873
-4.5546	had:	-0.1487
-4.5546	had;	-0.1487
-4.5546	hair	-0.1487
-4.5546	hair:	-0.1487
-4.5546	hair;	-0.1487
-3.9526	half	-0.2737
-4.5546	half)	-0.1487
-3.7765	half-crown	-0.2948
-4.5546	half-crown"	-0.1487
-4.0775	hallucinations	-0.1487
-3.5546	hand	-0.4150
-4.5546	hand--as	-0.1487
-4.5546	hand?	-0.1487
-4.5546	handled	-0.1487
-3.9526	hands	-0.2737
-4.5546	hands;	-0.1487
-3.6515	happen	-0.2456
-4.2536	happen?	-0.4497
-3.8557	happened	-0.1487
-4.5546	happened--with	-0.1487
-3.9526	happening	-0.1487
-3.9526	happens	-0.2456
-4.5546	happy	-0.1487
-4.0775	hard	-0.6258
-3.6515	hardly	-0.2870
-4.2536	harm	-0.1487
-4.5546	harmful	-0.1487
-4.5546	harmony	-0.1487
-2.5212	has	-0.5671
-4.5546	has;	-0.1487
-4.2536	hate	-0.1487
-2.5015	have	-0.6037
-4.5546	have;	-0.1487
-3.2324	having	-0.2627
-2.5460	he	-0.5915
-3.8557	head	-0.2157
-4.5546	headed	-0.1487
-4.5546	heads	-0.1487
-4.5546	heads;	-0.1487
-3.7765	hear	-0.3036
-3.7095	heard	-0.3528
-3.7765	hearing	-0.2737
-4.5546	hearing;	-0.1487
-4.0775	hears	-0.3248
-4.5546	heart--as	-0.1487
-4.5546	heat	-0.1487
-4.5546	height	-0.1487
-4.5546	heights	-0.1487
-3.3785	held	-0.4497
-4.5546	hell	-0.1487
-4.5546	hell--is	-0.1487
-3.6515	help	-0.3248
-4.2536	helped	-0.1487
-4.2536	helps	-0.1487
-3.8557	hen	-0.4120
-4.5546	hen:	-0.1487
-4.5546	hen;	-0.1487
-3.9526	hence	-0.3248
-3.6004	hens	-0.2870
-4.5546	hens"	-0.1487
-4.0775	hens'	-0.6258
-3.0633	here	-0.3378
-4.5546	hesitate	-0.1487
-3.6004	higher	-0.2359
-3.6515	highly	-0.3450
-3.1233	him	-0.4388
-4.5546	him:	-0.1487
-4.5546	him;	-0.1487
-4.2536	him?	-0.1487
-3.1929	himself	-0.3350
-4.5546	himself:	-0.1487
-4.5546	hindering	-0.1487
-2.8734	his	-0.3676
-4.5546	historian	-0.1487
-4.0775	historians	-0.1487
-4.2536	historical	-0.1487
-4.2536	history	-0.1487
-4.5546	history;	-0.1487
-4.5546	hit	-0.1487
-3.7095	hitherto	-0.1787
-3.0922	hold	-0.5167
-4.5546	hold";	-0.1487
-4.5546	hold)	-0.1487
-3.4754	holding	-0.3792
-3.3785	holds	-0.6716
-4.5546	home	-0.1487
-4.5546	honour	-0.1487
-3.6515	hope	-0.3706
-4.5546	hopeless	-0.1487
-4.5546	hosts	-0.1487
-4.5546	hot	-0.1487
-4.5546	hour's	-0.1487
-4.2536	house	-0.1487
-3.0775	how	-0.3338
-4.2536	however	-0.1865
-4.5546	huge	-0.1487
-3.5132	human	-0.3114
-4.5546	humanly	-0.1487
-4.5546	hundred	-0.1487
-4.5546	hunted	-0.1487
-4.5546	hunted";	-0.1487
-4.5546	hunted--that	-0.1487
-4.5546	hunting	-0.1487
-4.0775	hypotheses	-0.3248
-4.2536	hypothesi	-0.4497
-3.6004	hypothesis	-0.2652
-4.5546	hypothesis--they	-0.1487
-4.5546	hypothesis;	-0.1487
-4.5546	hypothesis?	-0.1487
-4.5546	hypothetical	-0.1487
-4.5546	i	-0.1487
-3.0361	idea	-0.6730
-4.5546	idea--or	-0.1487
-4.2536	idea?	-0.1487
-4.5546	idea?'	-0.1487
-3.7765	ideal	-0.2948
-4.2536	idealist	-0.1487
-4.5546	idealistic	-0.1487
-2.9314	ideas	-0.6022
-4.5546	ideas"	-0.1487
-4.5546	ideas";	-0.1487
-4.5546	ideas--cases	-0.1487
-4.5546	ideas--is	-0.1487
-4.5546	ideas--that	-0.1487
-4.5546	ideas--the	-0.1487
-4.5546	ideas:	-0.1487
-3.8557	ideas;	-0.3248
-4.2536	ideas?	-0.1487
-3.3242	identical	-0.7508
-4.0775	identification	-0.2737
-4.5546	identified	-0.1487
-3.7095	identify	-0.3248
-4.2536	identifying	-0.3248
-4.5546	identity	-0.1487
-4.2536	idle	-0.1487
-4.2536	idly	-0.1487
-2.7417	if	-0.6291
-4.5546	ignorance	-0.1487
-4.5546	ignore	-0.1487
-4.5546	ill	-0.1487
-4.2536	illegitimate	-0.1487
-4.5546	illegitimate;	-0.1487
-4.5546	illusion";	-0.1487
-4.5546	illusory	-0.1487
-4.5546	illustrate	-0.1487
-4.0775	illustrated	-0.3248
-3.7765	illustration	-0.2279
-3.7095	image	-0.3596
-4.5546	image--of	-0.1487
-4.5546	image;	-0.1487
-3.7765	images	-0.2948
-4.2536	imaginary	-0.1487
-4.5546	imagination	-0.1487
-3.7095	imagine	-0.2737
-4.5546	imagined	-0.1487
-4.5546	imagining	-0.1487
-3.7765	immediately	-0.2579
-4.2536	immediately;	-0.1487
-4.2536	immense	-0.4497
-3.8557	immensely	-0.1487
-4.2536	immoral	-0.1487
-4.5546	immortal	-0.1487
-4.0775	immutable	-0.3248
-4.5546	immutable--in	-0.1487
-4.2536	impartial	-0.4497
-4.5546	impartiality	-0.1487
-3.8557	implication	-0.2948
-4.2536	implication"	-0.1487
-4.5546	implication)	-0.1487
-4.5546	implications	-0.1487
-4.5546	implicitly	-0.1487
-3.6004	implied	-0.3828
-3.2536	implies	-0.3918
-3.2536	imply	-0.5524
-4.5546	imply"	-0.1487
-4.5546	imply;	-0.1487
-3.9526	implying	-0.3706
-3.6515	importance	-0.3248
-3.2122	important	-0.3488
-4.0775	impossibility	-0.6258
-3.5546	impossible	-0.5824
-4.5546	impossible--that	-0.1487
-4.5546	impression	-0.1487
-4.5546	improbable	-0.1487
-4.5546	improperly	-0.1487
-4.5546	improve	-0.1487
-3.6515	improvement	-0.3528
-4.5546	improvement:	-0.1487
-1.8295	in	-0.8555
-4.5546	inadequacy	-0.1487
-4.5546	inanimate:	-0.1487
-3.8557	incapable	-0.6258
-4.2536	incidentally	-0.1487
-4.5546	incidentally);	-0.1487
-4.5546	incidents	-0.1487
-4.5546	incline	-0.1487
-3.7765	inclined	-0.6928
-3.7765	include	-0.1809
-3.7765	included	-0.2157
-3.5546	includes	-0.3406
-4.5546	inclusive	-0.1487
-3.4407	incompatible	-0.3918
-4.5546	incomplete	-0.1487
-4.5546	inconceivability	-0.1487
-4.2536	inconceivable	-0.2737
-4.2536	inconclusive	-0.4497
-3.9526	inconsistency	-0.4497
-4.5546	inconsistency;	-0.1487
-4.5546	inconsistency?	-0.1487
-3.7095	inconsistent	-0.5467
-4.5546	incontrovertibly	-0.1487
-4.5546	incorrect;	-0.1487
-4.5546	incorrectly	-0.1487
-4.5546	increase	-0.1487
-4.5546	incredible	-0.1487
-4.5546	inculcate	-0.1487
-3.4754	indeed	-0.3248
-4.5546	indeed;	-0.1487
-4.5546	indefensible	-0.1487
-4.5546	indefinitely	-0.1487
-3.9526	independent	-0.2737
-4.0775	independently	-0.3248
-4.5546	index	-0.1487
-4.5546	india-rubber	-0.1487
-4.2536	indicate	-0.1487
-3.7095	indignation	-0.3706
-4.5546	indirectly)	-0.1487
-4.2536	indisputable	-0.4497
-4.0775	indisputably	-0.1487
-4.5546	indistinguishable	-0.1487
-3.8557	individual	-0.2279
-4.5546	individual's	-0.1487
-4.5546	individuals	-0.1487
-4.5546	indoors	-0.1487
-4.5546	indubitable	-0.1487
-4.2536	indubitably	-0.1487
-4.5546	induced	-0.1487
-4.2536	induces	-0.1487
-4.5546	induction	-0.1487
-4.5546	inductions	-0.1487
-4.5546	inevitably	-0.1487
-4.5546	inexcusable	-0.1487
-4.5546	infallible	-0.1487
-4.5546	infected	-0.1487
-3.9526	infer	-0.3248
-3.6004	inference	-0.3248
-4.5546	inference?	-0.1487
-4.2536	inferences	-0.1487
-3.7765	inferred	-0.1999
-4.0775	inferring	-0.1487
-4.5546	infers	-0.1487
-4.2536	influenced	-0.4497
-3.9526	information	-0.1487
-4.2536	informed	-0.4497
-4.5546	ingenious	-0.1487
-4.5546	initial	-0.1487
-4.5546	ink	-0.1487
-3.5546	inkstand	-0.4865
-4.2536	inkstand"	-0.1487
-4.5546	inkstand":	-0.1487
-4.5546	inkstand--a	-0.1487
-4.5546	inkstand--that	-0.1487
-4.5546	inkstand:	-0.1487
-4.2536	inkstand;	-0.3248
-4.2536	inkstand?	-0.1487
-3.9526	inkstands	-0.3706
-4.2536	inner	-0.1487
-4.5546	inquire	-0.1487
-3.8557	inseparable	-0.3918
-4.5546	inserted	-0.1487
-4.5546	inserted;	-0.1487
-4.0775	inside	-0.3248
-4.5546	insignificant	-0.1487
-3.8557	insist	-0.3248
-3.9526	insisted	-0.4497
-4.2536	insistence	-0.3248
-4.5546	insisting	-0.1487
-4.5546	insists	-0.1487
-4.2536	inspection	-0.4497
-3.4407	instance	-0.5167
-3.4085	instances	-0.4275
-3.7095	instead	-0.7508
-4.5546	instinctive	-0.1487
-4.5546	insufficient	-0.1487
-4.5546	insuperable	-0.1487
-4.5546	insure	-0.1487
-4.0775	intellectual	-0.2737
-4.5546	intelligent;	-0.1487
-3.9526	intelligible	-0.2737
-4.2536	intend	-0.3248
-3.7765	intended	-0.3248
-4.5546	intending	-0.1487
-4.2536	intends	-0.4497
-4.5546	intense	-0.1487
-4.0775	intensely	-0.6258
-4.5546	intention	-0.1487
-4.5546	intentions	-0.1487
-3.6004	interest	-0.2456
-4.2536	interested	-0.1487
-3.6004	interesting	-0.2359
-3.9526	interests	-0.2456
-4.2536	intermediate	-0.1487
-3.5132	internal	-0.4096
-4.5546	internal:	-0.1487
-4.5546	internal;	-0.1487
-4.0775	interpret	-0.1487
-3.4754	interpretation	-0.4040
-4.2536	interpretations	-0.1487
-4.0775	interpreted	-0.1487
-4.5546	interpreted--in	-0.1487
-4.2536	interval	-0.4497
-4.5546	interval;	-0.1487
-4.5546	intimate	-0.1487
-3.1567	into	-0.4972
-4.5546	intricacies	-0.1487
-4.5546	intricate	-0.1487
-3.0922	intrinsic	-0.5625
-4.5546	intrinsical"	-0.1487
-3.7765	intrinsically	-0.2948
-4.5546	introduce	-0.1487
-4.2536	introduced	-0.1487
-4.5546	introduces	-0.1487
-4.5546	introspect	-0.1487
-4.0775	introspection	-0.3248
-4.5546	invalidate	-0.1487
-4.2536	invalidly)	-0.1487
-4.5546	investigate	-0.1487
-4.2536	investigates	-0.1487
-4.5546	investigating	-0.1487
-4.5546	investigation	-0.1487
-4.2536	invisible	-0.1487
-3.8557	involve	-0.3706
-4.5546	involve:	-0.1487
-4.5546	involve?	-0.1487
-3.6004	involved	-0.6606
-3.6004	involves	-0.2279
-4.5546	involving	-0.1487
-4.5546	irrational	-0.1487
-3.7095	irrelevant	-0.2157
-4.5546	irrelevant?	-0.1487
-1.8437	is	-0.7228
-4.5546	is)	-0.1487
-4.5546	is--"connected	-0.1487
-4.5546	is--a	-0.1487
-4.5546	is--he	-0.1487
-3.4754	is:	-0.2279
-3.7765	is;	-0.2279
-4.5546	is?	-0.1487
-4.5546	isn't	-0.1487
-4.0775	issue	-0.2948
-4.5546	issue;	-0.1487
-2.0374	it	-0.8146
-4.5546	it"	-0.1487
-4.0775	it";	-0.1487
-4.2536	it)	-0.1487
-4.5546	it--a	-0.1487
-4.5546	it--no	-0.1487
-4.5546	it--not	-0.1487
-4.5546	it--objections	-0.1487
-4.5546	it--than	-0.1487
-4.2536	it--that	-0.1487
-4.0775	it--the	-0.2737
-4.5546	it--vaguely	-0.1487
-4.5546	it--which	-0.1487
-3.5132	it:	-0.3596
-3.2536	it;	-0.5924
-4.0775	it?	-0.3248
-4.2536	it?"	-0.1487
-2.8825	its	-0.3747
-3.0922	itself	-0.4668
-4.5546	itself--the	-0.1487
-4.5546	itself--what	-0.1487
-4.5546	itself:	-0.1487
-4.2536	itself;	-0.1487
-4.5546	joint	-0.1487
-3.5132	judge	-0.4497
-4.5546	judge:	-0.1487
-4.0775	judged	-0.1487
-4.2536	judges	-0.1487
-3.4085	judging	-0.6258
-4.5546	judging:	-0.1487
-4.5546	judging;	-0.1487
-3.4754	judgment	-0.4393
-4.0775	judgment;	-0.3248
-4.2536	judgment?	-0.4497
-3.2993	judgments	-0.5211
-4.5546	judgments:	-0.1487
-2.9526	just	-0.6321
-4.5546	justice	-0.1487
-4.5546	justifiable	-0.1487
-4.0775	justification	-0.6258
-3.7095	justified	-0.4497
-4.2536	justifies	-0.1487
-3.7095	justify	-0.4497
-4.5546	justly	-0.1487
-4.0775	keep	-0.1487
-2.9418	kind	-0.7069
-4.5546	kind--a	-0.1487
-4.5546	kind--judgments	-0.1487
-4.2536	kind--those	-0.1487
-4.5546	kind:	-0.1487
-4.2536	kind;	-0.4497
-3.1929	kinds	-0.7641
-4.5546	kinds--no	-0.1487
-4.2536	kinds;	-0.1487
-4.5546	king	-0.1487
-4.2536	knew	-0.1487
-4.5546	knew;	-0.1487
-3.0106	know	-0.6286
-4.2536	know;	-0.4497
-4.2536	know?	-0.1487
-3.7765	knowing	-0.3248
-3.4085	knowledge	-0.4497
-4.5546	knowledge:	-0.1487
-3.6004	known	-0.4497
-4.5546	known;	-0.1487
-3.9526	knows	-0.1901
-4.5546	laborious	-0.1487
-4.0775	laid	-0.3248
-3.4407	language	-0.3483
-3.7765	large	-0.3918
-3.8557	largely	-0.2456
-3.6515	larger	-0.3528
-3.4407	last	-0.2607
-4.5546	last;	-0.1487
-4.5546	lastly	-0.1487
-4.5546	lasts	-0.1487
-4.5546	latent	-0.1487
-3.8557	later	-0.1999
-3.9526	latter	-0.1882
-3.9526	law	-0.1487
-4.5546	law:	-0.1487
-4.0775	laws	-0.1487
-3.8557	lay	-0.4497
-4.0775	laying	-0.1487
-3.5546	lead	-0.8477
-4.5546	leading	-0.1487
-4.2536	leads	-0.1487
-4.2536	learn	-0.1487
-4.5546	learnt	-0.1487
-3.9526	least	-0.2054
-4.5546	least)	-0.1487
-3.8557	leave	-0.2948
-4.5546	lecture	-0.1487
-4.0775	led	-0.4497
-3.7765	left	-0.2948
-4.2536	legal	-0.1487
-4.0775	legitimate	-0.2456
-3.8557	length	-0.2456
-3.4085	less	-0.2599
-4.5546	lest	-0.1487
-3.7095	let	-0.3248
-4.0775	letter	-0.1487
-4.2536	letters	-0.4497
-4.5546	level	-0.1487
-4.0775	liable	-0.6258
-4.2536	lie	-0.2737
-4.5546	lie"	-0.1487
-3.8557	lies	-0.5467
-3.5546	life	-0.3248
-4.5546	life--with	-0.1487
-4.5546	lifeless	-0.1487
-4.5546	lifetime	-0.1487
-4.2536	light	-0.1487
-3.0495	like	-0.3979
-4.5546	like"	-0.1487
-3.7095	likely	-0.1999
-4.2536	likeness	-0.1487
-4.0775	limit	-0.1487
-3.6515	limited	-0.1999
-4.2536	limits	-0.4497
-4.2536	line	-0.1487
-4.5546	lines	-0.1487
-4.2536	lion	-0.1487
-4.5546	lion"	-0.1487
-4.5546	lion"--that	-0.1487
-4.5546	lion";	-0.1487
-4.0775	lions	-0.1487
-4.5546	lions--at	-0.1487
-4.5546	list)	-0.1487
-3.6004	little	-0.1487
-4.5546	lived	-0.1487
-3.7765	lives	-0.2067
-4.2536	lives"	-0.4497
-4.2536	living	-0.1487
-4.0775	logical	-0.1487
-3.8557	logically	-0.5167
-4.0775	logicians	-0.1487
-3.5132	long	-0.2737
-4.0775	longer	-0.1487
-3.7765	look	-0.3084
-3.8557	looking	-0.4497
-4.2536	looking-glass	-0.1487
-4.0775	looks	-0.1487
-4.2536	loose	-0.1487
-4.2536	loosely	-0.1487
-4.5546	loud	-0.1487
-4.2536	love	-0.1487
-4.0775	lower	-0.1487
-4.5546	lowest	-0.1487
-4.5546	luminous	-0.1487
-4.2536	lying	-0.1487
-3.2324	made	-0.3662
-4.5546	made--the	-0.1487
-4.5546	made;	-0.1487
-4.5546	magnitude	-0.1487
-3.6004	main	-0.2514
-3.9526	mainly	-0.1487
-3.4754	maintain	-0.4350
-3.8557	maintained	-0.3918
-4.5546	maintained)	-0.1487
-3.7095	maintaining	-0.4120
-4.0775	maintains	-0.3248
-4.0775	majority	-0.3248
-4.5546	majority)	-0.1487
-3.1075	make	-0.5085
-3.6515	makes	-0.3000
-4.5546	makes)	-0.1487
-4.5546	makes--some	-0.1487
-3.3785	making	-0.3947
-4.5546	making;	-0.1487
-4.5546	making?	-0.1487
-4.5546	mammal"	-0.1487
-4.5546	mammalian	-0.1487
-4.5546	mammalian"	-0.1487
-3.2122	man	-0.4159
-3.7095	man's	-0.2359
-4.5546	man--even	-0.1487
-4.5546	man--which	-0.1487
-4.2536	man-made	-0.1487
-4.5546	man-made--indeed	-0.1487
-4.5546	man-made?	-0.1487
-4.5546	man?	-0.1487
-4.5546	manifestation	-0.1487
-4.2536	mankind	-0.2279
-3.9526	manner	-0.1487
-4.5546	manners	-0.1487
-4.5546	manufacture	-0.1487
-2.9636	many	-0.4686
-4.5546	many--I	-0.1487
-3.9526	mark	-0.2737
-3.9526	marks	-0.3248
-4.5546	mass	-0.1487
-4.5546	massacre	-0.1487
-3.2122	material	-0.6030
-4.5546	materialists	-0.1487
-4.5546	materially	-0.1487
-3.4407	matter	-0.3570
-3.4407	matters	-0.6928
-2.4243	may	-0.6455
-4.5546	may)	-0.1487
-3.0495	me	-0.4126
-4.5546	me)	-0.1487
-4.5546	me--an	-0.1487
-4.5546	me;	-0.1487
-2.9314	mean	-0.6346
-4.5546	mean--connected	-0.1487
-4.5546	mean--just	-0.1487
-4.5546	mean--propositions	-0.1487
-3.9526	mean:	-0.4497
-3.9526	mean;	-0.2737
-3.8557	mean?	-0.1487
-3.0361	meaning	-0.6185
-4.5546	meaning:	-0.1487
-4.5546	meaningless	-0.1487
-3.6515	meanings	-0.3706
-2.8471	means	-0.5274
-4.5546	means)	-0.1487
-4.5546	means?	-0.1487
-3.0231	meant	-0.6030
-4.5546	meant:	-0.1487
-4.2536	meant;	-0.3248
-4.2536	meant?	-0.1487
-4.5546	meantime	-0.1487
-4.5546	meantime;	-0.1487
-4.5546	mechanical;	-0.1487
-4.5546	mediate	-0.1487
-4.5546	mediated	-0.1487
-4.2536	mediates	-0.4497
-4.5546	mediating	-0.1487
-4.5546	medium	-0.1487
-4.5546	medium;	-0.1487
-4.0775	meet	-0.1487
-4.5546	meeting	-0.1487
-4.5546	meets	-0.1487
-4.5546	melancholy	-0.1487
-4.5546	melt	-0.1487
-4.5546	melted	-0.1487
-3.7765	memory	-0.3248
-4.5546	memory;	-0.1487
-3.1929	men	-0.3881
-4.5546	men's	-0.1487
-4.5546	men--are	-0.1487
-4.5546	men--that	-0.1487
-4.5546	men;	-0.1487
-4.5546	men?	-0.1487
-3.1396	mental	-0.4275
-4.5546	mental;	-0.1487
-4.0775	mention	-0.2456
-3.9526	mentioned	-0.3248
-4.5546	mentioning	-0.1487
-4.0775	mentions	-0.1487
-3.3242	mere	-0.1826
-2.8222	merely	-0.4098
-4.5546	merely:	-0.1487
-4.5546	merest	-0.1487
-4.5546	met	-0.1487
-4.5546	metaphor	-0.1487
-3.9526	metaphorical	-0.3706
-4.5546	metaphysics	-0.1487
-4.2536	method	-0.4497
-4.5546	microscope	-0.1487
-4.5546	middle	-0.1487
-2.9212	might	-0.5418
-4.5546	mile	-0.1487
-4.2536	miles	-0.1487
-3.5132	mind	-0.3986
-4.5546	mind";	-0.1487
-4.5546	mind--the	-0.1487
-4.5546	mind:	-0.1487
-4.5546	mind;	-0.1487
-4.5546	mind?	-0.1487
-3.8557	minds	-0.3406
-4.5546	minds"	-0.1487
-4.5546	minds;	-0.1487
-3.4085	mine	-0.3760
-4.5546	mine--which	-0.1487
-4.5546	mine:	-0.1487
-4.5546	mine;	-0.1487
-4.5546	minerals	-0.1487
-4.2536	minimum	-0.1487
-4.5546	minority	-0.1487
-4.5546	miracles	-0.1487
-4.5546	miserable;	-0.1487
-4.5546	miserably	-0.1487
-4.2536	misery	-0.1487
-4.5546	mislead	-0.1487
-4.2536	misleading	-0.1487
-4.2536	misled	-0.1487
-4.5546	misnomer	-0.1487
-4.5546	miss	-0.1487
-3.6515	mistake	-0.3861
-4.5546	mistake;	-0.1487
-3.9526	mistaken	-0.2456
-4.5546	mistaken;	-0.1487
-4.2536	mistakes	-0.1487
-4.5546	mistakes;	-0.1487
-4.2536	mistaking	-0.1487
-4.5546	mistook	-0.1487
-4.5546	mistranslation	-0.1487
-4.5546	misunderstandings	-0.1487
-4.5546	misunderstood;	-0.1487
-4.5546	moans	-0.1487
-3.9526	modern	-0.2737
-4.2536	modification	-0.1487
-4.5546	modifications	-0.1487
-4.5546	modifications";	-0.1487
-3.9526	modified	-0.1487
-3.9526	modifies	-0.2737
-3.7765	modify	-0.2737
-3.6515	moment	-0.2900
-4.5546	moment)	-0.1487
-4.5546	moments	-0.1487
-4.2536	monads	-0.1487
-4.5546	monstrous	-0.1487
-4.5546	mood	-0.1487
-4.5546	moon	-0.1487
-4.5546	moon;	-0.1487
-3.1233	moral	-0.3839
-3.6515	morality	-0.3828
-3.9526	morally	-0.4497
-4.5546	morbid	-0.1487
-2.7693	more	-0.4217
-4.5546	more)	-0.1487
-4.5546	more?	-0.1487
-4.0775	moreover	-0.6258
-4.2536	mortal	-0.1487
-4.5546	mortal"--a	-0.1487
-2.8386	most	-0.4497
-4.5546	mother	-0.1487
-4.5546	motion	-0.1487
-4.5546	motions	-0.1487
-4.5546	motor-car	-0.1487
-4.5546	mountains	-0.1487
-4.2536	mouth	-0.1487
-4.5546	move	-0.1487
-4.5546	moved	-0.1487
-3.7095	movement	-0.4797
-3.6515	movements	-0.3528
-3.9526	moving	-0.2948
-3.2122	much	-0.3596
-4.5546	murder	-0.1487
-4.2536	murdered	-0.2737
-4.5546	murdered;	-0.1487
-2.6004	must	-0.5517
-4.2536	mutability	-0.1487
-3.9526	mutable	-0.4497
-4.5546	mutable--that	-0.1487
-4.5546	mutable:	-0.1487
-4.5546	mutable;	-0.1487
-4.5546	mutable?	-0.1487
-4.5546	mutually	-0.1487
-2.6355	my	-0.4807
-3.1744	myself	-0.3367
-4.5546	mystery	-0.1487
-4.5546	naked	-0.1487
-3.4407	name	-0.3450
-4.5546	name:	-0.1487
-4.5546	name?	-0.1487
-3.4407	namely	-0.5009
-4.5546	namely:	-0.1487
-4.5546	namely:--	-0.1487
-3.9526	names	-0.4497
-4.5546	narrow	-0.1487
-4.5546	narrower	-0.1487
-4.5546	narrowest	-0.1487
-4.5546	nation	-0.1487
-3.3785	natural	-0.3063
-3.9526	naturalistic	-0.1487
-3.3505	naturally	-0.2800
-3.5132	nature	-0.4176
-4.5546	nature"	-0.1487
-4.2536	nature'	-0.1487
-4.5546	nature:	-0.1487
-4.2536	nature;	-0.1487
-4.0775	natures	-0.3706
-4.5546	natures'	-0.1487
-4.5546	nave	-0.1487
-4.5546	nay	-0.1487
-3.7765	near	-0.4497
-4.2536	nearer	-0.4497
-3.7095	nearly	-0.5009
-3.4407	necessarily	-0.2977
-4.5546	necessarily"	-0.1487
-3.3505	necessary	-0.3828
-4.5546	necessities	-0.1487
-3.7765	necessity	-0.1487
-4.5546	necessity--a	-0.1487
-3.2759	need	-0.4005
-4.0775	needed	-0.1487
-4.5546	needing	-0.1487
-3.8557	negative	-0.2279
-4.5546	neglected	-0.1487
-4.5546	neglecting	-0.1487
-4.5546	negligence	-0.1487
-4.2536	neighbour	-0.1487
-4.2536	neighbour"	-0.1487
-4.2536	neighbour's	-0.3248
-3.4085	neither	-0.2849
-4.5546	neither:	-0.1487
-4.5546	neither?	-0.1487
-4.2536	nerves	-0.1487
-4.0775	nervous	-0.3248
-4.5546	net	-0.1487
-3.0106	never	-0.3378
-3.4407	nevertheless	-0.1999
-3.7095	new	-0.2157
-3.9526	next	-0.2067
-4.0775	night	-0.1487
-2.6913	no	-0.4797
-3.7765	nobody	-0.2279
-4.5546	non-given	-0.1487
-4.5546	non-intrinsic	-0.1487
-4.5546	non-moral	-0.1487
-4.5546	non-sensibles	-0.1487
-4.2536	non-sensory	-0.4497
-3.3785	none	-0.4150
-4.5546	nonexistence	-0.1487
-3.7095	nonsense	-0.4497
-4.2536	nonsense;	-0.3248
-3.2122	nor	-0.3019
-4.5546	nose	-0.1487
-2.4977	not	-0.4968
-4.2536	not)	-0.1487
-4.5546	not--that	-0.1487
-4.0775	not:	-0.1487
-3.7095	not;	-0.3528
-4.2536	not?	-0.1487
-4.5546	note	-0.1487
-3.1075	nothing	-0.4955
-4.5546	nothing--certainly	-0.1487
-3.9526	nothing;	-0.1487
-4.0775	notice	-0.1487
-4.5546	noticeable	-0.1487
-3.9526	noticed	-0.2737
-4.2536	noticing	-0.1487
-4.5546	noting	-0.1487
-3.8557	notion	-0.3706
-4.2536	notions	-0.1487
-4.5546	notorious	-0.1487
-2.8734	now	-0.3986
-4.5546	now:	-0.1487
-3.7095	now;	-0.2948
-4.2536	now?	-0.1487
-4.5546	nowadays	-0.1487
-4.5546	nowadays)	-0.1487
-3.5132	number	-0.6258
-4.2536	number;	-0.4497
-3.9526	numbers	-0.3706
-3.9526	numerical	-0.4497
-3.6515	numerically	-0.5747
-4.0775	numerous	-0.1487
-4.5546	numerous;	-0.1487
-2.9748	object	-0.6053
-4.2536	object"	-0.1487
-4.5546	object)	-0.1487
-4.5546	object:	-0.1487
-4.0775	object;	-0.2737
-4.5546	object?	-0.1487
-4.2536	objected	-0.1487
-4.2536	objecting	-0.1487
-3.3242	objection	-0.5533
-3.3785	objections	-0.4497
-4.5546	objections:--	-0.1487
-4.2536	objections;	-0.4497
-3.9526	objective	-0.1487
-4.5546	objectivity	-0.1487
-3.1233	objects	-0.4591
-4.5546	objects--objects	-0.1487
-4.5546	objects--that	-0.1487
-4.2536	objects;	-0.1487
-3.8557	obligation	-0.2948
-4.5546	obligation"	-0.1487
-4.5546	obligation--the	-0.1487
-4.5546	obligation:	-0.1487
-4.5546	obligation;	-0.1487
-4.5546	oblique	-0.1487
-4.2536	obliquely	-0.1487
-4.2536	obscure	-0.1487
-3.0775	observation	-0.5167
-4.5546	observation--by	-0.1487
-4.5546	observation--such	-0.1487
-4.5546	observation:	-0.1487
-4.5546	observation;	-0.1487
-4.5546	observation?	-0.1487
-3.2122	observations	-0.5034
-4.0775	observations?	-0.1487
-3.1929	observe	-0.5167
-4.5546	observe--something	-0.1487
-4.5546	observe:	-0.1487
-4.5546	observe;	-0.1487
-4.5546	observe?	-0.1487
-3.1396	observed	-0.4096
-4.2536	observed?	-0.1487
-4.0775	observes	-0.1487
-3.7095	observing	-0.3248
-4.2536	obtain	-0.1487
-4.0775	obtained	-0.3248
-4.5546	obviate	-0.1487
-3.2122	obvious	-0.4313
-4.5546	obvious:	-0.1487
-4.2536	obvious;	-0.1487
-3.1233	obviously	-0.3364
-3.5132	occasion	-0.4497
-3.6515	occasions	-0.2870
-4.5546	occasions:	-0.1487
-3.7765	occupied	-0.4497
-3.8557	occupy	-0.2456
-4.5546	occupy?	-0.1487
-4.5546	occupying	-0.1487
-3.1567	occur	-0.5369
-4.0775	occur;	-0.2737
-4.5546	occur?	-0.1487
-3.8557	occurred	-0.2456
-3.9526	occurrence	-0.2456
-4.5546	occurrences	-0.1487
-4.2536	occurring	-0.1487
-3.6515	occurs	-0.4217
-4.5546	occurs:--	-0.1487
-1.8003	of	-0.6930
-3.9526	of"	-0.1487
-4.2536	of'	-0.1487
-4.2536	of?	-0.1487
-4.0775	off	-0.1487
-4.5546	offence	-0.1487
-3.7765	offer	-0.1487
-4.2536	offered	-0.1487
-4.2536	offering	-0.1487
-4.2536	offers	-0.1487
-3.0922	often	-0.3013
-4.2536	old	-0.1487
-4.2536	old"	-0.4497
-4.5546	old;	-0.1487
-4.5546	omission	-0.1487
-4.5546	omits	-0.1487
-3.9526	omitted	-0.2737
-2.4827	on	-0.6560
-4.5546	on--involves	-0.1487
-4.5546	on;	-0.1487
-3.3505	once	-0.3358
-4.5546	once"	-0.1487
-4.5546	once--which	-0.1487
-4.5546	once;	-0.1487
-2.4791	one	-0.5793
-4.2536	one"	-0.1487
-4.5546	one"--where	-0.1487
-4.5546	one";	-0.1487
-4.2536	one's	-0.1487
-4.5546	one)	-0.1487
-4.5546	one--of	-0.1487
-4.5546	one--which	-0.1487
-4.5546	one-sided	-0.1487
-4.0775	one:	-0.1487
-4.2536	one;	-0.1487
-4.0775	one?	-0.2456
-3.5132	ones	-0.4217
-4.5546	ones:	-0.1487
-4.2536	ones;	-0.2737
-4.5546	ones?	-0.1487
-2.5908	only	-0.4370
-4.5546	only--this	-0.1487
-4.2536	only;	-0.1487
-3.7765	open	-0.4497
-4.5546	openly	-0.1487
-3.4754	opinion	-0.3344
-3.7095	opinions	-0.2948
-3.9526	opponent	-0.1487
-4.2536	opponents	-0.1487
-4.5546	opportunity	-0.1487
-4.2536	opposed	-0.4497
-4.2536	opposite	-0.1487
-4.5546	opposite:	-0.1487
-4.2536	opposition	-0.1487
-4.5546	optic	-0.1487
-2.0661	or	-0.4248
-4.5546	oracle	-0.1487
-4.0775	orange	-0.1487
-4.5546	orange;	-0.1487
-3.9526	order	-0.4040
-4.2536	ordinarily	-0.1487
-3.6004	ordinary	-0.3986
-4.0775	organic	-0.1487
-4.0775	origin	-0.1487
-3.7095	original	-0.2359
-3.9526	originally	-0.1487
-4.5546	origins	-0.1487
-2.7095	other	-0.4387
-4.5546	other--"seems	-0.1487
-4.5546	other--I	-0.1487
-4.5546	other--a	-0.1487
-4.5546	other--they	-0.1487
-4.5546	other:	-0.1487
-4.0775	other;	-0.2737
-4.5546	other?	-0.1487
-3.1075	others	-0.4682
-4.2536	others:	-0.1487
-4.0775	others;	-0.3248
-4.2536	others?	-0.1487
-3.9526	otherwise	-0.1487
-4.5546	otherwise)	-0.1487
-4.5546	otherwise?	-0.1487
-3.2536	ought	-0.6858
-2.8143	our	-0.4546
-3.9526	ours	-0.3248
-4.5546	ours--that	-0.1487
-3.4407	ourselves	-0.3000
-3.2324	out	-0.4144
-4.5546	out-of-doors	-0.1487
-4.5546	outer	-0.1487
-4.5546	outrageously	-0.1487
-4.5546	outset	-0.1487
-4.5546	outset:	-0.1487
-3.9526	outside	-0.2737
-3.6004	over	-0.3450
-4.5546	over;	-0.1487
-4.5546	overlook	-0.1487
-4.5546	overlooked	-0.1487
-4.2536	overlooking	-0.1487
-4.5546	overthrow	-0.1487
-4.5546	overwhelming	-0.1487
-4.5546	owes	-0.1487
-3.9526	owing	-0.7508
-3.4754	own	-0.3836
-4.5546	own--it	-0.1487
-4.5546	own--to	-0.1487
-4.5546	own:	-0.1487
-4.5546	own;	-0.1487
-4.0775	own?	-0.2737
-4.5546	owns	-0.1487
-4.2536	ox	-0.1487
-3.2759	p	-0.4940
-4.2536	p"	-0.1487
-4.5546	pack	-0.1487
-3.8557	pain	-0.4176
-4.5546	pain--it	-0.1487
-4.0775	pains	-0.1487
-3.7765	pair	-0.3528
-4.5546	pairs	-0.1487
-3.7095	paper	-0.2737
-4.5546	paper--"The	-0.1487
-3.7765	papers	-0.2157
-4.2536	paradox	-0.1487
-4.5546	paradoxes	-0.1487
-3.9526	paradoxical	-0.1487
-4.2536	paragraph	-0.1487
-2.8734	part	-0.8048
-4.5546	part"	-0.1487
-4.5546	part--of	-0.1487
-4.2536	part:	-0.1487
-4.5546	particles	-0.1487
-3.1744	particular	-0.3766
-4.0775	particularly	-0.1487
-3.7095	partly	-0.2579
-4.5546	partner	-0.1487
-3.3242	parts	-0.6258
-4.2536	party	-0.1487
-3.8557	pass	-0.1487
-3.4085	passage	-0.3861
-4.2536	passages	-0.1487
-4.5546	passing	-0.1487
-3.4407	past	-0.3760
-4.5546	past--that	-0.1487
-4.5546	past;	-0.1487
-3.4085	patch	-0.3706
-4.2536	patch"	-0.1487
-4.5546	patch;	-0.1487
-3.6515	patches	-0.5467
-4.5546	pattern	-0.1487
-4.5546	patterns	-0.1487
-3.5546	pay	-0.2737
-4.5546	pay;	-0.1487
-4.5546	paying	-0.1487
-4.2536	pays	-0.4497
-3.9526	peculiar	-0.2456
-4.2536	peculiarities	-0.1487
-4.5546	pencil	-0.1487
-4.5546	penetrates	-0.1487
-4.2536	penny	-0.4497
-3.2324	people	-0.3977
-4.2536	people's	-0.1487
-4.5546	people--does	-0.1487
-4.5546	people:	-0.1487
-4.5546	people;	-0.1487
-4.5546	people?	-0.1487
-4.2536	people?"	-0.1487
-3.2122	perceive	-0.4797
-4.5546	perceive--colours	-0.1487
-4.5546	perceive?	-0.1487
-3.2324	perceived	-0.5421
-4.5546	perceived"--that	-0.1487
-4.5546	perceived"--the	-0.1487
-4.5546	perceived":	-0.1487
-4.5546	perceived--I	-0.1487
-4.5546	perceived--either	-0.1487
-4.5546	perceived--to	-0.1487
-4.5546	perceived:	-0.1487
-4.2536	perceived;	-0.1487
-4.2536	perceives	-0.1487
-4.5546	perceives:	-0.1487
-3.5546	perceiving	-0.3378
-4.5546	perceptible	-0.1487
-3.5546	perceptibly	-0.4761
-3.1233	perception	-0.5959
-4.5546	perception;	-0.1487
-4.5546	perception?	-0.1487
-3.1567	perceptions	-0.6081
-4.5546	perceptions--first	-0.1487
-4.5546	perceptions--one	-0.1487
-4.5546	perceptions:	-0.1487
-4.2536	perceptions;	-0.1487
-4.2536	perceptions?	-0.1487
-4.5546	perceptually	-0.1487
-4.2536	percipere	-0.1487
-4.5546	percipere'	-0.1487
-4.5546	percipere;	-0.1487
-3.1929	percipi	-0.4388
-4.5546	percipi"	-0.1487
-4.2536	percipi'	-0.1487
-3.9526	percipi:	-0.2737
-4.2536	percipi?	-0.4497
-4.5546	percipi?'	-0.1487
-3.9526	perfect	-0.1487
-3.3242	perfectly	-0.4275
-3.2993	perhaps	-0.2398
-4.0775	period	-0.1487
-4.5546	period"	-0.1487
-4.5546	period;	-0.1487
-4.2536	permanently	-0.1487
-4.2536	permission	-0.4497
-4.5546	persistently	-0.1487
-3.3242	person	-0.4406
-4.0775	person's	-0.2279
-4.5546	person:	-0.1487
-4.5546	person;	-0.1487
-4.2536	person?	-0.4497
-3.9526	personal	-0.1487
-4.5546	personally	-0.1487
-3.5132	persons	-0.2377
-4.5546	persons;	-0.1487
-4.2536	persons?	-0.1487
-4.2536	persuade	-0.1487
-4.5546	persuading	-0.1487
-4.5546	perverted	-0.1487
-4.5546	petitio	-0.1487
-4.5546	phenomenally	-0.1487
-3.6515	philosopher	-0.3135
-4.5546	philosopher's	-0.1487
-3.1075	philosophers	-0.5145
-4.5546	philosophers--the	-0.1487
-4.2536	philosophers;	-0.1487
-3.7095	philosophic	-0.3528
-3.7095	philosophical	-0.2579
-4.5546	philosophise	-0.1487
-4.2536	philosophising	-0.4497
-3.6515	philosophy	-0.2359
-4.5546	philosophy--Sensationalism	-0.1487
-4.5546	philosophy:	-0.1487
-4.2536	philosophy;	-0.4497
-3.6004	phrase	-0.1901
-4.5546	phrase;	-0.1487
-3.7765	phrases	-0.1487
-3.2759	physical	-0.4972
-4.2536	physically	-0.1487
-4.5546	physics	-0.1487
-3.9526	pick	-0.7508
-4.5546	picking	-0.1487
-4.5546	piece	-0.1487
-4.2536	pieces	-0.4497
-4.5546	pig	-0.1487
-4.5546	pipe	-0.1487
-3.3505	place	-0.4778
-4.2536	place:	-0.1487
-4.5546	place?	-0.1487
-4.5546	placed	-0.1487
-3.9526	places	-0.3248
-3.2759	plain	-0.4650
-4.2536	plain:	-0.4497
-4.2536	plainest	-0.4497
-3.2536	plainly	-0.2535
-4.5546	planet;	-0.1487
-4.2536	planets	-0.1487
-4.2536	plausibility	-0.1487
-3.6515	plausible	-0.2456
-4.5546	plausible)--systematically	-0.1487
-4.5546	plausibly	-0.1487
-4.2536	play	-0.4497
-4.5546	played	-0.1487
-4.0775	player	-0.1487
-4.2536	players	-0.1487
-4.2536	plead	-0.1487
-4.2536	pleasant	-0.1487
-4.5546	pleasant"	-0.1487
-4.2536	please	-0.4497
-4.5546	pleased	-0.1487
-4.5546	pleased;	-0.1487
-4.5546	pleases	-0.1487
-4.5546	pleasurable	-0.1487
-3.9526	pleasure	-0.2948
-4.5546	pleasure"	-0.1487
-4.2536	plenty	-0.4497
-4.5546	plunge	-0.1487
-4.5546	plural	-0.1487
-4.5546	pocket	-0.1487
-4.5546	pockets	-0.1487
-3.2324	point	-0.4932
-4.5546	point--the	-0.1487
-3.8557	pointed	-0.5467
-3.8557	pointing	-0.5467
-3.4085	points	-0.3861
-4.5546	points"	-0.1487
-4.5546	poisonous	-0.1487
-4.5546	popular	-0.1487
-4.5546	popularly	-0.1487
-3.7095	position	-0.2109
-4.5546	position:	-0.1487
-3.8557	positions	-0.1487
-3.7765	positive	-0.3036
-3.3785	positively	-0.4761
-4.5546	positivistic--a	-0.1487
-3.2536	possess	-0.5306
-4.5546	possess;	-0.1487
-3.7765	possessed	-0.2579
-4.5546	possessed;	-0.1487
-3.4085	possesses	-0.4234
-4.5546	possessing	-0.1487
-4.5546	possession	-0.1487
-4.2536	possessions	-0.1487
-4.0775	possibility	-0.3706
-3.0775	possible	-0.5244
-3.4085	possibly	-0.3654
-3.9526	power	-0.2279
-4.5546	powerful	-0.1487
-4.5546	powers	-0.1487
-4.0775	pp	-0.6258
-4.0775	practically	-0.1487
-4.5546	practice	-0.1487
-4.2536	pragmatist	-0.4497
-4.5546	pray	-0.1487
-4.5546	praying	-0.1487
-4.0775	precede	-0.3248
-3.5546	preceded	-0.4797
-4.5546	precedes	-0.1487
-3.7765	preceding	-0.2948
-3.8557	precise	-0.2157
-3.2122	precisely	-0.5467
-4.0775	precision	-0.6258
-3.4407	predicate	-0.3706
-4.0775	predicated	-0.3248
-3.5132	predicates	-0.3626
-4.5546	predict	-0.1487
-4.5546	prediction	-0.1487
-4.0775	predictions	-0.2737
-4.2536	prefer	-0.1487
-4.5546	prehistoric	-0.1487
-4.2536	prejudice	-0.4497
-4.5546	prejudices	-0.1487
-4.0775	preliminary	-0.1487
-3.7095	premiss	-0.2579
-4.2536	premisses	-0.1487
-4.5546	premisses;	-0.1487
-3.9526	prepared	-0.7508
-4.5546	preposterous	-0.1487
-4.2536	presence	-0.3248
-3.6004	present	-0.2067
-4.5546	presentation	-0.1487
-3.3242	presented	-0.6606
-4.2536	presently	-0.1487
-4.5546	press	-0.1487
-4.5546	pressing	-0.1487
-4.5546	presumably	-0.1487
-4.2536	presumption	-0.3248
-4.5546	presupposes	-0.1487
-4.2536	pretend	-0.4497
-4.5546	pretended	-0.1487
-4.5546	pretends	-0.1487
-3.7095	pretty	-0.4497
-4.5546	prevalent	-0.1487
-3.6515	prevent	-0.2456
-4.2536	prevented	-0.1487
-4.5546	prevention	-0.1487
-3.6515	previous	-0.1999
-3.7765	previously	-0.2870
-4.5546	primarily	-0.1487
-4.0775	primary	-0.3248
-4.5546	principal	-0.1487
-4.5546	principally	-0.1487
-4.5546	principii:	-0.1487
-3.4754	principle	-0.3344
-3.7095	principles	-0.3528
-4.5546	printed	-0.1487
-4.5546	printers	-0.1487
-4.2536	priori	-0.2279
-4.2536	private	-0.4497
-3.9526	probability	-0.1999
-3.4754	probable	-0.4845
-4.5546	probable--more	-0.1487
-4.5546	probable--much	-0.1487
-4.5546	probable--only	-0.1487
-4.5546	probable;	-0.1487
-3.2324	probably	-0.3248
-4.2536	problem	-0.1487
-4.5546	procedure	-0.1487
-4.0775	proceed	-0.4497
-4.2536	process	-0.2737
-4.5546	processes	-0.1487
-3.9526	produce	-0.1487
-4.0775	produced	-0.1487
-4.5546	products	-0.1487
-4.2536	products"	-0.1487
-4.2536	professes	-0.4497
-3.9526	profitable	-0.3706
-4.2536	progress	-0.1487
-4.5546	prominent	-0.1487
-4.5546	promise	-0.1487
-4.5546	promise"	-0.1487
-4.5546	promises	-0.1487
-3.7765	proof	-0.2737
-4.0775	propensity	-0.4497
-3.5546	proper	-0.3792
-4.2536	proper;	-0.1487
-3.4407	properly	-0.3378
-3.2324	properties	-0.4144
-4.5546	properties";	-0.1487
-4.5546	properties'	-0.1487
-3.1744	property	-0.5781
-4.2536	property"	-0.1487
-4.5546	property--namely	-0.1487
-4.2536	property--which	-0.1487
-4.0775	property;	-0.1487
-4.2536	prophesy	-0.1487
-4.5546	prophesy)	-0.1487
-4.5546	proportion	-0.1487
-3.8557	propose	-0.5009
-3.9526	proposed	-0.2456
-4.5546	proposes	-0.1487
-4.5546	proposing	-0.1487
-2.8471	proposition	-0.5196
-4.5546	proposition--and	-0.1487
-4.5546	proposition--the	-0.1487
-4.0775	proposition:	-0.1487
-4.0775	proposition;	-0.1487
-4.5546	proposition?	-0.1487
-2.8825	propositions	-0.6348
-4.5546	propositions:	-0.1487
-4.5546	propositions:--	-0.1487
