[n]
3

[smoother]
kylm.model.ngram.smoother.KNSmoother

[closed]
true

[max_length]
25

[vocab_cutoff]
0

[start_symbol]
<s>

[terminal_symbol]
</s>

[unknown_symbol]
<unk>

\data\
ngram 1=5051
ngram 2=34785
ngram 3=77443
\1-grams: 
-99.0000	<s>	-0.9093
-1.4025	</s>
-4.5414	"(x	-0.1485
-4.2404	";	-0.1485
-3.3653	"a	-0.3915
-4.5414	"a's	-0.1485
-4.5414	"absolute	-0.1485
-4.5414	"absolute"	-0.1485
-4.5414	"activity	-0.1485
-4.5414	"after-images	-0.1485
-4.5414	"after-sensations	-0.1485
-4.5414	"agnosticism	-0.1485
-4.2404	"agree	-0.4495
-4.5414	"agreed	-0.1485
-4.5414	"agreement	-0.1485
-4.5414	"agreement"	-0.1485
-4.5414	"alexander's	-0.1485
-3.5414	"all	-0.5464
-4.5414	"almost	-0.1485
-4.2404	"an	-0.1485
-4.0643	"and	-0.1485
-4.5414	"any	-0.1485
-3.9393	"anything	-0.2734
-4.5414	"anywhere"	-0.1485
-3.7632	"ap	-0.4495
-4.5414	"ap"	-0.1485
-4.5414	"apodeictic")	-0.1485
-4.2404	"appearances"	-0.1485
-4.0643	"aq	-0.2734
-4.0643	"aq"	-0.1485
-4.5414	"ar	-0.1485
-4.5414	"arabian	-0.1485
-4.2404	"are	-0.1485
-4.5414	"arguments	-0.1485
-4.5414	"as	-0.1485
-4.5414	"assimilate	-0.1485
-4.5414	"at	-0.1485
-4.5414	"attention	-0.1485
-4.5414	"awareness	-0.1485
-4.0643	"b	-0.3245
-4.5414	"bad	-0.1485
-4.5414	"be	-0.1485
-4.5414	"beautiful	-0.1485
-3.9393	"beautiful"	-0.1485
-4.5414	"because	-0.1485
-3.5000	"being	-0.3593
-4.5414	"being"	-0.1485
-4.0643	"beliefs	-0.6256
-4.5414	"believe"	-0.1485
-4.2404	"belonging	-0.4495
-4.5414	"belongs	-0.1485
-4.2404	"better	-0.1485
-3.6963	"better"	-0.2946
-4.5414	"bigger"	-0.1485
-4.0643	"blue	-0.3245
-3.6963	"blue"	-0.3915
-4.5414	"bp	-0.1485
-4.2404	"but	-0.1485
-4.5414	"by	-0.1485
-4.0643	"can	-0.3245
-4.5414	"can":	-0.1485
-4.5414	"causality"	-0.1485
-4.5414	"cause	-0.1485
-4.5414	"chimæras	-0.1485
-4.2404	"circular	-0.4495
-4.5414	"circular"	-0.1485
-4.5414	"coloured	-0.1485
-4.5414	"coloured"	-0.1485
-4.5414	"committed	-0.1485
-4.5414	"conceptions	-0.1485
-4.5414	"conjoined"	-0.1485
-4.5414	"conjunction"	-0.1485
-4.5414	"connected	-0.1485
-4.2404	"consciousness	-0.4495
-4.2404	"consciousness"	-0.1485
-4.5414	"consciousness"--that	-0.1485
-4.2404	"constant	-0.1485
-4.2404	"constantly	-0.1485
-4.2404	"containing	-0.1485
-4.2404	"content	-0.4495
-3.5871	"content"	-0.2946
-4.5414	"content"--either	-0.1485
-4.2404	"contents	-0.4495
-3.9393	"contents"	-0.2276
-4.5414	"copy"	-0.1485
-4.5414	"covet"	-0.1485
-4.5414	"deliverances	-0.1485
-4.5414	"demonstrative"	-0.1485
-4.5414	"differ	-0.1485
-4.0643	"different	-0.2734
-3.9393	"direct	-0.2734
-4.2404	"directly	-0.1485
-4.2404	"duty	-0.4495
-4.2404	"duty"	-0.1485
-4.2404	"each	-0.1485
-4.5414	"eggs	-0.1485
-4.5414	"entails"	-0.1485
-4.5414	"entails)	-0.1485
-4.5414	"erlebt	-0.1485
-4.5414	"esse	-0.1485
-4.5414	"eternal	-0.1485
-4.0643	"every	-0.3245
-4.5414	"evil	-0.1485
-4.5414	"excellence"	-0.1485
-4.5414	"excellences	-0.1485
-4.0643	"exist"	-0.1485
-4.2404	"existence	-0.3245
-3.8424	"existence"	-0.2064
-4.5414	"existing	-0.1485
-4.5414	"exists	-0.1485
-4.0643	"exists"	-0.1485
-4.5414	"exists"?	-0.1485
-4.2404	"expedient	-0.1485
-4.5414	"experience"	-0.1485
-4.5414	"experienced	-0.1485
-4.2404	"experienced"	-0.1485
-4.5414	"experiment	-0.1485
-3.9393	"external	-0.1485
-4.5414	"external"	-0.1485
-4.5414	"false	-0.1485
-4.5414	"fatherhood	-0.1485
-4.5414	"fatherhood"	-0.1485
-4.5414	"feel	-0.1485
-4.5414	"follow	-0.1485
-4.5414	"follows	-0.1485
-4.5414	"follows"	-0.1485
-4.5414	"follows";	-0.1485
-4.5414	"for	-0.1485
-4.5414	"form	-0.1485
-4.5414	"formal	-0.1485
-4.5414	"foundation	-0.1485
-4.0643	"founded	-0.3245
-4.5414	"george	-0.1485
-4.5414	"get	-0.1485
-4.2404	"given	-0.1485
-4.5414	"given"	-0.1485
-4.5414	"glass"	-0.1485
-3.6383	"good	-0.4037
-3.5414	"good"	-0.3448
-4.5414	"good"--but	-0.1485
-4.0643	"goodness	-0.6256
-4.5414	"green"	-0.1485
-4.5414	"griffins	-0.1485
-4.5414	"grounded"	-0.1485
-4.2404	"have	-0.1485
-4.2404	"having	-0.1485
-4.5414	"hearing	-0.1485
-4.5414	"hens	-0.1485
-4.2404	"hens"	-0.4495
-4.5414	"hens'	-0.1485
-4.5414	"history	-0.1485
-3.7632	"how	-0.6256
-4.5414	"how"	-0.1485
-4.5414	"howler";	-0.1485
-4.5414	"hullo!	-0.1485
-4.5414	"hylas	-0.1485
-3.3373	"i	-0.4688
-4.2404	"i"	-0.1485
-4.5414	"idea"	-0.1485
-3.9393	"ideal"	-0.2454
-4.5414	"ideal"--something	-0.1485
-4.5414	"ideas	-0.1485
-4.2404	"ideas"	-0.1485
-4.5414	"ideas")	-0.1485
-4.5414	"identity	-0.1485
-3.5871	"if	-0.4495
-4.2404	"images	-0.1485
-4.0643	"images"	-0.1485
-4.5414	"images";	-0.1485
-4.5414	"imaginary";	-0.1485
-4.5414	"immediately	-0.1485
-4.2404	"immutable	-0.4495
-4.5414	"implication	-0.1485
-4.5414	"implication"	-0.1485
-4.2404	"implies"	-0.1485
-4.5414	"impossibility"	-0.1485
-4.0643	"impossible"	-0.3245
-3.5414	"in	-0.5464
-4.5414	"inseparable	-0.1485
-4.5414	"instinct"	-0.1485
-4.0643	"instrumental"	-0.6256
-4.5414	"intelligible	-0.1485
-4.2404	"intermediate	-0.4495
-3.9393	"internal	-0.5464
-3.9393	"internal"	-0.2454
-4.5414	"internal";	-0.1485
-4.5414	"internality	-0.1485
-4.0643	"internality"	-0.3245
-3.6963	"intrinsic	-0.4495
-3.6963	"intrinsic"	-0.1996
-4.5414	"intrinsic"--a	-0.1485
-4.5414	"intrinsic?"	-0.1485
-4.5414	"intrinsical";	-0.1485
-4.0643	"intrinsically	-0.1485
-4.5414	"intuitive"	-0.1485
-3.5000	"is	-0.3983
-3.3373	"it	-0.6458
-4.5414	"judged"	-0.1485
-4.5414	"judgments	-0.1485
-4.5414	"knew	-0.1485
-4.5414	"know"	-0.1485
-4.2404	"lay"	-0.4495
-4.5414	"leave	-0.1485
-4.5414	"like	-0.1485
-4.5414	"likeness"	-0.1485
-3.7632	"lions	-0.9266
-4.5414	"logically	-0.1485
-4.2404	"love	-0.1485
-4.2404	"love"	-0.1485
-4.2404	"made"	-0.1485
-3.8424	"make	-0.8474
-4.2404	"make"	-0.1485
-4.5414	"making	-0.1485
-4.2404	"making"	-0.1485
-4.5414	"mammalian"	-0.1485
-4.2404	"man-made	-0.1485
-4.5414	"mark	-0.1485
-3.8424	"material	-0.4495
-4.5414	"materially	-0.1485
-4.2404	"matter	-0.1485
-4.0643	"matters	-0.6256
-4.2404	"me	-0.3245
-4.5414	"me"	-0.1485
-4.2404	"mental	-0.1485
-4.5414	"mere	-0.1485
-4.5414	"metaphysical"	-0.1485
-4.5414	"metaphysics	-0.1485
-4.2404	"modify	-0.4495
-3.7632	"modify"	-0.2734
-4.5414	"moon	-0.1485
-3.8424	"moral	-0.3703
-4.0643	"morally	-0.3245
-4.2404	"must	-0.1485
-4.0643	"must"	-0.1485
-4.2404	"mutable	-0.4495
-3.6383	"my	-0.5006
-4.5414	"napoleon	-0.1485
-4.5414	"naturalistic"	-0.1485
-4.0643	"necessary	-0.3245
-4.5414	"necessary"	-0.1485
-3.8424	"no	-0.1485
-4.5414	"no;	-0.1485
-4.5414	"non-intrinsic	-0.1485
-4.2404	"non-subjective	-0.4495
-4.0643	"not	-0.1485
-4.5414	"nothing	-0.1485
-4.5414	"notions"	-0.1485
-4.5414	"object	-0.1485
-4.5414	"object"	-0.1485
-3.5871	"objective	-0.7127
-3.5871	"objective"	-0.1898
-4.5414	"objective;"	-0.1485
-3.7632	"objectivity	-0.6925
-3.6963	"objectivity"	-0.2946
-4.0643	"objects	-0.3245
-4.2404	"objects"	-0.1485
-4.5414	"observation	-0.1485
-3.9393	"observation"	-0.3703
-4.5414	"observe	-0.1485
-4.2404	"observe"	-0.1485
-4.2404	"of	-0.1485
-4.5414	"orange	-0.1485
-4.5414	"orange"	-0.1485
-4.5414	"other	-0.1485
-4.0643	"ought	-0.6256
-3.6383	"ought"	-0.2576
-3.8424	"our	-0.1485
-4.5414	"our"	-0.1485
-4.5414	"ours	-0.1485
-4.5414	"ours"	-0.1485
-4.5414	"over-ligned"	-0.1485
-3.3953	"p	-0.5744
-4.5414	"part	-0.1485
-4.2404	"part"	-0.1485
-4.5414	"parts"	-0.1485
-4.0643	"pay	-0.2454
-3.5000	"paying	-0.4795
-4.2404	"paying"	-0.4495
-4.2404	"pays	-0.1485
-4.2404	"perceive	-0.4495
-3.9393	"perceive"	-0.2154
-4.0643	"perceived	-0.4495
-4.2404	"perceived"	-0.1485
-4.2404	"perception	-0.4495
-4.5414	"perceptually	-0.1485
-4.0643	"physical	-0.3245
-4.5414	"point	-0.1485
-4.5414	"pointed	-0.1485
-4.0643	"points	-0.3245
-4.5414	"politics	-0.1485
-4.5414	"popular	-0.1485
-4.5414	"positivistic"	-0.1485
-4.5414	"possible	-0.1485
-4.5414	"pragmatist	-0.1485
-4.5414	"presented	-0.1485
-4.5414	"presented"	-0.1485
-4.5414	"primary"	-0.1485
-4.5414	"principles	-0.1485
-4.5414	"profitable	-0.1485
-4.5414	"pure	-0.1485
-4.5414	"purely	-0.1485
-4.0643	"q	-0.2734
-3.6383	"real	-1.0515
-3.5000	"real"	-0.4037
-4.2404	"real":	-0.1485
-4.2404	"reality	-0.1485
-3.8424	"reality"	-0.1485
-4.5414	"really	-0.1485
-4.2404	"reason	-0.1485
-4.5414	"reason"	-0.1485
-4.5414	"red"	-0.1485
-4.5414	"relation"	-0.1485
-4.2404	"relational	-0.1485
-3.9393	"relations	-0.4495
-4.2404	"relations"	-0.1485
-4.5414	"relative":	-0.1485
-4.2404	"right"	-0.4495
-4.5414	"rq	-0.1485
-4.5414	"secondary	-0.1485
-3.7632	"see"	-0.1485
-4.5414	"seeing	-0.1485
-4.5414	"seeing"	-0.1485
-4.5414	"seems	-0.1485
-4.5414	"self-evident	-0.1485
-4.5414	"self-sufficient":	-0.1485
-4.2404	"sensation	-0.1485
-4.5414	"sensations	-0.1485
-4.5414	"sense-contents	-0.1485
-4.5414	"sense-contents!"	-0.1485
-4.5414	"sense-contents"	-0.1485
-4.5414	"sense-contents";	-0.1485
-4.5414	"sense-data	-0.1485
-4.0643	"sense-data"	-0.1485
-4.5414	"sense-datum"	-0.1485
-4.2404	"sensibles	-0.3245
-4.5414	"sensibles"	-0.1485
-4.5414	"sensibles";	-0.1485
-4.5414	"sensory	-0.1485
-4.5414	"side	-0.1485
-4.5414	"sign	-0.1485
-4.5414	"sign"	-0.1485
-4.2404	"so	-0.1485
-4.5414	"something	-0.1485
-4.5414	"sophistry	-0.1485
-4.5414	"source	-0.1485
-4.0643	"source"	-0.1485
-4.5414	"sources	-0.1485
-4.0643	"sources"	-0.3245
-4.5414	"space	-0.1485
-4.5414	"spiritual	-0.1485
-4.5414	"spiritual"	-0.1485
-4.5414	"static"	-0.1485
-4.5414	"strong	-0.1485
-3.7632	"subjective	-0.5164
-3.7632	"subjective"	-0.1996
-4.5414	"subjective";	-0.1485
-4.2404	"subjectivity	-0.1485
-4.5414	"substance	-0.1485
-4.5414	"substance"	-0.1485
-4.5414	"sweet	-0.1485
-4.5414	"systematically	-0.1485
-3.6963	"temporal	-0.5744
-4.5414	"terms	-0.1485
-3.4274	"that	-0.4117
-3.3653	"the	-0.2276
-3.4622	"there	-0.9936
-4.5414	"there's	-0.1485
-4.2404	"thing	-0.1485
-4.5414	"thing"	-0.1485
-4.2404	"things	-0.1485
-4.0643	"things"	-0.1485
-3.2192	"this	-0.5744
-4.5414	"this"	-0.1485
-4.2404	"thou	-0.4495
-4.2404	"through	-0.4495
-4.5414	"thy	-0.1485
-3.1435	"time	-0.6925
-4.2404	"time"	-0.1485
-4.2404	"to	-0.1485
-4.5414	"to-morrow"	-0.1485
-3.8424	"true	-0.2454
-4.5414	"true")	-0.1485
-4.5414	"truth	-0.1485
-4.5414	"truth"	-0.1485
-4.5414	"truth-making"	-0.1485
-4.5414	"truths	-0.1485
-4.5414	"ugly;"	-0.1485
-4.5414	"unconditional"	-0.1485
-3.8424	"unicorns	-0.4495
-4.5414	"unicorns"	-0.1485
-4.0643	"unreal	-0.3245
-4.5414	"unreal"	-0.1485
-4.2404	"useful	-0.3245
-4.5414	"useful"	-0.1485
-4.5414	"usefulness"	-0.1485
-4.0643	"utility	-0.1485
-4.2404	"utility"	-0.1485
-4.5414	"validly	-0.1485
-4.2404	"verifiability"	-0.4495
-4.5414	"verification	-0.1485
-4.0643	"verification"	-0.3245
-4.5414	"verified	-0.1485
-4.2404	"verify"	-0.1485
-4.5414	"virtue	-0.1485
-4.5414	"virtue"	-0.1485
-4.5414	"virtue";	-0.1485
-4.2404	"vorstellungen"	-0.1485
-3.7632	"we	-0.2276
-3.6383	"what	-0.3034
-4.5414	"what"--if	-0.1485
-4.5414	"whatever	-0.1485
-4.5414	"which	-0.1485
-4.5414	"work	-0.1485
-4.0643	"works	-0.3245
-4.2404	"would	-0.4495
-4.2404	"wrong	-0.4495
-3.9393	"wrong"	-0.1485
-3.3953	"xp	-1.0235
-4.5414	"xq	-0.1485
-4.5414	"yellow	-0.1485
-4.0643	"yellow"	-0.1485
-4.5414	"yellowness"	-0.1485
-4.5414	"you	-0.1485
-4.5414	"°"	-0.1485
-4.2404	"°yp°	-0.1485
-4.5414	'"that	-0.1485
-4.5414	'--the	-0.1485
-4.5414	';	-0.1485
-4.2404	'a	-0.4495
-4.2404	'analytic'	-0.1485
-4.5414	'appear'	-0.1485
-4.5414	'awareness'	-0.1485
-4.5414	'b	-0.1485
-4.5414	'be	-0.1485
-4.2404	'beautiful	-0.1485
-4.5414	'beauty'	-0.1485
-3.9393	'being	-0.4495
-4.5414	'being'	-0.1485
-4.5414	'better	-0.1485
-4.2404	'blue	-0.1485
-4.5414	'blue'	-0.1485
-4.5414	'blueness'	-0.1485
-4.5414	'both	-0.1485
-4.5414	'c	-0.1485
-4.2404	'cannot'	-0.4495
-4.5414	'causes	-0.1485
-4.5414	'consciousness	-0.1485
-4.5414	'consciousness'	-0.1485
-4.2404	'content'	-0.1485
-4.2404	'difference	-0.4495
-4.5414	'different	-0.1485
-4.5414	'differing	-0.1485
-4.5414	'effect	-0.1485
-3.5871	'esse	-0.6713
-4.0643	'esse'	-0.3245
-4.5414	'eternal'	-0.1485
-4.5414	'exists	-0.1485
-4.2404	'experience'	-0.1485
-4.5414	'experiencing'	-0.1485
-4.5414	'goodness'	-0.1485
-4.5414	'green'	-0.1485
-4.5414	'grey'	-0.1485
-4.5414	'greys	-0.1485
-3.9393	'having	-0.5464
-4.5414	'i	-0.1485
-4.5414	'idealism'	-0.1485
-4.5414	'illegitimate	-0.1485
-4.5414	'image'	-0.1485
-4.5414	'impossibility	-0.1485
-4.5414	'impossibility'	-0.1485
-4.5414	'impossible	-0.1485
-4.2404	'intrinsic	-0.4495
-4.0643	'intrinsic'	-0.3245
-4.0643	'intrinsically	-0.3245
-4.0643	'is	-0.1485
-4.5414	'knowing	-0.1485
-4.5414	'knowing'	-0.1485
-4.5414	'knowledge'	-0.1485
-4.5414	'moon'	-0.1485
-4.0643	'must	-0.3245
-4.2404	'must'	-0.1485
-4.5414	'necessarily'	-0.1485
-4.0643	'necessity'	-0.3245
-4.5414	'not	-0.1485
-4.5414	'object'	-0.1485
-4.5414	'one'	-0.1485
-4.5414	'ones	-0.1485
-4.2404	'organic	-0.1485
-4.5414	'percipi'	-0.1485
-4.2404	'percipi':	-0.1485
-4.5414	'principles	-0.1485
-4.2404	'real'	-0.1485
-3.9393	'reality	-0.4495
-4.5414	'reality'	-0.1485
-4.5414	'redness'	-0.1485
-4.5414	'sensation	-0.1485
-4.2404	'sensation'	-0.1485
-4.5414	'spirit	-0.1485
-4.5414	'subjective	-0.1485
-4.5414	'sweet	-0.1485
-4.5414	'sweet'	-0.1485
-4.2404	'synthetic'	-0.1485
-4.2404	'that	-0.1485
-4.5414	'the	-0.1485
-4.5414	'thing'	-0.1485
-4.5414	'thought	-0.1485
-4.5414	'thought'	-0.1485
-4.0643	'time	-0.3245
-4.5414	'time'	-0.1485
-4.5414	'true'	-0.1485
-4.5414	'twice	-0.1485
-4.5414	'what	-0.1485
-4.5414	'white'	-0.1485
-4.5414	'whites	-0.1485
-4.5414	'yellow'	-0.1485
-4.5414	'yellowness'	-0.1485
-3.0790	(1)	-0.5102
-3.2626	(2)	-0.4379
-4.5414	(2nd	-0.1485
-3.6963	(3)	-0.1485
-4.0643	(4)	-0.1485
-4.5414	(5)	-0.1485
-4.5414	(a	-0.1485
-3.7632	(a)	-0.2276
-4.5414	(according	-0.1485
-4.5414	(again	-0.1485
-4.5414	(although	-0.1485
-4.2404	(among	-0.1485
-3.5871	(and	-0.2576
-3.4622	(as	-0.4795
-4.0643	(b)	-0.2734
-4.5414	(beside	-0.1485
-4.5414	(by	-0.1485
-4.0643	(c)	-0.1485
-4.5414	(correctly)	-0.1485
-3.9393	(d)	-0.2734
-4.5414	(d);	-0.1485
-4.5414	(directly	-0.1485
-4.5414	(e	-0.1485
-4.0643	(e)	-0.3245
-4.0643	(even	-0.3245
-4.5414	(falsely)	-0.1485
-4.5414	(first	-0.1485
-4.5414	(following	-0.1485
-4.2404	(for	-0.1485
-4.5414	(h)	-0.1485
-4.5414	(he	-0.1485
-4.0643	(i	-0.1485
-4.2404	(i)	-0.1485
-4.5414	(ideas	-0.1485
-3.3653	(if	-0.3112
-4.5414	(ii)	-0.1485
-4.5414	(iii)	-0.1485
-3.6383	(in	-0.6256
-4.5414	(indeed	-0.1485
-4.0643	(it	-0.3245
-4.5414	(iv)	-0.1485
-4.5414	(ix)	-0.1485
-4.5414	(luke	-0.1485
-4.5414	(mind	-0.1485
-4.2404	(namely	-0.1485
-4.2404	(on	-0.1485
-3.9393	(or	-0.1485
-4.5414	(other	-0.1485
-3.5000	(p	-1.1898
-4.5414	(perhaps	-0.1485
-4.2404	(pp	-0.4495
-4.5414	(presented	-0.1485
-4.2404	(professor	-0.4495
-3.8424	(q	-0.4495
-4.5414	(r	-0.1485
-4.5414	(rightly	-0.1485
-4.5414	(see	-0.1485
-4.2404	(so	-0.4495
-4.5414	(some	-0.1485
-4.5414	(that	-0.1485
-4.0643	(the	-0.1485
-4.5414	(they	-0.1485
-3.8424	(though	-0.2454
-4.0643	(to	-0.3245
-4.5414	(under	-0.1485
-4.2404	(validly	-0.4495
-4.5414	(viii	-0.1485
-4.5414	(viz	-0.1485
-4.5414	(we	-0.1485
-3.8424	(what	-0.2454
-3.9393	(whatever	-0.2454
-4.2404	(when	-0.1485
-4.5414	(where	-0.1485
-4.0643	(whether	-0.3245
-4.0643	(which	-0.1485
-4.5414	(with	-0.1485
-4.0643	(x	-0.3245
-4.5414	(y	-0.1485
-4.2404	(°x	-0.4495
-4.2404	(°y	-0.2734
-4.2404	(β)	-0.1485
-3.2861	*	-0.2639
-4.2404	+	-0.1485
-1.4218	,	-1.1339
-2.1990	,"	-0.7552
-4.5414	,"--a	-0.1485
-3.1990	,'	-0.3245
-4.5414	,--a	-0.1485
-4.5414	,[1]	-0.1485
-4.5414	,[2]	-0.1485
-4.5414	--a	-0.1485
-4.5414	--considerations	-0.1485
-4.5414	--or	-0.1485
-4.5414	--which	-0.1485
-1.6218	.	-1.1524
-2.3653	."	-0.7569
-4.5414	."[1]	-0.1485
-4.5414	."[2]	-0.1485
-3.4622	.'	-0.2734
-4.5414	.)	-0.1485
-4.5414	.--do	-0.1485
-4.5414	.--which	-0.1485
-4.5414	.15	-0.1485
-4.5414	.;	-0.1485
-4.2404	.[1]	-0.1485
-4.5414	.]	-0.1485
-4.5414	.e	-0.1485
-4.2404	.g	-0.4495
-4.5414	.m	-0.1485
-4.5414	.s	-0.1485
-4.5414	.°	-0.1485
-3.9393	1	-0.1485
-4.5414	10	-0.1485
-4.5414	100-101	-0.1485
-4.5414	105	-0.1485
-4.5414	11	-0.1485
-4.5414	12	-0.1485
-4.5414	13	-0.1485
-4.5414	131-2	-0.1485
-4.5414	142)	-0.1485
-4.5414	160)	-0.1485
-4.5414	166)	-0.1485
-4.5414	17-18	-0.1485
-4.5414	179)	-0.1485
-4.5414	1800	-0.1485
-4.5414	1807	-0.1485
-4.5414	1902	-0.1485
-4.5414	1903	-0.1485
-4.5414	1907	-0.1485
-4.5414	1907;	-0.1485
-4.5414	1909	-0.1485
-4.5414	1910	-0.1485
-4.2404	1921	-0.1485
-4.5414	1922	-0.1485
-4.2404	2	-0.1485
-4.5414	2+2=4	-0.1485
-4.5414	201)	-0.1485
-4.5414	206)	-0.1485
-4.5414	209)	-0.1485
-4.5414	21)	-0.1485
-4.5414	218)	-0.1485
-4.5414	21st	-0.1485
-4.5414	222)	-0.1485
-4.5414	231-232)	-0.1485
-4.5414	242)	-0.1485
-4.5414	27)	-0.1485
-4.5414	286	-0.1485
-4.5414	286)	-0.1485
-4.5414	287	-0.1485
-4.5414	289	-0.1485
-4.5414	290)	-0.1485
-4.5414	2=	-0.1485
-4.5414	2nd	-0.1485
-4.5414	3	-0.1485
-4.5414	34)	-0.1485
-4.5414	35	-0.1485
-4.5414	35)	-0.1485
-4.5414	364)	-0.1485
-4.5414	392)	-0.1485
-4.2404	4	-0.4495
-4.5414	43)	-0.1485
-4.5414	46)	-0.1485
-4.5414	555)	-0.1485
-4.5414	6	-0.1485
-4.2404	75)	-0.4495
-4.5414	89	-0.1485
-4.5414	93	-0.1485
-3.3953	=	-0.2576
-4.5414	[1]	-0.1485
-4.5414	[2]	-0.1485
-4.5414	[any	-0.1485
-4.5414	[i	-0.1485
-4.5414	[mine]	-0.1485
-4.5414	[propositions	-0.1485
-2.0716	a	-0.6152
-3.8424	a"	-0.3915
-4.5414	a";	-0.1485
-3.7632	a's	-0.2946
-4.2404	a)	-0.1485
-4.5414	a--must	-0.1485
-4.5414	a--numerically	-0.1485
-4.2404	a:	-0.1485
-4.5414	a;	-0.1485
-4.2404	ability	-0.1485
-3.6963	able	-0.4495
-2.6722	about	-0.5744
-3.5871	above	-0.2576
-4.5414	above:	-0.1485
-4.5414	absence	-0.1485
-3.8424	absolute	-0.2064
-4.5414	absolute;	-0.1485
-3.3373	absolutely	-0.3403
-4.5414	absolve	-0.1485
-4.5414	absolved	-0.1485
-4.5414	abstract	-0.1485
-4.5414	abstracted--that	-0.1485
-4.2404	abstraction	-0.1485
-4.5414	abstractions	-0.1485
-4.5414	abstractions'	-0.1485
-4.2404	abstractly	-0.1485
-3.9393	absurd	-0.2734
-4.5414	abundant	-0.1485
-4.0643	accept	-0.2454
-3.8424	accepted	-0.2454
-4.5414	accident	-0.1485
-3.8424	accompanied	-0.5164
-4.5414	accompaniments	-0.1485
-4.2404	accordance	-0.4495
-3.9393	according	-0.4495
-3.9393	accordingly	-0.2454
-4.5414	accordingly:	-0.1485
-3.5871	account	-0.3703
-4.2404	accurate	-0.1485
-3.9393	accurately	-0.2454
-4.5414	accuse	-0.1485
-4.2404	accusing	-0.4495
-4.5414	accustomed	-0.1485
-4.5414	acknowledge	-0.1485
-4.5414	acknowledged	-0.1485
-4.5414	acquaintance	-0.1485
-4.5414	acquainted	-0.1485
-4.5414	acquired--is	-0.1485
-4.5414	acquires	-0.1485
-4.5414	acquiring	-0.1485
-3.7632	act	-0.3245
-4.5414	act;	-0.1485
-4.5414	acting	-0.1485
-3.5871	action	-0.3623
-3.4274	actions	-0.4081
-4.2404	actions;	-0.1485
-4.5414	active	-0.1485
-4.5414	actively	-0.1485
-4.0643	activity	-0.2454
-4.5414	activity--where	-0.1485
-3.6963	acts	-0.4117
-3.5414	actual	-0.2028
-2.9503	actually	-0.3215
-4.0643	add	-0.2734
-4.5414	added	-0.1485
-4.5414	addicted	-0.1485
-4.2404	addition	-0.1485
-4.5414	additional	-0.1485
-4.5414	address	-0.1485
-4.0643	adds	-0.1485
-4.5414	adds)	-0.1485
-4.5414	adds:	-0.1485
-4.5414	adequate	-0.1485
-4.5414	adhere	-0.1485
-4.5414	admirers	-0.1485
-4.5414	admission	-0.1485
-3.1797	admit	-0.5922
-4.5414	admit)	-0.1485
-3.6383	admits	-0.4495
-3.6383	admitted	-0.4247
-4.5414	admittedly	-0.1485
-3.7632	admitting	-0.3245
-3.8424	adopt	-0.2154
-3.7632	adopted	-0.2154
-4.5414	adopting	-0.1485
-4.5414	advanced	-0.1485
-4.2404	advantage	-0.4495
-4.5414	advocate	-0.1485
-4.5414	advocating	-0.1485
-4.2404	aesthetic	-0.1485
-4.5414	aesthetics	-0.1485
-4.5414	affairs	-0.1485
-4.0643	affect	-0.1485
-4.2404	affects	-0.1485
-4.0643	affirm	-0.2454
-4.5414	affirmative	-0.1485
-4.5414	affirmed	-0.1485
-4.2404	affirms	-0.1485
-4.5414	afford	-0.1485
-4.0643	afraid	-0.1485
-3.6963	after	-0.3034
-4.5414	after-images	-0.1485
-4.5414	afternoon	-0.1485
-4.2404	afterwards	-0.1485
-3.0500	again	-0.4173
-4.5414	again:	-0.1485
-4.5414	again;	-0.1485
-3.3653	against	-0.4310
-4.5414	agency	-0.1485
-4.5414	agent	-0.1485
-4.5414	agent's	-0.1485
-4.5414	agnostic's	-0.1485
-4.2404	agnosticism	-0.1485
-3.4274	agree	-0.4173
-4.5414	agree;	-0.1485
-4.5414	agreeableness	-0.1485
-3.8424	agreed	-0.2154
-4.2404	agreement	-0.1485
-4.5414	aims	-0.1485
-4.5414	air	-0.1485
-4.5414	akin	-0.1485
-4.0643	alexander	-0.6256
-3.9393	alike	-0.2576
-4.5414	alike'	-0.1485
-4.5414	alike--have	-0.1485
-4.5414	alike:	-0.1485
-4.2404	alike;	-0.1485
-2.5591	all	-0.5606
-4.0643	all)	-0.1485
-4.5414	all--for	-0.1485
-4.5414	all:	-0.1485
-4.2404	all;	-0.1485
-4.5414	all?	-0.1485
-4.5414	alleged)	-0.1485
-4.5414	allied	-0.1485
-3.5871	allow	-0.4495
-4.2404	allowed	-0.3245
-4.0643	allowing	-0.3245
-4.0643	allows	-0.3245
-4.5414	alluded	-0.1485
-4.5414	allusions	-0.1485
-3.2626	almost	-0.5695
-3.2192	alone	-0.4195
-4.5414	alone--but	-0.1485
-4.5414	alone?	-0.1485
-3.8424	along	-0.4495
-4.5414	alps	-0.1485
-3.7632	already	-0.1485
-2.6493	also	-0.4139
-4.5414	also"	-0.1485
-4.5414	also--that	-0.1485
-4.5414	also:	-0.1485
-4.2404	also;	-0.1485
-4.2404	alter	-0.4495
-4.2404	alterations	-0.1485
-4.5414	altered	-0.1485
-3.6383	alternative	-0.1898
-3.8424	alternatives	-0.2454
-4.5414	alters	-0.1485
-3.5000	although	-0.2666
-4.0643	altogether	-0.1485
-4.5414	altogether;	-0.1485
-2.9973	always	-0.3397
-4.5414	alwayst	-0.1485
-3.3953	am	-0.2425
-3.7632	ambiguity	-0.2276
-4.5414	ambiguity--this	-0.1485
-3.5414	ambiguous	-0.3245
-4.5414	ambiguous;	-0.1485
-4.5414	amended	-0.1485
-3.1797	among	-0.4614
-4.5414	amongst	-0.1485
-3.7632	amount	-0.2946
-4.0643	amounts	-0.3245
-4.5414	ample	-0.1485
-2.5729	an	-0.4990
-4.5414	analogous	-0.1485
-4.2404	analogy	-0.1485
-4.2404	analysable	-0.4495
-4.5414	analysable;	-0.1485
-4.5414	analysed	-0.1485
-3.6383	analysis	-0.4173
-3.9393	analytic	-0.1485
-4.5414	analytically	-0.1485
-1.7421	and	-0.6195
-4.5414	anger	-0.1485
-4.0643	angle	-0.3245
-4.0643	angle"	-0.4495
-4.2404	angle)	-0.1485
-4.5414	angle)"	-0.1485
-4.5414	angrily	-0.1485
-4.0643	angry	-0.1485
-4.5414	angry;	-0.1485
-4.5414	animal	-0.1485
-4.2404	animals	-0.1485
-2.9503	another	-0.4429
-4.0643	another's	-0.3245
-4.5414	another--in	-0.1485
-4.5414	another--namely	-0.1485
-4.2404	another--that	-0.1485
-4.5414	another--the	-0.1485
-4.0643	another:	-0.1485
-3.5871	another;	-0.3448
-3.8424	another?	-0.2064
-3.1797	answer	-0.4795
-4.5414	answer:	-0.1485
-4.5414	answer;	-0.1485
-3.9393	answered	-0.3245
-4.5414	answering	-0.1485
-4.0643	answers	-0.1485
-4.5414	antinomy:	-0.1485
-3.5871	anxious	-1.1027
-2.4883	any	-0.5212
-4.0643	any)	-0.2276
-3.8424	anybody	-0.1996
-3.5000	anyone	-0.2028
-4.5414	anyone;	-0.1485
-2.8979	anything	-0.6507
-4.5414	anything";	-0.1485
-4.5414	anything--when	-0.1485
-4.5414	anything;	-0.1485
-4.5414	anyway	-0.1485
-3.9393	anywhere	-0.4495
-3.7632	ap	-0.3245
-4.5414	ap)	-0.1485
-3.7632	apart	-0.9266
-4.5414	apology	-0.1485
-4.5414	apology?"	-0.1485
-4.5414	apparent	-0.1485
-3.6383	apparently	-0.2576
-4.0643	appeal	-0.6256
-4.5414	appeals	-0.1485
-3.6383	appear	-0.5464
-3.6963	appearance	-0.5164
-4.5414	appearance"	-0.1485
-3.7632	appearances	-0.3245
-4.5414	appearances--the	-0.1485
-3.9393	appeared	-0.4495
-4.5414	appearing	-0.1485
-3.4274	appears	-0.6008
-4.5414	appears)	-0.1485
-4.5414	appendix	-0.1485
-4.5414	application	-0.1485
-3.8424	applied	-0.1485
-3.7632	applies	-0.3245
-3.3653	apply	-0.4707
-4.0643	apprehend	-0.1733
-3.9393	apprehended	-0.3082
-4.2404	apprehending	-0.2734
-4.5414	apprehending:	-0.1485
-4.2404	apprehends	-0.1485
-4.0643	apprehension	-0.1996
-4.5414	apprehension"	-0.1485
-4.2404	approach	-0.4495
-4.0643	approximately	-0.4495
-3.9393	apt	-0.4495
-3.8424	aq	-0.3245
-4.2404	aq"	-0.1485
-3.9393	ar	-0.2454
-4.2404	ar"	-0.1485
-4.5414	arbitrarily	-0.1485
-4.5414	arbitrary	-0.1485
-2.2318	are	-0.5022
-4.5414	are--a	-0.1485
-4.5414	are--is	-0.1485
-4.5414	are;	-0.1485
-3.9393	area	-0.2454
-4.5414	area?	-0.1485
-4.5414	areal?	-0.1485
-4.2404	areas	-0.1485
-4.5414	arguable	-0.1485
-4.5414	argue	-0.1485
-4.2404	argued	-0.1485
-4.5414	argues	-0.1485
-4.2404	arguing	-0.1485
-4.5414	arguing)	-0.1485
-3.1612	argument	-0.3892
-4.5414	argument)	-0.1485
-4.5414	argument:	-0.1485
-3.2404	arguments	-0.4156
-3.6383	arise	-0.2734
-4.5414	arise;	-0.1485
-4.0643	arise?"	-0.3245
-3.9393	arises	-0.2276
-4.5414	arising	-0.1485
-4.5414	aristotelian	-0.1485
-3.7632	aristotle	-0.1485
-4.2404	aristotle's	-0.1485
-4.5414	army	-0.1485
-4.5414	arranged	-0.1485
-4.5414	arrangement	-0.1485
-4.0643	arrive	-0.6256
-4.0643	arrived	-0.1485
-4.0643	arrow-heads	-0.1485
-4.5414	arrowheads	-0.1485
-4.5414	art	-0.1485
-4.0643	article	-0.1485
-4.2404	articles	-0.1485
-4.5414	arty	-0.1485
-2.1149	as	-0.6424
-4.5414	ascribe	-0.1485
-4.5414	aside	-0.1485
-3.5871	ask	-0.3245
-4.5414	ask)	-0.1485
-4.5414	ask--from	-0.1485
-3.9393	ask:	-0.3915
-4.5414	ask;	-0.1485
-3.9393	asked	-0.2734
-4.5414	asked:	-0.1485
-3.5414	asking	-0.5102
-4.2404	asking:	-0.3245
-4.5414	asks	-0.1485
-4.0643	asleep	-0.3245
-4.5414	asleep;	-0.1485
-4.2404	aspect	-0.2734
-4.0643	aspects	-0.3245
-4.5414	ass	-0.1485
-4.0643	assent	-0.4495
-3.0500	assert	-0.4595
-4.5414	assert:	-0.1485
-4.5414	assert;	-0.1485
-4.2404	assert?	-0.1485
-3.2861	asserted	-0.3245
-4.5414	asserted)	-0.1485
-4.2404	asserted;	-0.1485
-4.5414	asserted?--for	-0.1485
-3.2192	asserting	-0.4842
-3.1990	assertion	-0.4584
-4.5414	assertion:	-0.1485
-4.5414	assertion;	-0.1485
-3.5871	assertions	-0.2064
-3.1797	asserts	-0.5195
-4.5414	asserts:	-0.1485
-4.5414	assigned	-0.1485
-4.5414	assigning	-0.1485
-4.5414	assimilate	-0.1485
-4.5414	association	-0.1485
-3.3953	assume	-0.4937
-4.5414	assume)	-0.1485
-3.6383	assumed	-0.4037
-4.0643	assumes	-0.2734
-3.5414	assuming	-0.4495
-3.4622	assumption	-0.3061
-4.5414	assumption;	-0.1485
-4.5414	assumption?	-0.1485
-3.6963	assumptions	-0.1942
-4.0643	assure	-0.2734
-4.5414	astronomy	-0.1485
-2.2672	at	-0.9468
-4.2404	atmosphere	-0.1485
-4.5414	attach	-0.1485
-4.2404	attached	-0.4495
-4.2404	attaching	-0.1485
-3.9393	attack	-0.1485
-4.5414	attacks	-0.1485
-4.5414	attain	-0.1485
-4.5414	attainment	-0.1485
-3.7632	attempt	-0.5164
-4.2404	attempted	-0.4495
-4.5414	attempting	-0.1485
-4.0643	attend	-0.2734
-4.5414	attendant	-0.1485
-3.9393	attending	-0.7505
-3.6383	attention	-0.2624
-4.5414	attention;	-0.1485
-4.5414	attentive	-0.1485
-4.5414	attentively	-0.1485
-3.9393	attitude	-0.4495
-4.5414	attitude"	-0.1485
-3.9393	attribute	-0.4495
-4.2404	attributes	-0.1485
-3.9393	attributing	-0.7505
-4.0643	audience	-0.3245
-4.5414	auditory	-0.1485
-3.8424	avoid	-0.1485
-4.2404	avoided	-0.1485
-4.5414	avoided;	-0.1485
-4.5414	avoiding	-0.1485
-4.5414	awake	-0.1485
-3.3109	aware	-0.5634
-4.0643	aware:	-0.1485
-3.6383	awareness	-0.3448
-4.5414	awareness:	-0.1485
-4.5414	awareness;	-0.1485
-3.8424	away	-0.3703
-4.5414	awkward	-0.1485
-4.5414	axiom	-0.1485
-4.5414	a°)	-0.1485
-4.5414	a°)"	-0.1485
-4.5414	a°)}	-0.1485
-4.5414	a°)}"	-0.1485
-4.5414	a°)}";	-0.1485
-3.1264	b	-0.5208
-4.2404	b"	-0.1485
-4.5414	b'	-0.1485
-4.0643	b's	-0.1485
-4.5414	b's:	-0.1485
-4.5414	b's?	-0.1485
-4.5414	b:	-0.1485
-3.9393	b;	-0.3245
-4.0643	back	-0.3245
-3.5414	bad	-0.2946
-4.5414	badly	-0.1485
-4.2404	balance	-0.4495
-4.2404	ball	-0.4495
-4.2404	balloon	-0.1485
-4.5414	bar	-0.1485
-4.5414	barbara	-0.1485
-4.5414	barest	-0.1485
-4.5414	barren	-0.1485
-4.5414	base	-0.1485
-3.6383	based	-0.5464
-4.5414	baseless	-0.1485
-3.8424	basis	-0.8474
-4.5414	basis?	-0.1485
-2.5546	be	-0.5230
-4.2404	be)	-0.1485
-4.5414	be);	-0.1485
-4.5414	be--do	-0.1485
-4.5414	be--namely	-0.1485
-4.5414	be:	-0.1485
-4.5414	be;	-0.1485
-4.5414	be?	-0.1485
-4.5414	bead	-0.1485
-3.9393	bear	-0.2734
-4.2404	beard	-0.4495
-4.0643	bearing	-0.3245
-4.5414	bearing;	-0.1485
-4.5414	bears	-0.1485
-4.2404	beautiful	-0.1485
-4.5414	beautiful"	-0.1485
-3.9393	beauty	-0.2276
-3.0643	because	-0.5259
-3.6963	become	-0.2154
-4.0643	becomes	-0.1485
-4.5414	bed?	-0.1485
-3.2626	been	-0.3038
-3.2192	before	-0.3611
-4.5414	before--the	-0.1485
-4.0643	beg	-0.3245
-4.0643	began	-0.3245
-4.5414	beggarly	-0.1485
-4.2404	begging	-0.4495
-3.6963	begin	-0.3526
-4.5414	beginning	-0.1485
-4.2404	begins	-0.1485
-4.5414	behave	-0.1485
-4.2404	behaviour	-0.1485
-4.0643	behind	-0.3245
-2.9851	being	-0.2954
-4.5414	being--a	-0.1485
-3.1264	belief	-0.5082
-4.5414	belief"	-0.1485
-4.5414	belief--any	-0.1485
-4.5414	belief:	-0.1485
-4.0643	belief;	-0.3245
-4.0643	belief?	-0.1485
-3.0643	beliefs	-0.5259
-4.2404	beliefs?	-0.1485
-3.1264	believe	-0.4766
-4.5414	believe"	-0.1485
-4.5414	believe:	-0.1485
-3.5871	believed	-0.3082
-4.5414	believed--were	-0.1485
-3.4274	believes	-0.5464
-4.5414	believes;	-0.1485
-3.6383	believing	-0.2982
-4.5414	believing"	-0.1485
-3.2192	belong	-0.9443
-4.5414	belong--about	-0.1485
-4.0643	belonged	-0.1485
-3.7632	belonging	-0.9266
-3.3109	belongs	-0.9501
-4.5414	belongs--i	-0.1485
-4.5414	belongs:	-0.1485
-4.5414	beneficent	-0.1485
-4.5414	benefits	-0.1485
-4.5414	benevolent	-0.1485
-3.9393	berkeley	-0.2276
-4.2404	berkeley's	-0.1485
-3.9393	beside	-0.2276
-4.0643	besides	-0.2154
-4.5414	besides:	-0.1485
-3.8424	best	-0.1485
-4.5414	bestowed	-0.1485
-3.3109	better	-0.4365
-4.5414	better:	-0.1485
-2.8693	between	-0.5374
-3.7632	beyond	-0.4495
-4.2404	big	-0.1485
-3.9393	bigger	-0.7505
-4.5414	billiard	-0.1485
-4.5414	billiard-ball	-0.1485
-4.5414	billiard-balls	-0.1485
-4.5414	bird	-0.1485
-4.5414	birth	-0.1485
-4.5414	bit	-0.1485
-3.6963	black	-0.3915
-4.5414	black;	-0.1485
-4.2404	blackish	-0.4495
-4.5414	blemishes	-0.1485
-4.5414	blemishes;	-0.1485
-4.5414	blemishes?	-0.1485
-4.5414	bless	-0.1485
-4.5414	blessing	-0.1485
-4.0643	blind	-0.3245
-4.2404	blood	-0.1485
-4.5414	blow	-0.1485
-4.5414	blowing	-0.1485
-4.5414	blown	-0.1485
-3.0229	blue	-0.4723
-4.2404	blue"	-0.1485
-4.5414	blue--namely	-0.1485
-3.9393	blue:	-0.1485
-4.0643	blue;	-0.1485
-4.5414	blush	-0.1485
-4.5414	blushing	-0.1485
-4.0643	bodies	-0.1485
-4.5414	bodies;	-0.1485
-3.5414	body	-0.3321
-4.5414	boldly	-0.1485
-3.5414	book	-0.3983
-4.5414	book";	-0.1485
-4.5414	book--indeed	-0.1485
-3.5871	books	-0.4909
-4.5414	bore	-0.1485
-2.7218	both	-0.3955
-4.2404	bound	-0.4495
-4.5414	bq"	-0.1485
-4.0643	bradley	-0.1655
-4.2404	bradley's	-0.1485
-4.5414	brain	-0.1485
-4.5414	brains	-0.1485
-4.5414	breadth	-0.1485
-4.5414	breadths	-0.1485
-4.2404	break	-0.1485
-4.5414	breakfast-table	-0.1485
-4.2404	brevity	-0.4495
-4.5414	brevity's	-0.1485
-4.5414	briefer	-0.1485
-3.5871	briefly	-0.2454
-4.5414	bright	-0.1485
-3.9393	bring	-0.3245
-3.9393	bringing	-0.4495
-4.0643	brings	-0.3245
-3.9393	brought	-0.3245
-4.2404	burn	-0.4495
-4.5414	burn";	-0.1485
-4.2404	burning	-0.1485
-4.0643	business	-0.1485
-2.4175	but	-0.5464
-4.5414	but:	-0.1485
-2.3059	by	-0.5283
-3.8424	c	-0.6256
-4.5414	c'	-0.1485
-4.5414	caesar	-0.1485
-4.5414	calculated	-0.1485
-3.2861	call	-0.3395
-3.3953	called	-0.2412
-3.9393	calling	-0.3703
-3.8424	calls	-0.2154
-4.2404	cambridge	-0.1485
-3.7632	came	-0.2946
-2.4807	can	-0.5878
-4.0643	can't	-0.1485
-4.5414	can;	-0.1485
-2.9393	cannot	-0.5113
-4.0643	capable	-0.3245
-4.2404	capacity	-0.1485
-4.5414	capital	-0.1485
-3.9393	card	-0.2946
-3.8424	cards	-0.1485
-4.5414	careful	-0.1485
-4.2404	carefully	-0.1485
-4.5414	carried	-0.1485
-4.5414	carries	-0.1485
-4.2404	carry	-0.1485
-3.1797	case	-0.5204
-4.5414	case:	-0.1485
-4.5414	case;	-0.1485
-4.5414	case?	-0.1485
-3.0790	cases	-0.5214
-4.5414	cases--i	-0.1485
-4.5414	cases;	-0.1485
-4.5414	cases?"	-0.1485
-4.0643	catch	-0.1485
-4.2404	catching	-0.4495
-4.5414	caught	-0.1485
-3.4274	causal	-0.4495
-3.9393	causally	-0.5164
-3.3953	cause	-0.3112
-4.5414	cause:	-0.1485
-4.5414	cause;	-0.1485
-3.7632	caused	-0.3526
-3.5871	causes	-0.1996
-4.5414	causes"	-0.1485
-4.5414	causes:	-0.1485
-4.5414	causing	-0.1485
-3.8424	cease	-0.8474
-4.5414	ceased	-0.1485
-4.5414	ceases	-0.1485
-4.2404	century	-0.4495
-2.7025	certain	-0.4373
-4.5414	certain--only	-0.1485
-4.5414	certain;	-0.1485
-2.8010	certainly	-0.4546
-3.6963	certainty	-0.2868
-4.5414	certainty:	-0.1485
-4.5414	chain	-0.1485
-4.2404	chair	-0.1485
-4.5414	chairs	-0.1485
-4.5414	challenge	-0.1485
-4.5414	chance	-0.1485
-3.1990	change	-0.4495
-4.5414	change--that	-0.1485
-4.5414	change:	-0.1485
-4.5414	change;	-0.1485
-3.8424	changed	-0.2946
-3.5871	changes	-0.2576
-4.2404	changing	-0.1485
-3.8424	chapter	-0.2276
-3.3109	character	-0.4647
-4.5414	character--as	-0.1485
-4.5414	character--some	-0.1485
-4.5414	character;	-0.1485
-3.5000	characteristic	-0.3403
-3.7632	characteristics	-0.2946
-4.0643	characters	-0.6256
-4.5414	characters;	-0.1485
-4.2404	charge	-0.3245
-4.5414	chariot	-0.1485
-4.5414	chase	-0.1485
-4.5414	cheek	-0.1485
-4.5414	chemistry	-0.1485
-4.0643	chief	-0.1485
-3.9393	chiefly	-0.1485
-4.2404	child	-0.1485
-4.5414	child's	-0.1485
-4.5414	childish	-0.1485
-4.2404	childishly	-0.1485
-4.2404	children	-0.1485
-4.5414	chimera	-0.1485
-4.5414	chimera;	-0.1485
-4.2404	choose	-0.1485
-4.2404	chooses	-0.4495
-4.5414	choosing	-0.1485
-4.5414	chose	-0.1485
-4.5414	chose;	-0.1485
-3.9393	chosen	-0.2276
-4.5414	christ	-0.1485
-4.5414	christianity	-0.1485
-3.9393	circle	-0.1485
-3.5871	circular	-0.3789
-4.5414	circular;	-0.1485
-4.5414	circular?	-0.1485
-3.4622	circumstances	-0.4795
-4.5414	cit	-0.1485
-3.9393	claim	-0.2734
-4.5414	claimed	-0.1485
-4.5414	claims	-0.1485
-3.2861	class	-0.5164
-4.5414	class;	-0.1485
-3.7632	classes	-0.4037
-4.2404	classes--(1)	-0.4495
-4.5414	classes:	-0.1485
-4.5414	classes?	-0.1485
-3.0643	clear	-0.6101
-4.5414	clear?	-0.1485
-3.9393	clearer	-0.1485
-4.5414	clearest	-0.1485
-3.0500	clearly	-0.3375
-4.2404	clearness	-0.1485
-3.8424	clock	-0.3703
-4.5414	clock;"	-0.1485
-4.5414	close	-0.1485
-4.5414	closed	-0.1485
-4.2404	closely	-0.1485
-4.5414	closing	-0.1485
-4.5414	cloth	-0.1485
-4.5414	clothes	-0.1485
-4.5414	cloud	-0.1485
-4.0643	clouds	-0.4495
-4.5414	clumsily	-0.1485
-4.5414	clumsy	-0.1485
-4.5414	co	-0.1485
-4.2404	cogent	-0.4495
-3.8424	coin	-0.3703
-4.5414	coincided	-0.1485
-4.5414	coincides	-0.1485
-3.9393	coins	-0.2328
-4.2404	coins;	-0.4495
-4.0643	cold	-0.2734
-4.5414	cold)	-0.1485
-3.9393	collection	-0.7505
-3.3653	colour	-0.3403
-4.2404	colour-blind	-0.1485
-3.5871	coloured	-0.3245
-4.5414	coloured"	-0.1485
-3.6383	colours	-0.4495
-4.5414	combined	-0.1485
-4.5414	combines	-0.1485
-3.1990	come	-0.5006
-3.3953	comes	-0.4795
-4.5414	comfortable	-0.1485
-4.5414	coming	-0.1485
-4.0643	commandment	-0.3245
-4.5414	commandments	-0.1485
-4.5414	commandments:	-0.1485
-4.5414	commences	-0.1485
-4.2404	committed	-0.1485
-4.5414	committee	-0.1485
-4.5414	committing	-0.1485
-3.2861	common	-0.3703
-4.5414	common!	-0.1485
-4.5414	common--that	-0.1485
-4.2404	common-sense	-0.1485
-4.5414	common:	-0.1485
-4.5414	common?	-0.1485
-4.5414	commoner	-0.1485
-4.2404	commonest	-0.1485
-3.2192	commonly	-0.3341
-3.7632	commonplace	-0.4495
-4.0643	commonplace?	-0.1485
-4.5414	commonplaces	-0.1485
-4.2404	comparable	-0.4495
-4.2404	comparative	-0.1485
-3.7632	comparatively	-0.2946
-4.0643	compare	-0.1485
-4.2404	comparing	-0.1485
-4.2404	comparison	-0.1485
-4.5414	compel	-0.1485
-4.5414	complains	-0.1485
-3.9393	complete	-0.1996
-3.5871	completely	-0.1942
-3.9393	complex	-0.1485
-4.5414	complexion	-0.1485
-4.0643	complicated	-0.2734
-4.5414	complicated;	-0.1485
-4.2404	composed	-0.4495
-4.5414	conceal	-0.1485
-3.8424	conceivable	-0.3915
-4.0643	conceivably	-0.3703
-3.6383	conceive	-0.2868
-3.9393	conceived	-0.1485
-4.2404	conceiving	-0.1485
-4.5414	concentrate	-0.1485
-3.5871	conception	-0.3245
-4.5414	conception:	-0.1485
-3.6383	conceptions	-0.3825
-4.5414	concern;	-0.1485
-3.3109	concerned	-0.5984
-4.5414	concerned:	-0.1485
-4.2404	concerned;	-0.4495
-3.6383	concerning	-0.6713
-4.2404	concerns	-0.1485
-3.6963	conclude	-0.5744
-4.2404	concludes	-0.4495
-4.0643	concluding	-0.2454
-3.3109	conclusion	-0.2974
-3.8424	conclusions	-0.3703
-3.6383	conclusive	-0.2454
-4.2404	conclusively	-0.1485
-4.0643	concrete	-0.1485
-4.2404	condemn	-0.1485
-4.2404	condemning	-0.1485
-3.5414	condition	-0.4495
-4.5414	conditional	-0.1485
-3.3653	conditions	-0.4647
-4.5414	conditions;	-0.1485
-4.5414	conduce	-0.1485
-4.5414	conduct	-0.1485
-4.5414	confer	-0.1485
-4.2404	confess	-0.2276
-4.5414	confidently	-0.1485
-4.5414	configuration	-0.1485
-4.5414	configurations	-0.1485
-4.0643	confine	-0.2734
-4.0643	confined	-0.6256
-4.5414	confining	-0.1485
-3.8424	confirm	-0.5464
-4.0643	confirms	-0.3245
-4.2404	conflict	-0.1485
-4.5414	conflict?	-0.1485
-4.2404	conflicts	-0.1485
-4.5414	conforms	-0.1485
-4.0643	confuse	-0.3245
-4.0643	confused	-0.2734
-4.5414	confused:	-0.1485
-4.2404	confusing	-0.1485
-3.6963	confusion	-0.3034
-3.6963	conjoined	-0.3448
-4.5414	conjoined"	-0.1485
-4.0643	conjunction	-0.2734
-4.5414	conjunction"	-0.1485
-4.5414	conjunctions	-0.1485
-4.5414	conjunctions"	-0.1485
-4.5414	conjunctions--for	-0.1485
-4.0643	conjunctive	-0.2734
-4.5414	conjuring	-0.1485
-4.5414	connect	-0.1485
-3.5414	connected	-0.6256
-4.5414	connected"	-0.1485
-4.5414	connected:	-0.1485
-4.5414	connected?	-0.1485
-3.4622	connection	-0.5164
-4.5414	connection?	-0.1485
-4.5414	connections	-0.1485
-4.0643	connexion	-0.1485
-4.0643	connexions	-0.1485
-4.5414	conquests	-0.1485
-4.5414	conscious	-0.1485
-3.3653	consciousness	-0.4037
-4.5414	consciousness"	-0.1485
-4.5414	consciousness--whether	-0.1485
-3.9393	consequence	-0.2454
-3.6383	consequences	-0.3703
-3.5000	consider	-0.3245
-4.5414	consider:	-0.1485
-4.0643	considerable	-0.2064
-4.5414	considerably	-0.1485
-4.2404	consideration	-0.4495
-3.7632	considerations	-0.3915
-3.6963	considered	-0.1996
-4.5414	considered;	-0.1485
-3.6963	considering	-0.2154
-4.5414	considering--namely	-0.1485
-4.2404	considers	-0.1485
-3.6963	consist	-0.3915
-4.0643	consisted	-0.3245
-4.2404	consistency	-0.4495
-3.9393	consistent	-0.4495
-4.0643	consistently	-0.1485
-4.0643	consisting	-0.3245
-3.6963	consists	-0.4495
-4.2404	constant	-0.1485
-3.2404	constantly	-0.3052
-3.9393	constituent	-0.2154
-3.6963	constituents	-0.2946
-3.5871	constitute	-0.4909
-4.2404	constituted	-0.1485
-3.7632	constitutes	-0.2734
-3.9393	constitution	-0.4495
-3.9393	contain	-0.1485
-4.0643	contained	-0.3245
-4.5414	containing	-0.1485
-3.6383	contains	-0.2356
-4.5414	contemplate	-0.1485
-4.0643	contemporary	-0.2734
-4.5414	contempt	-0.1485
-4.0643	contend	-0.3245
-4.5414	contended	-0.1485
-3.4274	content	-0.5366
-4.5414	content:	-0.1485
-3.8424	contention	-0.5464
-3.8424	contents	-0.2454
-4.5414	contents--myself	-0.1485
-4.2404	contexts	-0.4495
-4.5414	continuance;	-0.1485
-3.6963	continue	-0.9936
-4.0643	continued	-0.1485
-3.9393	contradict	-0.1942
-4.5414	contradicted	-0.1485
-3.8424	contradicting	-0.3915
-3.7632	contradiction	-0.1485
-3.6383	contradictory	-0.2868
-4.5414	contradictory--in	-0.1485
-4.5414	contradicts	-0.1485
-4.2404	contrary	-0.2064
-4.5414	contrast	-0.1485
-4.5414	contrasted	-0.1485
-4.2404	contributed	-0.4495
-4.0643	control	-0.1485
-4.5414	control:	-0.1485
-4.2404	controversy	-0.1485
-4.5414	convenience	-0.1485
-3.9393	convenient	-0.2734
-4.5414	convenient;	-0.1485
-3.8424	convention	-0.3245
-3.9393	conventions	-0.2734
-4.2404	converse	-0.2454
-4.2404	conversely	-0.1485
-4.0643	convey	-0.2454
-4.5414	conveyed	-0.1485
-4.0643	conviction	-0.2734
-4.5414	conviction--the	-0.1485
-3.6383	convinced	-0.4842
-4.5414	convincing	-0.1485
-4.5414	copula	-0.1485
-4.0643	copy	-0.6256
-4.5414	corollary	-0.1485
-3.5414	correct	-0.1806
-4.0643	correctly	-0.2734
-4.2404	correspond	-0.1485
-4.2404	corresponded	-0.4495
-4.5414	correspondent	-0.1485
-4.5414	correspondent's	-0.1485
-4.5414	correspondent?	-0.1485
-3.6383	corresponding	-0.2454
-4.2404	corresponds	-0.3245
-4.2404	corroborate	-0.4495
-2.9393	could	-0.5660
-4.5414	couldn't	-0.1485
-4.2404	count	-0.4495
-3.9393	counterpart	-0.5464
-4.5414	counterparts"	-0.1485
-4.5414	country;	-0.1485
-4.0643	course	-0.2276
-4.2404	course;	-0.1485
-4.5414	covers	-0.1485
-4.2404	covet	-0.1485
-4.5414	coveting	-0.1485
-3.9393	covetous	-0.2734
-4.2404	covetousness	-0.4495
-4.2404	criterion	-0.1485
-4.5414	criticises	-0.1485
-4.5414	critics	-0.1485
-4.5414	crudely	-0.1485
-4.5414	culture	-0.1485
-4.5414	cumbrous	-0.1485
-4.5414	cups	-0.1485
-4.5414	curious	-0.1485
-4.5414	curse	-0.1485
-3.6963	custom	-0.2946
-4.5414	cuts	-0.1485
-3.9393	d	-0.2734
-4.5414	d'	-0.1485
-4.5414	d;	-0.1485
-4.0643	danger	-0.6256
-4.5414	daresay	-0.1485
-4.5414	dark	-0.1485
-4.0643	data	-0.2454
-4.5414	dates	-0.1485
-3.6963	day	-0.2210
-3.9393	dead	-0.3245
-4.5414	dead;	-0.1485
-3.7632	deal	-0.3448
-4.0643	dealing	-0.1485
-4.5414	dealt	-0.1485
-4.2404	death	-0.1485
-4.5414	deceive	-0.1485
-4.5414	deceived	-0.1485
-4.5414	december	-0.1485
-4.5414	decent	-0.1485
-4.2404	deception	-0.1485
-4.5414	deceptive	-0.1485
-4.2404	decide	-0.1485
-4.2404	declare	-0.1485
-4.2404	declared	-0.1485
-3.9393	declares	-0.3245
-4.5414	declaring	-0.1485
-4.5414	decrease	-0.1485
-4.2404	deduced	-0.3245
-4.2404	deducible	-0.3245
-4.2404	defect	-0.1485
-4.5414	defective	-0.1485
-4.5414	defence	-0.1485
-4.5414	defend	-0.1485
-4.5414	defenders	-0.1485
-4.5414	definable	-0.1485
-3.9393	define	-0.1806
-4.5414	define;	-0.1485
-3.6383	defined	-0.5464
-4.2404	defining	-0.1485
-4.0643	definite	-0.1485
-3.9393	definitely	-0.1485
-3.2192	definition	-0.5660
-4.0643	definitions	-0.2734
-3.3653	degree	-0.4688
-4.2404	degrees	-0.3245
-4.5414	deity	-0.1485
-4.5414	deliberate	-0.1485
-4.0643	deliverance	-0.6256
-4.5414	delusion;	-0.1485
-3.7632	denial	-0.2276
-4.5414	denial:	-0.1485
-4.0643	denied	-0.2454
-3.6383	denies	-0.3526
-4.5414	denote	-0.1485
-4.2404	denoted	-0.4495
-4.5414	denotes	-0.1485
-4.2404	denoting	-0.1485
-3.4622	deny	-0.3825
-3.5000	denying	-0.4495
-3.9393	department	-0.4495
-4.2404	departments	-0.1485
-4.5414	departs	-0.1485
-3.5000	depend	-0.4037
-4.5414	depended	-0.1485
-4.5414	dependence	-0.1485
-3.9393	dependent	-0.2276
-4.5414	depending	-0.1485
-3.4274	depends	-0.6458
-4.5414	derive	-0.1485
-3.9393	derived	-0.2734
-3.8424	describe	-0.2454
-4.2404	described	-0.1485
-4.5414	described?	-0.1485
-4.5414	describes	-0.1485
-4.5414	describing	-0.1485
-3.7632	description	-0.2576
-4.5414	description--things	-0.1485
-4.5414	description;	-0.1485
-4.2404	deserve	-0.1485
-4.2404	deserves	-0.1485
-3.9393	designed	-0.4495
-3.9393	desirable	-0.2154
-3.5000	desire	-0.2734
-4.5414	desire;	-0.1485
-3.5414	desires	-0.2734
-4.5414	desperately	-0.1485
-4.5414	despitefully	-0.1485
-4.2404	destroyed	-0.1485
-4.5414	destroyed;	-0.1485
-4.5414	detailed	-0.1485
-4.5414	details	-0.1485
-4.5414	detain	-0.1485
-4.5414	detect	-0.1485
-4.2404	determine	-0.3245
-4.5414	developed	-0.1485
-4.5414	development	-0.1485
-4.5414	devoutly	-0.1485
-4.5414	diamonds	-0.1485
-4.5414	diaphanous	-0.1485
-4.5414	dictate	-0.1485
-4.5414	dictum	-0.1485
-3.0099	did	-0.4625
-4.0643	didn't	-0.1485
-4.5414	died	-0.1485
-3.2861	differ	-0.7320
-4.5414	differ?	-0.1485
-3.1612	difference	-0.5542
-4.2404	difference;	-0.1485
-4.5414	differences	-0.1485
-2.7285	different	-0.4593
-4.2404	different'	-0.3245
-4.5414	different--that	-0.1485
-3.7632	differing	-0.5164
-3.5871	differs	-0.6713
-3.5000	difficult	-0.4795
-3.8424	difficulties	-0.3245
-4.5414	difficulties;	-0.1485
-3.3953	difficulty	-0.4952
-4.5414	difficulty--the	-0.1485
-4.5414	digression	-0.1485
-4.5414	dilemma	-0.1485
-4.5414	dimensions	-0.1485
-4.2404	diminishing	-0.4495
-4.5414	diminution	-0.1485
-3.5871	direct	-0.4795
-4.5414	direction	-0.1485
-4.5414	direction--in	-0.1485
-4.5414	directions	-0.1485
-2.9973	directly	-0.5494
-4.2404	disadvantage	-0.4495
-4.5414	disadvantageous	-0.1485
-4.5414	disagreed	-0.1485
-4.5414	disagreement	-0.1485
-4.5414	disagreements	-0.1485
-4.2404	disapproval	-0.4495
-4.0643	disc	-0.2154
-4.2404	discarded	-0.1485
-4.5414	discord	-0.1485
-4.5414	discount	-0.1485
-4.2404	discover	-0.1485
-4.5414	discover)	-0.1485
-4.0643	discovered	-0.1485
-4.5414	discovering	-0.1485
-4.5414	discredit	-0.1485
-4.5414	discreditable	-0.1485
-3.9393	discuss	-0.2210
-4.5414	discuss;	-0.1485
-3.9393	discussed	-0.2734
-4.5414	discussed--such	-0.1485
-3.8424	discussing	-0.2276
-3.6963	discussion	-0.2576
-4.5414	disobey	-0.1485
-4.0643	disproof	-0.1485
-4.2404	disprove	-0.2154
-4.5414	disproving	-0.1485
-4.5414	disputable	-0.1485
-3.8424	dispute	-0.2454
-4.5414	dispute:	-0.1485
-4.0643	disputed	-0.2276
-4.5414	disputed)	-0.1485
-4.5414	disputes	-0.1485
-4.5414	disputing	-0.1485
-4.5414	dissected	-0.1485
-3.7632	distance	-0.4037
-4.5414	distances	-0.1485
-4.5414	distant	-0.1485
-3.4622	distinct	-0.2868
-3.5000	distinction	-0.5006
-4.2404	distinctly	-0.1485
-3.5414	distinguish	-0.3423
-3.5871	distinguished	-0.3448
-4.5414	distinguished;	-0.1485
-3.8424	distinguishes	-0.3245
-3.9393	distinguishing	-0.1485
-4.5414	divide	-0.1485
-4.5414	divided	-0.1485
-4.2404	divides	-0.1485
-4.5414	divinity	-0.1485
-3.9393	division	-0.1485
-4.5414	division:	-0.1485
-2.5371	do	-0.5825
-3.8424	do)	-0.2454
-4.5414	do:	-0.1485
-4.2404	do;	-0.1485
-4.5414	do?	-0.1485
-4.5414	do]	-0.1485
-4.5414	doctor	-0.1485
-3.4622	doctrine	-0.3133
-4.2404	doctrines	-0.1485
-2.5414	does	-0.6105
-4.5414	does--are	-0.1485
-4.5414	does;	-0.1485
-4.0643	dogma	-0.2276
-4.5414	dogmatically	-0.1485
-4.5414	dogmatize	-0.1485
-3.5000	doing	-0.2734
-4.5414	doll	-0.1485
-3.6963	don't	-0.2386
-3.6383	done	-0.2454
-4.5414	done;	-0.1485
-4.5414	done?	-0.1485
-4.5414	door	-0.1485
-4.5414	dots	-0.1485
-3.3373	doubt	-0.4373
-4.2404	doubted	-0.2734
-4.5414	doubted)	-0.1485
-3.5000	doubtful	-0.5744
-4.5414	doubtful)	-0.1485
-4.5414	doubtful--in	-0.1485
-4.5414	doubtful;	-0.1485
-4.5414	doubting	-0.1485
-4.2404	doubts	-0.1485
-3.9393	down	-0.1485
-4.5414	down-right	-0.1485
-4.5414	dr	-0.1485
-4.2404	draw	-0.2734
-4.5414	drawing	-0.1485
-4.0643	drawn	-0.1485
-4.5414	dreams	-0.1485
-4.0643	drop	-0.2734
-4.5414	dubious	-0.1485
-4.0643	due	-0.6256
-3.9393	during	-0.1485
-4.5414	duties	-0.1485
-3.3953	duty	-0.4215
-4.5414	duty--"rules	-0.1485
-4.5414	duty--the	-0.1485
-4.5414	duty;	-0.1485
-4.0643	dwell	-0.2454
-4.5414	dwelt	-0.1485
-3.6383	e	-0.4037
-3.1264	each	-0.4403
-3.7632	earlier	-0.1832
-4.5414	ears	-0.1485
-4.5414	earth	-0.1485
-3.5414	easily	-0.2064
-3.4622	easy	-0.4795
-4.5414	edition	-0.1485
-4.5414	edition)	-0.1485
-4.5414	editor	-0.1485
-4.5414	edn	-0.1485
-3.6963	edward	-0.3034
-3.9393	effect	-0.1485
-4.5414	effect;	-0.1485
-4.0643	effects	-0.1485
-4.5414	effects:	-0.1485
-4.5414	effort	-0.1485
-3.6383	egg	-0.2997
-4.5414	egg;	-0.1485
-3.8424	eggs	-0.2946
-4.5414	eggs"	-0.1485
-4.5414	eggs;	-0.1485
-4.5414	eighth	-0.1485
-2.8010	either	-0.4842
-4.2404	elaborate	-0.1485
-3.6383	element	-0.2210
-4.0643	elements	-0.4495
-4.5414	elephant	-0.1485
-4.5414	ellipse	-0.1485
-3.6963	elliptical	-0.2946
-4.5414	elliptical;	-0.1485
-3.3953	else	-0.3825
-4.2404	else's	-0.1485
-4.5414	else--either	-0.1485
-4.5414	else--something	-0.1485
-4.5414	else--that	-0.1485
-4.0643	else;	-0.2734
-4.5414	else?	-0.1485
-3.9393	elsewhere	-0.3703
-4.5414	embedded	-0.1485
-4.5414	embody	-0.1485
-3.9393	eminently	-0.2734
-4.2404	emotion	-0.1485
-4.5414	emotions	-0.1485
-4.5414	emphasising	-0.1485
-4.5414	emphatic	-0.1485
-3.6963	emphatically	-0.5006
-3.6963	empirical	-0.2454
-4.5414	empiricism	-0.1485
-4.2404	employed	-0.1485
-4.5414	employment	-0.1485
-4.5414	emptiness	-0.1485
-4.2404	enable	-0.3245
-4.0643	enables	-0.2734
-4.5414	encamped	-0.1485
-4.0643	end	-0.2734
-4.5414	endowments	-0.1485
-4.5414	ends	-0.1485
-3.9393	enemies	-0.2276
-4.5414	enemy	-0.1485
-3.9393	engaged	-0.4495
-4.5414	england	-0.1485
-4.5414	england"	-0.1485
-4.5414	enjoined	-0.1485
-3.8424	enormous	-0.4495
-4.5414	enormous?	-0.1485
-3.4622	enough	-0.3825
-4.5414	enough;	-0.1485
-4.2404	enquire	-0.1485
-3.9393	enquiry	-0.4495
-4.5414	enquiry:	-0.1485
-4.0643	entail	-0.2734
-3.1612	entails	-0.3192
-4.5414	enter	-0.1485
-4.5414	enter:	-0.1485
-4.5414	enters	-0.1485
-4.0643	entertain	-0.1485
-4.5414	entertained	-0.1485
-3.5000	entirely	-0.2624
-3.6963	entities	-0.4117
-3.9393	entitle	-0.7505
-4.5414	entitled	-0.1485
-4.5414	entitles	-0.1485
-3.5871	entity	-0.4495
-4.5414	enumerate	-0.1485
-3.7632	equal	-0.1485
-3.2861	equally	-0.2549
-4.5414	equally--is	-0.1485
-4.5414	equivalence	-0.1485
-3.3653	equivalent	-0.7127
-4.0643	equivalents	-0.3245
-4.2404	erecting	-0.1485
-4.5414	erroneous	-0.1485
-3.5871	error	-0.1942
-4.2404	error:	-0.1485
-4.5414	escape	-0.1485
-4.5414	escaped	-0.1485
-4.0643	especially	-0.1485
-4.5414	essays	-0.1485
-3.1435	esse	-0.6122
-4.5414	esse?	-0.1485
-4.2404	essence	-0.1485
-3.5414	essential	-0.4495
-4.0643	essentially	-0.1485
-4.5414	establish	-0.1485
-4.2404	established	-0.1485
-4.5414	estimate	-0.1485
-4.5414	estimating	-0.1485
-3.9393	etc	-0.4037
-4.5414	etc;	-0.1485
-4.0643	eternal	-0.1485
-4.5414	ethers	-0.1485
-4.0643	ethical	-0.1485
-3.7632	ethics	-0.1485
-4.5414	etymologies	-0.1485
-4.2404	etymology	-0.1485
-4.2404	euclidean	-0.1485
-4.2404	europeans	-0.1485
-4.5414	evaded	-0.1485
-2.9079	even	-0.4215
-4.5414	even:	-0.1485
-3.5871	event	-0.2734
-3.4274	events	-0.3567
-4.5414	events--ideas	-0.1485
-2.8171	ever	-0.3688
-4.5414	everlastingly	-0.1485
-3.2404	every	-0.3652
-3.5414	everybody	-0.3245
-4.5414	everybody;	-0.1485
-4.5414	everyday	-0.1485
-3.9393	everyone	-0.2946
-3.6963	everything	-0.5744
-3.4622	evidence	-0.3133
-3.6383	evident	-0.3703
-3.9393	evidently	-0.2276
-4.2404	evil	-0.1485
-4.5414	evils	-0.1485
-4.2404	evolution	-0.1485
-4.0643	evolutionary	-0.3245
-4.2404	ex	-0.1485
-3.8424	exact	-0.2454
-2.9851	exactly	-0.6966
-4.5414	exaggerate	-0.1485
-4.5414	exaggerated	-0.1485
-4.5414	exalted	-0.1485
-4.5414	examine	-0.1485
-3.7632	example	-0.4495
-4.5414	example--the	-0.1485
-4.5414	example--to	-0.1485
-4.2404	examples	-0.1485
-3.8424	exceedingly	-0.3703
-3.6383	excellence	-0.3034
-4.5414	excellence--he	-0.1485
-4.5414	excellence--the	-0.1485
-4.2404	excellence;	-0.4495
-4.2404	excellences	-0.1485
-3.7632	excellent	-0.2064
-3.3373	except	-0.3742
-4.2404	exception	-0.2734
-4.5414	exception:	-0.1485
-4.5414	exception;	-0.1485
-4.2404	exceptions	-0.1485
-4.2404	excessively	-0.1485
-3.7632	excite	-0.2454
-4.0643	excites	-0.1485
-4.2404	exciting	-0.1485
-4.0643	exclude	-0.1485
-4.5414	excluded	-0.1485
-3.9393	excludes	-0.1485
-3.9393	exclusively	-0.4495
-4.5414	excusable	-0.1485
-3.8424	excuse	-0.2454
-4.5414	excuse:	-0.1485
-4.0643	exercise	-0.1485
-4.0643	exhibit	-0.1485
-4.5414	exhibit--or	-0.1485
-4.5414	exhibit--time	-0.1485
-4.0643	exhibits	-0.2064
-4.5414	exhibits"	-0.1485
-4.5414	exhibits";	-0.1485
-4.5414	exhibits--change	-0.1485
-2.8171	exist	-0.6575
-4.5414	exist"	-0.1485
-4.5414	exist":	-0.1485
-4.0643	exist)	-0.1485
-4.5414	exist--unless	-0.1485
-4.0643	exist:	-0.1485
-3.7632	exist;	-0.2064
-3.8424	exist?	-0.2154
-4.0643	exist?"	-0.1485
-3.1435	existed	-0.5418
-4.5414	existed;	-0.1485
-4.5414	existed?	-0.1485
-4.5414	existed?"	-0.1485
-3.2861	existence	-0.4379
-4.5414	existence?"	-0.1485
-4.2404	existing	-0.1485
-4.5414	existing;	-0.1485
-2.9079	exists	-0.6433
-3.8424	exists"	-0.2154
-4.5414	exists"--in	-0.1485
-4.5414	exists";	-0.1485
-4.5414	exists'	-0.1485
-3.9393	exists;	-0.4495
-4.0643	exists?	-0.1485
-3.9393	expect	-0.1485
-4.0643	expectations	-0.3245
-3.6383	expedient	-0.3245
-4.5414	expedient:	-0.1485
-4.5414	expedient?	-0.1485
-4.5414	expediently	-0.1485
-2.9286	experience	-0.5762
-4.2404	experience"	-0.1485
-4.5414	experience";	-0.1485
-4.5414	experience--from	-0.1485
-4.5414	experience--the	-0.1485
-4.2404	experience:	-0.1485
-4.2404	experience;	-0.1485
-3.9393	experience?	-0.1485
-3.2861	experienced	-0.5717
-4.5414	experienced"	-0.1485
-4.5414	experienced'	-0.1485
-4.0643	experienced;	-0.2734
-3.2626	experiences	-0.4337
-4.5414	experiences--the	-0.1485
-3.9393	experiencing	-0.1485
-4.5414	experient	-0.1485
-3.7632	explain	-0.2734
-3.4622	explained	-0.3858
-4.5414	explained)	-0.1485
-4.2404	explaining	-0.1485
-4.5414	explains	-0.1485
-3.3373	explanation	-0.6713
-4.5414	explanation?	-0.1485
-4.5414	explanations	-0.1485
-4.5414	explicit	-0.1485
-4.2404	explicitly	-0.1485
-4.0643	exposed	-0.3245
-3.1612	express	-0.4842
-4.5414	express--namely	-0.1485
-3.2626	expressed	-0.5878
-3.7632	expresses	-0.2064
-3.6963	expressing	-0.2328
-3.5414	expression	-0.2576
-4.5414	expression:	-0.1485
-3.5414	expressions	-0.2154
-4.5414	expressions:	-0.1485
-3.5414	expressly	-0.1485
-4.5414	extend	-0.1485
-4.5414	extended	-0.1485
-3.5871	extent	-0.2868
-4.5414	extent;	-0.1485
-3.1100	external	-0.4769
-4.5414	external";	-0.1485
-4.5414	extinguish	-0.1485
-4.5414	extraordinary	-0.1485
-3.9393	extreme	-0.1485
-3.5000	extremely	-0.3375
-4.5414	eye	-0.1485
-4.2404	eyes	-0.2734
-4.5414	eyes;	-0.1485
-3.8424	f	-0.2276
-3.8424	face	-0.2276
-4.2404	faced	-0.4495
-2.9732	fact	-0.4392
-4.2404	fact"	-0.2454
-4.2404	fact)	-0.1485
-4.5414	fact--the	-0.1485
-4.2404	fact:	-0.1485
-4.5414	fact]	-0.1485
-2.9851	facts	-0.4758
-4.5414	facts"	-0.1485
-4.5414	facts--facts	-0.1485
-4.5414	facts--supposing	-0.1485
-4.5414	facts--the	-0.1485
-4.2404	facts:	-0.3245
-4.2404	facts;	-0.1485
-4.5414	facts?	-0.1485
-4.0643	faculties	-0.3245
-3.7632	fail	-0.6256
-4.0643	failed	-0.6256
-4.0643	fails	-0.3245
-4.5414	fails;	-0.1485
-4.5414	failure	-0.1485
-4.5414	fair	-0.1485
-4.0643	fairly	-0.1485
-3.8424	fall	-0.3915
-4.5414	fall:	-0.1485
-4.2404	fallacious	-0.4495
-4.0643	fallacy	-0.1485
-4.5414	fallacy;	-0.1485
-4.5414	fallible	-0.1485
-4.5414	falls?	-0.1485
-3.0500	false	-0.5164
-4.5414	false"	-0.1485
-4.5414	false"--is	-0.1485
-4.5414	false";	-0.1485
-4.5414	false--whether	-0.1485
-4.2404	false:	-0.1485
-3.6383	false;	-0.3593
-4.0643	false?	-0.1485
-4.0643	falsehood	-0.1485
-4.5414	falsehood--the	-0.1485
-4.0643	falsely	-0.1485
-4.5414	falsely)	-0.1485
-4.5414	falsity	-0.1485
-3.5414	familiar	-0.3375
-4.5414	familiar;	-0.1485
-4.5414	famous	-0.1485
-3.3953	far	-0.4067
-4.5414	farther	-0.1485
-4.2404	fashion	-0.1485
-4.5414	fashionable	-0.1485
-4.0643	fast	-0.1485
-3.9393	fatal	-0.2734
-3.5000	father	-0.6256
-4.5414	father's	-0.1485
-4.2404	fatherhood	-0.2734
-4.5414	fatherhood;	-0.1485
-4.5414	fault--they	-0.1485
-4.2404	faults	-0.1485
-3.9393	favour	-0.2154
-4.2404	favoured	-0.1485
-4.5414	fear	-0.1485
-3.3953	feel	-0.3611
-3.1797	feeling	-0.5649
-4.5414	feeling--the	-0.1485
-3.2192	feelings	-0.5338
-4.5414	feelings--and	-0.1485
-4.5414	feelings--or	-0.1485
-4.5414	feelings:	-0.1485
-4.5414	feelings?	-0.1485
-4.5414	feels	-0.1485
-4.5414	fellow-countrymen	-0.1485
-3.4274	felt	-0.3355
-4.0643	few	-0.1485
-4.5414	few)	-0.1485
-4.5414	fiction	-0.1485
-4.0643	field	-0.2734
-4.5414	field;	-0.1485
-4.5414	fiery	-0.1485
-4.2404	fifth	-0.1485
-4.5414	final	-0.1485
-3.7632	finally	-0.3245
-3.5414	find	-0.3494
-4.5414	finding	-0.1485
-4.2404	finger	-0.1485
-4.5414	finger:	-0.1485
-4.2404	fingers	-0.1485
-4.5414	finite	-0.1485
-3.9393	fire	-0.1485
-4.5414	firmly	-0.1485
-3.0790	first	-0.3043
-4.5414	first--that	-0.1485
-4.5414	first:	-0.1485
-4.5414	fiscal	-0.1485
-4.5414	fitted	-0.1485
-3.8424	five	-0.3526
-4.5414	fix	-0.1485
-4.2404	fixed	-0.4495
-4.5414	fixity	-0.1485
-4.2404	flame	-0.1485
-4.5414	flames	-0.1485
-4.0643	flatly	-0.3245
-4.5414	flatter	-0.1485
-4.5414	flies	-0.1485
-4.5414	flint	-0.1485
-4.5414	floor	-0.1485
-4.0643	florin	-0.2576
-4.5414	florin:	-0.1485
-4.5414	flow	-0.1485
-4.2404	flower	-0.1485
-4.5414	flower--and	-0.1485
-4.5414	flower:	-0.1485
-3.1264	follow	-0.9468
-3.5871	followed	-0.3245
-4.5414	followers	-0.1485
-4.2404	following	-0.1485
-3.1435	follows	-0.6925
-4.5414	follows--that	-0.1485
-4.5414	follows:	-0.1485
-4.5414	follows:--	-0.1485
-4.5414	follows:--a	-0.1485
-4.5414	follows:--i	-0.1485
-4.5414	follows:--to	-0.1485
-4.5414	follows?	-0.1485
-4.5414	fond	-0.1485
-3.9393	foot	-0.2276
-4.5414	foot--this	-0.1485
-2.2861	for	-0.7103
-4.5414	fora	-0.1485
-4.5414	forbidden	-0.1485
-3.6963	force	-0.5006
-4.5414	forced	-0.1485
-4.5414	forcing	-0.1485
-4.5414	foreigner	-0.1485
-4.5414	foreigners	-0.1485
-4.2404	forget	-0.1485
-3.9393	forgotten	-0.4495
-3.2626	form	-0.4247
-4.2404	form:	-0.1485
-4.5414	form;	-0.1485
-3.8424	formal	-0.3245
-4.5414	formed	-0.1485
-4.0643	former	-0.1765
-4.5414	former:--in	-0.1485
-3.6963	formerly	-0.2154
-4.5414	forming	-0.1485
-3.5000	forms	-0.4909
-4.5414	forms;	-0.1485
-4.0643	forward	-0.1485
-3.9393	found	-0.2210
-3.5414	foundation	-0.4495
-3.6963	founded	-0.6925
-3.6963	four	-0.2276
-4.5414	four'	-0.1485
-4.5414	four;	-0.1485
-4.2404	fourth	-0.1485
-4.5414	free	-0.1485
-4.5414	freely	-0.1485
-4.5414	french	-0.1485
-4.5414	frequency	-0.1485
-4.5414	frequent	-0.1485
-3.6963	frequently	-0.2064
-4.5414	friends	-0.1485
-2.4480	from	-0.6107
-4.5414	from'	-0.1485
-4.5414	from--a:	-0.1485
-4.5414	front	-0.1485
-4.5414	fulfil	-0.1485
-4.2404	fulfilled	-0.1485
-4.5414	full	-0.1485
-4.5414	full)	-0.1485
-4.5414	full;	-0.1485
-3.6383	fully	-0.3034
-4.5414	function	-0.1485
-3.5871	fundamental	-0.3341
-4.5414	fundamentally	-0.1485
-4.5414	furnish	-0.1485
-3.2192	further	-0.2454
-4.5414	fuss	-0.1485
-3.5000	future	-0.2734
-4.5414	future--about	-0.1485
-4.5414	future;	-0.1485
-3.8424	g	-0.4495
-4.5414	gain	-0.1485
-4.5414	gained	-0.1485
-4.5414	game	-0.1485
-4.5414	games	-0.1485
-4.5414	gather	-0.1485
-4.2404	gave	-0.1485
-3.5414	general	-0.1968
-3.3373	generalisation	-0.4138
-4.5414	generalisation--for	-0.1485
-4.5414	generalisation--the	-0.1485
-4.2404	generalisation:	-0.3245
-4.2404	generalisation;	-0.1485
-4.0643	generalisation?	-0.1485
-3.3373	generalisations	-0.3915
-4.5414	generalisations--for	-0.1485
-3.1264	generally	-0.3734
-4.5414	generations	-0.1485
-4.5414	geography	-0.1485
-3.7632	george	-0.3703
-4.2404	germans	-0.1485
-3.6963	get	-0.2276
-4.5414	gets	-0.1485
-4.0643	getting	-0.1485
-3.1264	give	-0.6103
-3.1797	given	-0.3370
-4.5414	given-thing	-0.1485
-4.5414	given;	-0.1485
-3.4622	gives	-0.3567
-4.5414	gives)	-0.1485
-3.5000	giving	-0.2946
-4.5414	glad	-0.1485
-4.5414	glance	-0.1485
-4.5414	glance"	-0.1485
-3.8424	glass	-0.2276
-4.5414	glass:	-0.1485
-4.5414	glass;	-0.1485
-3.7632	go	-0.4495
-4.5414	go;	-0.1485
-4.5414	god	-0.1485
-4.5414	god;	-0.1485
-3.6963	goes	-0.2734
-4.5414	goes)	-0.1485
-4.5414	goes--which	-0.1485
-3.5871	going	-0.5878
-4.2404	gold	-0.1485
-4.5414	gone	-0.1485
-2.9616	good	-0.4495
-4.5414	good"	-0.1485
-4.2404	good;	-0.4495
-3.6383	goodness	-0.2946
-4.5414	goodness:	-0.1485
-4.5414	goods	-0.1485
-3.6383	got	-0.3623
-4.5414	got--a	-0.1485
-4.5414	got--namely	-0.1485
-4.5414	grammatical	-0.1485
-4.5414	grammatically	-0.1485
-4.5414	grand	-0.1485
-4.0643	grant	-0.1485
-4.2404	granted	-0.1485
-4.5414	granted:	-0.1485
-4.5414	grate	-0.1485
-4.2404	grave	-0.1485
-3.3373	great	-0.2868
-3.8424	greater	-0.2454
-4.5414	greatest	-0.1485
-4.5414	greeks	-0.1485
-3.6963	green	-0.3983
-4.5414	green--is	-0.1485
-4.5414	green;	-0.1485
-4.5414	greets	-0.1485
-4.5414	grey	-0.1485
-4.5414	griffin	-0.1485
-4.5414	griffin?	-0.1485
-4.0643	gross	-0.1485
-4.5414	grossest	-0.1485
-4.2404	grossly	-0.1485
-3.6963	ground	-0.2576
-4.2404	ground;	-0.1485
-4.5414	ground?	-0.1485
-4.0643	grounded	-0.6256
-3.8424	grounds	-0.4495
-4.5414	grown	-0.1485
-4.5414	guide	-0.1485
-4.2404	guilty	-0.4495
-4.5414	habit	-0.1485
-2.8010	had	-0.4842
-4.5414	had:	-0.1485
-4.5414	had;	-0.1485
-4.5414	hair	-0.1485
-4.5414	hair:	-0.1485
-4.5414	hair;	-0.1485
-3.9393	half	-0.2734
-4.5414	half)	-0.1485
-3.7632	half-crown	-0.2946
-4.5414	half-crown"	-0.1485
-4.0643	hallucinations	-0.1485
-3.5414	hand	-0.4147
-4.5414	hand--as	-0.1485
-4.5414	hand?	-0.1485
-4.5414	handled	-0.1485
-3.9393	hands	-0.2734
-4.5414	hands;	-0.1485
-3.6383	happen	-0.2454
-4.2404	happen?	-0.4495
-3.8424	happened	-0.1485
-4.5414	happened--with	-0.1485
-3.9393	happening	-0.1485
-3.9393	happens	-0.2454
-4.5414	happy	-0.1485
-4.0643	hard	-0.6256
-3.6383	hardly	-0.2868
-4.2404	harm	-0.1485
-4.5414	harmful	-0.1485
-4.5414	harmony	-0.1485
-2.5202	has	-0.5622
-4.5414	has;	-0.1485
-4.2404	hate	-0.1485
-2.5040	have	-0.5988
-4.5414	have;	-0.1485
-3.2626	having	-0.2592
-2.5458	he	-0.5970
-3.8424	head	-0.2154
-4.5414	headed	-0.1485
-4.5414	heads	-0.1485
-4.5414	heads;	-0.1485
-3.7632	hear	-0.3034
-3.6963	heard	-0.3526
-3.7632	hearing	-0.2734
-4.5414	hearing;	-0.1485
-4.0643	hears	-0.3245
-4.5414	heart--as	-0.1485
-4.5414	heat	-0.1485
-4.5414	heaven	-0.1485
-4.5414	hegel's	-0.1485
-4.5414	hegel)	-0.1485
-4.5414	height	-0.1485
-4.5414	heights	-0.1485
-3.3653	held	-0.4495
-4.5414	hell	-0.1485
-4.5414	hell--is	-0.1485
-3.6383	help	-0.3245
-4.2404	helped	-0.1485
-4.2404	helps	-0.1485
-3.9393	hen	-0.3703
-4.5414	hen:	-0.1485
-4.5414	hen;	-0.1485
-3.9393	hence	-0.2511
-3.5871	hens	-0.2868
-4.5414	hens"	-0.1485
-4.0643	hens'	-0.6256
-3.0229	here	-0.3804
-4.5414	hesitate	-0.1485
-3.5871	higher	-0.2356
-3.6383	highly	-0.3448
-3.1100	him	-0.4385
-4.5414	him:	-0.1485
-4.5414	him;	-0.1485
-4.2404	him?	-0.1485
-3.1797	himself	-0.3348
-4.5414	himself:	-0.1485
-4.5414	hindering	-0.1485
-2.8512	his	-0.3674
-4.5414	historian	-0.1485
-4.0643	historians	-0.1485
-4.2404	historical	-0.1485
-4.2404	history	-0.1485
-4.5414	history;	-0.1485
-4.5414	hit	-0.1485
-3.6963	hitherto	-0.1784
-3.0942	hold	-0.5086
-4.5414	hold";	-0.1485
-4.5414	hold)	-0.1485
-3.5000	holding	-0.3526
-3.3953	holds	-0.6491
-4.5414	home	-0.1485
-4.5414	honour	-0.1485
-3.6383	hope	-0.3703
-4.5414	hopeless	-0.1485
-4.5414	hosts	-0.1485
-4.5414	hot	-0.1485
-4.5414	hour's	-0.1485
-4.0643	house	-0.1485
-4.5414	house;	-0.1485
-2.9616	how	-0.3825
-4.0643	however	-0.2154
-4.5414	huge	-0.1485
-3.5000	human	-0.3375
-4.5414	humanly	-0.1485
-3.3953	hume	-0.2982
-3.6963	hume's	-0.2454
-4.5414	hundred	-0.1485
-4.5414	hunted	-0.1485
-4.5414	hunted";	-0.1485
-4.5414	hunted--that	-0.1485
-4.5414	hunting	-0.1485
-4.0643	hypotheses	-0.3245
-4.2404	hypothesi	-0.4495
-3.6383	hypothesis	-0.2650
-4.5414	hypothesis--they	-0.1485
-4.5414	hypothesis;	-0.1485
-4.5414	hypothesis?	-0.1485
-4.5414	hypothetical	-0.1485
-2.1911	i	-0.7934
-4.5414	ibid	-0.1485
-3.0362	idea	-0.6727
-4.5414	idea--or	-0.1485
-4.2404	idea?	-0.1485
-4.5414	idea?'	-0.1485
-3.7632	ideal	-0.2946
-3.6383	idealism	-0.2868
-3.8424	idealist	-0.1898
-4.2404	idealist's	-0.1485
-3.6963	idealistic	-0.2154
-3.3953	idealists	-0.2734
-4.5414	idealists--the	-0.1485
-4.5414	idealists:	-0.1485
-2.9181	ideas	-0.6054
-4.5414	ideas"	-0.1485
-4.5414	ideas";	-0.1485
-4.5414	ideas--cases	-0.1485
-4.5414	ideas--is	-0.1485
-4.5414	ideas--that	-0.1485
-4.5414	ideas--the	-0.1485
-4.5414	ideas:	-0.1485
-3.8424	ideas;	-0.3245
-4.2404	ideas?	-0.1485
-3.3109	identical	-0.7505
-4.0643	identification	-0.2734
-4.5414	identified	-0.1485
-3.6963	identify	-0.3245
-4.2404	identifying	-0.3245
-3.9393	identity	-0.4495
-4.2404	idle	-0.1485
-4.2404	idly	-0.1485
-2.7025	if	-0.6527
-4.5414	ignorance	-0.1485
-4.5414	ignore	-0.1485
-4.2404	ii	-0.1485
-4.2404	iii	-0.1485
-4.5414	ill	-0.1485
-4.2404	illegitimate	-0.1485
-4.5414	illegitimate;	-0.1485
-4.5414	illusion";	-0.1485
-4.5414	illusory	-0.1485
-4.5414	illustrate	-0.1485
-4.0643	illustrated	-0.3245
-3.8424	illustration	-0.2276
-3.6963	image	-0.3593
-4.5414	image--of	-0.1485
-4.5414	image;	-0.1485
-3.7632	images	-0.2946
-4.0643	imaginary	-0.1485
-4.5414	imagination	-0.1485
-3.6963	imagine	-0.2734
-4.5414	imagined	-0.1485
-4.5414	imagining	-0.1485
-3.7632	immediately	-0.2576
-4.2404	immediately;	-0.1485
-4.2404	immense	-0.4495
-3.8424	immensely	-0.1485
-4.2404	immoral	-0.1485
-4.5414	immortal	-0.1485
-4.0643	immutable	-0.3245
-4.5414	immutable--in	-0.1485
-4.2404	impartial	-0.4495
-4.5414	impartiality	-0.1485
-3.8424	implication	-0.2946
-4.2404	implication"	-0.1485
-4.5414	implication)	-0.1485
-4.5414	implications	-0.1485
-4.5414	implicitly	-0.1485
-3.5871	implied	-0.3825
-3.2861	implies	-0.3789
-3.2404	imply	-0.5521
-4.5414	imply"	-0.1485
-4.5414	imply;	-0.1485
-3.9393	implying	-0.3703
-3.6383	importance	-0.3245
-3.2404	important	-0.3486
-4.0643	impossibility	-0.6256
-3.5414	impossible	-0.5821
-4.5414	impossible--that	-0.1485
-4.5414	impression	-0.1485
-4.5414	improbable	-0.1485
-4.5414	improperly	-0.1485
-4.5414	improve	-0.1485
-3.6383	improvement	-0.3526
-4.5414	improvement:	-0.1485
-1.8147	in	-0.8641
-4.5414	inadequacy	-0.1485
-4.5414	inanimate:	-0.1485
-3.8424	incapable	-0.6256
-4.2404	incidentally	-0.1485
-4.5414	incidentally);	-0.1485
-4.5414	incidents	-0.1485
-4.5414	incline	-0.1485
-3.7632	inclined	-0.6925
-3.7632	include	-0.1806
-3.7632	included	-0.2154
-3.5414	includes	-0.3403
-4.5414	inclusive	-0.1485
-3.4274	incompatible	-0.3915
-4.5414	incomplete	-0.1485
-4.5414	inconceivability	-0.1485
-4.2404	inconceivable	-0.2734
-4.2404	inconclusive	-0.4495
-3.9393	inconsistency	-0.4495
-4.5414	inconsistency;	-0.1485
-4.5414	inconsistency?	-0.1485
-3.6963	inconsistent	-0.5464
-4.5414	incontrovertibly	-0.1485
-4.5414	incorrect;	-0.1485
-4.5414	incorrectly	-0.1485
-4.5414	increase	-0.1485
-4.5414	incredible	-0.1485
-4.5414	inculcate	-0.1485
-3.3953	indeed	-0.3355
-4.5414	indeed;	-0.1485
-4.5414	indefensible	-0.1485
-4.5414	indefinitely	-0.1485
-3.9393	independent	-0.2734
-4.0643	independently	-0.3245
-4.5414	index	-0.1485
-4.5414	india-rubber	-0.1485
-4.2404	indicate	-0.1485
-3.6963	indignation	-0.3703
-4.5414	indirectly)	-0.1485
-4.5414	indiscernibles	-0.1485
-4.2404	indisputable	-0.4495
-4.0643	indisputably	-0.1485
-4.5414	indistinguishable	-0.1485
-3.8424	individual	-0.2276
-4.5414	individual's	-0.1485
-4.5414	individuals	-0.1485
-4.5414	indoors	-0.1485
-4.5414	indubitable	-0.1485
-4.2404	indubitably	-0.1485
-4.5414	induced	-0.1485
-4.2404	induces	-0.1485
-4.5414	induction	-0.1485
-4.5414	inductions	-0.1485
-4.5414	inductive	-0.1485
-4.5414	inevitably	-0.1485
-4.5414	inexcusable	-0.1485
-4.5414	infallible	-0.1485
-4.5414	infected	-0.1485
-3.9393	infer	-0.3245
-3.5871	inference	-0.3245
-4.5414	inference?	-0.1485
-4.2404	inferences	-0.1485
-3.7632	inferred	-0.1996
-4.0643	inferring	-0.1485
-4.5414	infers	-0.1485
-4.2404	influenced	-0.4495
-3.9393	information	-0.1485
-4.2404	informed	-0.4495
-4.5414	ingenious	-0.1485
-4.5414	initial	-0.1485
-4.5414	ink	-0.1485
-3.5871	inkstand	-0.4862
-4.2404	inkstand"	-0.1485
-4.5414	inkstand":	-0.1485
-4.5414	inkstand--a	-0.1485
-4.5414	inkstand--that	-0.1485
-4.5414	inkstand:	-0.1485
-4.2404	inkstand;	-0.3245
-4.2404	inkstand?	-0.1485
-3.9393	inkstands	-0.3703
-4.2404	inner	-0.1485
-4.5414	inquire	-0.1485
-3.8424	inseparable	-0.3915
-4.5414	inserted	-0.1485
-4.5414	inserted;	-0.1485
-4.0643	inside	-0.3245
-4.5414	insignificant	-0.1485
-3.8424	insist	-0.3245
-3.9393	insisted	-0.4495
-4.2404	insistence	-0.3245
-4.5414	insisting	-0.1485
-4.5414	insists	-0.1485
-4.2404	inspection	-0.4495
-3.4622	instance	-0.5006
-3.3953	instances	-0.4272
-3.6963	instead	-0.7505
-4.5414	instinctive	-0.1485
-4.5414	insufficient	-0.1485
-4.5414	insuperable	-0.1485
-4.5414	insure	-0.1485
-4.0643	intellectual	-0.2734
-4.5414	intelligent;	-0.1485
-3.9393	intelligible	-0.2734
-4.2404	intend	-0.3245
-3.7632	intended	-0.3245
-4.5414	intending	-0.1485
-4.2404	intends	-0.4495
-4.5414	intense	-0.1485
-4.0643	intensely	-0.6256
-4.5414	intention	-0.1485
-4.5414	intentions	-0.1485
-3.5871	interest	-0.2454
-4.2404	interested	-0.1485
-3.5871	interesting	-0.2356
-3.9393	interests	-0.2454
-4.2404	intermediate	-0.1485
-3.4622	internal	-0.4365
-4.5414	internal:	-0.1485
-4.5414	internal;	-0.1485
-4.5414	international	-0.1485
-4.0643	interpret	-0.1485
-3.4622	interpretation	-0.4037
-4.2404	interpretations	-0.1485
-4.0643	interpreted	-0.1485
-4.5414	interpreted--in	-0.1485
-4.2404	interval	-0.4495
-4.5414	interval;	-0.1485
-4.5414	intimate	-0.1485
-3.1264	into	-0.5116
-4.5414	intricacies	-0.1485
-4.5414	intricate	-0.1485
-3.0790	intrinsic	-0.5622
-4.5414	intrinsical"	-0.1485
-3.7632	intrinsically	-0.2946
-4.5414	introduce	-0.1485
-4.2404	introduced	-0.1485
-4.5414	introduces	-0.1485
-4.5414	introspect	-0.1485
-4.0643	introspection	-0.3245
-4.5414	invalidate	-0.1485
-4.2404	invalidly)	-0.1485
-4.5414	investigate	-0.1485
-4.2404	investigates	-0.1485
-4.5414	investigating	-0.1485
-4.5414	investigation	-0.1485
-4.2404	invisible	-0.1485
-3.8424	involve	-0.3703
-4.5414	involve:	-0.1485
-4.5414	involve?	-0.1485
-3.5871	involved	-0.6603
-3.5871	involves	-0.2276
-4.5414	involving	-0.1485
-4.5414	irrational	-0.1485
-3.6963	irrelevant	-0.2154
-4.5414	irrelevant?	-0.1485
-1.8355	is	-0.7084
-4.5414	is)	-0.1485
-4.5414	is--"connected	-0.1485
-4.5414	is--a	-0.1485
-4.5414	is--he	-0.1485
-3.4622	is:	-0.2276
-3.7632	is;	-0.2276
-4.5414	is?	-0.1485
-4.5414	isn't	-0.1485
-4.0643	issue	-0.2946
-4.5414	issue;	-0.1485
-2.0176	it	-0.8179
-4.5414	it"	-0.1485
-4.0643	it";	-0.1485
-4.2404	it)	-0.1485
-4.5414	it--a	-0.1485
-4.5414	it--no	-0.1485
-4.5414	it--not	-0.1485
-4.5414	it--objections	-0.1485
-4.5414	it--than	-0.1485
-4.2404	it--that	-0.1485
-4.0643	it--the	-0.2734
-4.5414	it--vaguely	-0.1485
-4.5414	it--which	-0.1485
-3.5000	it:	-0.4173
-3.2404	it;	-0.5922
-4.0643	it?	-0.3245
-4.2404	it?"	-0.1485
-4.5414	italics	-0.1485
-2.8693	its	-0.3785
-3.0790	itself	-0.4665
-4.5414	itself--the	-0.1485
-4.5414	itself--what	-0.1485
-4.5414	itself:	-0.1485
-4.2404	itself;	-0.1485
-4.5414	iv	-0.1485
-4.2404	ix	-0.1485
-4.5414	ix)	-0.1485
-3.9393	james	-0.2454
-4.2404	james'	-0.1485
-4.5414	january	-0.1485
-4.2404	jew	-0.1485
-4.5414	jews	-0.1485
-4.5414	joachim	-0.1485
-4.5414	joint	-0.1485
-4.2404	journal	-0.1485
-3.5000	judge	-0.4495
-4.5414	judge:	-0.1485
-4.0643	judged	-0.1485
-4.2404	judges	-0.1485
-3.3953	judging	-0.6256
-4.5414	judging:	-0.1485
-4.5414	judging;	-0.1485
-3.5000	judgment	-0.4283
-4.0643	judgment;	-0.3245
-4.2404	judgment?	-0.4495
-3.2626	judgments	-0.5338
-4.5414	judgments:	-0.1485
-4.0643	julius	-0.6256
-2.9393	just	-0.6380
-4.5414	justice	-0.1485
-4.5414	justifiable	-0.1485
-4.0643	justification	-0.6256
-3.6963	justified	-0.4495
-4.2404	justifies	-0.1485
-3.6963	justify	-0.4495
-4.5414	justly	-0.1485
-3.9393	kant	-0.1485
-4.0643	keep	-0.1485
-2.9616	kind	-0.6877
-4.5414	kind--a	-0.1485
-4.5414	kind--judgments	-0.1485
-4.2404	kind--those	-0.1485
-4.5414	kind:	-0.1485
-4.2404	kind;	-0.4495
-3.2404	kinds	-0.7225
-4.5414	kinds--no	-0.1485
-4.2404	kinds;	-0.1485
-4.0643	king	-0.2734
-4.2404	knew	-0.1485
-4.5414	knew;	-0.1485
-2.9973	know	-0.6368
-4.2404	know;	-0.4495
-4.2404	know?	-0.1485
-3.7632	knowing	-0.3245
-3.3653	knowledge	-0.4730
-4.5414	knowledge:	-0.1485
-3.5871	known	-0.4495
-4.5414	known;	-0.1485
-3.9393	knows	-0.1898
-4.5414	laborious	-0.1485
-4.0643	laid	-0.3245
-3.4274	language	-0.3480
-3.7632	large	-0.3915
-3.8424	largely	-0.2454
-3.6383	larger	-0.3526
-3.4622	last	-0.2604
-4.5414	last;	-0.1485
-4.5414	lastly	-0.1485
-4.5414	lasts	-0.1485
-4.5414	latent	-0.1485
-3.8424	later	-0.1996
-3.9393	latter	-0.1880
-3.9393	law	-0.1485
-4.5414	law:	-0.1485
-4.0643	laws	-0.1485
-3.8424	lay	-0.4495
-4.0643	laying	-0.1485
-3.5414	lead	-0.8474
-4.5414	leading	-0.1485
-4.2404	leads	-0.1485
-4.2404	learn	-0.1485
-4.5414	learnt	-0.1485
-3.9393	least	-0.2064
-4.5414	least)	-0.1485
-3.8424	leave	-0.2946
-3.9393	lecture	-0.2454
-4.2404	lectures	-0.1485
-4.0643	led	-0.4495
-3.7632	left	-0.2946
-4.2404	legal	-0.1485
-4.0643	legitimate	-0.2454
-4.5414	leibniz;	-0.1485
-4.5414	leicester	-0.1485
-3.8424	length	-0.2454
-3.3953	less	-0.2596
-4.5414	lest	-0.1485
-3.4274	let	-0.5006
-4.2404	letter	-0.1485
-4.2404	letters	-0.4495
-4.5414	level	-0.1485
-4.0643	liable	-0.6256
-4.2404	lie	-0.2734
-4.5414	lie"	-0.1485
-3.8424	lies	-0.5464
-3.5414	life	-0.3245
-4.5414	life--with	-0.1485
-4.5414	lifeless	-0.1485
-4.5414	lifetime	-0.1485
-4.2404	light	-0.1485
-3.0500	like	-0.3962
-4.5414	like"	-0.1485
-3.7632	likely	-0.1996
-4.2404	likeness	-0.1485
-4.0643	limit	-0.1485
-3.6383	limited	-0.1996
-4.2404	limits	-0.4495
-4.2404	line	-0.1485
-4.5414	lines	-0.1485
-4.2404	lion	-0.1485
-4.5414	lion"	-0.1485
-4.5414	lion"--that	-0.1485
-4.5414	lion";	-0.1485
-4.0643	lions	-0.1485
-4.5414	lions--at	-0.1485
-4.5414	list)	-0.1485
-3.5871	little	-0.1485
-4.5414	lived	-0.1485
-3.7632	lives	-0.2064
-4.2404	lives"	-0.4495
-4.2404	living	-0.1485
-4.5414	locke's	-0.1485
-4.2404	logic	-0.1485
-4.5414	logic;	-0.1485
-4.0643	logical	-0.1485
-3.8424	logically	-0.5164
-4.0643	logicians	-0.1485
-3.5000	long	-0.2734
-4.0643	longer	-0.1485
-4.5414	longmans	-0.1485
-3.7632	look	-0.3082
-3.8424	looking	-0.4495
-4.2404	looking-glass	-0.1485
-4.2404	looks	-0.1485
-4.2404	loose	-0.1485
-4.2404	loosely	-0.1485
-4.5414	loud	-0.1485
-4.5414	love	-0.1485
-4.0643	lower	-0.1485
-4.5414	lowest	-0.1485
-4.5414	luminous	-0.1485
-4.2404	lying	-0.1485
-3.2192	made	-0.3659
-4.5414	made--the	-0.1485
-4.5414	made;	-0.1485
-4.5414	magnitude	-0.1485
-3.6963	main	-0.2276
-3.9393	mainly	-0.1485
-3.5000	maintain	-0.4037
-3.8424	maintained	-0.3915
-4.5414	maintained)	-0.1485
-3.6963	maintaining	-0.4117
-4.0643	maintains	-0.3245
-4.0643	majority	-0.3245
-4.5414	majority)	-0.1485
-3.1100	make	-0.5082
-3.6383	makes	-0.2997
-4.5414	makes)	-0.1485
-4.5414	makes--some	-0.1485
-3.3653	making	-0.3944
-4.5414	making;	-0.1485
-4.5414	making?	-0.1485
-4.5414	mammal"	-0.1485
-4.5414	mammalian	-0.1485
-4.5414	mammalian"	-0.1485
-3.2861	man	-0.4097
-3.7632	man's	-0.2356
-4.5414	man--even	-0.1485
-4.5414	man--which	-0.1485
-4.2404	man-made	-0.1485
-4.5414	man-made--indeed	-0.1485
-4.5414	man-made?	-0.1485
-4.5414	man?	-0.1485
-4.5414	manifestation	-0.1485
-4.2404	mankind	-0.2276
-3.9393	manner	-0.1485
-4.5414	manners	-0.1485
-4.5414	manufacture	-0.1485
-2.9503	many	-0.4865
-4.5414	many--i	-0.1485
-3.9393	mark	-0.2734
-3.9393	marks	-0.3245
-4.5414	mass	-0.1485
-4.5414	massacre	-0.1485
-3.1990	material	-0.6027
-4.5414	materialists	-0.1485
-4.5414	materially	-0.1485
-4.5414	mathematica	-0.1485
-4.2404	mathematics	-0.2734
-3.4274	matter	-0.3448
-3.4274	matters	-0.6925
-2.4342	may	-0.6270
-4.5414	may)	-0.1485
-3.0362	me	-0.4123
-4.5414	me)	-0.1485
-4.5414	me--an	-0.1485
-4.5414	me;	-0.1485
-2.9286	mean	-0.6344
-4.5414	mean--connected	-0.1485
-4.5414	mean--just	-0.1485
-4.5414	mean--propositions	-0.1485
-3.9393	mean:	-0.4495
-3.9393	mean;	-0.2734
-3.8424	mean?	-0.1485
-3.0362	meaning	-0.6183
-4.5414	meaning:	-0.1485
-4.5414	meaningless	-0.1485
-3.6383	meanings	-0.3703
-2.8512	means	-0.5231
-4.5414	means)	-0.1485
-4.5414	means?	-0.1485
-3.0229	meant	-0.5968
-4.5414	meant:	-0.1485
-4.2404	meant;	-0.3245
-4.2404	meant?	-0.1485
-4.5414	meantime	-0.1485
-4.5414	meantime;	-0.1485
-4.5414	mechanical;	-0.1485
-4.5414	mediate	-0.1485
-4.5414	mediated	-0.1485
-4.2404	mediates	-0.4495
-4.5414	mediating	-0.1485
-4.5414	medium	-0.1485
-4.5414	medium;	-0.1485
-4.0643	meet	-0.1485
-4.5414	meeting	-0.1485
-4.5414	meets	-0.1485
-4.5414	melancholy	-0.1485
-4.5414	melt	-0.1485
-4.5414	melted	-0.1485
-3.7632	memory	-0.3245
-4.5414	memory;	-0.1485
-3.1990	men	-0.3752
-4.5414	men's	-0.1485
-4.5414	men--are	-0.1485
-4.5414	men--that	-0.1485
-4.5414	men;	-0.1485
-4.5414	men?	-0.1485
-3.1435	mental	-0.4156
-4.5414	mental;	-0.1485
-4.0643	mention	-0.2454
-3.9393	mentioned	-0.3245
-4.5414	mentioning	-0.1485
-4.0643	mentions	-0.1485
-3.3373	mere	-0.1713
-2.8010	merely	-0.4128
-4.5414	merely:	-0.1485
-4.5414	merest	-0.1485
-4.5414	met	-0.1485
-4.5414	metaphor	-0.1485
-3.9393	metaphorical	-0.3703
-4.5414	metaphysics	-0.1485
-4.2404	method	-0.4495
-4.5414	microscope	-0.1485
-4.5414	middle	-0.1485
-2.9393	might	-0.5164
-4.5414	mile	-0.1485
-4.2404	miles	-0.1485
-4.2404	mill	-0.1485
-4.5414	mill-russell	-0.1485
-3.5000	mind	-0.4117
-4.5414	mind";	-0.1485
-4.5414	mind--the	-0.1485
-4.5414	mind:	-0.1485
-4.5414	mind;	-0.1485
-4.5414	mind?	-0.1485
-3.8424	minds	-0.3403
-4.5414	minds"	-0.1485
-4.5414	minds;	-0.1485
-3.3953	mine	-0.3757
-4.5414	mine--which	-0.1485
-4.5414	mine:	-0.1485
-4.5414	mine;	-0.1485
-4.5414	minerals	-0.1485
-4.2404	minimum	-0.1485
-4.5414	minority	-0.1485
-4.5414	miracles	-0.1485
-4.5414	miserable;	-0.1485
-4.5414	miserably	-0.1485
-4.2404	misery	-0.1485
-4.5414	mislead	-0.1485
-4.2404	misleading	-0.1485
-4.2404	misled	-0.1485
-4.5414	misnomer	-0.1485
-4.5414	miss	-0.1485
-3.6383	mistake	-0.3858
-4.5414	mistake;	-0.1485
-3.9393	mistaken	-0.2454
-4.5414	mistaken;	-0.1485
-4.2404	mistakes	-0.1485
-4.5414	mistakes;	-0.1485
-4.2404	mistaking	-0.1485
-4.5414	mistook	-0.1485
-4.5414	mistranslation	-0.1485
-4.5414	misunderstandings	-0.1485
-4.5414	misunderstood;	-0.1485
-4.5414	moans	-0.1485
-3.9393	modern	-0.2454
-4.2404	modification	-0.1485
-4.5414	modifications	-0.1485
-4.5414	modifications";	-0.1485
-3.9393	modified	-0.1485
-3.9393	modifies	-0.2734
-3.7632	modify	-0.3526
-3.6963	moment	-0.2898
-4.5414	moment)	-0.1485
-4.5414	moments	-0.1485
-4.2404	monads	-0.1485
-4.5414	monstrous	-0.1485
-4.5414	mood	-0.1485
-4.5414	moon	-0.1485
-4.5414	moon;	-0.1485
-4.5414	moore	-0.1485
-3.0643	moral	-0.4232
-3.6383	morality	-0.3825
-3.9393	morally	-0.4495
-4.5414	morbid	-0.1485
-2.7780	more	-0.4182
-4.5414	more)	-0.1485
-4.5414	more?	-0.1485
-3.8424	moreover	-0.5164
-4.2404	mortal	-0.1485
-4.5414	mortal"--a	-0.1485
-2.8424	most	-0.4446
-4.5414	mother	-0.1485
-4.5414	motion	-0.1485
-4.5414	motions	-0.1485
-4.5414	motor-car	-0.1485
-4.5414	mountains	-0.1485
-4.2404	mouth	-0.1485
-4.5414	move	-0.1485
-4.5414	moved	-0.1485
-3.6963	movement	-0.4795
-3.6383	movements	-0.3526
-3.9393	moving	-0.2946
-3.0942	mr	-1.3098
-3.2404	much	-0.3509
-4.5414	murder	-0.1485
-4.2404	murdered	-0.2734
-4.5414	murdered;	-0.1485
-2.6019	must	-0.5338
-4.2404	mutability	-0.1485
-3.9393	mutable	-0.4495
-4.5414	mutable--that	-0.1485
-4.5414	mutable:	-0.1485
-4.5414	mutable;	-0.1485
-4.5414	mutable?	-0.1485
-4.5414	mutually	-0.1485
-2.6329	my	-0.4919
-3.1612	myself	-0.3364
-4.5414	mystery	-0.1485
-4.5414	n	-0.1485
-4.5414	naked	-0.1485
-3.4274	name	-0.3641
-4.5414	name:	-0.1485
-4.5414	name?	-0.1485
-3.3653	namely	-0.5464
-4.5414	namely:	-0.1485
-4.5414	namely:--	-0.1485
-3.9393	names	-0.4495
-4.5414	napoleon's	-0.1485
-4.5414	narrow	-0.1485
-4.5414	narrower	-0.1485
-4.5414	narrowest	-0.1485
-4.5414	nation	-0.1485
-3.3653	natural	-0.3061
-3.9393	naturalistic	-0.1485
-3.3373	naturally	-0.2797
-3.5000	nature	-0.4037
-4.5414	nature"	-0.1485
-4.2404	nature'	-0.1485
-4.5414	nature:	-0.1485
-4.2404	nature;	-0.1485
-4.0643	natures	-0.3703
-4.5414	natures'	-0.1485
-4.5414	nave	-0.1485
-4.2404	nay	-0.1485
-3.7632	near	-0.4495
-4.2404	nearer	-0.4495
-3.6963	nearly	-0.5006
-3.4274	necessarily	-0.2974
-4.5414	necessarily"	-0.1485
-3.3373	necessary	-0.3825
-4.5414	necessities	-0.1485
-3.7632	necessity	-0.1485
-4.5414	necessity--a	-0.1485
-3.2861	need	-0.3825
-4.0643	needed	-0.1485
-4.5414	needing	-0.1485
-3.8424	negative	-0.2276
-4.5414	neglected	-0.1485
-4.5414	neglecting	-0.1485
-4.5414	negligence	-0.1485
-4.2404	neighbour	-0.1485
-4.2404	neighbour"	-0.1485
-4.2404	neighbour's	-0.3245
-3.3953	neither	-0.2847
-4.5414	neither:	-0.1485
-4.5414	neither?	-0.1485
-4.2404	nerves	-0.1485
-4.0643	nervous	-0.3245
-4.5414	net	-0.1485
-2.9973	never	-0.3375
-3.4274	nevertheless	-0.1996
-3.5871	new	-0.1832
-3.9393	next	-0.2064
-4.0643	night	-0.1485
-4.5414	nights"	-0.1485
-2.6841	no	-0.4905
-3.6963	nobody	-0.2576
-4.5414	non-given	-0.1485
-4.5414	non-intrinsic	-0.1485
-4.5414	non-moral	-0.1485
-4.5414	non-sensibles	-0.1485
-4.2404	non-sensory	-0.4495
-3.3953	none	-0.4147
-4.5414	nonexistence	-0.1485
-3.6963	nonsense	-0.4495
-4.2404	nonsense;	-0.3245
-3.1797	nor	-0.3192
-4.5414	nose	-0.1485
-2.4807	not	-0.4977
-4.2404	not)	-0.1485
-4.5414	not--that	-0.1485
-4.0643	not:	-0.1485
-3.6963	not;	-0.3526
-4.2404	not?	-0.1485
-4.5414	note	-0.1485
-3.0942	nothing	-0.4952
-4.5414	nothing--certainly	-0.1485
-3.9393	nothing;	-0.1485
-4.0643	notice	-0.1485
-4.5414	noticeable	-0.1485
-3.9393	noticed	-0.2734
-4.2404	noticing	-0.1485
-4.5414	noting	-0.1485
-3.8424	notion	-0.3703
-4.2404	notions	-0.1485
-4.5414	notorious	-0.1485
-4.5414	november	-0.1485
-2.8693	now	-0.4003
-4.5414	now:	-0.1485
-3.6963	now;	-0.2946
-4.2404	now?	-0.1485
-4.5414	nowadays	-0.1485
-4.5414	nowadays)	-0.1485
-3.5000	number	-0.6256
-4.2404	number;	-0.4495
-4.0643	numbers	-0.3703
-3.9393	numerical	-0.4495
-3.6383	numerically	-0.5744
-4.0643	numerous	-0.1485
-4.5414	numerous;	-0.1485
-4.5414	o	-0.1485
-2.9732	object	-0.6008
-4.2404	object"	-0.1485
-4.5414	object)	-0.1485
-4.5414	object:	-0.1485
-4.0643	object;	-0.2734
-4.5414	object?	-0.1485
-4.2404	objected	-0.1485
-4.2404	objecting	-0.1485
-3.3373	objection	-0.5530
-3.3653	objections	-0.4495
-4.5414	objections:--	-0.1485
-4.2404	objections;	-0.4495
-3.9393	objective	-0.1485
-4.5414	objectivity	-0.1485
-3.1264	objects	-0.4588
-4.5414	objects--objects	-0.1485
-4.5414	objects--that	-0.1485
-4.2404	objects;	-0.1485
-3.8424	obligation	-0.2946
-4.5414	obligation"	-0.1485
-4.5414	obligation--the	-0.1485
-4.5414	obligation:	-0.1485
-4.5414	obligation;	-0.1485
-4.5414	oblique	-0.1485
-4.2404	obliquely	-0.1485
-4.2404	obscure	-0.1485
-3.0643	observation	-0.5164
-4.5414	observation--by	-0.1485
-4.5414	observation--such	-0.1485
-4.5414	observation:	-0.1485
-4.5414	observation;	-0.1485
-4.5414	observation?	-0.1485
-3.2192	observations	-0.4930
-4.0643	observations?	-0.1485
-3.1990	observe	-0.5164
-4.5414	observe--something	-0.1485
-4.5414	observe:	-0.1485
-4.5414	observe;	-0.1485
-4.5414	observe?	-0.1485
-3.1264	observed	-0.4153
-4.2404	observed?	-0.1485
-4.0643	observes	-0.1485
-3.6963	observing	-0.3245
-4.2404	obtain	-0.1485
-4.0643	obtained	-0.3245
-4.5414	obviate	-0.1485
-3.1990	obvious	-0.4310
-4.5414	obvious:	-0.1485
-4.2404	obvious;	-0.1485
-3.1100	obviously	-0.3395
-3.5000	occasion	-0.4495
-3.6383	occasions	-0.2868
-4.5414	occasions:	-0.1485
-3.7632	occupied	-0.4495
-3.8424	occupy	-0.2454
-4.5414	occupy?	-0.1485
-4.5414	occupying	-0.1485
-3.1435	occur	-0.5366
-4.0643	occur;	-0.2734
-4.5414	occur?	-0.1485
-3.8424	occurred	-0.2454
-3.9393	occurrence	-0.2454
-4.5414	occurrences	-0.1485
-4.2404	occurring	-0.1485
-3.6383	occurs	-0.4215
-4.5414	occurs:--	-0.1485
-4.5414	october	-0.1485
-1.8018	of	-0.6954
-3.9393	of"	-0.1485
-4.2404	of'	-0.1485
-4.2404	of?	-0.1485
-4.0643	off	-0.1485
-4.5414	offence	-0.1485
-3.7632	offer	-0.1485
-4.2404	offered	-0.1485
-4.2404	offering	-0.1485
-4.2404	offers	-0.1485
-3.0790	often	-0.3011
-3.9393	old	-0.2154
-4.2404	old"	-0.4495
-4.5414	old;	-0.1485
-4.5414	omission	-0.1485
-4.5414	omits	-0.1485
-3.9393	omitted	-0.2734
-2.4695	on	-0.6619
-4.5414	on--involves	-0.1485
-4.5414	on;	-0.1485
-3.3373	once	-0.3355
-4.5414	once"	-0.1485
-4.5414	once--which	-0.1485
-4.5414	once;	-0.1485
-2.4845	one	-0.5718
-4.2404	one"	-0.1485
-4.5414	one"--where	-0.1485
-4.5414	one";	-0.1485
-4.2404	one's	-0.1485
-4.5414	one)	-0.1485
-4.5414	one--of	-0.1485
-4.5414	one--which	-0.1485
-4.5414	one-sided	-0.1485
-4.0643	one:	-0.1485
-4.2404	one;	-0.1485
-4.0643	one?	-0.2454
-3.5000	ones	-0.4215
-4.5414	ones:	-0.1485
-4.2404	ones;	-0.2734
-4.5414	ones?	-0.1485
-2.5729	only	-0.4383
-4.5414	only--this	-0.1485
-4.2404	only;	-0.1485
-4.5414	op	-0.1485
-3.7632	open	-0.4495
-4.5414	openly	-0.1485
-3.4622	opinion	-0.3341
-3.6963	opinions	-0.2946
-3.9393	opponent	-0.1485
-4.2404	opponents	-0.1485
-4.5414	opportunity	-0.1485
-4.2404	opposed	-0.4495
-4.2404	opposite	-0.1485
-4.5414	opposite:	-0.1485
-4.2404	opposition	-0.1485
-4.5414	optic	-0.1485
-2.0500	or	-0.4309
-4.5414	oracle	-0.1485
-4.0643	orange	-0.1485
-4.5414	orange;	-0.1485
-4.0643	order	-0.2276
-4.2404	ordinarily	-0.1485
-3.5871	ordinary	-0.3983
-4.0643	organic	-0.1485
-3.9393	origin	-0.1485
-3.7632	original	-0.2356
-3.9393	originally	-0.1485
-4.5414	origins	-0.1485
-2.7352	other	-0.4398
-4.5414	other--"seems	-0.1485
-4.5414	other--a	-0.1485
-4.5414	other--i	-0.1485
-4.5414	other--they	-0.1485
-4.5414	other:	-0.1485
-4.0643	other;	-0.2734
-4.5414	other?	-0.1485
-3.1100	others	-0.4769
-4.2404	others:	-0.1485
-4.0643	others;	-0.3245
-4.2404	others?	-0.1485
-3.9393	otherwise	-0.1485
-4.5414	otherwise)	-0.1485
-4.5414	otherwise?	-0.1485
-3.2404	ought	-0.6856
-2.7932	our	-0.4566
-3.9393	ours	-0.3245
-4.5414	ours--that	-0.1485
-3.4274	ourselves	-0.2997
-3.2192	out	-0.4142
-4.5414	out-of-doors	-0.1485
-4.5414	outer	-0.1485
-4.5414	outrageously	-0.1485
-4.5414	outset	-0.1485
-4.5414	outset:	-0.1485
-3.9393	outside	-0.2734
-3.5871	over	-0.3448
-4.5414	over;	-0.1485
-4.5414	overlook	-0.1485
-4.5414	overlooked	-0.1485
-4.2404	overlooking	-0.1485
-4.5414	overthrow	-0.1485
-4.5414	overwhelming	-0.1485
-4.5414	owes	-0.1485
-4.0643	owing	-0.6256
-3.5000	own	-0.3778
-4.5414	own--it	-0.1485
-4.5414	own--to	-0.1485
-4.5414	own:	-0.1485
-4.5414	own;	-0.1485
-4.0643	own?	-0.2734
-4.5414	owns	-0.1485
-4.2404	ox	-0.1485
-3.0099	p	-0.6501
-3.8424	p"	-0.2154
-4.5414	p";	-0.1485
-4.5414	p:	-0.1485
-4.5414	pacific	-0.1485
-4.5414	pack	-0.1485
-3.8424	pain	-0.4173
-4.5414	pain--it	-0.1485
-4.0643	pains	-0.1485
-3.7632	pair	-0.3526
-4.5414	pairs	-0.1485
-3.8424	paper	-0.2734
-4.5414	paper--"the	-0.1485
-3.7632	papers	-0.2154
-4.2404	paradox	-0.1485
-4.5414	paradoxes	-0.1485
-3.9393	paradoxical	-0.1485
-4.2404	paragraph	-0.1485
-2.8602	part	-0.8045
-4.5414	part"	-0.1485
-4.5414	part--of	-0.1485
-4.2404	part:	-0.1485
-4.5414	particles	-0.1485
-3.1797	particular	-0.3764
-4.0643	particularly	-0.1485
-3.6963	partly	-0.2576
-4.5414	partner	-0.1485
-3.3109	parts	-0.6256
-4.2404	party	-0.1485
-3.8424	pass	-0.1485
-3.3953	passage	-0.3858
-4.2404	passages	-0.1485
-4.5414	passing	-0.1485
-3.4274	past	-0.3757
-4.5414	past--that	-0.1485
-4.5414	past;	-0.1485
-3.3953	patch	-0.3703
-4.2404	patch"	-0.1485
-4.5414	patch;	-0.1485
-3.6383	patches	-0.5464
-4.5414	pattern	-0.1485
-4.5414	patterns	-0.1485
-4.5414	paul's;	-0.1485
-3.5414	pay	-0.2734
-4.5414	pay;	-0.1485
-4.5414	paying	-0.1485
-4.2404	pays	-0.4495
-3.9393	peculiar	-0.2454
-4.2404	peculiarities	-0.1485
-4.5414	pencil	-0.1485
-4.5414	penetrates	-0.1485
-4.2404	penny	-0.4495
-3.2404	people	-0.3837
-4.2404	people's	-0.1485
-4.5414	people--does	-0.1485
-4.5414	people:	-0.1485
-4.5414	people;	-0.1485
-4.5414	people?	-0.1485
-4.2404	people?"	-0.1485
-3.1990	perceive	-0.4795
-4.5414	perceive--colours	-0.1485
-4.5414	perceive?	-0.1485
-3.2192	perceived	-0.5418
-4.5414	perceived"--that	-0.1485
-4.5414	perceived"--the	-0.1485
-4.5414	perceived":	-0.1485
-4.5414	perceived--either	-0.1485
-4.5414	perceived--i	-0.1485
-4.5414	perceived--to	-0.1485
-4.5414	perceived:	-0.1485
-4.2404	perceived;	-0.1485
-4.2404	perceives	-0.1485
-4.5414	perceives:	-0.1485
-3.5414	perceiving	-0.3375
-4.5414	perceptible	-0.1485
-3.5414	perceptibly	-0.4758
-3.1100	perception	-0.5956
-4.5414	perception;	-0.1485
-4.5414	perception?	-0.1485
-3.1435	perceptions	-0.6078
-4.5414	perceptions--first	-0.1485
-4.5414	perceptions--one	-0.1485
-4.5414	perceptions:	-0.1485
-4.2404	perceptions;	-0.1485
-4.2404	perceptions?	-0.1485
-4.5414	perceptually	-0.1485
-4.2404	percipere	-0.1485
-4.5414	percipere'	-0.1485
-4.5414	percipere;	-0.1485
-3.1797	percipi	-0.4385
-4.5414	percipi"	-0.1485
-4.2404	percipi'	-0.1485
-3.9393	percipi:	-0.2734
-4.2404	percipi?	-0.4495
-4.5414	percipi?'	-0.1485
-3.9393	perfect	-0.1485
-3.3109	perfectly	-0.4272
-3.2404	perhaps	-0.2868
-4.0643	period	-0.1485
-4.5414	period"	-0.1485
-4.5414	period;	-0.1485
-4.5414	permanent	-0.1485
-4.2404	permanently	-0.1485
-4.2404	permission	-0.4495
-4.5414	persistently	-0.1485
-3.3653	person	-0.4310
-4.0643	person's	-0.2276
-4.5414	person:	-0.1485
-4.5414	person;	-0.1485
-4.2404	person?	-0.4495
-3.9393	personal	-0.1485
-4.5414	personally	-0.1485
-3.5000	persons	-0.2374
-4.5414	persons;	-0.1485
-4.2404	persons?	-0.1485
-4.2404	persuade	-0.1485
-4.5414	persuading	-0.1485
-4.5414	perverted	-0.1485
-4.5414	petitio	-0.1485
-4.5414	phenomenally	-0.1485
-3.7632	philosopher	-0.3133
-4.5414	philosopher's	-0.1485
-3.1797	philosophers	-0.4937
-4.5414	philosophers--the	-0.1485
-4.2404	philosophers;	-0.1485
-3.6963	philosophic	-0.3526
-3.6383	philosophical	-0.2624
-4.5414	philosophise	-0.1485
-4.2404	philosophising	-0.4495
-3.4274	philosophy	-0.3403
-4.5414	philosophy--sensationalism	-0.1485
-4.5414	philosophy:	-0.1485
-4.0643	philosophy;	-0.3245
-3.5871	phrase	-0.1898
-4.5414	phrase;	-0.1485
-3.8424	phrases	-0.1485
-3.2626	physical	-0.4969
-4.2404	physically	-0.1485
-4.5414	physics	-0.1485
-3.9393	pick	-0.7505
-4.5414	picking	-0.1485
-3.8424	pickwickian	-0.2276
-4.5414	piece	-0.1485
-4.2404	pieces	-0.4495
-4.5414	pig	-0.1485
-4.5414	pipe	-0.1485
-3.3373	place	-0.4775
-4.2404	place:	-0.1485
-4.5414	place?	-0.1485
-4.5414	placed	-0.1485
-3.9393	places	-0.3245
-3.2626	plain	-0.4647
-4.2404	plain:	-0.4495
-4.2404	plainest	-0.4495
-3.1990	plainly	-0.2797
-4.5414	planet;	-0.1485
-4.2404	planets	-0.1485
-4.2404	plausibility	-0.1485
-3.6383	plausible	-0.2454
-4.5414	plausible)--systematically	-0.1485
-4.5414	plausibly	-0.1485
-4.2404	play	-0.4495
-4.5414	played	-0.1485
-4.0643	player	-0.1485
-4.2404	players	-0.1485
-4.2404	plead	-0.1485
-4.2404	pleasant	-0.1485
-4.5414	pleasant"	-0.1485
-4.2404	please	-0.4495
-4.5414	pleased	-0.1485
-4.5414	pleased;	-0.1485
-4.5414	pleases	-0.1485
-4.5414	pleasurable	-0.1485
-3.9393	pleasure	-0.2946
-4.5414	pleasure"	-0.1485
-4.2404	plenty	-0.4495
-4.5414	plunge	-0.1485
-4.5414	plural	-0.1485
-4.5414	pocket	-0.1485
-4.5414	pockets	-0.1485
-3.2404	point	-0.4825
-4.5414	point--the	-0.1485
-3.8424	pointed	-0.5464
-3.8424	pointing	-0.5464
-3.4274	points	-0.3623
-4.5414	points"	-0.1485
-4.5414	poisonous	-0.1485
-4.5414	policy	-0.1485
-4.2404	popular	-0.1485
-4.5414	popularly	-0.1485
-3.6963	position	-0.2106
-4.5414	position:	-0.1485
-3.8424	positions	-0.1485
-3.7632	positive	-0.3034
-3.3653	positively	-0.4758
-4.5414	positivistic--a	-0.1485
-3.2404	possess	-0.5303
-4.5414	possess;	-0.1485
-3.7632	possessed	-0.2576
-4.5414	possessed;	-0.1485
-3.3953	possesses	-0.4232
-4.5414	possessing	-0.1485
-4.5414	possession	-0.1485
-4.2404	possessions	-0.1485
-3.9393	possibility	-0.4495
-3.0643	possible	-0.5241
-3.3953	possibly	-0.3703
-3.9393	power	-0.2276
-4.5414	powerful	-0.1485
-4.5414	powers	-0.1485
-4.0643	pp	-0.6256
-4.0643	practically	-0.1485
-4.5414	practice	-0.1485
-4.5414	pragmatism	-0.1485
-4.5414	pragmatism:	-0.1485
-4.5414	pragmatism;	-0.1485
-4.2404	pragmatist	-0.4495
-4.5414	pragmatists	-0.1485
-4.5414	pray	-0.1485
-4.5414	praying	-0.1485
-4.0643	precede	-0.3245
-3.5414	preceded	-0.4795
-4.5414	precedes	-0.1485
-3.7632	preceding	-0.2946
-3.8424	precise	-0.2154
-3.1990	precisely	-0.5464
-4.0643	precision	-0.6256
-3.4274	predicate	-0.3703
-4.0643	predicated	-0.3245
-3.5000	predicates	-0.3623
-4.5414	predict	-0.1485
-4.5414	prediction	-0.1485
-4.0643	predictions	-0.2734
-4.2404	prefer	-0.1485
-4.5414	prehistoric	-0.1485
-4.2404	prejudice	-0.4495
-4.5414	prejudices	-0.1485
-4.0643	preliminary	-0.1485
-3.6963	premiss	-0.2576
-4.2404	premisses	-0.1485
-4.5414	premisses;	-0.1485
-3.9393	prepared	-0.7505
-4.5414	preposterous	-0.1485
-4.2404	presence	-0.3245
-3.5871	present	-0.2092
-4.5414	presentation	-0.1485
-3.3109	presented	-0.6603
-4.2404	presently	-0.1485
-4.5414	press	-0.1485
-4.5414	pressing	-0.1485
-4.5414	presumably	-0.1485
-4.2404	presumption	-0.3245
-4.5414	presupposes	-0.1485
-4.2404	pretend	-0.4495
-4.5414	pretended	-0.1485
-4.5414	pretends	-0.1485
-3.6963	pretty	-0.4495
-4.5414	prevalent	-0.1485
-3.6383	prevent	-0.2454
-4.2404	prevented	-0.1485
-4.5414	prevention	-0.1485
-3.6383	previous	-0.1996
-3.7632	previously	-0.2868
-4.5414	primarily	-0.1485
-4.0643	primary	-0.3245
-4.5414	principal	-0.1485
-4.5414	principally	-0.1485
-4.2404	principia	-0.4495
-4.5414	principii:	-0.1485
-3.5000	principle	-0.3148
-3.6383	principles	-0.3593
-4.5414	printed	-0.1485
-4.5414	printers	-0.1485
-4.2404	priori	-0.2276
-4.2404	private	-0.4495
-3.9393	probability	-0.1996
-3.4622	probable	-0.4842
-4.5414	probable--more	-0.1485
-4.5414	probable--much	-0.1485
-4.5414	probable--only	-0.1485
-4.5414	probable;	-0.1485
-3.2192	probably	-0.3245
-4.2404	problem	-0.1485
-4.5414	procedure	-0.1485
-4.0643	proceed	-0.4495
-4.5414	proceedings	-0.1485
-4.2404	process	-0.2734
-4.5414	processes	-0.1485
-3.9393	produce	-0.1485
-4.0643	produced	-0.1485
-4.5414	products	-0.1485
-4.2404	products"	-0.1485
-4.2404	prof	-0.4495
-4.2404	professes	-0.4495
-3.1100	professor	-1.1898
-3.9393	profitable	-0.3703
-4.2404	progress	-0.1485
-4.5414	prominent	-0.1485
-4.5414	promise	-0.1485
-4.5414	promise"	-0.1485
-4.5414	promises	-0.1485
-3.7632	proof	-0.2734
-4.0643	propensity	-0.4495
-3.5414	proper	-0.3789
-4.2404	proper;	-0.1485
-3.4274	properly	-0.3375
-3.2192	properties	-0.4142
-4.5414	properties";	-0.1485
-4.5414	properties'	-0.1485
-3.1612	property	-0.5778
-4.2404	property"	-0.1485
-4.5414	property--namely	-0.1485
-4.2404	property--which	-0.1485
-4.0643	property;	-0.1485
-4.2404	prophesy	-0.1485
-4.5414	prophesy)	-0.1485
-4.5414	proportion	-0.1485
-3.8424	propose	-0.5006
-4.0643	proposed	-0.2454
-4.5414	proposes	-0.1485
-4.5414	proposing	-0.1485
-2.8512	proposition	-0.5075
-4.5414	proposition--and	-0.1485
-4.5414	proposition--the	-0.1485
-4.0643	proposition:	-0.1485
-4.0643	proposition;	-0.1485
-4.5414	proposition?	-0.1485
-2.8786	propositions	-0.6345
-4.5414	propositions:	-0.1485
-4.5414	propositions:--	-0.1485
-4.2404	propositions;	-0.1485
-3.9393	protest	-0.2454
-4.2404	protesting	-0.1485
-4.5414	proud	-0.1485
-3.3953	prove	-0.3245
-3.4622	proved	-0.3789
-4.5414	proves	-0.1485
-4.2404	provided	-0.2734
-4.5414	proving	-0.1485
-4.5414	provisos	-0.1485
-4.5414	proximity	-0.1485
-4.5414	psycho-genetic	-0.1485
-3.5414	psychological	-0.3858
-4.5414	psychological;	-0.1485
-4.0643	psychologists	-0.1485
-4.5414	psychologists)	-0.1485
-3.8424	psychology	-0.3034
-4.5414	psychology:	-0.1485
-4.2404	published	-0.1485
-4.5414	published;	-0.1485
-4.5414	pull	-0.1485
-4.5414	pure	-0.1485
-3.5000	purely	-0.2210
-3.6383	purpose	-0.2210
-4.5414	purpose--helping	-0.1485
-4.5414	purposeful;	-0.1485
-4.0643	purposes	-0.1485
-4.5414	purposive	-0.1485
-3.5414	put	-0.2576
-4.2404	puts	-0.1485
-4.2404	putting	-0.1485
-4.0643	puzzle	-0.1485
-4.2404	puzzled	-0.1485
-4.5414	puzzling	-0.1485
-3.3109	q	-0.4775
-3.7632	q"	-0.1862
-4.5414	q";	-0.1485
-4.5414	q:	-0.1485
-4.0643	qualification	-0.2734
-4.5414	qualification--as	-0.1485
-4.2404	qualifies	-0.4495
-4.5414	qualify	-0.1485
-3.7632	qualitative	-0.6925
-3.5871	qualitatively	-0.8017
-3.5414	qualities	-0.3112
-4.5414	qualities"--colour	-0.1485
-4.5414	qualities;	-0.1485
-3.4622	quality	-0.3330
-4.0643	quality;	-0.1485
-4.5414	quantity	-0.1485
-4.5414	quarterly	-0.1485
-3.0362	question	-0.4972
-4.5414	question"	-0.1485
-4.5414	question--for	-0.1485
-4.5414	question--though	-0.1485
-3.5414	question:	-0.2734
-3.9393	question;	-0.1485
-4.5414	question?	-0.1485
-4.5414	questioned	-0.1485
-4.5414	questioner	-0.1485
-4.5414	questioning	-0.1485
-3.3373	questions	-0.3423
-4.2404	questions:	-0.1485
-4.5414	questions;	-0.1485
-2.7632	quite	-0.4937
-4.5414	quotation	-0.1485
-4.2404	quote	-0.1485
-4.2404	quoted	-0.1485
-4.5414	quoted:	-0.1485
-4.5414	quoting	-0.1485
-3.6383	r	-0.3034
-4.0643	r"	-0.1485
-4.0643	r)	-0.3526
-4.5414	railway	-0.1485
-3.9393	rain	-0.3703
-4.0643	raise	-0.1485
-4.2404	raised	-0.1485
-4.2404	raises	-0.1485
-4.5414	raising	-0.1485
-4.5414	range	-0.1485
-4.0643	rash	-0.6256
-4.5414	rate	-0.1485
-3.5871	rather	-0.1996
-4.2404	re-printed	-0.1485
-4.2404	reach	-0.4495
-4.2404	reached	-0.1485
-3.8424	read	-0.2276
-4.2404	reader	-0.1485
-4.2404	readers	-0.1485
-4.0643	readily	-0.1485
-4.2404	reading	-0.1485
-4.5414	ready	-0.1485
-3.1264	real	-0.4094
-3.7632	real"	-0.2154
-4.5414	real"--as	-0.1485
-4.5414	real--never	-0.1485
-4.5414	real--yet	-0.1485
-4.5414	real:	-0.1485
-3.7632	real;	-0.2946
-4.2404	real?	-0.1485
-4.2404	realise	-0.1485
-3.6963	realised	-0.2734
-4.5414	realised;	-0.1485
-4.5414	realities	-0.1485
-3.2626	reality	-0.4825
-4.2404	reality"	-0.1485
-4.5414	reality--particularly	-0.1485
-4.5414	reality:	-0.1485
-4.2404	reality;	-0.1485
-4.5414	realized	-0.1485
-2.7218	really	-0.4026
-2.8979	reason	-0.6859
-4.5414	reason"	-0.1485
-4.5414	reason--i	-0.1485
-4.5414	reason--to	-0.1485
-4.2404	reason:	-0.1485
-4.2404	reason;	-0.1485
-4.2404	reason?	-0.1485
-4.0643	reasonable	-0.1485
-4.5414	reasonably	-0.1485
-4.5414	reasoned	-0.1485
-4.0643	reasoning	-0.1485
-3.2192	reasons	-0.4775
-4.2404	reasons;	-0.4495
-4.5414	rebus	-0.1485
-4.5414	recalling	-0.1485
-4.5414	received	-0.1485
-4.5414	receives	-0.1485
-4.2404	recent	-0.1485
-4.5414	reckon	-0.1485
-3.8424	recognise	-0.2734
-3.6963	recognised	-0.3245
-4.5414	recognises	-0.1485
-4.5414	recognising	-0.1485
-4.0643	recognition	-0.2734
-4.5414	recognition?	-0.1485
-4.5414	recommend	-0.1485
-4.5414	recommend--if	-0.1485
-4.5414	recommendation	-0.1485
-4.5414	reconcilable	-0.1485
-4.5414	reconcile	-0.1485
-4.5414	record	-0.1485
-4.5414	records	-0.1485
-3.9393	recur	-0.2734
-3.3373	red	-0.3749
-4.2404	red"	-0.1485
-4.5414	red--having	-0.1485
-4.5414	red;	-0.1485
-4.5414	redder	-0.1485
-4.5414	reddish	-0.1485
-4.5414	reduction	-0.1485
-3.8424	refer	-0.6256
-3.9393	reference	-0.4495
-4.5414	referred	-0.1485
-3.9393	referring	-0.4495
-4.5414	refers	-0.1485
-4.5414	refined	-0.1485
-4.5414	refinement	-0.1485
-4.5414	reflect)	-0.1485
-4.5414	reflection;	-0.1485
-4.5414	reflexion	-0.1485
-4.2404	refrain	-0.2734
-4.5414	refuge	-0.1485
-4.5414	refuse	-0.1485
-3.9393	refutation	-0.7505
-3.8424	refute	-0.2064
-4.0643	refuted	-0.2734
-4.2404	refutes	-0.1485
-3.6963	regard	-0.2734
-4.0643	regarded	-0.2734
-4.5414	regarding	-0.1485
-4.5414	regards	-0.1485
-3.7632	reid	-0.1485
-4.5414	reid)	-0.1485
-4.5414	reinforced	-0.1485
-3.7632	reject	-0.2064
-4.2404	rejected	-0.1485
-4.2404	rejection	-0.4495
-4.5414	rejects	-0.1485
-4.5414	relate	-0.1485
-3.5871	related	-0.5287
-4.5414	related--is	-0.1485
-4.5414	relating	-0.1485
-2.9851	relation	-0.6214
-4.5414	relation:	-0.1485
-4.5414	relation;	-0.1485
-4.5414	relation?	-0.1485
-3.2861	relational	-0.8327
-3.2192	relations	-0.4264
-4.5414	relations"	-0.1485
-4.5414	relationship	-0.1485
-4.0643	relative	-0.1485
-4.0643	relatively	-0.6256
-4.2404	relevant	-0.4495
-3.8424	religious	-0.3245
-4.5414	rely	-0.1485
-3.9393	remain	-0.1485
-3.6963	remains	-0.2576
-4.5414	remains:	-0.1485
-4.5414	remark	-0.1485
-4.5414	remarkable	-0.1485
-4.5414	remarks	-0.1485
-3.8424	remember	-0.1996
-4.2404	remember;	-0.4495
-4.5414	remembered	-0.1485
-4.5414	remembering	-0.1485
-4.5414	remembers	-0.1485
-4.5414	remembers?	-0.1485
-4.5414	remind	-0.1485
-4.5414	remotest	-0.1485
-3.7632	render	-0.3245
-4.5414	rendered	-0.1485
-4.0643	renders	-0.2734
-4.5414	renewed	-0.1485
-4.5414	repeat	-0.1485
-4.5414	repeated	-0.1485
-3.9393	repeatedly	-0.1485
-4.5414	repeating	-0.1485
-4.5414	repeats	-0.1485
-4.5414	repel	-0.1485
-4.5414	reply:	-0.1485
-4.2404	represent	-0.1485
-4.5414	represents	-0.1485
-4.2404	reprint	-0.4495
-4.5414	reproduce;	-0.1485
-4.5414	republishing	-0.1485
-4.5414	repugnant	-0.1485
-3.7632	require	-0.5164
-3.9393	required	-0.1485
-4.5414	requirement--neither	-0.1485
-4.5414	requirement--that	-0.1485
-4.0643	requirements	-0.1485
-4.2404	requires	-0.1485
-4.5414	requiring	-0.1485
-4.5414	resemblance	-0.1485
-3.9393	resemble	-0.2154
-4.2404	resembles	-0.1485
-4.5414	resist	-0.1485
-4.5414	resort	-0.1485
-3.3373	respect	-0.5366
-4.5414	respect--a	-0.1485
-4.5414	respect--namely	-0.1485
-4.5414	respect--whatever	-0.1485
-4.5414	respect;	-0.1485
-4.2404	respectively	-0.1485
-3.5871	respects	-0.3526
-4.2404	respects;	-0.1485
-3.6963	rest	-0.2276
-4.5414	rest--or	-0.1485
-4.5414	restrict	-0.1485
-4.2404	restricted	-0.1485
-3.9393	restriction	-0.4495
-4.2404	rests	-0.1485
-3.8424	result	-0.2454
-3.9393	results	-0.1485
-4.5414	retaining	-0.1485
-4.5414	return	-0.1485
-4.5414	revelation	-0.1485
-4.5414	reverse	-0.1485
-4.5414	revolution	-0.1485
-4.5414	revolve	-0.1485
-4.5414	rewriting	-0.1485
-3.3373	right	-0.3593
-4.5414	right--that	-0.1485
-4.5414	right-angled	-0.1485
-4.5414	right:	-0.1485
-3.7632	rightly	-0.4495
-4.5414	ring	-0.1485
-3.7632	rise	-0.3915
-4.0643	risk	-0.6256
-4.0643	roc	-0.1485
-4.5414	roc--meaning	-0.1485
-4.5414	roc:	-0.1485
-4.5414	roc;	-0.1485
-4.5414	roc?	-0.1485
-4.5414	rome	-0.1485
-3.6963	room	-0.2624
-4.5414	room"	-0.1485
-4.5414	room;	-0.1485
-3.6383	roughly	-0.1996
-3.7632	round	-0.1485
-3.5000	rule	-0.4495
-3.3653	rules	-0.4495
-4.5414	rules":	-0.1485
-4.5414	rules--that	-0.1485
-4.5414	rules--those	-0.1485
-4.5414	rules--upon	-0.1485
-4.2404	rules;	-0.1485
-3.8424	run	-0.3703
-4.5414	run!	-0.1485
-4.5414	run"	-0.1485
-4.5414	run?	-0.1485
-4.2404	russell	-0.1898
-4.5414	russell's	-0.1485
-4.5414	r}	-0.1485
-4.5414	safe	-0.1485
-4.0643	safely	-0.1485
-3.1990	said	-0.4873
-4.5414	said)	-0.1485
-4.5414	said--that	-0.1485
-4.2404	said:	-0.1485
-4.5414	said;	-0.1485
-4.5414	sailor	-0.1485
-4.0643	sake	-0.2734
-4.5414	sake--obviously	-0.1485
-3.7632	same	-0.2540
-4.5414	same--namely	-0.1485
-4.5414	sameness	-0.1485
-4.5414	satisfaction	-0.1485
-4.5414	satisfactorily	-0.1485
-4.0643	satisfactory	-0.3245
-4.5414	satisfactory;	-0.1485
-3.7632	satisfied	-0.1942
-4.2404	satisfies	-0.1485
