[n]
3

[smoother]
kylm.model.ngram.smoother.KNSmoother

[closed]
true

[max_length]
127155

[vocab_cutoff]
0

[start_symbol]
<s>

[terminal_symbol]
</s>

[unknown_symbol]
<unk>

\data\
ngram 1=5344
ngram 2=34738
ngram 3=76806
\1-grams: 
-99.0000	<s>	-0.1377
-4.5408	</s>
-4.5408	"(x	-0.1377
-4.2398	";	-0.1377
-3.4269	"A	-0.3929
-4.5408	"A's	-0.1377
-3.7627	"AP	-0.4387
-4.5408	"AP"	-0.1377
-4.0637	"AQ	-0.3138
-4.0637	"AQ"	-0.3138
-4.5408	"AR	-0.1377
-4.5408	"Agnosticism	-0.1377
-4.5408	"Alexander's	-0.1377
-3.6377	"All	-0.5636
-4.5408	"Almost	-0.1377
-4.5408	"An	-0.1377
-4.5408	"And	-0.1377
-4.0637	"Anything	-0.3138
-4.5408	"Arabian	-0.1377
-4.0637	"B	-0.3138
-4.5408	"BP	-0.1377
-4.5408	"Because	-0.1377
-4.2398	"Beliefs	-0.4387
-4.2398	"Blue	-0.4387
-4.2398	"But	-0.1377
-4.5408	"Chimæras	-0.1377
-4.5408	"Each	-0.1377
-4.0637	"Every	-0.3138
-4.5408	"Expedient	-0.1377
-4.5408	"External	-0.1377
-4.5408	"False	-0.1377
-4.5408	"For	-0.1377
-4.5408	"George	-0.1377
-4.5408	"Griffins	-0.1377
-4.5408	"Hens	-0.1377
-4.5408	"Hens'	-0.1377
-3.7627	"How	-0.6817
-4.5408	"How"	-0.1377
-4.5408	"Hullo!	-0.1377
-4.5408	"Hylas	-0.1377
-3.3647	"I	-0.4580
-4.2398	"I"	-0.1377
-3.6377	"If	-0.3929
-4.0637	"In	-0.3138
-3.3647	"It	-0.6148
-3.7627	"Lions	-0.9158
-4.2398	"Love	-0.1377
-4.5408	"Must	-0.1377
-3.7627	"My	-0.9158
-4.5408	"Napoleon	-0.1377
-3.9387	"No	-0.1377
-4.5408	"No;	-0.1377
-4.5408	"Not	-0.1377
-4.5408	"Nothing	-0.1377
-4.0637	"Our	-0.1377
-4.2398	"P	-0.4387
-4.5408	"Principles	-0.1377
-4.5408	"Real	-0.1377
-4.5408	"Relations	-0.1377
-4.5408	"Seeing"	-0.1377
-4.5408	"So	-0.1377
-4.5408	"Something	-0.1377
-4.5408	"Space	-0.1377
-3.8418	"Temporal	-0.8366
-3.4616	"That	-0.4650
-3.5866	"The	-0.2346
-3.4994	"There	-0.9158
-4.5408	"There's	-0.1377
-4.5408	"Things	-0.1377
-3.2621	"This	-0.5526
-4.2398	"Thou	-0.4387
-3.1258	"Time	-0.6428
-4.2398	"Time"	-0.1377
-4.5408	"To	-0.1377
-4.0637	"True	-0.6148
-3.8418	"Unicorns	-0.5356
-4.5408	"Virtue"	-0.1377
-4.2398	"Vorstellungen"	-0.1377
-4.2398	"We	-0.4387
-3.7627	"What	-0.3418
-4.5408	"Whatever	-0.1377
-4.0637	"a	-0.1377
-4.5408	"absolute	-0.1377
-4.5408	"absolute"	-0.1377
-4.5408	"activity	-0.1377
-4.5408	"after-images	-0.1377
-4.5408	"after-sensations	-0.1377
-4.2398	"agree	-0.4387
-4.5408	"agreed	-0.1377
-4.5408	"agreement	-0.1377
-4.5408	"agreement"	-0.1377
-4.2398	"all	-0.1377
-4.5408	"an	-0.1377
-4.2398	"and	-0.1377
-4.5408	"any	-0.1377
-4.5408	"anything	-0.1377
-4.5408	"anywhere"	-0.1377
-4.5408	"apodeictic")	-0.1377
-4.2398	"appearances"	-0.1377
-4.2398	"are	-0.4387
-4.5408	"arguments	-0.1377
-4.5408	"as	-0.1377
-4.5408	"assimilate	-0.1377
-4.5408	"at	-0.1377
-4.5408	"attention	-0.1377
-4.5408	"awareness	-0.1377
-4.5408	"bad	-0.1377
-4.5408	"be	-0.1377
-4.5408	"beautiful	-0.1377
-3.9387	"beautiful"	-0.1377
-3.5408	"being	-0.4065
-4.5408	"being"	-0.1377
-4.5408	"beliefs	-0.1377
-4.5408	"believe"	-0.1377
-4.2398	"belonging	-0.4387
-4.5408	"belongs	-0.1377
-4.2398	"better	-0.1377
-3.6957	"better"	-0.3807
-4.5408	"bigger"	-0.1377
-4.5408	"blue	-0.1377
-3.6957	"blue"	-0.3807
-4.5408	"by	-0.1377
-4.0637	"can	-0.3138
-4.5408	"can":	-0.1377
-4.5408	"causality"	-0.1377
-4.5408	"cause	-0.1377
-4.2398	"circular	-0.4387
-4.5408	"circular"	-0.1377
-4.5408	"coloured	-0.1377
-4.5408	"coloured"	-0.1377
-4.5408	"committed	-0.1377
-4.5408	"conceptions	-0.1377
-4.5408	"conjoined"	-0.1377
-4.5408	"conjunction"	-0.1377
-4.5408	"connected	-0.1377
-3.8418	"consciousness	-0.8366
-4.2398	"consciousness"	-0.1377
-4.5408	"consciousness"--that	-0.1377
-4.2398	"constant	-0.1377
-4.2398	"constantly	-0.1377
-4.2398	"containing	-0.1377
-4.2398	"content	-0.4387
-3.5408	"content"	-0.2626
-4.5408	"content"--either	-0.1377
-4.2398	"contents	-0.4387
-3.9387	"contents"	-0.2168
-4.5408	"copy"	-0.1377
-4.5408	"covet"	-0.1377
-4.5408	"deliverances	-0.1377
-4.5408	"demonstrative"	-0.1377
-4.5408	"differ	-0.1377
-4.0637	"different	-0.3138
-3.9387	"direct	-0.2626
-4.2398	"directly	-0.4387
-4.2398	"duty	-0.4387
-4.2398	"duty"	-0.1377
-4.5408	"each	-0.1377
-4.5408	"eggs	-0.1377
-4.5408	"entails"	-0.1377
-4.5408	"entails)	-0.1377
-4.5408	"erlebt	-0.1377
-4.5408	"esse	-0.1377
-4.5408	"eternal	-0.1377
-4.5408	"evil	-0.1377
-4.5408	"excellence"	-0.1377
-4.5408	"excellences	-0.1377
-4.0637	"exist"	-0.1377
-4.2398	"existence	-0.3138
-3.7627	"existence"	-0.1888
-4.5408	"existing	-0.1377
-4.5408	"exists	-0.1377
-4.0637	"exists"	-0.1377
-4.5408	"exists"?	-0.1377
-4.5408	"expedient	-0.1377
-4.5408	"experience"	-0.1377
-4.5408	"experienced	-0.1377
-4.2398	"experienced"	-0.1377
-4.5408	"experiment	-0.1377
-4.0637	"external	-0.1377
-4.5408	"external"	-0.1377
-4.5408	"fatherhood	-0.1377
-4.5408	"fatherhood"	-0.1377
-4.5408	"feel	-0.1377
-4.5408	"follow	-0.1377
-4.5408	"follows	-0.1377
-4.5408	"follows"	-0.1377
-4.5408	"follows";	-0.1377
-4.5408	"form	-0.1377
-4.5408	"formal	-0.1377
-4.5408	"foundation	-0.1377
-4.2398	"founded	-0.4387
-4.5408	"get	-0.1377
-4.2398	"given	-0.1377
-4.5408	"given"	-0.1377
-4.5408	"glass"	-0.1377
-3.6377	"good	-0.3929
-3.5408	"good"	-0.4009
-4.5408	"good"--but	-0.1377
-4.0637	"goodness	-0.6148
-4.5408	"green"	-0.1377
-4.5408	"grounded"	-0.1377
-4.2398	"have	-0.1377
-4.2398	"having	-0.1377
-4.5408	"hearing	-0.1377
-4.2398	"hens"	-0.4387
-4.5408	"history	-0.1377
-4.5408	"how	-0.1377
-4.5408	"howler";	-0.1377
-4.5408	"idea"	-0.1377
-3.9387	"ideal"	-0.2346
-4.5408	"ideal"--something	-0.1377
-4.5408	"ideas	-0.1377
-4.2398	"ideas"	-0.1377
-4.5408	"ideas")	-0.1377
-4.5408	"identity	-0.1377
-4.2398	"if	-0.4387
-4.2398	"images	-0.1377
-4.0637	"images"	-0.1377
-4.5408	"images";	-0.1377
-4.5408	"imaginary";	-0.1377
-4.5408	"immediately	-0.1377
-4.2398	"immutable	-0.4387
-4.5408	"implication	-0.1377
-4.5408	"implication"	-0.1377
-4.2398	"implies"	-0.1377
-4.5408	"impossibility"	-0.1377
-4.0637	"impossible"	-0.3138
-3.6957	"in	-0.6817
-4.5408	"inseparable	-0.1377
-4.5408	"instinct"	-0.1377
-4.2398	"instrumental"	-0.4387
-4.5408	"intelligible	-0.1377
-4.2398	"intermediate	-0.4387
-3.9387	"internal	-0.5356
-3.9387	"internal"	-0.3595
-4.5408	"internal";	-0.1377
-4.5408	"internality	-0.1377
-4.0637	"internality"	-0.3138
-3.6957	"intrinsic	-0.3929
-3.6957	"intrinsic"	-0.1888
-4.5408	"intrinsic"--a	-0.1377
-4.5408	"intrinsic?"	-0.1377
-4.5408	"intrinsical";	-0.1377
-4.0637	"intrinsically	-0.1377
-4.5408	"intuitive"	-0.1377
-3.4616	"is	-0.3875
-3.8418	"it	-0.3595
-4.5408	"judged"	-0.1377
-4.5408	"judgments	-0.1377
-4.5408	"knew	-0.1377
-4.5408	"know"	-0.1377
-4.2398	"lay"	-0.4387
-4.5408	"leave	-0.1377
-4.5408	"like	-0.1377
-4.5408	"likeness"	-0.1377
-4.5408	"logically	-0.1377
-4.2398	"love"	-0.1377
-4.2398	"made"	-0.1377
-3.8418	"make	-0.8366
-4.2398	"make"	-0.1377
-4.5408	"making	-0.1377
-4.2398	"making"	-0.1377
-4.5408	"mammalian"	-0.1377
-4.2398	"man-made	-0.1377
-4.5408	"mark	-0.1377
-3.8418	"material	-0.4387
-4.5408	"materially	-0.1377
-4.2398	"matter	-0.1377
-4.0637	"matters	-0.6148
-4.2398	"me	-0.3138
-4.5408	"me"	-0.1377
-4.2398	"mental	-0.1377
-4.5408	"mere	-0.1377
-4.5408	"metaphysical"	-0.1377
-4.5408	"metaphysics	-0.1377
-4.2398	"modify	-0.4387
-3.6957	"modify"	-0.2626
-4.5408	"moon	-0.1377
-3.8418	"moral	-0.3595
-4.0637	"morally	-0.3138
-4.0637	"must	-0.3138
-4.0637	"must"	-0.1377
-4.2398	"mutable	-0.4387
-4.2398	"my	-0.1377
-4.5408	"naturalistic"	-0.1377
-4.0637	"necessary	-0.3138
-4.5408	"necessary"	-0.1377
-4.5408	"no	-0.1377
-4.5408	"non-intrinsic	-0.1377
-4.2398	"non-subjective	-0.4387
-4.2398	"not	-0.1377
-4.5408	"notions"	-0.1377
-4.5408	"object	-0.1377
-4.5408	"object"	-0.1377
-3.6377	"objective	-0.6605
-3.6377	"objective"	-0.1377
-4.5408	"objective;"	-0.1377
-3.7627	"objectivity	-0.6817
-3.7627	"objectivity"	-0.3138
-4.0637	"objects	-0.3138
-4.2398	"objects"	-0.1377
-4.5408	"observation	-0.1377
-3.9387	"observation"	-0.2346
-4.5408	"observe	-0.1377
-4.2398	"observe"	-0.1377
-4.2398	"of	-0.1377
-4.5408	"orange	-0.1377
-4.5408	"orange"	-0.1377
-4.5408	"other	-0.1377
-4.0637	"ought	-0.6148
-3.6377	"ought"	-0.2468
-4.0637	"our	-0.1377
-4.5408	"our"	-0.1377
-4.5408	"ours	-0.1377
-4.5408	"ours"	-0.1377
-4.5408	"over-ligned"	-0.1377
-3.4269	"p	-0.6817
-4.5408	"part	-0.1377
-4.2398	"part"	-0.1377
-4.5408	"parts"	-0.1377
-4.0637	"pay	-0.3595
-3.5408	"paying	-0.4387
-4.2398	"paying"	-0.4387
-4.5408	"pays	-0.1377
-4.2398	"perceive	-0.4387
-3.8418	"perceive"	-0.2046
-4.0637	"perceived	-0.4387
-4.2398	"perceived"	-0.1377
-4.2398	"perception	-0.4387
-4.5408	"perceptually	-0.1377
-4.0637	"physical	-0.3138
-4.5408	"point	-0.1377
-4.5408	"pointed	-0.1377
-4.0637	"points	-0.6148
-4.5408	"politics	-0.1377
-4.5408	"popular	-0.1377
-4.5408	"positivistic"	-0.1377
-4.5408	"possible	-0.1377
-4.5408	"pragmatist	-0.1377
-4.5408	"presented	-0.1377
-4.5408	"presented"	-0.1377
-4.5408	"primary"	-0.1377
-4.5408	"profitable	-0.1377
-4.5408	"pure	-0.1377
-4.5408	"purely	-0.1377
-4.0637	"q	-0.4387
-4.5408	"rQ	-0.1377
-3.6957	"real	-0.9828
-3.4994	"real"	-0.3929
-4.2398	"real":	-0.4387
-4.5408	"reality	-0.1377
-3.8418	"reality"	-0.1377
-4.5408	"really	-0.1377
-4.2398	"reason	-0.1377
-4.5408	"reason"	-0.1377
-4.5408	"red"	-0.1377
-4.5408	"relation"	-0.1377
-4.2398	"relational	-0.1377
-4.2398	"relations	-0.4387
-4.2398	"relations"	-0.1377
-4.5408	"relative":	-0.1377
-4.2398	"right"	-0.4387
-4.5408	"secondary	-0.1377
-3.8418	"see"	-0.1377
-4.5408	"seeing	-0.1377
-4.5408	"seems	-0.1377
-4.5408	"self-evident	-0.1377
-4.5408	"self-sufficient":	-0.1377
-4.2398	"sensation	-0.4387
-4.5408	"sensations	-0.1377
-4.5408	"sense-contents	-0.1377
-4.5408	"sense-contents!"	-0.1377
-4.5408	"sense-contents"	-0.1377
-4.5408	"sense-contents";	-0.1377
-4.5408	"sense-data	-0.1377
-4.2398	"sense-data"	-0.1377
-4.5408	"sense-datum"	-0.1377
-4.2398	"sensibles	-0.3138
-4.5408	"sensibles"	-0.1377
-4.5408	"sensibles";	-0.1377
-4.5408	"sensory	-0.1377
-4.5408	"side	-0.1377
-4.5408	"sign	-0.1377
-4.5408	"sign"	-0.1377
-4.5408	"so	-0.1377
-4.5408	"sophistry	-0.1377
-4.5408	"source	-0.1377
-4.0637	"source"	-0.1377
-4.5408	"sources	-0.1377
-4.0637	"sources"	-0.3138
-4.5408	"spiritual	-0.1377
-4.5408	"spiritual"	-0.1377
-4.5408	"static"	-0.1377
-4.5408	"strong	-0.1377
-3.7627	"subjective	-0.5056
-3.7627	"subjective"	-0.1377
-4.5408	"subjective";	-0.1377
-4.2398	"subjectivity	-0.1377
-4.5408	"substance	-0.1377
-4.5408	"substance"	-0.1377
-4.5408	"sweet	-0.1377
-4.5408	"systematically	-0.1377
-4.0637	"temporal	-0.1377
-4.5408	"terms	-0.1377
-4.2398	"that	-0.1377
-3.5866	"the	-0.2046
-4.5408	"there	-0.1377
-4.2398	"thing	-0.1377
-4.5408	"thing"	-0.1377
-4.5408	"things	-0.1377
-4.0637	"things"	-0.1377
-3.9387	"this	-0.2346
-4.5408	"this"	-0.1377
-4.5408	"through	-0.1377
-4.5408	"thy	-0.1377
-4.5408	"to	-0.1377
-4.5408	"to-morrow"	-0.1377
-4.2398	"true	-0.1377
-4.5408	"true")	-0.1377
-4.5408	"truth	-0.1377
-4.5408	"truth"	-0.1377
-4.5408	"truth-making"	-0.1377
-4.5408	"truths	-0.1377
-4.5408	"ugly;"	-0.1377
-4.5408	"unconditional"	-0.1377
-4.5408	"unicorns"	-0.1377
-4.0637	"unreal	-0.3138
-4.5408	"unreal"	-0.1377
-4.2398	"useful	-0.3138
-4.5408	"useful"	-0.1377
-4.5408	"usefulness"	-0.1377
-4.0637	"utility	-0.1377
-4.2398	"utility"	-0.1377
-4.5408	"validly	-0.1377
-4.2398	"verifiability"	-0.4387
-4.5408	"verification	-0.1377
-4.0637	"verification"	-0.3138
-4.5408	"verified	-0.1377
-4.5408	"verify"	-0.1377
-4.5408	"virtue	-0.1377
-4.5408	"virtue";	-0.1377
-3.9387	"we	-0.1377
-4.2398	"what	-0.1377
-4.5408	"what"--if	-0.1377
-4.5408	"which	-0.1377
-4.5408	"work	-0.1377
-4.2398	"works	-0.1377
-4.2398	"would	-0.4387
-4.2398	"wrong	-0.4387
-3.9387	"wrong"	-0.2168
-3.4269	"xP	-0.9828
-4.5408	"xQ	-0.1377
-4.5408	"yellow	-0.1377
-4.0637	"yellow"	-0.1377
-4.5408	"yellowness"	-0.1377
-4.5408	"you	-0.1377
-4.5408	"°"	-0.1377
-4.2398	"°yP°	-0.3138
-4.5408	'"That	-0.1377
-4.5408	'--the	-0.1377
-4.5408	';	-0.1377
-4.2398	'A	-0.4387
-4.5408	'B	-0.1377
-4.5408	'Blue	-0.1377
-4.5408	'Both	-0.1377
-4.5408	'C	-0.1377
-4.2398	'Esse	-0.4387
-4.5408	'I	-0.1377
-4.5408	'Idealism'	-0.1377
-4.5408	'Is	-0.1377
-4.5408	'Principles	-0.1377
-4.2398	'Reality	-0.4387
-4.2398	'Time	-0.1377
-4.5408	'Time'	-0.1377
-4.5408	'What	-0.1377
-4.2398	'analytic'	-0.1377
-4.5408	'appear'	-0.1377
-4.5408	'awareness'	-0.1377
-4.5408	'be	-0.1377
-4.2398	'beautiful	-0.1377
-4.5408	'beauty'	-0.1377
-3.9387	'being	-0.4387
-4.5408	'being'	-0.1377
-4.5408	'better	-0.1377
-4.5408	'blue	-0.1377
-4.5408	'blue'	-0.1377
-4.5408	'blueness'	-0.1377
-4.2398	'cannot'	-0.4387
-4.5408	'causes	-0.1377
-4.5408	'consciousness	-0.1377
-4.5408	'consciousness'	-0.1377
-4.2398	'content'	-0.1377
-4.2398	'difference	-0.4387
-4.5408	'different	-0.1377
-4.5408	'differing	-0.1377
-4.5408	'effect	-0.1377
-3.7627	'esse	-0.5056
-4.0637	'esse'	-0.3138
-4.5408	'eternal'	-0.1377
-4.5408	'exists	-0.1377
-4.2398	'experience'	-0.1377
-4.5408	'experiencing'	-0.1377
-4.5408	'goodness'	-0.1377
-4.5408	'green'	-0.1377
-4.5408	'grey'	-0.1377
-4.5408	'greys	-0.1377
-3.9387	'having	-0.5356
-4.5408	'illegitimate	-0.1377
-4.5408	'image'	-0.1377
-4.5408	'impossibility	-0.1377
-4.5408	'impossibility'	-0.1377
-4.5408	'impossible	-0.1377
-4.2398	'intrinsic	-0.4387
-4.0637	'intrinsic'	-0.3138
-4.0637	'intrinsically	-0.6148
-4.5408	'is	-0.1377
-4.5408	'knowing	-0.1377
-4.5408	'knowing'	-0.1377
-4.5408	'knowledge'	-0.1377
-4.5408	'moon'	-0.1377
-4.0637	'must	-0.3138
-4.2398	'must'	-0.1377
-4.5408	'necessarily'	-0.1377
-4.0637	'necessity'	-0.3138
-4.5408	'not	-0.1377
-4.5408	'object'	-0.1377
-4.5408	'one'	-0.1377
-4.5408	'ones	-0.1377
-4.2398	'organic	-0.1377
-4.5408	'percipi'	-0.1377
-4.2398	'percipi':	-0.1377
-4.2398	'real'	-0.1377
-4.2398	'reality	-0.1377
-4.5408	'reality'	-0.1377
-4.5408	'redness'	-0.1377
-4.5408	'sensation	-0.1377
-4.2398	'sensation'	-0.1377
-4.5408	'spirit	-0.1377
-4.5408	'subjective	-0.1377
-4.5408	'sweet	-0.1377
-4.5408	'sweet'	-0.1377
-4.2398	'synthetic'	-0.1377
-4.2398	'that	-0.1377
-4.5408	'the	-0.1377
-4.5408	'thing'	-0.1377
-4.5408	'thought	-0.1377
-4.5408	'thought'	-0.1377
-4.5408	'true'	-0.1377
-4.5408	'twice	-0.1377
-4.5408	'white'	-0.1377
-4.5408	'whites	-0.1377
-4.5408	'yellow'	-0.1377
-4.5408	'yellowness'	-0.1377
-3.0093	(1)	-0.4580
-3.2398	(2)	-0.3393
-4.5408	(2nd	-0.1377
-3.6377	(3)	-0.1834
-4.0637	(4)	-0.1377
-4.5408	(5)	-0.1377
-4.5408	(First	-0.1377
-4.0637	(I	-0.1377
-4.5408	(I)	-0.1377
-4.2398	(II)	-0.1377
-4.2398	(III)	-0.1377
-4.5408	(IV)	-0.1377
-4.5408	(IX)	-0.1377
-4.5408	(Luke	-0.1377
-4.5408	(Mind	-0.1377
-4.2398	(Professor	-0.4387
-4.5408	(See	-0.1377
-4.5408	(VIII	-0.1377
-4.5408	(a	-0.1377
-3.7627	(a)	-0.2168
-4.5408	(according	-0.1377
-4.5408	(again	-0.1377
-4.5408	(although	-0.1377
-4.2398	(among	-0.4387
-3.5866	(and	-0.2468
-3.4616	(as	-0.4687
-3.9387	(b)	-0.2626
-4.5408	(beside	-0.1377
-4.5408	(by	-0.1377
-4.0637	(c)	-0.1377
-4.5408	(correctly)	-0.1377
-4.0637	(d)	-0.2626
-4.5408	(d);	-0.1377
-4.5408	(directly	-0.1377
-4.5408	(e	-0.1377
-4.0637	(e)	-0.3138
-4.0637	(even	-0.3138
-4.5408	(falsely)	-0.1377
-4.5408	(following	-0.1377
-4.2398	(for	-0.1377
-4.5408	(h)	-0.1377
-4.5408	(he	-0.1377
-4.5408	(i)	-0.1377
-4.5408	(ideas	-0.1377
-3.3647	(if	-0.3138
-3.5866	(in	-0.6148
-4.5408	(indeed	-0.1377
-4.0637	(it	-0.3138
-4.2398	(namely	-0.1377
-4.2398	(on	-0.1377
-3.9387	(or	-0.1377
-4.5408	(other	-0.1377
-3.3947	(p	-1.2838
-4.5408	(perhaps	-0.1377
-4.2398	(pp	-0.4387
-4.5408	(presented	-0.1377
-3.8418	(q	-0.6148
-4.5408	(r	-0.1377
-4.5408	(rightly	-0.1377
-4.2398	(so	-0.4387
-4.5408	(some	-0.1377
-4.5408	(that	-0.1377
-4.0637	(the	-0.1377
-4.5408	(they	-0.1377
-3.8418	(though	-0.2346
-4.0637	(to	-0.3138
-4.5408	(under	-0.1377
-4.2398	(validly	-0.4387
-4.5408	(viz	-0.1377
-4.5408	(we	-0.1377
-3.8418	(what	-0.2346
-3.8418	(whatever	-0.2346
-4.2398	(when	-0.1377
-4.5408	(where	-0.1377
-4.0637	(whether	-0.3138
-4.0637	(which	-0.1377
-4.5408	(with	-0.1377
-3.9387	(x	-0.4387
-4.5408	(y	-0.1377
-4.2398	(°x	-0.4387
-4.2398	(°y	-0.3138
-4.2398	(β)	-0.1377
-3.3104	*	-0.2424
-4.2398	+	-0.1377
-1.4003	,	-1.0932
-2.1906	,"	-0.7070
-4.5408	,"--a	-0.1377
-3.1984	,'	-0.3138
-4.5408	,--a	-0.1377
-4.5408	,[1]	-0.1377
-4.5408	,[2]	-0.1377
-4.5408	--a	-0.1377
-4.5408	--considerations	-0.1377
-4.5408	--or	-0.1377
-4.5408	--which	-0.1377
-1.6176	.	-1.0826
-2.3618	."	-0.6858
-4.5408	."[1]	-0.1377
-4.5408	."[2]	-0.1377
-3.4616	.'	-0.2626
-4.5408	.)	-0.1377
-4.5408	.--do	-0.1377
-4.5408	.--which	-0.1377
-4.5408	.15	-0.1377
-4.5408	.;	-0.1377
-4.5408	.S	-0.1377
-4.2398	.[1]	-0.1377
-4.5408	.]	-0.1377
-4.5408	.e	-0.1377
-4.2398	.g	-0.4387
-4.5408	.m	-0.1377
-4.5408	.°	-0.1377
-3.9387	1	-0.1377
-4.5408	10	-0.1377
-4.5408	100-101	-0.1377
-4.5408	105	-0.1377
-4.5408	11	-0.1377
-4.5408	12	-0.1377
-4.5408	13	-0.1377
-4.5408	131-2	-0.1377
-4.5408	142)	-0.1377
-4.5408	160)	-0.1377
-4.5408	166)	-0.1377
-4.5408	17-18	-0.1377
-4.5408	179)	-0.1377
-4.5408	1800	-0.1377
-4.5408	1807	-0.1377
-4.5408	1902	-0.1377
-4.5408	1903	-0.1377
-4.5408	1907	-0.1377
-4.5408	1907;	-0.1377
-4.5408	1909	-0.1377
-4.5408	1910	-0.1377
-4.2398	1921	-0.1377
-4.5408	1922	-0.1377
-4.2398	2	-0.1377
-4.5408	2+2=4	-0.1377
-4.5408	201)	-0.1377
-4.5408	206)	-0.1377
-4.5408	209)	-0.1377
-4.5408	21)	-0.1377
-4.5408	218)	-0.1377
-4.5408	21st	-0.1377
-4.5408	222)	-0.1377
-4.5408	231-232)	-0.1377
-4.5408	242)	-0.1377
-4.5408	27)	-0.1377
-4.5408	286	-0.1377
-4.5408	286)	-0.1377
-4.5408	287	-0.1377
-4.5408	289	-0.1377
-4.5408	290)	-0.1377
-4.5408	2=	-0.1377
-4.5408	2nd	-0.1377
-4.5408	3	-0.1377
-4.5408	34)	-0.1377
-4.5408	35	-0.1377
-4.5408	35)	-0.1377
-4.5408	364)	-0.1377
-4.5408	392)	-0.1377
-4.2398	4	-0.4387
-4.5408	43)	-0.1377
-4.5408	46)	-0.1377
-4.5408	555)	-0.1377
-4.5408	6	-0.1377
-4.5408	75)	-0.1377
-4.5408	89	-0.1377
-4.5408	93	-0.1377
-3.4269	=	-0.2278
-2.7700	A	-0.4922
-3.8418	A"	-0.3807
-4.5408	A";	-0.1377
-3.8418	A's	-0.2838
-4.5408	A)	-0.1377
-4.5408	A--must	-0.1377
-4.5408	A--numerically	-0.1377
-4.5408	A:	-0.1377
-4.5408	A;	-0.1377
-4.2398	AND	-0.1377
-3.6957	AP	-0.3807
-4.5408	AP)	-0.1377
-3.8418	AQ	-0.3138
-4.2398	AQ"	-0.1377
-3.9387	AR	-0.2346
-4.2398	AR"	-0.1377
-4.5408	About	-0.1377
-4.2398	Absolute	-0.1377
-4.5408	Absolute;	-0.1377
-4.5408	Accordingly	-0.1377
-4.5408	After	-0.1377
-4.5408	Again	-0.1377
-4.5408	Against	-0.1377
-4.5408	Agnostic's	-0.1377
-4.2398	Agnosticism	-0.1377
-4.0637	Alexander	-0.6148
-3.6957	All	-0.3485
-4.5408	Almost	-0.1377
-4.5408	Alps	-0.1377
-4.5408	Although	-0.1377
-4.2398	Among	-0.1377
-4.0637	An	-0.1377
-3.0784	And	-0.3406
-4.5408	Another	-0.1377
-4.5408	Any	-0.1377
-4.5408	Anything	-0.1377
-4.5408	Apparently	-0.1377
-3.9387	Appearance	-0.7397
-4.5408	Appendix	-0.1377
-4.0637	Are	-0.1377
-4.5408	Areal?	-0.1377
-4.5408	Aristotelian	-0.1377
-3.7627	Aristotle	-0.1377
-4.2398	Aristotle's	-0.1377
-4.0637	As	-0.2168
-4.5408	Assuming	-0.1377
-4.5408	At	-0.1377
-4.5408	A°)	-0.1377
-4.5408	A°)"	-0.1377
-4.5408	A°)}	-0.1377
-4.5408	A°)}"	-0.1377
-4.5408	A°)}";	-0.1377
-3.1094	B	-0.4882
-4.2398	B"	-0.1377
-4.5408	B'	-0.1377
-4.0637	B's	-0.1377
-4.5408	B's:	-0.1377
-4.5408	B's?	-0.1377
-4.5408	B:	-0.1377
-3.9387	B;	-0.3138
-4.5408	BE	-0.1377
-4.5408	BQ"	-0.1377
-4.5408	Bad	-0.1377
-4.5408	Barbara	-0.1377
-4.5408	Beliefs	-0.1377
-3.9387	Berkeley	-0.2168
-4.2398	Berkeley's	-0.1377
-4.5408	Both	-0.1377
-4.2398	Bradley	-0.1377
-4.5408	Bradley's	-0.1377
-3.4616	But	-0.2462
-4.2398	By	-0.1377
-3.8418	C	-0.6148
-4.5408	C'	-0.1377
-4.5408	CAMBRIDGE	-0.1377
-4.5408	CONCEPTION	-0.1377
-4.5408	Caesar	-0.1377
-4.5408	Cambridge	-0.1377
-3.7627	Can	-0.2626
-4.0637	Certain	-0.1377
-3.8418	Certainly	-0.1377
-4.5408	Chairs	-0.1377
-4.0637	Change	-0.3138
-4.5408	Christ	-0.1377
-4.5408	Christianity	-0.1377
-4.5408	Co	-0.1377
-4.5408	Commandment	-0.1377
-4.5408	Commandments	-0.1377
-4.5408	Commandments:	-0.1377
-4.5408	Committee	-0.1377
-3.8418	Common	-0.5356
-4.5408	Conception	-0.1377
-4.5408	Conditions	-0.1377
-4.2398	Custom	-0.1377
-3.9387	D	-0.2626
-4.5408	D'	-0.1377
-4.5408	D;	-0.1377
-4.5408	December	-0.1377
-4.5408	Deity	-0.1377
-4.5408	Development	-0.1377
-4.5408	Did	-0.1377
-4.5408	Difference	-0.1377
-4.5408	Different	-0.1377
-4.2398	Do	-0.1377
-3.8418	Does	-0.2346
-4.5408	Don't	-0.1377
-4.5408	Dr	-0.1377
-4.0637	E	-0.1377
-4.5408	END	-0.1377
-4.5408	EXTERNAL	-0.1377
-4.2398	Each	-0.4387
-4.5408	Edition	-0.1377
-4.5408	Edition)	-0.1377
-4.5408	Editor	-0.1377
-3.6957	Edward	-0.2926
-4.5408	Eighth	-0.1377
-4.2398	Either	-0.2346
-4.5408	Empiricism	-0.1377
-4.5408	England	-0.1377
-4.5408	England"	-0.1377
-4.5408	Enquiry	-0.1377
-4.5408	Error	-0.1377
-4.5408	Essays	-0.1377
-4.0637	Esse	-0.6148
-3.9387	Ethics	-0.1377
-4.2398	Euclidean	-0.1377
-4.2398	Europeans	-0.1377
-4.2398	Even	-0.2046
-4.5408	Every	-0.1377
-4.5408	Everybody	-0.1377
-4.5408	Evolutionary	-0.1377
-4.5408	Existence	-0.1377
-4.2398	Experience	-0.1377
-4.5408	External	-0.1377
-3.8418	F	-0.2168
-4.5408	Facts	-0.1377
-4.5408	False	-0.1377
-4.5408	Few	-0.1377
-4.5408	Finally	-0.1377
-4.2398	First	-0.3138
-4.5408	Fiscal	-0.1377
-3.6957	For	-0.2488
-4.2398	Formal	-0.3138
-4.5408	French	-0.1377
-4.2398	From	-0.3138
-3.8418	G	-0.4387
-3.8418	George	-0.2626
-4.2398	Germans	-0.1377
-4.5408	God	-0.1377
-4.5408	God;	-0.1377
-4.5408	Great	-0.1377
-4.5408	Greeks	-0.1377
-4.5408	Green	-0.1377
-4.5408	HUME'S	-0.1377
-4.5408	Having	-0.1377
-3.6957	He	-0.1632
-4.5408	Heaven	-0.1377
-4.5408	Hegel's	-0.1377
-4.5408	Hegel)	-0.1377
-4.5408	Hence	-0.1377
-3.8418	Here	-0.5056
-4.2398	His	-0.1377
-4.5408	House	-0.1377
-4.5408	House;	-0.1377
-3.5866	How	-0.3340
-4.5408	However	-0.1377
-4.5408	Human	-0.1377
-3.3947	Hume	-0.2874
-3.7627	Hume's	-0.1888
-2.1309	I	-0.7959
-4.5408	IDEALISM	-0.1377
-4.2398	II	-0.1377
-4.2398	III	-0.1377
-4.5408	INTERNAL	-0.1377
-4.5408	INTRINSIC	-0.1377
-4.5408	IV	-0.1377
-4.2398	IX	-0.1377
-4.5408	IX)	-0.1377
-4.5408	Ibid	-0.1377
-3.6377	Idealism	-0.2926
-3.8418	Idealist	-0.1888
-4.2398	Idealist's	-0.1377
-3.7627	Idealistic	-0.3138
-3.3367	Idealists	-0.2441
-4.5408	Idealists--the	-0.1377
-4.5408	Idealists:	-0.1377
-4.2398	Ideas	-0.4387
-4.2398	Identity	-0.4387
-3.4616	If	-0.2316
-4.5408	Imaginary	-0.1377
-3.2186	In	-0.3305
-4.2398	Indeed	-0.1377
-4.5408	Indiscernibles	-0.1377
-4.5408	Inductive	-0.1377
-4.5408	Internal	-0.1377
-4.5408	International	-0.1377
-4.5408	Into	-0.1377
-4.5408	Intrinsic	-0.1377
-3.1606	Is	-0.5848
-3.0223	It	-0.5324
-4.5408	Italics	-0.1377
-4.5408	Its	-0.1377
-4.5408	JAMES	-0.1377
-4.5408	JUDGMENTS	-0.1377
-4.0637	James	-0.1804
-4.5408	James'	-0.1377
-4.5408	January	-0.1377
-4.2398	Jew	-0.1377
-4.5408	Jews	-0.1377
-4.5408	Joachim	-0.1377
-4.2398	Journal	-0.1377
-4.5408	Judgments	-0.1377
-4.0637	Julius	-0.6148
-4.2398	Just	-0.4387
-3.9387	Kant	-0.1377
-4.5408	King	-0.1377
-4.5408	Knowledge	-0.1377
-4.0637	Lecture	-0.2626
-4.2398	Lectures	-0.1377
-4.5408	Leibniz;	-0.1377
-4.5408	Leicester	-0.1377
-3.8418	Let	-0.4387
-4.5408	Locke's	-0.1377
-4.2398	Logic	-0.2346
-4.5408	Logic;	-0.1377
-4.5408	Longmans	-0.1377
-4.5408	MOORE	-0.1377
-4.5408	MORAL	-0.1377
-4.5408	Many	-0.1377
-4.5408	Mathematica	-0.1377
-4.5408	Mathematics	-0.1377
-4.5408	Matter	-0.1377
-4.5408	Men	-0.1377
-4.5408	Merely	-0.1377
-4.2398	Mill	-0.1377
-4.5408	Mill-Russell	-0.1377
-4.5408	Mind	-0.1377
-4.5408	Modern	-0.1377
-3.6377	Moral	-0.6605
-4.2398	Moreover	-0.2626
-4.5408	Most	-0.1377
-3.0637	Mr	-1.3280
-4.2398	Must	-0.1377
-3.7627	My	-0.2046
-4.5408	N	-0.1377
-4.5408	NATURE	-0.1377
-4.5408	Name	-0.1377
-4.2398	Namely	-0.1377
-4.5408	Napoleon's	-0.1377
-4.5408	Nature	-0.1377
-4.5408	Nay	-0.1377
-3.9387	New	-0.2168
-4.5408	Nights"	-0.1377
-4.0637	No	-0.2046
-4.5408	Nobody	-0.1377
-4.5408	None	-0.1377
-4.5408	Nor	-0.1377
-4.0637	Not	-0.1377
-4.5408	November	-0.1377
-3.7627	Now	-0.2424
-4.5408	O	-0.1377
-4.5408	OBJECTS	-0.1377
-3.6957	OF	-0.1957
-4.0637	Obviously	-0.4387
-4.5408	October	-0.1377
-4.0637	Of	-0.1377
-4.5408	Often	-0.1377
-4.0637	Old	-0.1377
-4.0637	On	-0.2346
-3.9387	One	-0.2046
-3.9387	Only	-0.2346
-4.5408	Op	-0.1377
-3.8418	Or	-0.1698
-4.5408	Origin	-0.1377
-4.5408	Other	-0.1377
-4.5408	Others	-0.1377
-4.2398	Our	-0.2346
-3.1791	P	-0.5356
-4.0637	P"	-0.1377
-4.5408	P";	-0.1377
-4.5408	P:	-0.1377
-4.5408	PERCEPTION	-0.1377
-4.2398	PHILOSOPHY	-0.1377
-4.5408	Pacific	-0.1377
-4.5408	Part	-0.1377
-4.5408	Paul's;	-0.1377
-4.5408	People	-0.1377
-4.0637	Perhaps	-0.2838
-4.5408	Permanent	-0.1377
-4.2398	Philosophers	-0.1377
-3.9387	Philosophical	-0.2626
-3.9387	Philosophy	-0.1724
-4.5408	Philosophy;	-0.1377
-3.9387	Pickwickian	-0.2346
-4.2398	Plainly	-0.1377
-4.5408	Policy	-0.1377
-4.5408	Popular	-0.1377
-4.5408	Possibility	-0.1377
-4.5408	Possibly	-0.1377
-4.5408	Pragmatism	-0.1377
-4.5408	Pragmatism:	-0.1377
-4.5408	Pragmatism;	-0.1377
-4.5408	Pragmatists	-0.1377
-4.2398	Principia	-0.4387
-4.5408	Principles	-0.1377
-4.5408	Proceedings	-0.1377
-4.2398	Prof	-0.4387
-3.0357	Professor	-1.3929
-4.5408	Propositions	-0.1377
-4.5408	Provided	-0.1377
-4.5408	Psychology	-0.1377
-4.5408	Put	-0.1377
-3.5866	Q	-0.6148
-4.5408	Q"	-0.1377
-4.5408	Q:	-0.1377
-4.5408	Quarterly	-0.1377
-4.5408	Quite	-0.1377
-3.7627	R	-0.3418
-4.2398	R"	-0.1377
-4.2398	REALITY	-0.1377
-4.5408	REFUTATION	-0.1377
-4.5408	RELATIONS	-0.1377
-3.9387	Reality	-0.3138
-4.5408	Reality--particularly	-0.1377
-4.5408	Refutation	-0.1377
-3.7627	Reid	-0.1377
-4.5408	Reid)	-0.1377
-4.5408	Relations	-0.1377
-4.5408	Relations"	-0.1377
-4.5408	Revolution	-0.1377
-4.2398	Roc	-0.1377
-4.5408	Roc--meaning	-0.1377
-4.5408	Roc:	-0.1377
-4.5408	Roc;	-0.1377
-4.5408	Roc?	-0.1377
-4.5408	Rome	-0.1377
-4.2398	Russell	-0.1834
-4.5408	Russell's	-0.1377
-4.5408	SENSE-DATA	-0.1377
-4.5408	SOME	-0.1377
-4.5408	STATUS	-0.1377
-4.5408	Sailor	-0.1377
-4.5408	Scepticism--that	-0.1377
-4.5408	Secretary	-0.1377
-4.5408	Senate	-0.1377
-4.5408	Senate-House	-0.1377
-4.5408	Sensation	-0.1377
-4.5408	Sensationalism	-0.1377
-4.5408	Sense	-0.1377
-4.5408	Sense)	-0.1377
-4.2398	Since	-0.1377
-3.9387	Sindbad	-0.5356
-3.9387	Sindbad's	-0.2626
-3.9387	So	-0.2626
-4.2398	Society	-0.3138
-4.5408	Society"	-0.1377
-4.5408	Society;	-0.1377
-4.2398	Some	-0.1377
-4.5408	Something	-0.1377
-4.2398	Sometimes	-0.4387
-4.5408	St	-0.1377
-4.5408	Standard	-0.1377
-4.5408	Stated	-0.1377
-4.0637	Still	-0.1377
-4.5408	Strachey	-0.1377
-4.5408	Strachey's	-0.1377
-4.5408	Studies	-0.1377
-4.5408	Subsequent	-0.1377
-4.2398	Such	-0.2046
-4.2398	Suppose	-0.2346
-4.5408	Supposing	-0.1377
-3.9387	Surely	-0.2046
-4.2398	T	-0.4387
-4.2398	THE	-0.1377
-4.5408	Take	-0.1377
-4.5408	Taylor	-0.1377
-4.5408	Taylor's	-0.1377
-4.2398	Ten	-0.3138
-4.2398	Testament	-0.2046
-3.2855	That	-0.2995
-3.3947	The	-0.1826
-4.5408	Their	-0.1377
-4.5408	Then	-0.1377
-4.2398	Theoretically	-0.4387
-4.5408	Theories	-0.1377
-3.6957	There	-0.4107
-4.5408	These	-0.1377
-4.2398	They	-0.1625
-4.2398	Things	-0.1377
-4.5408	Thinking:	-0.1377
-3.4994	This	-0.2346
-4.5408	Thomas	-0.1377
-4.5408	Those	-0.1377
-4.2398	Thus	-0.1377
-3.2621	Time	-0.4494
-4.2398	Time"	-0.1377
-4.2398	Time;	-0.1377
-4.2398	Time;"	-0.1377
-4.5408	Times	-0.1377
-4.5408	Times"	-0.1377
-4.5408	Times--if	-0.1377
-4.5408	Times?	-0.1377
-3.5408	To	-0.2739
-4.5408	Towards	-0.1377
-4.5408	Treatise	-0.1377
-4.0637	Truth	-0.3595
-4.2398	Two	-0.1377
-4.5408	Understanding	-0.1377
-3.8418	Universe	-0.3004
-4.5408	Universe;	-0.1377
-4.5408	Unless	-0.1377
-4.5408	Upon	-0.1377
-4.5408	Usually	-0.1377
-4.2398	V	-0.2626
-4.5408	VALUE	-0.1377
-4.0637	VI	-0.2626
-3.9387	VII	-0.2346
-4.5408	VIII	-0.1377
-4.5408	Value	-0.1377
-4.5408	Vast	-0.1377
-4.5408	Very	-0.1377
-4.5408	Views	-0.1377
-4.5408	Vol	-0.1377
-4.5408	WILLIAM	-0.1377
-4.5408	Was	-0.1377
-4.5408	Ways	-0.1377
-3.4269	We	-0.3138
-3.8418	Westermarck	-0.3138
-4.5408	Westermarck's	-0.1377
-3.0637	What	-0.3548
-4.2398	Whatever	-0.1377
-3.8418	When	-0.3004
-4.5408	Whenever	-0.1377
-4.5408	Where	-0.1377
-4.2398	Whereas	-0.1377
-4.5408	Whether	-0.1377
-3.7627	Which	-0.6817
-4.5408	While	-0.1377
-4.2398	Whitehead	-0.1377
-4.5408	Why	-0.1377
-4.2398	Will	-0.1377
-4.2398	William	-0.4387
-4.2398	With	-0.1377
-4.5408	World	-0.1377
-4.5408	Would	-0.1377
-4.0637	X	-0.3138
-4.5408	X)	-0.1377
-4.5408	X;	-0.1377
-4.5408	Y	-0.1377
-4.5408	Y;	-0.1377
-4.2398	Yet	-0.2168
-4.5408	You	-0.1377
-4.5408	[1]	-0.1377
-4.2398	[2]	-0.1377
-4.5408	[I	-0.1377
-4.5408	[Propositions	-0.1377
-4.5408	[any	-0.1377
-4.5408	[mine]	-0.1377
-2.0784	a	-0.5807
-4.2398	ability	-0.1377
-3.6957	able	-0.4898
-2.6600	about	-0.5374
-3.6377	above	-0.2926
-4.5408	above:	-0.1377
-4.5408	absence	-0.1377
-3.9387	absolute	-0.1377
-3.3104	absolutely	-0.3138
-4.5408	absolve	-0.1377
-4.5408	absolved	-0.1377
-4.5408	abstract	-0.1377
-4.5408	abstracted--that	-0.1377
-4.2398	abstraction	-0.1377
-4.5408	abstractions	-0.1377
-4.5408	abstractions'	-0.1377
-4.2398	abstractly	-0.1377
-3.9387	absurd	-0.2626
-4.5408	abundant	-0.1377
-4.0637	accept	-0.2346
-3.8418	accepted	-0.2346
-4.5408	accident	-0.1377
-3.8418	accompanied	-0.5056
-4.5408	accompaniments	-0.1377
-4.5408	accordance	-0.1377
-4.0637	according	-0.4387
-4.2398	accordingly	-0.1377
-4.5408	accordingly:	-0.1377
-3.6377	account	-0.3929
-4.0637	accurate	-0.1377
-3.9387	accurately	-0.2346
-4.5408	accuse	-0.1377
-4.5408	accusing	-0.1377
-4.5408	accustomed	-0.1377
-4.5408	acknowledge	-0.1377
-4.5408	acknowledged	-0.1377
-4.5408	acquaintance	-0.1377
-4.5408	acquainted	-0.1377
-4.5408	acquired--is	-0.1377
-4.5408	acquires	-0.1377
-4.5408	acquiring	-0.1377
-3.7627	act	-0.3138
-4.5408	act;	-0.1377
-4.5408	acting	-0.1377
-3.5866	action	-0.3515
-3.4269	actions	-0.4009
-4.2398	actions;	-0.1377
-4.5408	active	-0.1377
-4.5408	actively	-0.1377
-4.0637	activity	-0.2346
-4.5408	activity--where	-0.1377
-3.6957	acts	-0.4009
-3.4994	actual	-0.1920
-2.9280	actually	-0.3020
-4.0637	add	-0.2626
-4.5408	added	-0.1377
-4.5408	addicted	-0.1377
-4.2398	addition	-0.1377
-4.5408	additional	-0.1377
-4.5408	address	-0.1377
-4.0637	adds	-0.1377
-4.5408	adds)	-0.1377
-4.5408	adds:	-0.1377
-4.5408	adequate	-0.1377
-4.5408	adhere	-0.1377
-4.5408	admirers	-0.1377
-4.5408	admission	-0.1377
-3.1984	admit	-0.5885
-4.5408	admit)	-0.1377
-3.6957	admits	-0.3807
-3.6957	admitted	-0.3595
-4.5408	admittedly	-0.1377
-3.7627	admitting	-0.4387
-3.8418	adopt	-0.2046
-3.7627	adopted	-0.2046
-4.5408	adopting	-0.1377
-4.5408	advanced	-0.1377
-4.2398	advantage	-0.4387
-4.5408	advocate	-0.1377
-4.5408	advocating	-0.1377
-4.2398	aesthetic	-0.1377
-4.5408	aesthetics	-0.1377
-4.5408	affairs	-0.1377
-4.0637	affect	-0.1377
-4.2398	affects	-0.1377
-4.0637	affirm	-0.2346
-4.5408	affirmative	-0.1377
-4.5408	affirmed	-0.1377
-4.2398	affirms	-0.1377
-4.5408	afford	-0.1377
-4.0637	afraid	-0.1377
-3.7627	after	-0.3138
-4.5408	after-images	-0.1377
-4.5408	afternoon	-0.1377
-4.2398	afterwards	-0.1377
-2.9726	again	-0.4545
-4.5408	again:	-0.1377
-4.5408	again;	-0.1377
-3.3367	against	-0.4599
-4.5408	agency	-0.1377
-4.5408	agent	-0.1377
-4.5408	agent's	-0.1377
-3.4269	agree	-0.4735
-4.5408	agree;	-0.1377
-4.5408	agreeableness	-0.1377
-3.8418	agreed	-0.2046
-4.2398	agreement	-0.1377
-4.5408	aims	-0.1377
-4.5408	air	-0.1377
-4.5408	akin	-0.1377
-4.0637	alike	-0.1957
-4.5408	alike'	-0.1377
-4.5408	alike--have	-0.1377
-4.5408	alike:	-0.1377
-4.2398	alike;	-0.1377
-2.5238	all	-0.5128
-4.2398	all)	-0.1377
-4.5408	all--for	-0.1377
-4.5408	all:	-0.1377
-4.2398	all;	-0.1377
-4.5408	all?	-0.1377
-4.5408	alleged)	-0.1377
-4.5408	allied	-0.1377
-3.5866	allow	-0.4387
-4.5408	allowed	-0.1377
-4.0637	allowing	-0.3138
-4.0637	allows	-0.3138
-4.5408	alluded	-0.1377
-4.5408	allusions	-0.1377
-3.2855	almost	-0.5179
-3.2398	alone	-0.3807
-4.5408	alone--but	-0.1377
-4.5408	alone?	-0.1377
-3.8418	along	-0.4387
-3.8418	already	-0.1377
-2.6323	also	-0.3890
-4.5408	also"	-0.1377
-4.5408	also--that	-0.1377
-4.5408	also:	-0.1377
-4.2398	also;	-0.1377
-4.2398	alter	-0.4387
-4.2398	alterations	-0.1377
-4.5408	altered	-0.1377
-3.6377	alternative	-0.1791
-3.7627	alternatives	-0.2248
-4.5408	alters	-0.1377
-3.5866	although	-0.2403
-4.0637	altogether	-0.1377
-4.5408	altogether;	-0.1377
-2.9726	always	-0.3257
-4.5408	alwayst	-0.1377
-3.3947	am	-0.2099
-3.7627	ambiguity	-0.2168
-4.5408	ambiguity--this	-0.1377
-3.5408	ambiguous	-0.2626
-4.5408	ambiguous;	-0.1377
-4.5408	amended	-0.1377
-3.1984	among	-0.4265
-4.5408	amongst	-0.1377
-3.7627	amount	-0.3138
-4.0637	amounts	-0.3138
-4.5408	ample	-0.1377
-2.5540	an	-0.4749
-4.5408	analogous	-0.1377
-4.2398	analogy	-0.1377
-4.2398	analysable	-0.4387
-4.5408	analysable;	-0.1377
-4.5408	analysed	-0.1377
-3.5408	analysis	-0.4065
-3.9387	analytic	-0.1377
-4.5408	analytically	-0.1377
-1.7312	and	-0.5418
-4.5408	anger	-0.1377
-4.0637	angle	-0.3138
-4.2398	angle"	-0.3138
-4.2398	angle)	-0.1377
-4.5408	angle)"	-0.1377
-4.5408	angrily	-0.1377
-4.0637	angry	-0.1377
-4.5408	angry;	-0.1377
-4.5408	animal	-0.1377
-4.2398	animals	-0.1377
-2.9280	another	-0.3964
-4.0637	another's	-0.3138
-4.5408	another--in	-0.1377
-4.5408	another--namely	-0.1377
-4.2398	another--that	-0.1377
-4.5408	another--the	-0.1377
-4.2398	another:	-0.1377
-3.5866	another;	-0.3340
-3.9387	another?	-0.1957
-3.1791	answer	-0.4387
-4.5408	answer:	-0.1377
-4.5408	answer;	-0.1377
-3.8418	answered	-0.3138
-4.5408	answering	-0.1377
-4.0637	answers	-0.1377
-4.5408	antinomy:	-0.1377
-3.6377	anxious	-1.0408
-2.4616	any	-0.4739
-4.2398	any)	-0.1377
-3.7627	anybody	-0.1888
-3.3947	anyone	-0.2703
-4.5408	anyone;	-0.1377
-2.8780	anything	-0.6399
-4.5408	anything";	-0.1377
-4.5408	anything--when	-0.1377
-4.5408	anything;	-0.1377
-4.5408	anyway	-0.1377
-3.9387	anywhere	-0.4387
-3.6957	apart	-0.9828
-4.5408	apology	-0.1377
-4.5408	apology?"	-0.1377
-4.5408	apparent	-0.1377
-3.7627	apparently	-0.1377
-4.0637	appeal	-0.6148
-4.5408	appeals	-0.1377
-3.6377	appear	-0.5356
-4.0637	appearance	-0.3138
-4.5408	appearance"	-0.1377
-3.7627	appearances	-0.3138
-4.5408	appearances--the	-0.1377
-3.9387	appeared	-0.4387
-4.5408	appearing	-0.1377
-3.4616	appears	-0.6148
-4.5408	appears)	-0.1377
-4.5408	application	-0.1377
-3.8418	applied	-0.2168
-3.7627	applies	-0.3138
-3.3647	apply	-0.4599
-4.2398	apprehend	-0.1377
-4.0637	apprehended	-0.2346
-4.5408	apprehending	-0.1377
-4.5408	apprehending:	-0.1377
-4.5408	apprehends	-0.1377
-4.2398	apprehension	-0.1377
-4.5408	apprehension"	-0.1377
-4.2398	approach	-0.4387
-4.0637	approximately	-0.6148
-3.9387	apt	-0.4387
-4.5408	arbitrarily	-0.1377
-4.5408	arbitrary	-0.1377
-2.2004	are	-0.4727
-4.5408	are--a	-0.1377
-4.5408	are--is	-0.1377
-4.5408	are;	-0.1377
-3.9387	area	-0.2346
-4.5408	area?	-0.1377
-4.2398	areas	-0.1377
-4.5408	arguable	-0.1377
-4.5408	argue	-0.1377
-4.2398	argued	-0.1377
-4.5408	argues	-0.1377
-4.2398	arguing	-0.1377
-4.5408	arguing)	-0.1377
-3.1094	argument	-0.4129
-4.5408	argument)	-0.1377
-4.5408	argument:	-0.1377
-3.1984	arguments	-0.3750
-3.6377	arise	-0.2626
-4.5408	arise;	-0.1377
-4.0637	arise?"	-0.4387
-3.8418	arises	-0.2838
-4.5408	arising	-0.1377
-4.5408	army	-0.1377
-4.5408	arranged	-0.1377
-4.5408	arrangement	-0.1377
-4.0637	arrive	-0.6148
-4.2398	arrived	-0.1377
-4.0637	arrow-heads	-0.1377
-4.5408	arrowheads	-0.1377
-4.5408	art	-0.1377
-4.0637	article	-0.1377
-4.2398	articles	-0.1377
-4.5408	arty	-0.1377
-2.0999	as	-0.5954
-4.5408	ascribe	-0.1377
-4.5408	aside	-0.1377
-3.5866	ask	-0.3052
-4.5408	ask)	-0.1377
-4.5408	ask--from	-0.1377
-3.9387	ask:	-0.3807
-4.5408	ask;	-0.1377
-3.7627	asked	-0.2626
-4.5408	asked:	-0.1377
-3.5408	asking	-0.5258
-4.5408	asking:	-0.1377
-4.5408	asks	-0.1377
-4.0637	asleep	-0.3138
-4.5408	asleep;	-0.1377
-4.5408	aspect	-0.1377
-4.2398	aspects	-0.1377
-4.5408	ass	-0.1377
-4.0637	assent	-0.4387
-3.0357	assert	-0.4094
-4.5408	assert:	-0.1377
-4.5408	assert;	-0.1377
-4.5408	assert?	-0.1377
-3.2855	asserted	-0.3459
-4.5408	asserted)	-0.1377
-4.2398	asserted;	-0.1377
-4.5408	asserted?--for	-0.1377
-3.1791	asserting	-0.4564
-3.1791	assertion	-0.4303
-4.5408	assertion:	-0.1377
-4.5408	assertion;	-0.1377
-3.5408	assertions	-0.1957
-3.1258	asserts	-0.4924
-4.5408	asserts:	-0.1377
-4.5408	assigned	-0.1377
-4.5408	assigning	-0.1377
-4.5408	assimilate	-0.1377
-4.5408	association	-0.1377
-3.3367	assume	-0.4861
-4.5408	assume)	-0.1377
-3.6377	assumed	-0.3929
-4.0637	assumes	-0.2626
-3.5866	assuming	-0.4801
-3.3947	assumption	-0.3040
-4.5408	assumption;	-0.1377
-4.5408	assumption?	-0.1377
-3.6377	assumptions	-0.1834
-4.0637	assure	-0.2626
-4.5408	astronomy	-0.1377
-2.2508	at	-0.9120
-4.5408	atmosphere	-0.1377
-4.5408	attach	-0.1377
-4.2398	attached	-0.4387
-4.2398	attaching	-0.1377
-3.9387	attack	-0.1377
-4.5408	attacks	-0.1377
-4.5408	attain	-0.1377
-4.5408	attainment	-0.1377
-3.6957	attempt	-0.7397
-4.2398	attempted	-0.4387
-4.5408	attempting	-0.1377
-4.0637	attend	-0.4387
-4.5408	attendant	-0.1377
-3.9387	attending	-0.7397
-3.6957	attention	-0.2516
-4.5408	attention;	-0.1377
-4.5408	attentive	-0.1377
-4.5408	attentively	-0.1377
-3.9387	attitude	-0.4387
-4.5408	attitude"	-0.1377
-3.9387	attribute	-0.4387
-4.2398	attributes	-0.1377
-3.9387	attributing	-0.7397
-4.0637	audience	-0.1377
-4.5408	auditory	-0.1377
-3.8418	avoid	-0.1377
-4.2398	avoided	-0.1377
-4.5408	avoided;	-0.1377
-4.5408	avoiding	-0.1377
-4.5408	awake	-0.1377
-3.3367	aware	-0.5356
-4.2398	aware:	-0.1377
-3.6957	awareness	-0.2926
-4.5408	awareness:	-0.1377
-4.5408	awareness;	-0.1377
-3.8418	away	-0.3595
-4.5408	awkward	-0.1377
-4.5408	axiom	-0.1377
-4.0637	back	-0.3138
-3.4616	bad	-0.2974
-4.5408	badly	-0.1377
-4.5408	balance	-0.1377
-4.2398	ball	-0.4387
-4.2398	balloon	-0.1377
-4.5408	bar	-0.1377
-4.5408	barest	-0.1377
-4.5408	barren	-0.1377
-4.5408	base	-0.1377
-3.6377	based	-0.6605
-4.5408	baseless	-0.1377
-3.9387	basis	-0.7397
-4.5408	basis?	-0.1377
-2.5365	be	-0.4978
-4.2398	be)	-0.1377
-4.5408	be);	-0.1377
-4.5408	be--do	-0.1377
-4.5408	be--namely	-0.1377
-4.5408	be:	-0.1377
-4.5408	be;	-0.1377
-4.5408	be?	-0.1377
-4.5408	bead	-0.1377
-4.0637	bear	-0.2626
-4.5408	beard	-0.1377
-4.0637	bearing	-0.3138
-4.5408	bearing;	-0.1377
-4.5408	bears	-0.1377
-4.2398	beautiful	-0.1377
-4.5408	beautiful"	-0.1377
-3.9387	beauty	-0.2168
-3.0784	because	-0.4935
-3.7627	become	-0.2046
-4.0637	becomes	-0.1377
-4.5408	bed?	-0.1377
-3.2398	been	-0.2564
-3.1606	before	-0.3418
-4.5408	before--the	-0.1377
-4.0637	beg	-0.3138
-4.0637	began	-0.3138
-4.5408	beggarly	-0.1377
-4.2398	begging	-0.4387
-3.5866	begin	-0.4387
-4.5408	beginning	-0.1377
-4.2398	begins	-0.1377
-4.5408	behave	-0.1377
-4.2398	behaviour	-0.1377
-4.0637	behind	-0.3138
-2.9387	being	-0.2682
-4.5408	being--a	-0.1377
-3.0784	belief	-0.5073
-4.5408	belief"	-0.1377
-4.5408	belief--any	-0.1377
-4.5408	belief:	-0.1377
-4.0637	belief;	-0.3138
-4.0637	belief?	-0.1377
-3.0494	beliefs	-0.5151
-4.2398	beliefs?	-0.1377
-3.0936	believe	-0.4852
-4.5408	believe"	-0.1377
-4.5408	believe:	-0.1377
-3.6377	believed	-0.2974
-4.5408	believed--were	-0.1377
-3.4269	believes	-0.5478
-4.5408	believes;	-0.1377
-3.5408	believing	-0.2558
-4.5408	believing"	-0.1377
-3.2398	belong	-1.0223
-4.5408	belong--about	-0.1377
-4.2398	belonged	-0.2626
-3.8418	belonging	-0.8366
-3.2621	belongs	-1.1377
-4.5408	belongs--I	-0.1377
-4.5408	belongs:	-0.1377
-4.5408	beneficent	-0.1377
-4.5408	benefits	-0.1377
-4.5408	benevolent	-0.1377
-3.9387	beside	-0.3138
-4.0637	besides	-0.1957
-4.5408	besides:	-0.1377
-3.9387	best	-0.1377
-4.5408	bestowed	-0.1377
-3.3367	better	-0.3986
-4.5408	better:	-0.1377
-2.8418	between	-0.4741
-3.7627	beyond	-0.3929
-4.2398	big	-0.1377
-4.0637	bigger	-0.6148
-4.5408	billiard	-0.1377
-4.5408	billiard-ball	-0.1377
-4.5408	billiard-balls	-0.1377
-4.5408	bird	-0.1377
-4.5408	birth	-0.1377
-4.5408	bit	-0.1377
-3.7627	black	-0.3138
-4.5408	black;	-0.1377
-4.2398	blackish	-0.4387
-4.5408	blemishes	-0.1377
-4.5408	blemishes;	-0.1377
-4.5408	blemishes?	-0.1377
-4.5408	bless	-0.1377
-4.5408	blessing	-0.1377
-4.2398	blind	-0.1377
-4.2398	blood	-0.1377
-4.5408	blow	-0.1377
-4.5408	blowing	-0.1377
-4.5408	blown	-0.1377
-3.0357	blue	-0.4158
-4.2398	blue"	-0.1377
-4.5408	blue--namely	-0.1377
-4.0637	blue:	-0.1377
-4.2398	blue;	-0.1377
-4.5408	blush	-0.1377
-4.5408	blushing	-0.1377
-4.0637	bodies	-0.1377
-4.5408	bodies;	-0.1377
-3.5408	body	-0.3213
-4.5408	boldly	-0.1377
-3.5408	book	-0.3807
-4.5408	book";	-0.1377
-4.5408	book--indeed	-0.1377
-3.5866	books	-0.5356
-4.5408	bore	-0.1377
-2.6543	both	-0.3510
-4.2398	bound	-0.4387
-4.5408	brain	-0.1377
-4.5408	brains	-0.1377
-4.5408	breadth	-0.1377
-4.5408	breadths	-0.1377
-4.2398	break	-0.1377
-4.5408	breakfast-table	-0.1377
-4.5408	brevity	-0.1377
-4.5408	brevity's	-0.1377
-4.5408	briefer	-0.1377
-3.5866	briefly	-0.2346
-4.5408	bright	-0.1377
-4.0637	bring	-0.3138
-3.9387	bringing	-0.4387
-4.0637	brings	-0.3138
-3.9387	brought	-0.3138
-4.2398	burn	-0.4387
-4.5408	burn";	-0.1377
-4.2398	burning	-0.1377
-4.0637	business	-0.1377
-2.4202	but	-0.5082
-4.5408	but:	-0.1377
-2.2855	by	-0.4691
-4.5408	calculated	-0.1377
-3.2398	call	-0.2997
-3.3647	called	-0.2046
-3.9387	calling	-0.3138
-3.8418	calls	-0.2046
-3.7627	came	-0.2838
-2.4439	can	-0.5585
-4.0637	can't	-0.1377
-4.5408	can;	-0.1377
-2.8687	cannot	-0.4840
-4.0637	capable	-0.6148
-4.2398	capacity	-0.1377
-4.5408	capital	-0.1377
-3.9387	card	-0.2838
-3.8418	cards	-0.1377
-4.5408	careful	-0.1377
-4.2398	carefully	-0.1377
-4.5408	carried	-0.1377
-4.5408	carries	-0.1377
-4.2398	carry	-0.1377
-3.1984	case	-0.4521
-4.5408	case:	-0.1377
-4.5408	case;	-0.1377
-4.5408	case?	-0.1377
-3.0494	cases	-0.5321
-4.5408	cases--I	-0.1377
-4.5408	cases;	-0.1377
-4.5408	cases?"	-0.1377
-4.0637	catch	-0.3138
-4.5408	catching	-0.1377
-4.5408	caught	-0.1377
-3.4269	causal	-0.4387
-3.9387	causally	-0.5356
-3.4269	cause	-0.2724
-4.5408	cause:	-0.1377
-4.5408	cause;	-0.1377
-3.7627	caused	-0.3807
-3.5866	causes	-0.2468
-4.5408	causes"	-0.1377
-4.5408	causes:	-0.1377
-4.5408	causing	-0.1377
-3.8418	cease	-0.8366
-4.5408	ceased	-0.1377
-4.5408	ceases	-0.1377
-4.5408	century	-0.1377
-2.6957	certain	-0.3714
-4.5408	certain--only	-0.1377
-4.5408	certain;	-0.1377
-2.8165	certainly	-0.3973
-3.6957	certainty	-0.2346
-4.5408	certainty:	-0.1377
-4.5408	chain	-0.1377
-4.2398	chair	-0.1377
-4.5408	challenge	-0.1377
-4.5408	chance	-0.1377
-3.1984	change	-0.4387
-4.5408	change--that	-0.1377
-4.5408	change:	-0.1377
-4.5408	change;	-0.1377
-3.9387	changed	-0.2838
-3.6377	changes	-0.1957
-4.2398	changing	-0.1377
-3.8418	chapter	-0.2168
-3.2855	character	-0.4387
-4.5408	character--as	-0.1377
-4.5408	character--some	-0.1377
-4.5408	character;	-0.1377
-3.4994	characteristic	-0.3485
-3.7627	characteristics	-0.3807
-4.0637	characters	-0.6148
-4.5408	characters;	-0.1377
-4.2398	charge	-0.3138
-4.5408	chariot	-0.1377
-4.5408	chase	-0.1377
-4.5408	cheek	-0.1377
-4.5408	chemistry	-0.1377
-4.0637	chief	-0.1377
-3.9387	chiefly	-0.1377
-4.2398	child	-0.1377
-4.5408	child's	-0.1377
-4.5408	childish	-0.1377
-4.2398	childishly	-0.1377
-4.2398	children	-0.1377
-4.5408	chimera	-0.1377
-4.5408	chimera;	-0.1377
-4.2398	choose	-0.1377
-4.2398	chooses	-0.4387
-4.5408	choosing	-0.1377
-4.5408	chose	-0.1377
-4.5408	chose;	-0.1377
-3.9387	chosen	-0.3138
-4.0637	circle	-0.1377
-3.5866	circular	-0.3681
-4.5408	circular;	-0.1377
-4.5408	circular?	-0.1377
-3.4616	circumstances	-0.4387
-4.5408	cit	-0.1377
-3.9387	claim	-0.2626
-4.5408	claimed	-0.1377
-4.5408	claims	-0.1377
-3.2855	class	-0.4845
-4.5408	class;	-0.1377
-3.7627	classes	-0.3929
-4.2398	classes--(1)	-0.4387
-4.5408	classes:	-0.1377
-4.5408	classes?	-0.1377
-3.0784	clear	-0.5665
-4.5408	clear?	-0.1377
-3.9387	clearer	-0.1377
-4.5408	clearest	-0.1377
-3.0494	clearly	-0.2874
-4.2398	clearness	-0.1377
-3.8418	clock	-0.3595
-4.5408	clock;"	-0.1377
-4.5408	close	-0.1377
-4.5408	closed	-0.1377
-4.2398	closely	-0.1377
-4.5408	closing	-0.1377
-4.5408	cloth	-0.1377
-4.5408	clothes	-0.1377
-4.5408	cloud	-0.1377
-4.0637	clouds	-0.4387
-4.5408	clumsily	-0.1377
-4.5408	clumsy	-0.1377
-4.2398	cogent	-0.4387
-3.8418	coin	-0.3595
-4.5408	coincided	-0.1377
-4.5408	coincides	-0.1377
-3.8418	coins	-0.1657
-4.2398	coins;	-0.1377
-4.2398	cold	-0.1377
-4.5408	cold)	-0.1377
-4.0637	collection	-0.6148
-3.3647	colour	-0.2903
-4.2398	colour-blind	-0.1377
-3.5866	coloured	-0.3138
-4.5408	coloured"	-0.1377
-3.6957	colours	-0.3929
-4.5408	combined	-0.1377
-4.5408	combines	-0.1377
-3.2186	come	-0.4898
-3.4269	comes	-0.4387
-4.5408	comfortable	-0.1377
-4.5408	coming	-0.1377
-4.2398	commandment	-0.4387
-4.5408	commences	-0.1377
-4.0637	committed	-0.1377
-4.5408	committing	-0.1377
-3.3647	common	-0.2874
-4.5408	common!	-0.1377
-4.5408	common--that	-0.1377
-4.2398	common-sense	-0.1377
-4.5408	common:	-0.1377
-4.5408	common?	-0.1377
-4.5408	commoner	-0.1377
-4.2398	commonest	-0.1377
-3.2186	commonly	-0.3380
-3.8418	commonplace	-0.4387
-4.0637	commonplace?	-0.1377
-4.5408	commonplaces	-0.1377
-4.2398	comparable	-0.4387
-4.2398	comparative	-0.1377
-3.7627	comparatively	-0.2838
-4.2398	compare	-0.1377
-4.2398	comparing	-0.1377
-4.2398	comparison	-0.1377
-4.5408	compel	-0.1377
-4.5408	complains	-0.1377
-3.9387	complete	-0.1957
-3.5866	completely	-0.1834
-3.9387	complex	-0.1377
-4.5408	complexion	-0.1377
-4.0637	complicated	-0.2626
-4.5408	complicated;	-0.1377
-4.2398	composed	-0.4387
-4.5408	conceal	-0.1377
-3.8418	conceivable	-0.3138
-4.2398	conceivably	-0.2626
-3.6957	conceive	-0.3340
-3.8418	conceived	-0.1377
-4.2398	conceiving	-0.1377
-4.5408	concentrate	-0.1377
-3.5866	conception	-0.3004
-4.5408	conception:	-0.1377
-3.6377	conceptions	-0.3340
-4.5408	concern;	-0.1377
-3.3367	concerned	-0.5356
-4.5408	concerned:	-0.1377
-4.2398	concerned;	-0.4387
-3.5866	concerning	-0.8366
-4.2398	concerns	-0.1377
-3.6957	conclude	-0.5636
-4.2398	concludes	-0.4387
-4.0637	concluding	-0.2346
-3.2855	conclusion	-0.2778
-3.8418	conclusions	-0.3595
-3.6377	conclusive	-0.1834
-4.2398	conclusively	-0.1377
-4.0637	concrete	-0.1377
-4.2398	condemn	-0.1377
-4.2398	condemning	-0.1377
-3.5408	condition	-0.3750
-4.5408	conditional	-0.1377
-3.3104	conditions	-0.4387
-4.5408	conditions;	-0.1377
-4.5408	conduce	-0.1377
-4.5408	conduct	-0.1377
-4.5408	confer	-0.1377
-4.2398	confess	-0.2346
-4.5408	confidently	-0.1377
-4.5408	configuration	-0.1377
-4.5408	configurations	-0.1377
-4.0637	confine	-0.2626
-4.0637	confined	-0.6148
-4.5408	confining	-0.1377
-3.8418	confirm	-0.5356
-4.0637	confirms	-0.3138
-4.2398	conflict	-0.1377
-4.5408	conflict?	-0.1377
-4.2398	conflicts	-0.1377
-4.5408	conforms	-0.1377
-4.0637	confuse	-0.3138
-4.0637	confused	-0.2626
-4.5408	confused:	-0.1377
-4.2398	confusing	-0.1377
-3.7627	confusion	-0.2926
-3.7627	conjoined	-0.2926
-4.5408	conjoined"	-0.1377
-4.0637	conjunction	-0.2626
-4.5408	conjunction"	-0.1377
-4.5408	conjunctions	-0.1377
-4.5408	conjunctions"	-0.1377
-4.5408	conjunctions--for	-0.1377
-4.0637	conjunctive	-0.3138
-4.5408	conjuring	-0.1377
-4.5408	connect	-0.1377
-3.5866	connected	-0.5636
-4.5408	connected"	-0.1377
-4.5408	connected:	-0.1377
-4.5408	connected?	-0.1377
-3.4994	connection	-0.4622
-4.5408	connection?	-0.1377
-4.5408	connections	-0.1377
-4.0637	connexion	-0.3138
-4.2398	connexions	-0.1377
-4.5408	conquests	-0.1377
-4.5408	conscious	-0.1377
-3.3104	consciousness	-0.4065
-4.5408	consciousness"	-0.1377
-4.5408	consciousness--whether	-0.1377
-3.9387	consequence	-0.3595
-3.6957	consequences	-0.3138
-3.4994	consider	-0.2803
-4.5408	consider:	-0.1377
-4.0637	considerable	-0.1957
-4.5408	considerably	-0.1377
-4.2398	consideration	-0.4387
-3.7627	considerations	-0.3807
-3.6957	considered	-0.1888
-4.5408	considered;	-0.1377
-3.7627	considering	-0.2102
-4.5408	considering--namely	-0.1377
-4.2398	considers	-0.1377
-3.6957	consist	-0.3807
-4.0637	consisted	-0.3138
-4.2398	consistency	-0.4387
-3.8418	consistent	-0.5356
-4.0637	consistently	-0.1377
-4.0637	consisting	-0.3138
-3.6957	consists	-0.5636
-4.2398	constant	-0.1377
-3.1984	constantly	-0.2346
-4.0637	constituent	-0.1377
-3.6957	constituents	-0.2838
-3.5866	constitute	-0.4801
-4.2398	constituted	-0.1377
-3.8418	constitutes	-0.2626
-4.0637	constitution	-0.3138
-3.9387	contain	-0.1377
-4.0637	contained	-0.3138
-4.5408	containing	-0.1377
-3.6377	contains	-0.2346
-4.5408	contemplate	-0.1377
-4.0637	contemporary	-0.3138
-4.5408	contempt	-0.1377
-4.0637	contend	-0.3138
-4.5408	contended	-0.1377
-3.3947	content	-0.5770
-4.5408	content:	-0.1377
-3.8418	contention	-0.5356
-3.8418	contents	-0.2346
-4.5408	contents--myself	-0.1377
-4.2398	contexts	-0.4387
-4.5408	continuance;	-0.1377
-3.6957	continue	-0.9828
-4.0637	continued	-0.1377
-3.9387	contradict	-0.2346
-4.5408	contradicted	-0.1377
-3.9387	contradicting	-0.2346
-3.8418	contradiction	-0.2168
-3.6377	contradictory	-0.2346
-4.5408	contradictory--in	-0.1377
-4.5408	contradicts	-0.1377
-4.5408	contrary	-0.1377
-4.5408	contrast	-0.1377
-4.5408	contrasted	-0.1377
-4.2398	contributed	-0.4387
-4.0637	control	-0.1377
-4.5408	control:	-0.1377
-4.2398	controversy	-0.1377
-4.5408	convenience	-0.1377
-3.9387	convenient	-0.2626
-4.5408	convenient;	-0.1377
-3.8418	convention	-0.3138
-4.0637	conventions	-0.1377
-4.5408	converse	-0.1377
-4.5408	conversely	-0.1377
-4.0637	convey	-0.2346
-4.5408	conveyed	-0.1377
-3.9387	conviction	-0.2626
-4.5408	conviction--the	-0.1377
-3.5866	convinced	-0.5056
-4.5408	convincing	-0.1377
-4.5408	copula	-0.1377
-4.0637	copy	-0.6148
-4.5408	corollary	-0.1377
-3.5866	correct	-0.2046
-4.2398	correctly	-0.1377
-4.2398	correspond	-0.1377
-4.5408	corresponded	-0.1377
-4.5408	correspondent	-0.1377
-4.5408	correspondent's	-0.1377
-4.5408	correspondent?	-0.1377
-3.6377	corresponding	-0.2724
-4.5408	corresponds	-0.1377
-4.5408	corroborate	-0.1377
-2.9387	could	-0.5658
-4.5408	couldn't	-0.1377
-4.2398	count	-0.4387
-3.9387	counterpart	-0.5356
-4.5408	counterparts"	-0.1377
-4.5408	country;	-0.1377
-4.0637	course	-0.1791
-4.5408	course;	-0.1377
-4.5408	covers	-0.1377
-4.2398	covet	-0.1377
-4.5408	coveting	-0.1377
-3.9387	covetous	-0.4387
-4.5408	covetousness	-0.1377
-4.2398	criterion	-0.1377
-4.5408	criticises	-0.1377
-4.5408	critics	-0.1377
-4.5408	crudely	-0.1377
-4.5408	culture	-0.1377
-4.5408	cumbrous	-0.1377
-4.5408	cups	-0.1377
-4.5408	curious	-0.1377
-4.5408	curse	-0.1377
-3.8418	custom	-0.2346
-4.5408	cuts	-0.1377
-4.0637	danger	-0.6148
-4.5408	daresay	-0.1377
-4.5408	dark	-0.1377
-4.0637	data	-0.3595
-4.5408	dates	-0.1377
-3.7627	day	-0.1755
-4.0637	dead	-0.3138
-4.5408	dead;	-0.1377
-3.8418	deal	-0.2926
-4.0637	dealing	-0.1377
-4.5408	dealt	-0.1377
-4.2398	death	-0.1377
-4.5408	deceive	-0.1377
-4.5408	deceived	-0.1377
-4.5408	decent	-0.1377
-4.2398	deception	-0.1377
-4.5408	deceptive	-0.1377
-4.5408	decide	-0.1377
-4.2398	declare	-0.1377
-4.2398	declared	-0.1377
-3.8418	declares	-0.4387
-4.5408	declaring	-0.1377
-4.5408	decrease	-0.1377
-4.5408	deduced	-0.1377
-4.2398	deducible	-0.3138
-4.2398	defect	-0.1377
-4.5408	defective	-0.1377
-4.5408	defence	-0.1377
-4.5408	defend	-0.1377
-4.5408	defenders	-0.1377
-4.5408	definable	-0.1377
-4.0637	define	-0.1377
-4.5408	define;	-0.1377
-3.6377	defined	-0.4735
-4.2398	defining	-0.1377
-4.0637	definite	-0.1377
-3.9387	definitely	-0.1377
-3.1984	definition	-0.5289
-3.9387	definitions	-0.2626
-3.3947	degree	-0.4994
-4.5408	degrees	-0.1377
-4.5408	deliberate	-0.1377
-4.0637	deliverance	-0.6148
-4.5408	delusion;	-0.1377
-3.7627	denial	-0.2168
-4.5408	denial:	-0.1377
-4.0637	denied	-0.2346
-3.6957	denies	-0.2838
-4.5408	denote	-0.1377
-4.2398	denoted	-0.4387
-4.5408	denotes	-0.1377
-4.2398	denoting	-0.1377
-3.4994	deny	-0.3533
-3.5408	denying	-0.4009
-3.9387	department	-0.7397
-4.2398	departments	-0.4387
-4.5408	departs	-0.1377
-3.4616	depend	-0.3929
-4.5408	depended	-0.1377
-4.5408	dependence	-0.1377
-3.9387	dependent	-0.2346
-4.5408	depending	-0.1377
-3.4269	depends	-0.6350
-4.5408	derive	-0.1377
-4.0637	derived	-0.2626
-3.8418	describe	-0.2346
-4.2398	described	-0.1377
-4.5408	described?	-0.1377
-4.5408	describes	-0.1377
-4.5408	describing	-0.1377
-3.7627	description	-0.2468
-4.5408	description--things	-0.1377
-4.5408	description;	-0.1377
-4.2398	deserve	-0.1377
-4.2398	deserves	-0.1377
-3.9387	designed	-0.7397
-3.9387	desirable	-0.1377
-3.4994	desire	-0.2626
-4.5408	desire;	-0.1377
-3.5408	desires	-0.2626
-4.5408	desperately	-0.1377
-4.5408	despitefully	-0.1377
-4.2398	destroyed	-0.1377
-4.5408	destroyed;	-0.1377
-4.5408	detailed	-0.1377
-4.5408	details	-0.1377
-4.5408	detain	-0.1377
-4.5408	detect	-0.1377
-4.2398	determine	-0.3138
-4.5408	developed	-0.1377
-4.5408	devoutly	-0.1377
-4.5408	diamonds	-0.1377
-4.5408	diaphanous	-0.1377
-4.5408	dictate	-0.1377
-4.5408	dictum	-0.1377
-3.0223	did	-0.4253
-4.0637	didn't	-0.1377
-4.5408	died	-0.1377
-3.3104	differ	-0.6817
-4.5408	differ?	-0.1377
-3.1429	difference	-0.5195
-4.2398	difference;	-0.1377
-4.5408	differences	-0.1377
-2.7083	different	-0.3934
-4.5408	different'	-0.1377
-4.5408	different--that	-0.1377
-3.7627	differing	-0.6148
-3.5408	differs	-0.6605
-3.4994	difficult	-0.4735
-3.7627	difficulties	-0.3138
-4.5408	difficulties;	-0.1377
-3.4269	difficulty	-0.4845
-4.5408	difficulty--the	-0.1377
-4.5408	digression	-0.1377
-4.5408	dilemma	-0.1377
-4.5408	dimensions	-0.1377
-4.2398	diminishing	-0.4387
-4.5408	diminution	-0.1377
-3.5408	direct	-0.5056
-4.5408	direction	-0.1377
-4.5408	direction--in	-0.1377
-4.5408	directions	-0.1377
-2.9845	directly	-0.4814
-4.2398	disadvantage	-0.4387
-4.5408	disadvantageous	-0.1377
-4.5408	disagreed	-0.1377
-4.5408	disagreement	-0.1377
-4.5408	disagreements	-0.1377
-4.2398	disapproval	-0.4387
-4.0637	disc	-0.2046
-4.2398	discarded	-0.1377
-4.5408	discord	-0.1377
-4.5408	discount	-0.1377
-4.2398	discover	-0.1377
-4.5408	discover)	-0.1377
-4.0637	discovered	-0.1377
-4.5408	discovering	-0.1377
-4.5408	discredit	-0.1377
-4.5408	discreditable	-0.1377
-4.0637	discuss	-0.1676
-4.5408	discuss;	-0.1377
-3.9387	discussed	-0.2626
-4.5408	discussed--such	-0.1377
-3.7627	discussing	-0.2168
-3.5866	discussion	-0.3595
-4.5408	disobey	-0.1377
-4.0637	disproof	-0.1377
-4.2398	disprove	-0.2046
-4.5408	disproving	-0.1377
-4.5408	disputable	-0.1377
-3.9387	dispute	-0.2346
-4.5408	dispute:	-0.1377
-4.0637	disputed	-0.2168
-4.5408	disputed)	-0.1377
-4.5408	disputes	-0.1377
-4.5408	disputing	-0.1377
-4.5408	dissected	-0.1377
-3.7627	distance	-0.4898
-4.5408	distances	-0.1377
-4.5408	distant	-0.1377
-3.4994	distinct	-0.2403
-3.4616	distinction	-0.4735
-4.2398	distinctly	-0.1377
-3.4994	distinguish	-0.3418
-3.5866	distinguished	-0.2926
-4.5408	distinguished;	-0.1377
-3.8418	distinguishes	-0.2346
-3.9387	distinguishing	-0.1377
-4.5408	divide	-0.1377
-4.5408	divided	-0.1377
-4.2398	divides	-0.1377
-4.5408	divinity	-0.1377
-3.8418	division	-0.1377
-4.5408	division:	-0.1377
-2.4955	do	-0.5793
-3.8418	do)	-0.2346
-4.5408	do:	-0.1377
-4.2398	do;	-0.1377
-4.5408	do?	-0.1377
-4.5408	do]	-0.1377
-4.5408	doctor	-0.1377
-3.4616	doctrine	-0.3372
-4.2398	doctrines	-0.1377
-2.5155	does	-0.5750
-4.5408	does--are	-0.1377
-4.5408	does;	-0.1377
-4.0637	dogma	-0.2346
-4.5408	dogmatically	-0.1377
-4.5408	dogmatize	-0.1377
-3.5408	doing	-0.1998
-4.5408	doll	-0.1377
-3.7627	don't	-0.2424
-3.6377	done	-0.2424
-4.5408	done;	-0.1377
-4.5408	done?	-0.1377
-4.5408	door	-0.1377
-4.5408	dots	-0.1377
-3.3367	doubt	-0.3843
-4.2398	doubted	-0.2626
-4.5408	doubted)	-0.1377
-3.4994	doubtful	-0.5636
-4.5408	doubtful)	-0.1377
-4.5408	doubtful--in	-0.1377
-4.5408	doubtful;	-0.1377
-4.5408	doubting	-0.1377
-4.2398	doubts	-0.1377
-3.9387	down	-0.1377
-4.5408	down-right	-0.1377
-4.2398	draw	-0.2626
-4.5408	drawing	-0.1377
-4.0637	drawn	-0.1377
-4.5408	dreams	-0.1377
-4.0637	drop	-0.3138
-4.5408	dubious	-0.1377
-4.0637	due	-0.6148
-3.9387	during	-0.1377
-4.5408	duties	-0.1377
-3.4269	duty	-0.4087
-4.5408	duty--"rules	-0.1377
-4.5408	duty--the	-0.1377
-4.5408	duty;	-0.1377
-4.0637	dwell	-0.2346
-4.5408	dwelt	-0.1377
-3.8418	e	-0.8366
-3.1258	each	-0.4107
-3.8418	earlier	-0.2102
-4.5408	ears	-0.1377
-4.5408	earth	-0.1377
-3.5408	easily	-0.1998
-3.4616	easy	-0.5356
-4.5408	edn	-0.1377
-3.9387	effect	-0.1377
-4.5408	effect;	-0.1377
-4.0637	effects	-0.1377
-4.5408	effects:	-0.1377
-4.5408	effort	-0.1377
-3.6957	egg	-0.2889
-4.5408	egg;	-0.1377
-3.8418	eggs	-0.2838
-4.5408	eggs"	-0.1377
-4.5408	eggs;	-0.1377
-4.5408	eighth	-0.1377
-2.7700	either	-0.4233
-4.2398	elaborate	-0.1377
-3.5408	element	-0.1698
-4.0637	elements	-0.4387
-4.5408	elephant	-0.1377
-4.5408	ellipse	-0.1377
-3.6957	elliptical	-0.3807
-4.5408	elliptical;	-0.1377
-3.3947	else	-0.3533
-4.2398	else's	-0.1377
-4.5408	else--either	-0.1377
-4.5408	else--something	-0.1377
-4.5408	else--that	-0.1377
-4.2398	else;	-0.2626
-4.5408	else?	-0.1377
-4.0637	elsewhere	-0.3595
-4.5408	embedded	-0.1377
-4.5408	embody	-0.1377
-3.9387	eminently	-0.2626
-4.2398	emotion	-0.1377
-4.5408	emotions	-0.1377
-4.5408	emphasising	-0.1377
-4.5408	emphatic	-0.1377
-3.6957	emphatically	-0.4387
-3.6957	empirical	-0.2346
-4.2398	employed	-0.1377
-4.5408	employment	-0.1377
-4.5408	emptiness	-0.1377
-4.0637	enable	-0.3138
-4.0637	enables	-0.3138
-4.5408	encamped	-0.1377
-4.0637	end	-0.3138
-4.5408	endowments	-0.1377
-4.5408	ends	-0.1377
-3.9387	enemies	-0.2168
-4.5408	enemy	-0.1377
-3.9387	engaged	-0.4387
-4.5408	enjoined	-0.1377
-3.8418	enormous	-0.4387
-4.5408	enormous?	-0.1377
-3.4616	enough	-0.3717
-4.5408	enough;	-0.1377
-4.2398	enquire	-0.1377
-4.0637	enquiry	-0.3138
-4.5408	enquiry:	-0.1377
-4.0637	entail	-0.2626
-3.1429	entails	-0.2626
-4.5408	enter	-0.1377
-4.5408	enter:	-0.1377
-4.5408	enters	-0.1377
-4.0637	entertain	-0.1377
-4.5408	entertained	-0.1377
-3.5408	entirely	-0.2626
-3.7627	entities	-0.3595
-3.8418	entitle	-0.8366
-4.5408	entitled	-0.1377
-4.5408	entitles	-0.1377
-3.5408	entity	-0.4387
-4.5408	enumerate	-0.1377
-3.7627	equal	-0.1377
-3.2855	equally	-0.2441
-4.5408	equally--is	-0.1377
-4.5408	equivalence	-0.1377
-3.3947	equivalent	-0.5936
-4.0637	equivalents	-0.3138
-4.2398	erecting	-0.4387
-4.5408	erroneous	-0.1377
-3.6377	error	-0.1888
-4.2398	error:	-0.1377
-4.5408	escape	-0.1377
-4.5408	escaped	-0.1377
-4.0637	especially	-0.1377
-3.1258	esse	-0.5356
-4.5408	esse?	-0.1377
-4.2398	essence	-0.1377
-3.5408	essential	-0.3595
-4.0637	essentially	-0.1377
-4.5408	establish	-0.1377
-4.2398	established	-0.1377
-4.5408	estimate	-0.1377
-4.5408	estimating	-0.1377
-3.9387	etc	-0.3929
-4.5408	etc;	-0.1377
-4.0637	eternal	-0.1377
-4.5408	ethers	-0.1377
-4.0637	ethical	-0.1377
-4.2398	ethics	-0.1377
-4.5408	etymologies	-0.1377
-4.2398	etymology	-0.1377
-4.5408	evaded	-0.1377
-2.8687	even	-0.3794
-4.5408	even:	-0.1377
-3.5866	event	-0.2974
-3.4616	events	-0.3248
-4.5408	events--ideas	-0.1377
-2.8248	ever	-0.3326
-4.5408	everlastingly	-0.1377
-3.1791	every	-0.3177
-3.6377	everybody	-0.2926
-4.5408	everybody;	-0.1377
-4.5408	everyday	-0.1377
-3.8418	everyone	-0.2838
-3.6377	everything	-0.5636
-3.4269	evidence	-0.2889
-3.6957	evident	-0.3595
-3.9387	evidently	-0.2046
-4.2398	evil	-0.1377
-4.5408	evils	-0.1377
-4.2398	evolution	-0.1377
-4.2398	evolutionary	-0.4387
-4.2398	ex	-0.3138
-3.8418	exact	-0.2346
-2.9845	exactly	-0.6325
-4.5408	exaggerate	-0.1377
-4.5408	exaggerated	-0.1377
-4.5408	exalted	-0.1377
-4.5408	examine	-0.1377
-3.8418	example	-0.3595
-4.5408	example--the	-0.1377
-4.5408	example--to	-0.1377
-4.2398	examples	-0.1377
-3.7627	exceedingly	-0.4387
-3.6957	excellence	-0.2468
-4.5408	excellence--he	-0.1377
-4.5408	excellence--the	-0.1377
-4.2398	excellence;	-0.4387
-4.2398	excellences	-0.1377
-3.7627	excellent	-0.1957
-3.3367	except	-0.3595
-4.2398	exception	-0.2626
-4.5408	exception:	-0.1377
-4.5408	exception;	-0.1377
-4.2398	exceptions	-0.1377
-4.2398	excessively	-0.1377
-3.8418	excite	-0.2468
-4.0637	excites	-0.1377
-4.2398	exciting	-0.1377
-4.0637	exclude	-0.1377
-4.5408	excluded	-0.1377
-3.9387	excludes	-0.1377
-3.9387	exclusively	-0.4387
-4.5408	excusable	-0.1377
-3.8418	excuse	-0.2346
-4.5408	excuse:	-0.1377
-4.0637	exercise	-0.3138
-4.0637	exhibit	-0.1377
-4.5408	exhibit--Time	-0.1377
-4.5408	exhibit--or	-0.1377
-4.0637	exhibits	-0.1957
-4.5408	exhibits"	-0.1377
-4.5408	exhibits";	-0.1377
-4.5408	exhibits--change	-0.1377
-2.8004	exist	-0.6228
-4.5408	exist"	-0.1377
-4.5408	exist":	-0.1377
-4.0637	exist)	-0.1377
-4.5408	exist--unless	-0.1377
-4.0637	exist:	-0.1377
-3.7627	exist;	-0.2626
-3.8418	exist?	-0.2046
-4.2398	exist?"	-0.1377
-3.1429	existed	-0.5056
-4.5408	existed;	-0.1377
-4.5408	existed?	-0.1377
-4.5408	existed?"	-0.1377
-3.2621	existence	-0.3634
-4.5408	existence?"	-0.1377
-4.2398	existing	-0.1377
-4.5408	existing;	-0.1377
-2.8974	exists	-0.6624
-3.8418	exists"	-0.2838
-4.5408	exists"--in	-0.1377
-4.5408	exists";	-0.1377
-4.5408	exists'	-0.1377
-3.9387	exists;	-0.4387
-4.0637	exists?	-0.1377
-3.9387	expect	-0.2346
-4.0637	expectations	-0.3138
-3.6957	expedient	-0.2838
-4.5408	expedient:	-0.1377
-4.5408	expedient?	-0.1377
-4.5408	expediently	-0.1377
-2.9497	experience	-0.5384
-4.2398	experience"	-0.1377
-4.5408	experience";	-0.1377
-4.5408	experience--from	-0.1377
-4.5408	experience--the	-0.1377
-4.2398	experience:	-0.1377
-4.2398	experience;	-0.1377
-3.9387	experience?	-0.1377
-3.2855	experienced	-0.5268
-4.5408	experienced"	-0.1377
-4.5408	experienced'	-0.1377
-3.8418	experienced;	-0.3595
-3.2855	experiences	-0.4387
-4.5408	experiences--the	-0.1377
-3.9387	experiencing	-0.1377
-4.5408	experient	-0.1377
-3.8418	explain	-0.2046
-3.4616	explained	-0.3929
-4.5408	explained)	-0.1377
-4.2398	explaining	-0.1377
-4.5408	explains	-0.1377
-3.3104	explanation	-0.6605
-4.5408	explanation?	-0.1377
-4.2398	explanations	-0.1377
-4.5408	explicit	-0.1377
-4.2398	explicitly	-0.1377
-4.0637	exposed	-0.3138
-3.1258	express	-0.4473
-4.5408	express--namely	-0.1377
-3.2186	expressed	-0.5498
-3.7627	expresses	-0.1957
-3.7627	expressing	-0.2220
-3.5866	expression	-0.2542
-4.5408	expression:	-0.1377
-3.5866	expressions	-0.2046
-4.5408	expressions:	-0.1377
-3.5408	expressly	-0.1377
-4.5408	extend	-0.1377
-4.5408	extended	-0.1377
-3.6377	extent	-0.1888
-4.5408	extent;	-0.1377
-3.1258	external	-0.4185
-4.5408	external";	-0.1377
-4.5408	extinguish	-0.1377
-4.5408	extraordinary	-0.1377
-3.9387	extreme	-0.2346
-3.4994	extremely	-0.3004
-4.5408	eye	-0.1377
-4.5408	eyes	-0.1377
-4.5408	eyes;	-0.1377
-3.9387	face	-0.1377
-4.2398	faced	-0.4387
-2.9280	fact	-0.4131
-4.2398	fact"	-0.1377
-4.2398	fact)	-0.1377
-4.5408	fact--the	-0.1377
-4.2398	fact:	-0.1377
-4.5408	fact]	-0.1377
-2.9726	facts	-0.4387
-4.5408	facts"	-0.1377
-4.5408	facts--facts	-0.1377
-4.5408	facts--supposing	-0.1377
-4.5408	facts--the	-0.1377
-4.2398	facts:	-0.3138
-4.2398	facts;	-0.1377
-4.5408	facts?	-0.1377
-4.0637	faculties	-0.3138
-3.7627	fail	-0.6148
-4.0637	failed	-0.6148
-4.0637	fails	-0.3138
-4.5408	fails;	-0.1377
-4.5408	failure	-0.1377
-4.5408	fair	-0.1377
-4.0637	fairly	-0.1377
-3.8418	fall	-0.3807
-4.5408	fall:	-0.1377
-4.2398	fallacious	-0.4387
-4.0637	fallacy	-0.1377
-4.5408	fallacy;	-0.1377
-4.5408	fallible	-0.1377
-4.5408	falls?	-0.1377
-3.0494	false	-0.4861
-4.5408	false"	-0.1377
-4.5408	false"--is	-0.1377
-4.5408	false";	-0.1377
-4.5408	false--whether	-0.1377
-4.2398	false:	-0.1377
-3.6957	false;	-0.3717
-4.0637	false?	-0.2626
-4.0637	falsehood	-0.1377
-4.5408	falsehood--the	-0.1377
-4.0637	falsely	-0.1377
-4.5408	falsely)	-0.1377
-4.5408	falsity	-0.1377
-3.4616	familiar	-0.2889
-4.5408	familiar;	-0.1377
-4.5408	famous	-0.1377
-3.3647	far	-0.3807
-4.5408	farther	-0.1377
-4.2398	fashion	-0.1377
-4.5408	fashionable	-0.1377
-4.0637	fast	-0.1377
-3.9387	fatal	-0.2626
-3.5408	father	-0.6605
-4.5408	father's	-0.1377
-4.5408	fatherhood	-0.1377
-4.5408	fatherhood;	-0.1377
-4.5408	fault--they	-0.1377
-4.0637	faults	-0.3138
-3.9387	favour	-0.2168
-4.2398	favoured	-0.1377
-4.5408	fear	-0.1377
-3.3947	feel	-0.2926
-3.1791	feeling	-0.5318
-4.5408	feeling--the	-0.1377
-3.2398	feelings	-0.4875
-4.5408	feelings--and	-0.1377
-4.5408	feelings--or	-0.1377
-4.5408	feelings:	-0.1377
-4.5408	feelings?	-0.1377
-4.5408	feels	-0.1377
-4.5408	fellow-countrymen	-0.1377
-3.4616	felt	-0.3372
-4.2398	few	-0.1377
-4.5408	few)	-0.1377
-4.5408	fiction	-0.1377
-4.0637	field	-0.2626
-4.5408	field;	-0.1377
-4.5408	fiery	-0.1377
-4.2398	fifth	-0.1377
-4.5408	final	-0.1377
-3.7627	finally	-0.2626
-3.4994	find	-0.3649
-4.5408	finding	-0.1377
-4.2398	finger	-0.1377
-4.5408	finger:	-0.1377
-4.2398	fingers	-0.1377
-4.5408	finite	-0.1377
-3.9387	fire	-0.1377
-4.5408	firmly	-0.1377
-3.0784	first	-0.2602
-4.5408	first--that	-0.1377
-4.5408	first:	-0.1377
-4.5408	fitted	-0.1377
-3.7627	five	-0.3929
-4.5408	fix	-0.1377
-4.2398	fixed	-0.4387
-4.5408	fixity	-0.1377
-4.2398	flame	-0.1377
-4.5408	flames	-0.1377
-4.0637	flatly	-0.1377
-4.5408	flatter	-0.1377
-4.5408	flies	-0.1377
-4.5408	flint	-0.1377
-4.5408	floor	-0.1377
-4.0637	florin	-0.1957
-4.5408	florin:	-0.1377
-4.5408	flow	-0.1377
-4.5408	flower	-0.1377
-4.5408	flower--and	-0.1377
-4.5408	flower:	-0.1377
-3.1429	follow	-0.8474
-3.6377	followed	-0.2626
-4.5408	followers	-0.1377
-4.2398	following	-0.1377
-3.1258	follows	-0.6403
-4.5408	follows--that	-0.1377
-4.5408	follows:	-0.1377
-4.5408	follows:--	-0.1377
-4.5408	follows:--A	-0.1377
-4.5408	follows:--I	-0.1377
-4.5408	follows:--To	-0.1377
-4.5408	follows?	-0.1377
-4.5408	fond	-0.1377
-4.0637	foot	-0.2168
-4.5408	foot--this	-0.1377
-2.2736	for	-0.6490
-4.5408	fora	-0.1377
-4.5408	forbidden	-0.1377
-3.6957	force	-0.4387
-4.5408	forced	-0.1377
-4.5408	forcing	-0.1377
-4.5408	foreigner	-0.1377
-4.5408	foreigners	-0.1377
-4.2398	forget	-0.1377
-3.9387	forgotten	-0.4387
-3.2621	form	-0.3595
-4.2398	form:	-0.1377
-4.5408	form;	-0.1377
-4.2398	formal	-0.2346
-4.5408	formed	-0.1377
-4.0637	former	-0.1640
-4.5408	former:--in	-0.1377
-3.6957	formerly	-0.2838
-4.5408	forming	-0.1377
-3.4994	forms	-0.5770
-4.5408	forms;	-0.1377
-4.0637	forward	-0.1377
-3.9387	found	-0.1755
-3.5866	foundation	-0.4801
-3.6957	founded	-0.6817
-3.6957	four	-0.2168
-4.5408	four'	-0.1377
-4.5408	four;	-0.1377
-4.2398	fourth	-0.1377
-4.5408	free	-0.1377
-4.5408	freely	-0.1377
-4.5408	frequency	-0.1377
-4.5408	frequent	-0.1377
-3.7627	frequently	-0.1377
-4.5408	friends	-0.1377
-2.4202	from	-0.5579
-4.5408	from'	-0.1377
-4.5408	from--A:	-0.1377
-4.5408	front	-0.1377
-4.5408	fulfil	-0.1377
-4.2398	fulfilled	-0.1377
-4.5408	full	-0.1377
-4.5408	full)	-0.1377
-4.5408	full;	-0.1377
-3.6377	fully	-0.2346
-4.5408	function	-0.1377
-3.5408	fundamental	-0.3040
-4.5408	fundamentally	-0.1377
-4.5408	furnish	-0.1377
-3.1984	further	-0.1920
-4.5408	fuss	-0.1377
-3.5408	future	-0.2168
-4.5408	future--about	-0.1377
-4.5408	future;	-0.1377
-4.5408	gain	-0.1377
-4.5408	gained	-0.1377
-4.5408	game	-0.1377
-4.5408	games	-0.1377
-4.5408	gather	-0.1377
-4.5408	gave	-0.1377
-3.5408	general	-0.1860
-3.3367	generalisation	-0.4030
-4.5408	generalisation--for	-0.1377
-4.5408	generalisation--the	-0.1377
-4.2398	generalisation:	-0.1377
-4.2398	generalisation;	-0.1377
-4.2398	generalisation?	-0.1377
-3.3647	generalisations	-0.3807
-4.5408	generalisations--for	-0.1377
-3.1094	generally	-0.3138
-4.5408	generations	-0.1377
-4.5408	geography	-0.1377
-3.6957	get	-0.2168
-4.5408	gets	-0.1377
-4.0637	getting	-0.1377
-3.1094	give	-0.5936
-3.1791	given	-0.2878
-4.5408	given-thing	-0.1377
-4.5408	given;	-0.1377
-3.4269	gives	-0.3138
-4.5408	gives)	-0.1377
-3.5408	giving	-0.3296
-4.5408	glad	-0.1377
-4.5408	glance	-0.1377
-4.5408	glance"	-0.1377
-3.9387	glass	-0.2168
-4.5408	glass:	-0.1377
-4.5408	glass;	-0.1377
-3.7627	go	-0.4387
-4.5408	go;	-0.1377
-3.7627	goes	-0.2046
-4.5408	goes)	-0.1377
-4.5408	goes--which	-0.1377
-3.6377	going	-0.5356
-4.2398	gold	-0.1377
-4.5408	gone	-0.1377
-2.9497	good	-0.3998
-4.5408	good"	-0.1377
-4.2398	good;	-0.4387
-3.6957	goodness	-0.2974
-4.5408	goodness:	-0.1377
-4.5408	goods	-0.1377
-3.6957	got	-0.3267
-4.5408	got--a	-0.1377
-4.5408	got--namely	-0.1377
-4.5408	grammatical	-0.1377
-4.5408	grammatically	-0.1377
-4.5408	grand	-0.1377
-4.0637	grant	-0.1377
-4.2398	granted	-0.1377
-4.5408	granted:	-0.1377
-4.5408	grate	-0.1377
-4.2398	grave	-0.1377
-3.3104	great	-0.2531
-3.7627	greater	-0.1888
-4.5408	greatest	-0.1377
-3.7627	green	-0.3138
-4.5408	green--is	-0.1377
-4.5408	green;	-0.1377
-4.5408	greets	-0.1377
-4.5408	grey	-0.1377
-4.5408	griffin	-0.1377
-4.5408	griffin?	-0.1377
-4.0637	gross	-0.1377
-4.5408	grossest	-0.1377
-4.2398	grossly	-0.1377
-3.6957	ground	-0.1888
-4.2398	ground;	-0.1377
-4.5408	ground?	-0.1377
-4.2398	grounded	-0.4387
-3.8418	grounds	-0.4387
-4.5408	grown	-0.1377
-4.5408	guide	-0.1377
-4.2398	guilty	-0.4387
-4.5408	habit	-0.1377
-2.7849	had	-0.4593
-4.5408	had:	-0.1377
-4.5408	had;	-0.1377
-4.5408	hair	-0.1377
-4.5408	hair:	-0.1377
-4.5408	hair;	-0.1377
-3.9387	half	-0.2626
-4.5408	half)	-0.1377
-3.8418	half-crown	-0.2168
-4.5408	half-crown"	-0.1377
-4.0637	hallucinations	-0.1377
-3.5408	hand	-0.3807
-4.5408	hand--as	-0.1377
-4.5408	hand?	-0.1377
-4.5408	handled	-0.1377
-3.9387	hands	-0.2626
-4.5408	hands;	-0.1377
-3.6377	happen	-0.2346
-4.2398	happen?	-0.4387
-3.8418	happened	-0.1377
-4.5408	happened--with	-0.1377
-3.9387	happening	-0.1377
-3.8418	happens	-0.2346
-4.5408	happy	-0.1377
-4.0637	hard	-0.6148
-3.6957	hardly	-0.2468
-4.2398	harm	-0.1377
-4.5408	harmful	-0.1377
-4.5408	harmony	-0.1377
-2.4839	has	-0.5388
-4.5408	has;	-0.1377
-4.2398	hate	-0.1377
-2.4616	have	-0.5670
-4.5408	have;	-0.1377
-3.1984	having	-0.2287
-2.5114	he	-0.5486
-3.9387	head	-0.1377
-4.5408	headed	-0.1377
-4.5408	heads	-0.1377
-4.5408	heads;	-0.1377
-3.7627	hear	-0.2626
-3.6957	heard	-0.3807
-3.7627	hearing	-0.2626
-4.5408	hearing;	-0.1377
-4.0637	hears	-0.3138
-4.5408	heart--as	-0.1377
-4.5408	heat	-0.1377
-4.5408	height	-0.1377
-4.5408	heights	-0.1377
-3.3947	held	-0.4229
-4.5408	hell	-0.1377
-4.5408	hell--is	-0.1377
-3.6957	help	-0.2346
-4.2398	helped	-0.1377
-4.2398	helps	-0.1377
-3.9387	hen	-0.3595
-4.5408	hen:	-0.1377
-4.5408	hen;	-0.1377
-4.0637	hence	-0.2558
-3.5866	hens	-0.2760
-4.5408	hens"	-0.1377
-4.0637	hens'	-0.6148
-3.0357	here	-0.3138
-4.5408	hesitate	-0.1377
-3.6377	higher	-0.2248
-3.6377	highly	-0.4009
-3.1094	him	-0.4387
-4.5408	him:	-0.1377
-4.5408	him;	-0.1377
-4.2398	him?	-0.1377
-3.1429	himself	-0.2940
-4.5408	himself:	-0.1377
-4.5408	hindering	-0.1377
-2.8506	his	-0.3183
-4.5408	historian	-0.1377
-4.0637	historians	-0.1377
-4.2398	historical	-0.1377
-4.2398	history	-0.1377
-4.5408	history;	-0.1377
-4.5408	hit	-0.1377
-3.6957	hitherto	-0.1676
-3.0784	hold	-0.4919
-4.5408	hold";	-0.1377
-4.5408	hold)	-0.1377
-3.4616	holding	-0.3875
-3.3104	holds	-0.6605
-4.5408	home	-0.1377
-4.5408	honour	-0.1377
-3.6377	hope	-0.4107
-4.5408	hopeless	-0.1377
-4.5408	hosts	-0.1377
-4.5408	hot	-0.1377
-4.5408	hour's	-0.1377
-4.2398	house	-0.1377
-3.0784	how	-0.3138
-4.5408	however	-0.1377
-4.5408	huge	-0.1377
-3.4994	human	-0.2724
-4.5408	humanly	-0.1377
-4.5408	hundred	-0.1377
-4.5408	hunted	-0.1377
-4.5408	hunted";	-0.1377
-4.5408	hunted--that	-0.1377
-4.5408	hunting	-0.1377
-4.0637	hypotheses	-0.3138
-4.5408	hypothesi	-0.1377
-3.5866	hypothesis	-0.2346
-4.5408	hypothesis--they	-0.1377
-4.5408	hypothesis;	-0.1377
-4.5408	hypothesis?	-0.1377
-4.5408	hypothetical	-0.1377
-4.5408	i	-0.1377
-2.9726	idea	-0.6411
-4.5408	idea--or	-0.1377
-4.2398	idea?	-0.1377
-4.5408	idea?'	-0.1377
-3.8418	ideal	-0.3138
-4.2398	idealist	-0.1377
-4.5408	idealistic	-0.1377
-2.8974	ideas	-0.5414
-4.5408	ideas"	-0.1377
-4.5408	ideas";	-0.1377
-4.5408	ideas--cases	-0.1377
-4.5408	ideas--is	-0.1377
-4.5408	ideas--that	-0.1377
-4.5408	ideas--the	-0.1377
-4.5408	ideas:	-0.1377
-3.9387	ideas;	-0.3418
-4.2398	ideas?	-0.1377
-3.3104	identical	-0.7075
-4.0637	identification	-0.2626
-4.5408	identified	-0.1377
-3.6377	identify	-0.3717
-4.2398	identifying	-0.3138
-4.5408	identity	-0.1377
-4.2398	idle	-0.1377
-4.2398	idly	-0.1377
-2.7083	if	-0.5914
-4.5408	ignorance	-0.1377
-4.5408	ignore	-0.1377
-4.5408	ill	-0.1377
-4.2398	illegitimate	-0.1377
-4.5408	illegitimate;	-0.1377
-4.5408	illusion";	-0.1377
-4.5408	illusory	-0.1377
-4.5408	illustrate	-0.1377
-4.0637	illustrated	-0.3138
-3.7627	illustration	-0.2168
-3.7627	image	-0.3138
-4.5408	image--of	-0.1377
-4.5408	image;	-0.1377
-3.7627	images	-0.2838
-4.2398	imaginary	-0.1377
-4.5408	imagination	-0.1377
-3.7627	imagine	-0.2760
-4.5408	imagined	-0.1377
-4.5408	imagining	-0.1377
-3.7627	immediately	-0.2468
-4.5408	immediately;	-0.1377
-4.5408	immense	-0.1377
-3.8418	immensely	-0.1377
-4.2398	immoral	-0.1377
-4.5408	immortal	-0.1377
-4.2398	immutable	-0.3138
-4.5408	immutable--in	-0.1377
-4.5408	impartial	-0.1377
-4.5408	impartiality	-0.1377
-3.7627	implication	-0.2838
-4.2398	implication"	-0.1377
-4.5408	implication)	-0.1377
-4.5408	implications	-0.1377
-4.5408	implicitly	-0.1377
-3.5866	implied	-0.3717
-3.2398	implies	-0.3595
-3.2621	imply	-0.5230
-4.5408	imply"	-0.1377
-4.5408	imply;	-0.1377
-3.9387	implying	-0.3595
-3.5866	importance	-0.3717
-3.1984	important	-0.2906
-4.0637	impossibility	-0.6148
-3.4994	impossible	-0.5900
-4.5408	impossible--that	-0.1377
-4.5408	impression	-0.1377
-4.5408	improbable	-0.1377
-4.5408	improperly	-0.1377
-4.5408	improve	-0.1377
-3.6377	improvement	-0.4387
-4.5408	improvement:	-0.1377
-1.7949	in	-0.8336
-4.5408	inadequacy	-0.1377
-4.5408	inanimate:	-0.1377
-3.8418	incapable	-0.8366
-4.2398	incidentally	-0.1377
-4.5408	incidentally);	-0.1377
-4.5408	incidents	-0.1377
-4.5408	incline	-0.1377
-3.6957	inclined	-0.7397
-3.7627	include	-0.1698
-3.8418	included	-0.1377
-3.5866	includes	-0.3296
-4.5408	inclusive	-0.1377
-3.4616	incompatible	-0.4065
-4.5408	incomplete	-0.1377
-4.5408	inconceivability	-0.1377
-4.2398	inconceivable	-0.2626
-4.2398	inconclusive	-0.4387
-3.9387	inconsistency	-0.4387
-4.5408	inconsistency;	-0.1377
-4.5408	inconsistency?	-0.1377
-3.5866	inconsistent	-0.6148
-4.5408	incontrovertibly	-0.1377
-4.5408	incorrect;	-0.1377
-4.5408	incorrectly	-0.1377
-4.5408	increase	-0.1377
-4.5408	incredible	-0.1377
-4.5408	inculcate	-0.1377
-3.4994	indeed	-0.2516
-4.5408	indeed;	-0.1377
-4.5408	indefensible	-0.1377
-4.5408	indefinitely	-0.1377
-3.9387	independent	-0.2626
-4.0637	independently	-0.3138
-4.5408	index	-0.1377
-4.5408	india-rubber	-0.1377
-4.2398	indicate	-0.1377
-3.6957	indignation	-0.3595
-4.5408	indirectly)	-0.1377
-4.2398	indisputable	-0.4387
-4.0637	indisputably	-0.3138
-4.5408	indistinguishable	-0.1377
-3.8418	individual	-0.2168
-4.5408	individual's	-0.1377
-4.5408	individuals	-0.1377
-4.5408	indoors	-0.1377
-4.5408	indubitable	-0.1377
-4.2398	indubitably	-0.1377
-4.5408	induced	-0.1377
-4.2398	induces	-0.1377
-4.5408	induction	-0.1377
-4.5408	inductions	-0.1377
-4.5408	inevitably	-0.1377
-4.5408	inexcusable	-0.1377
-4.5408	infallible	-0.1377
-4.5408	infected	-0.1377
-3.9387	infer	-0.3418
-3.5866	inference	-0.3138
-4.5408	inference?	-0.1377
-4.2398	inferences	-0.1377
-3.7627	inferred	-0.1377
-4.2398	inferring	-0.1377
-4.5408	infers	-0.1377
-4.2398	influenced	-0.4387
-3.9387	information	-0.2346
-4.2398	informed	-0.4387
-4.5408	ingenious	-0.1377
-4.5408	initial	-0.1377
-4.5408	ink	-0.1377
-3.5866	inkstand	-0.4387
-4.2398	inkstand"	-0.1377
-4.5408	inkstand":	-0.1377
-4.5408	inkstand--a	-0.1377
-4.5408	inkstand--that	-0.1377
-4.5408	inkstand:	-0.1377
-4.2398	inkstand;	-0.3138
-4.2398	inkstand?	-0.1377
-4.0637	inkstands	-0.3595
-4.2398	inner	-0.1377
-4.5408	inquire	-0.1377
-3.9387	inseparable	-0.3595
-4.5408	inserted	-0.1377
-4.5408	inserted;	-0.1377
-4.0637	inside	-0.3138
-4.5408	insignificant	-0.1377
-3.8418	insist	-0.3418
-3.9387	insisted	-0.4387
-4.2398	insistence	-0.4387
-4.5408	insisting	-0.1377
-4.5408	insists	-0.1377
-4.2398	inspection	-0.4387
-3.3947	instance	-0.4898
-3.3367	instances	-0.4164
-3.6957	instead	-0.7397
-4.5408	instinctive	-0.1377
-4.5408	insufficient	-0.1377
-4.5408	insuperable	-0.1377
-4.5408	insure	-0.1377
-4.0637	intellectual	-0.2626
-4.5408	intelligent;	-0.1377
-3.9387	intelligible	-0.2626
-4.2398	intend	-0.3138
-3.7627	intended	-0.3138
-4.5408	intending	-0.1377
-4.2398	intends	-0.4387
-4.5408	intense	-0.1377
-4.0637	intensely	-0.6148
-4.5408	intention	-0.1377
-4.5408	intentions	-0.1377
-3.5408	interest	-0.2760
-4.2398	interested	-0.1377
-3.5866	interesting	-0.2248
-4.0637	interests	-0.1377
-4.2398	intermediate	-0.1377
-3.5408	internal	-0.3315
-4.5408	internal:	-0.1377
-4.5408	internal;	-0.1377
-4.0637	interpret	-0.1377
-3.4994	interpretation	-0.3681
-4.2398	interpretations	-0.1377
-4.0637	interpreted	-0.1377
-4.5408	interpreted--in	-0.1377
-4.2398	interval	-0.4387
-4.5408	interval;	-0.1377
-4.5408	intimate	-0.1377
-3.1258	into	-0.4551
-4.5408	intricacies	-0.1377
-4.5408	intricate	-0.1377
-3.0494	intrinsic	-0.4746
-4.5408	intrinsical"	-0.1377
-3.7627	intrinsically	-0.2838
-4.5408	introduce	-0.1377
-4.2398	introduced	-0.1377
-4.5408	introduces	-0.1377
-4.5408	introspect	-0.1377
-4.0637	introspection	-0.3138
-4.5408	invalidate	-0.1377
-4.5408	invalidly)	-0.1377
-4.5408	investigate	-0.1377
-4.2398	investigates	-0.1377
-4.5408	investigating	-0.1377
-4.5408	investigation	-0.1377
-4.2398	invisible	-0.1377
-3.8418	involve	-0.3595
-4.5408	involve:	-0.1377
-4.5408	involve?	-0.1377
-3.6377	involved	-0.7019
-3.5866	involves	-0.2168
-4.5408	involving	-0.1377
-4.5408	irrational	-0.1377
-3.7627	irrelevant	-0.1377
-4.5408	irrelevant?	-0.1377
-1.8149	is	-0.6843
-4.5408	is)	-0.1377
-4.5408	is--"connected	-0.1377
-4.5408	is--a	-0.1377
-4.5408	is--he	-0.1377
-3.4994	is:	-0.1920
-3.7627	is;	-0.2168
-4.5408	is?	-0.1377
-4.5408	isn't	-0.1377
-4.0637	issue	-0.2838
-4.5408	issue;	-0.1377
-2.0119	it	-0.7852
-4.5408	it"	-0.1377
-4.0637	it";	-0.3138
-4.2398	it)	-0.1377
-4.5408	it--a	-0.1377
-4.5408	it--no	-0.1377
-4.5408	it--not	-0.1377
-4.5408	it--objections	-0.1377
-4.5408	it--than	-0.1377
-4.2398	it--that	-0.1377
-4.0637	it--the	-0.3138
-4.5408	it--vaguely	-0.1377
-4.5408	it--which	-0.1377
-3.4994	it:	-0.3485
-3.2186	it;	-0.5814
-4.0637	it?	-0.1377
-4.2398	it?"	-0.1377
-2.8687	its	-0.3286
-3.0936	itself	-0.4387
-4.5408	itself--the	-0.1377
-4.5408	itself--what	-0.1377
-4.5408	itself:	-0.1377
-4.2398	itself;	-0.1377
-4.5408	joint	-0.1377
-3.5408	judge	-0.3738
-4.5408	judge:	-0.1377
-4.0637	judged	-0.1377
-4.5408	judges	-0.1377
-3.3947	judging	-0.5919
-4.5408	judging:	-0.1377
-4.5408	judging;	-0.1377
-3.4994	judgment	-0.3863
-4.0637	judgment;	-0.6148
-4.2398	judgment?	-0.4387
-3.2398	judgments	-0.5151
-4.5408	judgments:	-0.1377
-2.9280	just	-0.5753
-4.5408	justice	-0.1377
-4.5408	justifiable	-0.1377
-3.9387	justification	-0.7397
-3.6957	justified	-0.4065
-4.2398	justifies	-0.1377
-3.6957	justify	-0.4387
-4.5408	justly	-0.1377
-4.2398	keep	-0.1377
-2.9073	kind	-0.6605
-4.5408	kind--a	-0.1377
-4.5408	kind--judgments	-0.1377
-4.2398	kind--those	-0.1377
-4.5408	kind:	-0.1377
-4.2398	kind;	-0.4387
-3.1791	kinds	-0.7839
-4.5408	kinds--no	-0.1377
-4.2398	kinds;	-0.1377
-4.5408	king	-0.1377
-4.2398	knew	-0.1377
-4.5408	knew;	-0.1377
-2.9967	know	-0.5785
-4.2398	know;	-0.4387
-4.2398	know?	-0.1377
-3.7627	knowing	-0.3138
-3.3947	knowledge	-0.4387
-4.5408	knowledge:	-0.1377
-3.5408	known	-0.4735
-4.5408	known;	-0.1377
-3.9387	knows	-0.2248
-4.5408	laborious	-0.1377
-4.2398	laid	-0.1377
-3.3947	language	-0.3372
-3.8418	large	-0.4065
-3.8418	largely	-0.2346
-3.6377	larger	-0.4387
-3.4269	last	-0.2496
-4.5408	last;	-0.1377
-4.5408	lastly	-0.1377
-4.5408	lasts	-0.1377
-4.5408	latent	-0.1377
-3.9387	later	-0.1377
-4.0637	latter	-0.1772
-3.9387	law	-0.1377
-4.5408	law:	-0.1377
-4.0637	laws	-0.1377
-3.9387	lay	-0.3595
-4.0637	laying	-0.1377
-3.5408	lead	-0.8366
-4.5408	leading	-0.1377
-4.2398	leads	-0.4387
-4.2398	learn	-0.1377
-4.5408	learnt	-0.1377
-3.8418	least	-0.1657
-4.5408	least)	-0.1377
-3.8418	leave	-0.2838
-4.5408	lecture	-0.1377
-4.0637	led	-0.4387
-3.7627	left	-0.3807
-4.2398	legal	-0.1377
-4.0637	legitimate	-0.2346
-3.9387	length	-0.2346
-3.3647	less	-0.2582
-4.5408	lest	-0.1377
-3.6957	let	-0.3418
-4.0637	letter	-0.1377
-4.5408	letters	-0.1377
-4.5408	level	-0.1377
-4.0637	liable	-0.6148
-4.2398	lie	-0.2626
-4.5408	lie"	-0.1377
-3.8418	lies	-0.8366
-3.5866	life	-0.3138
-4.5408	life--with	-0.1377
-4.5408	lifeless	-0.1377
-4.5408	lifetime	-0.1377
-4.2398	light	-0.1377
-2.9967	like	-0.3745
-4.5408	like"	-0.1377
-3.6957	likely	-0.2468
-4.2398	likeness	-0.1377
-4.0637	limit	-0.1377
-3.6377	limited	-0.2468
-4.5408	limits	-0.1377
-4.2398	line	-0.1377
-4.5408	lines	-0.1377
-4.5408	lion	-0.1377
-4.5408	lion"	-0.1377
-4.5408	lion"--that	-0.1377
-4.5408	lion";	-0.1377
-4.2398	lions	-0.1377
-4.5408	lions--at	-0.1377
-4.5408	list)	-0.1377
-3.5866	little	-0.1377
-4.5408	lived	-0.1377
-3.7627	lives	-0.1957
-4.5408	lives"	-0.1377
-4.2398	living	-0.1377
-4.0637	logical	-0.1377
-3.8418	logically	-0.4387
-4.0637	logicians	-0.1377
-3.4994	long	-0.1957
-4.2398	longer	-0.1377
-3.7627	look	-0.2516
-3.8418	looking	-0.4387
-4.2398	looking-glass	-0.1377
-4.0637	looks	-0.1377
-4.2398	loose	-0.1377
-4.2398	loosely	-0.1377
-4.5408	loud	-0.1377
-4.2398	love	-0.1377
-4.0637	lower	-0.1377
-4.5408	lowest	-0.1377
-4.5408	luminous	-0.1377
-4.2398	lying	-0.1377
-3.2398	made	-0.3641
-4.5408	made--the	-0.1377
-4.5408	made;	-0.1377
-4.5408	magnitude	-0.1377
-3.5866	main	-0.2468
-4.0637	mainly	-0.1377
-3.4269	maintain	-0.4687
-3.8418	maintained	-0.3807
-4.5408	maintained)	-0.1377
-3.7627	maintaining	-0.3138
-4.0637	maintains	-0.6148
-4.2398	majority	-0.1377
-4.5408	majority)	-0.1377
-3.0784	make	-0.4657
-3.6377	makes	-0.3267
-4.5408	makes)	-0.1377
-4.5408	makes--some	-0.1377
-3.3367	making	-0.3807
-4.5408	making;	-0.1377
-4.5408	making?	-0.1377
-4.5408	mammal"	-0.1377
-4.5408	mammalian	-0.1377
-4.5408	mammalian"	-0.1377
-3.2186	man	-0.3807
-3.6957	man's	-0.2248
-4.5408	man--even	-0.1377
-4.5408	man--which	-0.1377
-4.2398	man-made	-0.1377
-4.5408	man-made--indeed	-0.1377
-4.5408	man-made?	-0.1377
-4.5408	man?	-0.1377
-4.5408	manifestation	-0.1377
-4.2398	mankind	-0.2168
-3.9387	manner	-0.1377
-4.5408	manners	-0.1377
-4.5408	manufacture	-0.1377
-2.9387	many	-0.4387
-4.5408	many--I	-0.1377
-3.9387	mark	-0.2626
-3.9387	marks	-0.3138
-4.5408	mass	-0.1377
-4.5408	massacre	-0.1377
-3.1984	material	-0.5770
-4.5408	materialists	-0.1377
-4.5408	materially	-0.1377
-3.4616	matter	-0.2926
-3.4269	matters	-0.8366
-2.4073	may	-0.6093
-4.5408	may)	-0.1377
-3.0494	me	-0.3376
-4.5408	me)	-0.1377
-4.5408	me--an	-0.1377
-4.5408	me;	-0.1377
-2.9176	mean	-0.5971
-4.5408	mean--connected	-0.1377
-4.5408	mean--just	-0.1377
-4.5408	mean--propositions	-0.1377
-3.9387	mean:	-0.2626
-4.0637	mean;	-0.2626
-3.8418	mean?	-0.1377
-3.0223	meaning	-0.5558
-4.5408	meaning:	-0.1377
-4.5408	meaningless	-0.1377
-3.6957	meanings	-0.3595
-2.8248	means	-0.4742
-4.5408	means)	-0.1377
-4.5408	means?	-0.1377
-2.9610	meant	-0.5739
-4.5408	meant:	-0.1377
-4.2398	meant;	-0.3138
-4.2398	meant?	-0.1377
-4.5408	meantime	-0.1377
-4.5408	meantime;	-0.1377
-4.5408	mechanical;	-0.1377
-4.5408	mediate	-0.1377
-4.5408	mediated	-0.1377
-4.2398	mediates	-0.4387
-4.5408	mediating	-0.1377
-4.5408	medium	-0.1377
-4.5408	medium;	-0.1377
-4.0637	meet	-0.1377
-4.5408	meeting	-0.1377
-4.5408	meets	-0.1377
-4.5408	melancholy	-0.1377
-4.2398	melt	-0.4387
-4.5408	melted	-0.1377
-3.7627	memory	-0.3138
-4.5408	memory;	-0.1377
-3.1984	men	-0.3544
-4.5408	men's	-0.1377
-4.5408	men--are	-0.1377
-4.5408	men--that	-0.1377
-4.5408	men;	-0.1377
-4.5408	men?	-0.1377
-3.1258	mental	-0.4048
-4.5408	mental;	-0.1377
-4.0637	mention	-0.2346
-3.9387	mentioned	-0.3138
-4.5408	mentioning	-0.1377
-4.0637	mentions	-0.1377
-3.3104	mere	-0.1724
-2.7700	merely	-0.3768
-4.5408	merely:	-0.1377
-4.5408	merest	-0.1377
-4.5408	met	-0.1377
-4.5408	metaphor	-0.1377
-4.0637	metaphorical	-0.2626
-4.5408	metaphysics	-0.1377
-4.2398	method	-0.4387
-4.5408	microscope	-0.1377
-4.5408	middle	-0.1377
-2.8974	might	-0.5189
-4.5408	mile	-0.1377
-4.2398	miles	-0.1377
-3.5408	mind	-0.3418
-4.5408	mind";	-0.1377
-4.5408	mind--the	-0.1377
-4.5408	mind:	-0.1377
-4.5408	mind;	-0.1377
-4.5408	mind?	-0.1377
-3.8418	minds	-0.2838
-4.5408	minds"	-0.1377
-4.5408	minds;	-0.1377
-3.4269	mine	-0.3649
-4.5408	mine--which	-0.1377
-4.5408	mine:	-0.1377
-4.5408	mine;	-0.1377
-4.5408	minerals	-0.1377
-4.2398	minimum	-0.1377
-4.5408	minority	-0.1377
-4.5408	miracles	-0.1377
-4.5408	miserable;	-0.1377
-4.5408	miserably	-0.1377
-4.2398	misery	-0.1377
-4.5408	mislead	-0.1377
-4.2398	misleading	-0.1377
-4.2398	misled	-0.1377
-4.5408	misnomer	-0.1377
-4.5408	miss	-0.1377
-3.6377	mistake	-0.3515
-4.5408	mistake;	-0.1377
-3.9387	mistaken	-0.1377
-4.5408	mistaken;	-0.1377
-4.2398	mistakes	-0.1377
-4.5408	mistakes;	-0.1377
-4.2398	mistaking	-0.1377
-4.5408	mistook	-0.1377
-4.5408	mistranslation	-0.1377
-4.5408	misunderstandings	-0.1377
-4.5408	misunderstood;	-0.1377
-4.5408	moans	-0.1377
-3.9387	modern	-0.2626
-4.2398	modification	-0.1377
-4.5408	modifications	-0.1377
-4.5408	modifications";	-0.1377
-3.9387	modified	-0.1377
-4.0637	modifies	-0.1377
-3.7627	modify	-0.3418
-3.6377	moment	-0.2703
-4.5408	moment)	-0.1377
-4.5408	moments	-0.1377
-4.5408	monads	-0.1377
-4.5408	monstrous	-0.1377
-4.5408	mood	-0.1377
-4.5408	moon	-0.1377
-4.5408	moon;	-0.1377
-3.0936	moral	-0.3485
-3.6377	morality	-0.3717
-3.9387	morally	-0.4387
-4.5408	morbid	-0.1377
-2.7279	more	-0.3774
-4.5408	more)	-0.1377
-4.5408	more?	-0.1377
-4.2398	moreover	-0.4387
-4.2398	mortal	-0.1377
-4.5408	mortal"--a	-0.1377
-2.8248	most	-0.3950
-4.5408	mother	-0.1377
-4.5408	motion	-0.1377
-4.5408	motions	-0.1377
-4.5408	motor-car	-0.1377
-4.5408	mountains	-0.1377
-4.2398	mouth	-0.1377
-4.5408	move	-0.1377
-4.5408	moved	-0.1377
-3.6957	movement	-0.4687
-3.6957	movements	-0.2838
-3.9387	moving	-0.3138
-3.1791	much	-0.3485
-4.5408	murder	-0.1377
-4.2398	murdered	-0.2626
-4.5408	murdered;	-0.1377
-2.5770	must	-0.5330
-4.2398	mutability	-0.1377
-3.9387	mutable	-0.4898
-4.5408	mutable--that	-0.1377
-4.5408	mutable:	-0.1377
-4.5408	mutable;	-0.1377
-4.5408	mutable?	-0.1377
-4.5408	mutually	-0.1377
-2.6165	my	-0.4262
-3.1429	myself	-0.3257
-4.5408	mystery	-0.1377
-4.5408	naked	-0.1377
-3.3947	name	-0.3233
-4.5408	name:	-0.1377
-4.5408	name?	-0.1377
-3.3947	namely	-0.5133
-4.5408	namely:	-0.1377
-4.5408	namely:--	-0.1377
-3.9387	names	-0.4387
-4.5408	narrow	-0.1377
-4.5408	narrower	-0.1377
-4.5408	narrowest	-0.1377
-4.5408	nation	-0.1377
-3.3947	natural	-0.2760
-3.9387	naturalistic	-0.1377
-3.3104	naturally	-0.2760
-3.5408	nature	-0.4039
-4.5408	nature"	-0.1377
-4.5408	nature'	-0.1377
-4.5408	nature:	-0.1377
-4.2398	nature;	-0.1377
-4.2398	natures	-0.2626
-4.5408	natures'	-0.1377
-4.5408	nave	-0.1377
-4.5408	nay	-0.1377
-3.7627	near	-0.4387
-4.2398	nearer	-0.4387
-3.6957	nearly	-0.4898
-3.4269	necessarily	-0.2231
-4.5408	necessarily"	-0.1377
-3.3647	necessary	-0.3515
-4.5408	necessities	-0.1377
-3.7627	necessity	-0.1377
-4.5408	necessity--a	-0.1377
-3.2855	need	-0.3895
-4.2398	needed	-0.1377
-4.5408	needing	-0.1377
-3.8418	negative	-0.1377
-4.5408	neglected	-0.1377
-4.5408	neglecting	-0.1377
-4.5408	negligence	-0.1377
-4.2398	neighbour	-0.1377
-4.2398	neighbour"	-0.1377
-4.2398	neighbour's	-0.1377
-3.3947	neither	-0.2739
-4.5408	neither:	-0.1377
-4.5408	neither?	-0.1377
-4.2398	nerves	-0.1377
-4.0637	nervous	-0.3138
-4.5408	net	-0.1377
-2.9845	never	-0.2980
-3.4269	nevertheless	-0.1888
-3.6957	new	-0.2046
-3.9387	next	-0.2626
-4.0637	night	-0.1377
-2.6600	no	-0.4109
-3.7627	nobody	-0.2168
-4.5408	non-given	-0.1377
-4.5408	non-intrinsic	-0.1377
-4.5408	non-moral	-0.1377
-4.5408	non-sensibles	-0.1377
-4.2398	non-sensory	-0.4387
-3.3947	none	-0.3807
-4.5408	nonexistence	-0.1377
-3.7627	nonsense	-0.4387
-4.2398	nonsense;	-0.3138
-3.2186	nor	-0.2745
-4.5408	nose	-0.1377
-2.4616	not	-0.4514
-4.2398	not)	-0.1377
-4.5408	not--that	-0.1377
-4.0637	not:	-0.1377
-3.6957	not;	-0.3418
-4.2398	not?	-0.1377
-4.5408	note	-0.1377
-3.0637	nothing	-0.4709
-4.5408	nothing--certainly	-0.1377
-4.0637	nothing;	-0.1377
-4.0637	notice	-0.2046
-4.5408	noticeable	-0.1377
-3.9387	noticed	-0.2626
-4.2398	noticing	-0.1377
-4.5408	noting	-0.1377
-3.8418	notion	-0.3595
-4.2398	notions	-0.1377
-4.5408	notorious	-0.1377
-2.8596	now	-0.3701
-4.5408	now:	-0.1377
-3.6957	now;	-0.3807
-4.2398	now?	-0.1377
-4.5408	nowadays	-0.1377
-4.5408	nowadays)	-0.1377
-3.4994	number	-0.6495
-4.2398	number;	-0.4387
-3.9387	numbers	-0.4387
-3.9387	numerical	-0.4387
-3.6957	numerically	-0.6817
-4.0637	numerous	-0.1377
-4.5408	numerous;	-0.1377
-2.9726	object	-0.5591
-4.2398	object"	-0.1377
-4.5408	object)	-0.1377
-4.5408	object:	-0.1377
-4.0637	object;	-0.2626
-4.5408	object?	-0.1377
-4.2398	objected	-0.1377
-4.2398	objecting	-0.1377
-3.2855	objection	-0.5008
-3.3947	objections	-0.4650
-4.5408	objections:--	-0.1377
-4.2398	objections;	-0.4387
-3.9387	objective	-0.1377
-4.5408	objectivity	-0.1377
-3.0784	objects	-0.4194
-4.5408	objects--objects	-0.1377
-4.5408	objects--that	-0.1377
-4.2398	objects;	-0.1377
-3.9387	obligation	-0.2248
-4.5408	obligation"	-0.1377
-4.5408	obligation--the	-0.1377
-4.5408	obligation:	-0.1377
-4.5408	obligation;	-0.1377
-4.5408	oblique	-0.1377
-4.2398	obliquely	-0.1377
-4.2398	obscure	-0.1377
-3.0494	observation	-0.5087
-4.5408	observation--by	-0.1377
-4.5408	observation--such	-0.1377
-4.5408	observation:	-0.1377
-4.5408	observation;	-0.1377
-4.5408	observation?	-0.1377
-3.1606	observations	-0.4822
-4.0637	observations?	-0.1377
-3.1606	observe	-0.4658
-4.5408	observe--something	-0.1377
-4.5408	observe:	-0.1377
-4.5408	observe;	-0.1377
-4.5408	observe?	-0.1377
-3.1258	observed	-0.3860
-4.2398	observed?	-0.1377
-4.2398	observes	-0.1377
-3.6957	observing	-0.3138
-4.2398	obtain	-0.1377
-4.2398	obtained	-0.3138
-4.5408	obviate	-0.1377
-3.1984	obvious	-0.4094
-4.5408	obvious:	-0.1377
-4.2398	obvious;	-0.1377
-3.1258	obviously	-0.2990
-3.4994	occasion	-0.4139
-3.6957	occasions	-0.2926
-4.5408	occasions:	-0.1377
-3.7627	occupied	-0.4387
-3.9387	occupy	-0.2626
-4.5408	occupy?	-0.1377
-4.5408	occupying	-0.1377
-3.1606	occur	-0.5056
-4.0637	occur;	-0.3138
-4.5408	occur?	-0.1377
-3.8418	occurred	-0.2346
-3.9387	occurrence	-0.2346
-4.5408	occurrences	-0.1377
-4.2398	occurring	-0.1377
-3.6957	occurs	-0.4065
-4.5408	occurs:--	-0.1377
-1.7714	of	-0.6429
-3.9387	of"	-0.2346
-4.2398	of'	-0.1377
-4.2398	of?	-0.1377
-4.0637	off	-0.1377
-4.5408	offence	-0.1377
-3.7627	offer	-0.1377
-4.2398	offered	-0.1377
-4.2398	offering	-0.1377
-4.2398	offers	-0.1377
-3.0784	often	-0.2626
-4.2398	old	-0.1377
-4.5408	old"	-0.1377
-4.5408	old;	-0.1377
-4.5408	omission	-0.1377
-4.5408	omits	-0.1377
-3.9387	omitted	-0.2626
-2.4616	on	-0.5866
-4.5408	on--involves	-0.1377
-4.5408	on;	-0.1377
-3.3367	once	-0.3079
-4.5408	once"	-0.1377
-4.5408	once--which	-0.1377
-4.5408	once;	-0.1377
-2.4474	one	-0.5380
-4.2398	one"	-0.1377
-4.5408	one"--where	-0.1377
-4.5408	one";	-0.1377
-4.2398	one's	-0.1377
-4.5408	one)	-0.1377
-4.5408	one--of	-0.1377
-4.5408	one--which	-0.1377
-4.5408	one-sided	-0.1377
-4.0637	one:	-0.1377
-4.2398	one;	-0.1377
-4.0637	one?	-0.2346
-3.4994	ones	-0.3595
-4.5408	ones:	-0.1377
-4.2398	ones;	-0.3138
-4.5408	ones?	-0.1377
-2.5585	only	-0.3913
-4.5408	only--this	-0.1377
-4.2398	only;	-0.1377
-3.7627	open	-0.4387
-4.5408	openly	-0.1377
-3.4994	opinion	-0.3040
-3.7627	opinions	-0.2838
-3.9387	opponent	-0.1377
-4.2398	opponents	-0.1377
-4.5408	opportunity	-0.1377
-4.2398	opposed	-0.4387
-4.2398	opposite	-0.1377
-4.5408	opposite:	-0.1377
-4.2398	opposition	-0.1377
-4.5408	optic	-0.1377
-2.0276	or	-0.3848
-4.5408	oracle	-0.1377
-4.2398	orange	-0.1377
-4.5408	orange;	-0.1377
-3.9387	order	-0.3138
-4.2398	ordinarily	-0.1377
-3.5866	ordinary	-0.2838
-4.0637	organic	-0.1377
-4.0637	origin	-0.1377
-3.6957	original	-0.2248
-3.9387	originally	-0.1377
-4.5408	origins	-0.1377
-2.7020	other	-0.3620
-4.5408	other--"seems	-0.1377
-4.5408	other--I	-0.1377
-4.5408	other--a	-0.1377
-4.5408	other--they	-0.1377
-4.5408	other:	-0.1377
-4.2398	other;	-0.2046
-4.5408	other?	-0.1377
-3.0936	others	-0.4765
-4.2398	others:	-0.1377
-4.0637	others;	-0.3138
-4.2398	others?	-0.1377
-3.9387	otherwise	-0.1377
-4.5408	otherwise)	-0.1377
-4.5408	otherwise?	-0.1377
-3.2398	ought	-0.6817
-2.7926	our	-0.3950
-3.9387	ours	-0.3138
-4.5408	ours--that	-0.1377
-3.4616	ourselves	-0.2724
-3.2398	out	-0.4172
-4.5408	out-of-doors	-0.1377
-4.5408	outer	-0.1377
-4.5408	outrageously	-0.1377
-4.5408	outset	-0.1377
-4.5408	outset:	-0.1377
-3.9387	outside	-0.2626
-3.5866	over	-0.3340
-4.5408	over;	-0.1377
-4.5408	overlook	-0.1377
-4.5408	overlooked	-0.1377
-4.2398	overlooking	-0.1377
-4.5408	overthrow	-0.1377
-4.5408	overwhelming	-0.1377
-4.5408	owes	-0.1377
-3.9387	owing	-0.7397
-3.4994	own	-0.3077
-4.5408	own--it	-0.1377
-4.5408	own--to	-0.1377
-4.5408	own:	-0.1377
-4.5408	own;	-0.1377
-4.0637	own?	-0.1377
-4.5408	owns	-0.1377
-4.2398	ox	-0.1377
-3.2186	p	-0.5008
-4.2398	p"	-0.1377
-4.5408	pack	-0.1377
-3.9387	pain	-0.3717
-4.5408	pain--it	-0.1377
-4.0637	pains	-0.1377
-3.7627	pair	-0.3418
-4.5408	pairs	-0.1377
-3.7627	paper	-0.1834
-4.5408	paper--"The	-0.1377
-3.8418	papers	-0.2046
-4.2398	paradox	-0.1377
-4.5408	paradoxes	-0.1377
-3.9387	paradoxical	-0.1377
-4.2398	paragraph	-0.1377
-2.8418	part	-0.7705
-4.5408	part"	-0.1377
-4.5408	part--of	-0.1377
-4.2398	part:	-0.1377
-4.5408	particles	-0.1377
-3.1429	particular	-0.3620
-4.0637	particularly	-0.1377
-3.6957	partly	-0.2626
-4.5408	partner	-0.1377
-3.2855	parts	-0.6350
-4.2398	party	-0.1377
-3.8418	pass	-0.1377
-3.3647	passage	-0.3750
-4.2398	passages	-0.1377
-4.5408	passing	-0.1377
-3.4269	past	-0.3315
-4.5408	past--that	-0.1377
-4.5408	past;	-0.1377
-3.4269	patch	-0.3418
-4.2398	patch"	-0.1377
-4.5408	patch;	-0.1377
-3.6957	patches	-0.5356
-4.5408	pattern	-0.1377
-4.5408	patterns	-0.1377
-3.5866	pay	-0.2626
-4.5408	pay;	-0.1377
-4.5408	paying	-0.1377
-4.2398	pays	-0.4387
-3.9387	peculiar	-0.2346
-4.2398	peculiarities	-0.1377
-4.5408	pencil	-0.1377
-4.5408	penetrates	-0.1377
-4.2398	penny	-0.4387
-3.2398	people	-0.3401
-4.2398	people's	-0.1377
-4.5408	people--does	-0.1377
-4.5408	people:	-0.1377
-4.5408	people;	-0.1377
-4.5408	people?	-0.1377
-4.5408	people?"	-0.1377
-3.2186	perceive	-0.4870
-4.5408	perceive--colours	-0.1377
-4.5408	perceive?	-0.1377
-3.2186	perceived	-0.4801
-4.5408	perceived"--that	-0.1377
-4.5408	perceived"--the	-0.1377
-4.5408	perceived":	-0.1377
-4.5408	perceived--I	-0.1377
-4.5408	perceived--either	-0.1377
-4.5408	perceived--to	-0.1377
-4.5408	perceived:	-0.1377
-4.5408	perceived;	-0.1377
-4.5408	perceives	-0.1377
-4.5408	perceives:	-0.1377
-3.4994	perceiving	-0.3515
-4.5408	perceptible	-0.1377
-3.5408	perceptibly	-0.4107
-3.1094	perception	-0.5593
-4.5408	perception;	-0.1377
-4.5408	perception?	-0.1377
-3.1258	perceptions	-0.6087
-4.5408	perceptions--first	-0.1377
-4.5408	perceptions--one	-0.1377
-4.5408	perceptions:	-0.1377
-4.2398	perceptions;	-0.1377
-4.2398	perceptions?	-0.1377
-4.5408	perceptually	-0.1377
-4.2398	percipere	-0.1377
-4.5408	percipere'	-0.1377
-4.5408	percipere;	-0.1377
-3.1984	percipi	-0.4277
-4.5408	percipi"	-0.1377
-4.2398	percipi'	-0.1377
-3.9387	percipi:	-0.2626
-4.2398	percipi?	-0.4387
-4.5408	percipi?'	-0.1377
-3.9387	perfect	-0.1377
-3.3367	perfectly	-0.3322
-3.2855	perhaps	-0.2287
-4.0637	period	-0.1377
-4.5408	period"	-0.1377
-4.5408	period;	-0.1377
-4.2398	permanently	-0.1377
-4.5408	permission	-0.1377
-4.5408	persistently	-0.1377
-3.3104	person	-0.3248
-4.2398	person's	-0.1377
-4.5408	person:	-0.1377
-4.5408	person;	-0.1377
-4.2398	person?	-0.4387
-3.9387	personal	-0.1377
-4.5408	personally	-0.1377
-3.5408	persons	-0.2424
-4.5408	persons;	-0.1377
-4.5408	persons?	-0.1377
-4.2398	persuade	-0.1377
-4.5408	persuading	-0.1377
-4.5408	perverted	-0.1377
-4.5408	petitio	-0.1377
-4.5408	phenomenally	-0.1377
-3.5866	philosopher	-0.2926
-4.5408	philosopher's	-0.1377
-3.0357	philosophers	-0.5451
-4.5408	philosophers--the	-0.1377
-4.2398	philosophers;	-0.1377
-3.6957	philosophic	-0.2626
-3.6957	philosophical	-0.1888
-4.5408	philosophise	-0.1377
-4.2398	philosophising	-0.4387
-3.6377	philosophy	-0.2248
-4.5408	philosophy--Sensationalism	-0.1377
-4.5408	philosophy:	-0.1377
-4.2398	philosophy;	-0.4387
-3.6377	phrase	-0.1791
-4.5408	phrase;	-0.1377
-3.7627	phrases	-0.1377
-3.2398	physical	-0.5056
-4.2398	physically	-0.1377
-4.5408	physics	-0.1377
-4.0637	pick	-0.6148
-4.5408	picking	-0.1377
-4.5408	piece	-0.1377
-4.2398	pieces	-0.4387
-4.5408	pig	-0.1377
-4.5408	pipe	-0.1377
-3.3367	place	-0.4539
-4.2398	place:	-0.1377
-4.5408	place?	-0.1377
-4.5408	placed	-0.1377
-3.9387	places	-0.3138
-3.2855	plain	-0.4551
-4.2398	plain:	-0.4387
-4.5408	plainest	-0.1377
-3.2621	plainly	-0.2346
-4.5408	planet;	-0.1377
-4.2398	planets	-0.1377
-4.2398	plausibility	-0.1377
-3.6377	plausible	-0.1834
-4.5408	plausible)--systematically	-0.1377
-4.5408	plausibly	-0.1377
-4.2398	play	-0.4387
-4.5408	played	-0.1377
-4.0637	player	-0.1377
-4.2398	players	-0.4387
-4.2398	plead	-0.4387
-4.2398	pleasant	-0.1377
-4.5408	pleasant"	-0.1377
-4.2398	please	-0.4387
-4.5408	pleased	-0.1377
-4.5408	pleased;	-0.1377
-4.5408	pleases	-0.1377
-4.5408	pleasurable	-0.1377
-4.0637	pleasure	-0.2168
-4.5408	pleasure"	-0.1377
-4.2398	plenty	-0.4387
-4.5408	plunge	-0.1377
-4.5408	plural	-0.1377
-4.5408	pocket	-0.1377
-4.5408	pockets	-0.1377
-3.2398	point	-0.4845
-4.5408	point--the	-0.1377
-3.8418	pointed	-0.5356
-3.8418	pointing	-0.5356
-3.3947	points	-0.3750
-4.5408	points"	-0.1377
-4.5408	poisonous	-0.1377
-4.5408	popular	-0.1377
-4.5408	popularly	-0.1377
-3.6957	position	-0.2046
-4.5408	position:	-0.1377
-3.8418	positions	-0.1377
-3.8418	positive	-0.2046
-3.3367	positively	-0.4650
-4.5408	positivistic--a	-0.1377
-3.2398	possess	-0.4735
-4.5408	possess;	-0.1377
-3.7627	possessed	-0.2468
-4.5408	possessed;	-0.1377
-3.3647	possesses	-0.3360
-4.5408	possessing	-0.1377
-4.5408	possession	-0.1377
-4.5408	possessions	-0.1377
-4.0637	possibility	-0.4387
-3.0494	possible	-0.4640
-3.4269	possibly	-0.3222
-3.9387	power	-0.2168
-4.5408	powerful	-0.1377
-4.5408	powers	-0.1377
-4.2398	pp	-0.4387
-4.0637	practically	-0.1377
-4.5408	practice	-0.1377
-4.5408	pragmatist	-0.1377
-4.5408	pray	-0.1377
-4.5408	praying	-0.1377
-4.0637	precede	-0.3138
-3.5408	preceded	-0.4735
-4.5408	precedes	-0.1377
-3.7627	preceding	-0.2168
-3.8418	precise	-0.2838
-3.2186	precisely	-0.5587
-4.0637	precision	-0.6148
-3.4269	predicate	-0.3372
-4.0637	predicated	-0.3138
-3.4269	predicates	-0.3929
-4.5408	predict	-0.1377
-4.5408	prediction	-0.1377
-4.0637	predictions	-0.1957
-4.2398	prefer	-0.1377
-4.5408	prehistoric	-0.1377
-4.2398	prejudice	-0.4387
-4.5408	prejudices	-0.1377
-4.0637	preliminary	-0.1377
-3.6957	premiss	-0.2468
-4.2398	premisses	-0.1377
-4.5408	premisses;	-0.1377
-4.0637	prepared	-0.6148
-4.5408	preposterous	-0.1377
-4.5408	presence	-0.1377
-3.5408	present	-0.1561
-4.5408	presentation	-0.1377
-3.3367	presented	-0.5568
-4.2398	presently	-0.1377
-4.5408	press	-0.1377
-4.5408	pressing	-0.1377
-4.5408	presumably	-0.1377
-4.2398	presumption	-0.3138
-4.5408	presupposes	-0.1377
-4.2398	pretend	-0.4387
-4.5408	pretended	-0.1377
-4.5408	pretends	-0.1377
-3.6957	pretty	-0.4801
-4.5408	prevalent	-0.1377
-3.6377	prevent	-0.2346
-4.2398	prevented	-0.1377
-4.5408	prevention	-0.1377
-3.6957	previous	-0.1888
-3.7627	previously	-0.1834
-4.5408	primarily	-0.1377
-4.0637	primary	-0.3138
-4.5408	principal	-0.1377
-4.5408	principally	-0.1377
-4.5408	principii:	-0.1377
-3.4616	principle	-0.3040
-3.6957	principles	-0.3418
-4.5408	printed	-0.1377
-4.5408	printers	-0.1377
-4.5408	priori	-0.1377
-4.5408	private	-0.1377
-3.9387	probability	-0.2468
-3.4616	probable	-0.5848
-4.5408	probable--more	-0.1377
-4.5408	probable--much	-0.1377
-4.5408	probable--only	-0.1377
-4.5408	probable;	-0.1377
-3.2398	probably	-0.2206
-4.2398	problem	-0.1377
-4.5408	procedure	-0.1377
-4.0637	proceed	-0.4387
-4.2398	process	-0.2626
-4.5408	processes	-0.1377
-3.9387	produce	-0.1377
-4.2398	produced	-0.3138
-4.5408	products	-0.1377
-4.2398	products"	-0.1377
-4.5408	professes	-0.1377
-3.9387	profitable	-0.3595
-4.2398	progress	-0.1377
-4.5408	prominent	-0.1377
-4.5408	promise	-0.1377
-4.5408	promise"	-0.1377
-4.5408	promises	-0.1377
-3.7627	proof	-0.3418
-4.0637	propensity	-0.6148
-3.5408	proper	-0.3267
-4.5408	proper;	-0.1377
-3.4616	properly	-0.2626
-3.2398	properties	-0.3649
-4.5408	properties";	-0.1377
-4.5408	properties'	-0.1377
-3.1606	property	-0.5056
-4.2398	property"	-0.1377
-4.5408	property--namely	-0.1377
-4.2398	property--which	-0.1377
-4.0637	property;	-0.1377
-4.2398	prophesy	-0.1377
-4.5408	prophesy)	-0.1377
-4.5408	proportion	-0.1377
-3.9387	propose	-0.4387
-3.9387	proposed	-0.3595
-4.5408	proposes	-0.1377
-4.5408	proposing	-0.1377
-2.8084	proposition	-0.4807
-4.5408	proposition--and	-0.1377
-4.5408	proposition--the	-0.1377
-4.0637	proposition:	-0.1377
-4.2398	proposition;	-0.1377
-4.5408	proposition?	-0.1377
-2.8332	propositions	-0.5974
-4.5408	propositions:	-0.1377
-4.5408	propositions:--	-0.1377
