[n]
3

[smoother]
kylm.model.ngram.smoother.KNSmoother

[closed]
true

[max_length]
25

[vocab_cutoff]
0

[start_symbol]
<s>

[terminal_symbol]
</s>

[unknown_symbol]
<unk>

\data\
ngram 1=5964
ngram 2=38042
ngram 3=80547
\1-grams: 
-99.0000	<s>	-0.8448
-1.3913	</s>
-4.5803	"(_x_	-0.1418
-4.2792	";	-0.1418
-3.4663	"A	-0.4429
-4.5803	"A's	-0.1418
-3.8021	"AP	-0.4429
-4.5803	"AP"	-0.1418
-4.1031	"AQ	-0.2668
-4.1031	"AQ"	-0.1418
-4.5803	"AR	-0.1418
-4.5803	"Agnosticism	-0.1418
-4.5803	"Alexander's	-0.1418
-3.6772	"All	-0.4429
-4.5803	"Almost	-0.1418
-4.5803	"An	-0.1418
-4.5803	"And	-0.1418
-4.1031	"Anything	-0.3179
-4.5803	"Arabian	-0.1418
-4.1031	"B	-0.3179
-4.5803	"BP	-0.1418
-4.5803	"Because	-0.1418
-4.2792	"Beliefs	-0.4429
-4.2792	"Blue	-0.4429
-4.2792	"But	-0.1418
-4.5803	"Chimæras	-0.1418
-4.5803	"Each	-0.1418
-4.1031	"Every	-0.3179
-4.5803	"Expedient	-0.1418
-4.5803	"External	-0.1418
-4.5803	"False	-0.1418
-4.5803	"For	-0.1418
-4.5803	"George	-0.1418
-4.5803	"Griffins	-0.1418
-4.5803	"Hens	-0.1418
-4.5803	"Hens'	-0.1418
-3.8021	"How	-0.6189
-4.5803	"How"	-0.1418
-4.5803	"Hullo!	-0.1418
-4.5803	"Hylas	-0.1418
-3.4042	"I	-0.4244
-4.2792	"I"	-0.1418
-3.6772	"If	-0.3527
-4.1031	"In	-0.3179
-3.4663	"It	-0.6189
-3.8021	"Lions	-0.9200
-4.2792	"Love	-0.1418
-4.5803	"Must	-0.1418
-3.7352	"My	-0.9869
-4.5803	"Napoleon	-0.1418
-3.9782	"No	-0.1418
-4.5803	"No;	-0.1418
-4.5803	"Not	-0.1418
-4.5803	"Nothing	-0.1418
-4.1031	"Our	-0.1418
-4.2792	"P	-0.1418
-4.5803	"Principles	-0.1418
-4.5803	"Real	-0.1418
-4.5803	"Seeing"	-0.1418
-4.5803	"So	-0.1418
-4.5803	"Something	-0.1418
-4.5803	"Space	-0.1418
-3.8021	"Temporal	-0.9200
-3.4663	"That	-0.4663
-3.7352	"The	-0.2510
-3.5011	"There	-0.7159
-4.5803	"There's	-0.1418
-4.5803	"Things	-0.1418
-3.3250	"This	-0.5398
-4.2792	"Thou	-0.4429
-3.1823	"Time	-0.6859
-4.2792	"Time"	-0.1418
-4.5803	"To	-0.1418
-4.1031	"True	-0.3179
-3.8813	"Unicorns	-0.4429
-4.5803	"Virtue"	-0.1418
-4.2792	"Vorstellungen"	-0.1418
-4.2792	"We	-0.1418
-3.8021	"What	-0.3459
-4.5803	"Whatever	-0.1418
-4.5803	"_I_	-0.1418
-4.5803	"_Relations	-0.1418
-4.5803	"_The_	-0.1418
-4.1031	"_This_	-0.3179
-4.5803	"_esse_	-0.1418
-4.5803	"_objects_"	-0.1418
-4.1031	"_p	-0.6189
-3.5389	"_p_	-0.5220
-4.1031	"_q_	-0.2668
-4.5803	"_r_Q	-0.1418
-4.5803	"_so	-0.1418
-4.1031	"_the_	-0.1418
-4.5803	"_thing	-0.1418
-4.5803	"_this_	-0.1418
-4.5803	"_this_"	-0.1418
-4.5803	"_what_	-0.1418
-4.5803	"_what_"--if	-0.1418
-3.4341	"_x_P	-0.8408
-4.5803	"_x_Q	-0.1418
-4.1031	"a	-0.1418
-4.5803	"absolute	-0.1418
-4.5803	"absolute"	-0.1418
-4.5803	"activity	-0.1418
-4.5803	"after-images	-0.1418
-4.5803	"after-sensations	-0.1418
-4.2792	"agree	-0.4429
-4.5803	"agreed	-0.1418
-4.5803	"agreement	-0.1418
-4.5803	"agreement"	-0.1418
-4.2792	"all	-0.1418
-4.5803	"an	-0.1418
-4.2792	"and	-0.1418
-4.5803	"any	-0.1418
-4.5803	"anything	-0.1418
-4.5803	"anywhere"	-0.1418
-4.5803	"apodeictic")	-0.1418
-4.2792	"appearances"	-0.1418
-4.2792	"are	-0.1418
-4.5803	"arguments	-0.1418
-4.5803	"as	-0.1418
-4.5803	"assimilate	-0.1418
-4.5803	"at	-0.1418
-4.5803	"attention	-0.1418
-4.5803	"awareness	-0.1418
-4.5803	"bad	-0.1418
-4.5803	"be	-0.1418
-4.5803	"beautiful	-0.1418
-3.9782	"beautiful"	-0.1418
-3.5389	"being	-0.3527
-4.5803	"being"	-0.1418
-4.5803	"beliefs	-0.1418
-4.5803	"believe"	-0.1418
-4.2792	"belonging	-0.4429
-4.5803	"belongs	-0.1418
-4.2792	"better	-0.1418
-3.7352	"better"	-0.2880
-4.5803	"bigger"	-0.1418
-4.5803	"blue	-0.1418
-3.7352	"blue"	-0.3849
-4.5803	"by	-0.1418
-4.1031	"can	-0.3179
-4.5803	"can":	-0.1418
-4.5803	"causality"	-0.1418
-4.5803	"cause	-0.1418
-4.2792	"circular	-0.4429
-4.5803	"circular"	-0.1418
-4.5803	"coloured	-0.1418
-4.5803	"coloured"	-0.1418
-4.5803	"committed	-0.1418
-4.5803	"conceptions	-0.1418
-4.5803	"conjoined"	-0.1418
-4.5803	"conjunction"	-0.1418
-4.5803	"connected	-0.1418
-4.2792	"consciousness	-0.4429
-4.2792	"consciousness"	-0.1418
-4.5803	"consciousness"--that	-0.1418
-4.2792	"constant	-0.1418
-4.2792	"constantly	-0.1418
-4.2792	"containing	-0.1418
-4.2792	"content	-0.4429
-3.6260	"content"	-0.2880
-4.5803	"content"--either	-0.1418
-4.2792	"contents	-0.4429
-3.9782	"contents"	-0.2210
-4.5803	"copy"	-0.1418
-4.5803	"covet"	-0.1418
-4.5803	"deliverances	-0.1418
-4.5803	"demonstrative"	-0.1418
-4.5803	"differ	-0.1418
-4.1031	"different	-0.2668
-3.9782	"direct	-0.2668
-4.2792	"directly	-0.1418
-4.2792	"duty	-0.4429
-4.2792	"duty"	-0.1418
-4.5803	"each	-0.1418
-4.5803	"eggs	-0.1418
-4.5803	"entails"	-0.1418
-4.5803	"entails)	-0.1418
-4.5803	"erlebt	-0.1418
-4.5803	"eternal	-0.1418
-4.5803	"evil	-0.1418
-4.5803	"excellence"	-0.1418
-4.5803	"excellences	-0.1418
-4.1031	"exist"	-0.1418
-4.2792	"existence	-0.3179
-3.8813	"existence"	-0.1998
-4.5803	"existing	-0.1418
-4.5803	"exists	-0.1418
-4.1031	"exists"	-0.1418
-4.5803	"exists"?	-0.1418
-4.5803	"expedient	-0.1418
-4.5803	"experience"	-0.1418
-4.5803	"experienced	-0.1418
-4.2792	"experienced"	-0.1418
-4.5803	"experiment	-0.1418
-4.1031	"external	-0.1418
-4.5803	"external"	-0.1418
-4.5803	"fatherhood	-0.1418
-4.5803	"fatherhood"	-0.1418
-4.5803	"feel	-0.1418
-4.5803	"follow	-0.1418
-4.5803	"follows	-0.1418
-4.5803	"follows"	-0.1418
-4.5803	"follows";	-0.1418
-4.5803	"form	-0.1418
-4.5803	"formal	-0.1418
-4.5803	"foundation	-0.1418
-4.1031	"founded	-0.3179
-4.5803	"get	-0.1418
-4.2792	"given	-0.1418
-4.5803	"given"	-0.1418
-4.5803	"glass"	-0.1418
-3.6772	"good	-0.3971
-3.5803	"good"	-0.3381
-4.5803	"good"--but	-0.1418
-4.1031	"goodness	-0.6189
-4.5803	"green"	-0.1418
-4.5803	"grounded"	-0.1418
-4.2792	"have	-0.1418
-4.2792	"having	-0.1418
-4.5803	"hearing	-0.1418
-4.2792	"hens"	-0.4429
-4.5803	"history	-0.1418
-4.5803	"how	-0.1418
-4.5803	"howler";	-0.1418
-4.5803	"idea"	-0.1418
-3.9782	"ideal"	-0.2387
-4.5803	"ideal"--something	-0.1418
-4.5803	"ideas	-0.1418
-4.2792	"ideas"	-0.1418
-4.5803	"ideas")	-0.1418
-4.5803	"identity	-0.1418
-4.2792	"if	-0.4429
-4.2792	"images	-0.1418
-4.1031	"images"	-0.1418
-4.5803	"images";	-0.1418
-4.5803	"imaginary";	-0.1418
-4.5803	"immediately	-0.1418
-4.2792	"immutable	-0.4429
-4.5803	"implication	-0.1418
-4.5803	"implication"	-0.1418
-4.2792	"implies"	-0.1418
-4.5803	"impossibility"	-0.1418
-4.1031	"impossible"	-0.3179
-3.7352	"in	-0.5098
-4.5803	"inseparable	-0.1418
-4.5803	"instinct"	-0.1418
-4.1031	"instrumental"	-0.6189
-4.5803	"intelligible	-0.1418
-4.2792	"intermediate	-0.4429
-3.9782	"internal	-0.5398
-3.9782	"internal"	-0.2387
-4.5803	"internal";	-0.1418
-4.5803	"internality	-0.1418
-4.1031	"internality"	-0.3179
-3.6772	"intrinsic	-0.4429
-3.7352	"intrinsic"	-0.1930
-4.5803	"intrinsic"--a	-0.1418
-4.5803	"intrinsic?"	-0.1418
-4.5803	"intrinsical";	-0.1418
-4.1031	"intrinsically	-0.1418
-4.5803	"intuitive"	-0.1418
-3.5389	"is	-0.3917
-3.8813	"it	-0.2387
-4.5803	"judged"	-0.1418
-4.5803	"judgments	-0.1418
-4.5803	"knew	-0.1418
-4.5803	"know"	-0.1418
-4.2792	"lay"	-0.4429
-4.5803	"leave	-0.1418
-4.5803	"like	-0.1418
-4.5803	"likeness"	-0.1418
-4.5803	"logically	-0.1418
-4.2792	"love"	-0.1418
-4.2792	"made"	-0.1418
-3.8813	"make	-0.8408
-4.2792	"make"	-0.1418
-4.5803	"making	-0.1418
-4.2792	"making"	-0.1418
-4.5803	"mammalian"	-0.1418
-4.2792	"man-made	-0.1418
-4.5803	"mark	-0.1418
-3.8813	"material	-0.4429
-4.5803	"materially	-0.1418
-4.2792	"matter	-0.1418
-4.1031	"matters	-0.6189
-4.2792	"me	-0.3179
-4.5803	"me"	-0.1418
-4.2792	"mental	-0.1418
-4.5803	"mere	-0.1418
-4.5803	"metaphysical"	-0.1418
-4.5803	"metaphysics	-0.1418
-4.2792	"modify	-0.4429
-3.8021	"modify"	-0.2668
-4.5803	"moon	-0.1418
-3.8813	"moral	-0.3637
-4.1031	"morally	-0.3179
-4.2792	"must	-0.1418
-4.1031	"must"	-0.1418
-4.2792	"mutable	-0.4429
-4.2792	"my	-0.1418
-4.5803	"naturalistic"	-0.1418
-4.1031	"necessary	-0.3179
-4.5803	"necessary"	-0.1418
-4.5803	"no	-0.1418
-4.5803	"non-intrinsic	-0.1418
-4.2792	"non-subjective	-0.4429
-4.2792	"not	-0.1418
-4.5803	"notions"	-0.1418
-4.5803	"object	-0.1418
-4.5803	"object"	-0.1418
-3.6260	"objective	-0.7061
-3.6260	"objective"	-0.1832
-4.5803	"objective;"	-0.1418
-3.8021	"objectivity	-0.6859
-3.7352	"objectivity"	-0.2880
-4.1031	"objects	-0.3179
-4.5803	"objects"	-0.1418
-4.5803	"observation	-0.1418
-3.9782	"observation"	-0.3637
-4.5803	"observe	-0.1418
-4.2792	"observe"	-0.1418
-4.2792	"of	-0.1418
-4.5803	"orange	-0.1418
-4.5803	"orange"	-0.1418
-4.5803	"other	-0.1418
-4.1031	"ought	-0.6189
-3.6772	"ought"	-0.2510
-4.1031	"our	-0.1418
-4.5803	"our"	-0.1418
-4.5803	"ours	-0.1418
-4.5803	"ours"	-0.1418
-4.5803	"over-ligned"	-0.1418
-4.5803	"part	-0.1418
-4.2792	"part"	-0.1418
-4.5803	"parts"	-0.1418
-4.1031	"pay	-0.2387
-3.5389	"paying	-0.4728
-4.2792	"paying"	-0.4429
-4.2792	"pays	-0.1418
-4.2792	"perceive	-0.4429
-3.9782	"perceive"	-0.2088
-4.1031	"perceived	-0.4429
-4.2792	"perceived"	-0.1418
-4.2792	"perception	-0.4429
-4.5803	"perceptually	-0.1418
-4.1031	"physical	-0.3179
-4.5803	"point	-0.1418
-4.5803	"pointed	-0.1418
-4.1031	"points	-0.3179
-4.5803	"politics	-0.1418
-4.5803	"popular	-0.1418
-4.5803	"positivistic"	-0.1418
-4.5803	"possible	-0.1418
-4.5803	"pragmatist	-0.1418
-4.5803	"presented	-0.1418
-4.5803	"presented"	-0.1418
-4.5803	"primary"	-0.1418
-4.5803	"profitable	-0.1418
-4.5803	"pure	-0.1418
-4.5803	"purely	-0.1418
-3.7352	"real	-0.9869
-3.5389	"real"	-0.3971
-4.2792	"real":	-0.1418
-4.2792	"reality	-0.1418
-3.8813	"reality"	-0.1418
-4.5803	"really	-0.1418
-4.2792	"reason	-0.1418
-4.5803	"reason"	-0.1418
-4.5803	"red"	-0.1418
-4.5803	"relation"	-0.1418
-4.2792	"relational	-0.1418
-4.1031	"relations	-0.6189
-4.2792	"relations"	-0.1418
-4.5803	"relative":	-0.1418
-4.2792	"right"	-0.4429
-4.5803	"secondary	-0.1418
-3.8813	"see"	-0.1418
-4.5803	"seeing	-0.1418
-4.5803	"self-evident	-0.1418
-4.5803	"self-sufficient":	-0.1418
-4.2792	"sensation	-0.1418
-4.5803	"sensations	-0.1418
-4.5803	"sense-contents	-0.1418
-4.5803	"sense-contents!"	-0.1418
-4.5803	"sense-contents"	-0.1418
-4.5803	"sense-contents";	-0.1418
-4.5803	"sense-data	-0.1418
-4.1031	"sense-data"	-0.1418
-4.5803	"sense-datum"	-0.1418
-4.2792	"sensibles	-0.3179
-4.5803	"sensibles"	-0.1418
-4.5803	"sensibles";	-0.1418
-4.5803	"sensory	-0.1418
-4.5803	"side	-0.1418
-4.5803	"sign	-0.1418
-4.5803	"sign"	-0.1418
-4.5803	"sophistry	-0.1418
-4.5803	"source	-0.1418
-4.1031	"source"	-0.1418
-4.5803	"sources	-0.1418
-4.1031	"sources"	-0.3179
-4.5803	"spiritual	-0.1418
-4.5803	"spiritual"	-0.1418
-4.5803	"static"	-0.1418
-4.5803	"strong	-0.1418
-3.8021	"subjective	-0.5098
-3.8021	"subjective"	-0.1930
-4.5803	"subjective";	-0.1418
-4.2792	"subjectivity	-0.1418
-4.5803	"substance	-0.1418
-4.5803	"substance"	-0.1418
-4.5803	"sweet	-0.1418
-4.5803	"systematically	-0.1418
-4.1031	"temporal	-0.1418
-4.5803	"terms	-0.1418
-4.2792	"that	-0.1418
-3.7352	"the	-0.1930
-4.5803	"there	-0.1418
-4.2792	"thing	-0.1418
-4.5803	"thing"	-0.1418
-4.5803	"things	-0.1418
-4.1031	"things"	-0.1418
-3.9782	"this	-0.1418
-4.2792	"through	-0.4429
-4.5803	"thy	-0.1418
-4.5803	"to	-0.1418
-4.5803	"to-morrow"	-0.1418
-4.2792	"true	-0.1418
-4.5803	"true")	-0.1418
-4.5803	"truth	-0.1418
-4.5803	"truth"	-0.1418
-4.5803	"truth-making"	-0.1418
-4.5803	"truths	-0.1418
-4.5803	"ugly;"	-0.1418
-4.5803	"unconditional"	-0.1418
-4.5803	"unicorns"	-0.1418
-4.1031	"unreal	-0.3179
-4.5803	"unreal"	-0.1418
-4.2792	"useful	-0.3179
-4.5803	"useful"	-0.1418
-4.5803	"usefulness"	-0.1418
-4.1031	"utility	-0.1418
-4.2792	"utility"	-0.1418
-4.5803	"validly	-0.1418
-4.2792	"verifiability"	-0.4429
-4.5803	"verification	-0.1418
-4.1031	"verification"	-0.3179
-4.5803	"verified	-0.1418
-4.2792	"verify"	-0.1418
-4.5803	"virtue	-0.1418
-4.5803	"virtue";	-0.1418
-3.9782	"we	-0.1418
-4.5803	"what	-0.1418
-4.5803	"which	-0.1418
-4.5803	"work	-0.1418
-4.1031	"works	-0.3179
-4.2792	"would	-0.4429
-4.2792	"wrong	-0.4429
-3.9782	"wrong"	-0.1418
-4.5803	"yellow	-0.1418
-4.1031	"yellow"	-0.1418
-4.5803	"yellowness"	-0.1418
-4.5803	"you	-0.1418
-4.5803	"°"	-0.1418
-4.2792	"°_y_P°	-0.1418
-4.5803	'"That	-0.1418
-4.5803	'--the	-0.1418
-4.5803	';	-0.1418
-4.2792	'A	-0.4429
-4.5803	'B	-0.1418
-4.5803	'Blue	-0.1418
-4.5803	'Both	-0.1418
-4.5803	'C	-0.1418
-4.5803	'Esse	-0.1418
-4.5803	'I	-0.1418
-4.5803	'Idealism'	-0.1418
-4.5803	'Is	-0.1418
-4.2792	'Reality	-0.4429
-4.1031	'Time	-0.3179
-4.5803	'Time'	-0.1418
-4.5803	'What	-0.1418
-4.5803	'_Esse_	-0.1418
-3.9782	'_esse_	-0.5398
-4.5803	'_esse_'	-0.1418
-4.2792	'analytic'	-0.1418
-4.5803	'appear'	-0.1418
-4.5803	'awareness'	-0.1418
-4.5803	'be	-0.1418
-4.2792	'beautiful	-0.1418
-4.5803	'beauty'	-0.1418
-3.9782	'being	-0.4429
-4.5803	'being'	-0.1418
-4.5803	'better	-0.1418
-4.5803	'blue	-0.1418
-4.5803	'blue'	-0.1418
-4.5803	'blueness'	-0.1418
-4.2792	'cannot'	-0.4429
-4.5803	'causes	-0.1418
-4.5803	'consciousness	-0.1418
-4.5803	'consciousness'	-0.1418
-4.2792	'content'	-0.1418
-4.2792	'difference	-0.4429
-4.5803	'different	-0.1418
-4.5803	'differing	-0.1418
-4.5803	'effect	-0.1418
-4.2792	'esse	-0.4429
-4.2792	'esse'	-0.1418
-4.5803	'eternal'	-0.1418
-4.5803	'exists	-0.1418
-4.2792	'experience'	-0.1418
-4.5803	'experiencing'	-0.1418
-4.5803	'goodness'	-0.1418
-4.5803	'green'	-0.1418
-4.5803	'grey'	-0.1418
-4.5803	'greys	-0.1418
-3.9782	'having	-0.5398
-4.5803	'illegitimate	-0.1418
-4.5803	'image'	-0.1418
-4.5803	'impossibility	-0.1418
-4.5803	'impossibility'	-0.1418
-4.5803	'impossible	-0.1418
-4.2792	'intrinsic	-0.4429
-4.1031	'intrinsic'	-0.3179
-4.1031	'intrinsically	-0.3179
-4.2792	'is	-0.1418
-4.5803	'knowing	-0.1418
-4.5803	'knowing'	-0.1418
-4.5803	'knowledge'	-0.1418
-4.5803	'moon'	-0.1418
-4.1031	'must	-0.3179
-4.2792	'must'	-0.1418
-4.5803	'necessarily'	-0.1418
-4.1031	'necessity'	-0.3179
-4.5803	'not	-0.1418
-4.5803	'object'	-0.1418
-4.5803	'one'	-0.1418
-4.5803	'ones	-0.1418
-4.2792	'organic	-0.1418
-4.5803	'percipi'	-0.1418
-4.2792	'percipi':	-0.1418
-4.2792	'real'	-0.1418
-4.2792	'reality	-0.1418
-4.5803	'reality'	-0.1418
-4.5803	'redness'	-0.1418
-4.5803	'sensation	-0.1418
-4.2792	'sensation'	-0.1418
-4.5803	'spirit	-0.1418
-4.5803	'subjective	-0.1418
-4.5803	'sweet	-0.1418
-4.5803	'sweet'	-0.1418
-4.2792	'synthetic'	-0.1418
-4.2792	'that	-0.1418
-4.5803	'the	-0.1418
-4.5803	'thing'	-0.1418
-4.5803	'thought	-0.1418
-4.5803	'thought'	-0.1418
-4.5803	'true'	-0.1418
-4.5803	'twice	-0.1418
-4.5803	'white'	-0.1418
-4.5803	'whites	-0.1418
-4.5803	'yellow'	-0.1418
-4.5803	'yellowness'	-0.1418
-3.1031	(1)	-0.4622
-3.2792	(2)	-0.3599
-4.5803	(2nd	-0.1418
-3.7352	(3)	-0.1418
-4.1031	(4)	-0.1418
-4.5803	(5)	-0.1418
-4.5803	(First	-0.1418
-4.1031	(I	-0.1418
-4.5803	(I)	-0.1418
-4.5803	(II)	-0.1418
-4.5803	(III)	-0.1418
-4.5803	(IV)	-0.1418
-4.5803	(IX)	-0.1418
-4.5803	(Luke	-0.1418
-4.2792	(Professor	-0.4429
-4.5803	(See	-0.1418
-4.5803	(VIII	-0.1418
-4.5803	(_Mind	-0.1418
-3.8021	(_a_)	-0.2210
-4.1031	(_b_)	-0.2668
-4.1031	(_c_)	-0.1418
-3.9782	(_d_)	-0.2668
-4.5803	(_d_);	-0.1418
-4.5803	(_e	-0.1418
-4.1031	(_e_)	-0.3179
-4.5803	(_h_)	-0.1418
-4.5803	(_ideas	-0.1418
-4.2792	(_if_	-0.1418
-4.1031	(_q	-0.3179
-3.9782	(_q_	-0.4429
-4.5803	(_some_	-0.1418
-4.5803	(_x	-0.1418
-4.1031	(_x_	-0.3179
-4.5803	(_y	-0.1418
-4.2792	(_β_)	-0.1418
-4.5803	(a	-0.1418
-4.5803	(according	-0.1418
-4.5803	(again	-0.1418
-4.5803	(although	-0.1418
-4.2792	(among	-0.1418
-3.6260	(and	-0.2510
-3.5011	(as	-0.4728
-4.5803	(beside	-0.1418
-4.5803	(by	-0.1418
-4.5803	(correctly)	-0.1418
-4.5803	(directly	-0.1418
-4.1031	(even	-0.3179
-4.5803	(falsely)	-0.1418
-4.5803	(following	-0.1418
-4.2792	(for	-0.1418
-4.5803	(he	-0.1418
-4.5803	(i)	-0.1418
-3.4663	(if	-0.3337
-3.6772	(in	-0.6189
-4.5803	(indeed	-0.1418
-4.1031	(it	-0.3179
-4.2792	(namely	-0.1418
-4.2792	(on	-0.1418
-3.9782	(or	-0.1418
-4.5803	(other	-0.1418
-3.5389	(p	-1.1832
-4.5803	(perhaps	-0.1418
-4.2792	(pp	-0.4429
-4.5803	(presented	-0.1418
-4.5803	(r	-0.1418
-4.5803	(rightly	-0.1418
-4.2792	(so	-0.4429
-4.5803	(that	-0.1418
-4.1031	(the	-0.1418
-4.5803	(they	-0.1418
-3.8813	(though	-0.2387
-4.1031	(to	-0.3179
-4.5803	(under	-0.1418
-4.2792	(validly	-0.4429
-4.5803	(viz	-0.1418
-4.5803	(we	-0.1418
-3.8813	(what	-0.2387
-3.9782	(whatever	-0.2387
-4.2792	(when	-0.1418
-4.5803	(where	-0.1418
-4.1031	(whether	-0.3179
-4.1031	(which	-0.1418
-4.5803	(with	-0.1418
-4.2792	(°_x_	-0.4429
-4.2792	(°_y	-0.3179
-4.2792	(°_y_	-0.3179
-4.5803	(°y	-0.1418
-3.2580	*	-0.2357
-4.2792	+	-0.1418
-1.4295	,	-1.0845
-2.2281	,"	-0.7289
-4.5803	,"--a	-0.1418
-4.5803	,"_	-0.1418
-3.2185	,'	-0.3179
-4.5803	,--a	-0.1418
-4.5803	,[1]	-0.1418
-4.5803	,[2]	-0.1418
-2.6508	,_	-0.4584
-4.2792	,_"	-0.1418
-4.5803	--a	-0.1418
-4.5803	--considerations	-0.1418
-4.5803	--or	-0.1418
-4.5803	--which	-0.1418
-1.6628	.	-1.1241
-2.4071	."	-0.7546
-4.5803	."[1]	-0.1418
-4.5803	."[2]	-0.1418
-4.1031	."_	-0.1418
-3.5011	.'	-0.2668
-4.5803	.)	-0.1418
-4.5803	.--do	-0.1418
-4.5803	.--which	-0.1418
-4.5803	.15	-0.1418
-4.5803	.;	-0.1418
-4.5803	.S	-0.1418
-4.2792	.[1]	-0.1418
-4.5803	.]	-0.1418
-2.7290	._	-0.6572
-4.5803	.e	-0.1418
-4.2792	.g	-0.3179
-4.5803	.m	-0.1418
-4.5803	.°	-0.1418
-3.9782	1	-0.1418
-4.5803	10	-0.1418
-4.5803	100-101	-0.1418
-4.5803	105	-0.1418
-4.5803	11	-0.1418
-4.5803	12	-0.1418
-4.5803	13	-0.1418
-4.5803	131-2	-0.1418
-4.5803	142)	-0.1418
-4.5803	160)	-0.1418
-4.5803	166)	-0.1418
-4.5803	17-18	-0.1418
-4.5803	179)	-0.1418
-4.5803	1800	-0.1418
-4.5803	1807	-0.1418
-4.5803	1902	-0.1418
-4.5803	1903	-0.1418
-4.5803	1907	-0.1418
-4.5803	1907;	-0.1418
-4.5803	1909	-0.1418
-4.5803	1910	-0.1418
-4.2792	1921	-0.1418
-4.5803	1922	-0.1418
-4.2792	2	-0.1418
-4.5803	2+2=4	-0.1418
-4.5803	201)	-0.1418
-4.5803	206)	-0.1418
-4.5803	209)	-0.1418
-4.5803	21)	-0.1418
-4.5803	218)	-0.1418
-4.5803	21st	-0.1418
-4.5803	222)	-0.1418
-4.5803	231-232)	-0.1418
-4.5803	242)	-0.1418
-4.5803	27)	-0.1418
-4.5803	286	-0.1418
-4.5803	286)	-0.1418
-4.5803	287	-0.1418
-4.5803	289	-0.1418
-4.5803	290)	-0.1418
-4.5803	2=	-0.1418
-4.5803	2nd	-0.1418
-4.5803	3	-0.1418
-4.5803	34)	-0.1418
-4.5803	35	-0.1418
-4.5803	35)	-0.1418
-4.5803	364)	-0.1418
-4.5803	392)	-0.1418
-4.2792	4	-0.4429
-4.5803	43)	-0.1418
-4.5803	46)	-0.1418
-4.5803	555)	-0.1418
-4.5803	6	-0.1418
-4.2792	75)	-0.4429
-4.5803	89	-0.1418
-4.5803	93	-0.1418
-3.3761	=	-0.2387
-4.5803	=_	-0.1418
-2.7879	A	-0.5030
-3.8813	A"	-0.3849
-4.5803	A";	-0.1418
-3.8021	A's	-0.2880
-4.1031	A)	-0.3179
-4.5803	A--numerically	-0.1418
-4.2792	A:	-0.1418
-4.5803	A;	-0.1418
-4.2792	AND	-0.1418
-3.8021	AP	-0.3179
-4.5803	AP)	-0.1418
-3.8813	AQ	-0.2210
-4.2792	AQ"	-0.1418
-3.9782	AR	-0.2387
-4.2792	AR"	-0.1418
-4.1031	A_	-0.3179
-4.5803	A_--must_	-0.1418
-4.5803	About	-0.1418
-4.2792	Absolute	-0.1418
-4.5803	Absolute;	-0.1418
-4.2792	Accordingly	-0.1418
-4.5803	After	-0.1418
-4.5803	Again	-0.1418
-4.5803	Against	-0.1418
-4.5803	Agnostic's	-0.1418
-4.2792	Agnosticism	-0.1418
-4.1031	Alexander	-0.6189
-3.8021	All	-0.3849
-4.2792	Almost	-0.2668
-4.5803	Alps	-0.1418
-4.5803	Although	-0.1418
-4.2792	Among	-0.1418
-4.1031	An	-0.1418
-3.1653	And	-0.4095
-4.5803	Another	-0.1418
-4.2792	Any	-0.1418
-4.5803	Anything	-0.1418
-4.2792	Apparently	-0.4429
-4.5803	Appendix	-0.1418
-4.1031	Are	-0.1418
-4.5803	Areal?	-0.1418
-4.5803	Aristotelian	-0.1418
-3.8021	Aristotle	-0.1418
-4.2792	Aristotle's	-0.1418
-4.2792	As	-0.2210
-4.5803	Assuming	-0.1418
-4.2792	At	-0.2387
-4.5803	A°)	-0.1418
-4.5803	A°)"	-0.1418
-4.5803	A°)}	-0.1418
-4.5803	A°)}"	-0.1418
-4.5803	A°)}";	-0.1418
-3.1179	B	-0.4830
-4.2792	B"	-0.1418
-4.5803	B'	-0.1418
-4.1031	B's	-0.1418
-4.5803	B's:	-0.1418
-4.5803	B's?	-0.1418
-4.5803	B:	-0.1418
-3.9782	B;	-0.3179
-4.5803	BE	-0.1418
-4.5803	BQ"	-0.1418
-4.5803	Bad	-0.1418
-4.5803	Barbara	-0.1418
-4.5803	Beliefs	-0.1418
-3.9782	Berkeley	-0.2210
-4.2792	Berkeley's	-0.1418
-4.5803	Both	-0.1418
-4.1031	Bradley	-0.1582
-4.2792	Bradley's	-0.1418
-3.5389	But	-0.3160
-4.1031	By	-0.1418
-3.8813	C	-0.6189
-4.5803	C'	-0.1418
-4.5803	CAMBRIDGE	-0.1418
-4.5803	CONCEPTION	-0.1418
-4.5803	Caesar	-0.1418
-4.5803	Cambridge	-0.1418
-3.8021	Can	-0.2668
-4.1031	Certain	-0.1418
-3.8021	Certainly	-0.1418
-4.5803	Chairs	-0.1418
-4.1031	Change	-0.1418
-4.5803	Christ	-0.1418
-4.5803	Christianity	-0.1418
-4.5803	Co	-0.1418
-4.5803	Commandment	-0.1418
-4.5803	Commandments	-0.1418
-4.5803	Commandments:	-0.1418
-4.5803	Committee	-0.1418
-3.8813	Common	-0.5398
-4.5803	Conception	-0.1418
-4.5803	Conditions	-0.1418
-4.5803	Custom	-0.1418
-3.9782	D	-0.2668
-4.5803	D'	-0.1418
-4.5803	D;	-0.1418
-4.5803	December	-0.1418
-4.5803	Deity	-0.1418
-4.5803	Development	-0.1418
-4.5803	Did	-0.1418
-4.5803	Difference	-0.1418
-4.5803	Different	-0.1418
-4.1031	Do	-0.1418
-3.8813	Does	-0.2387
-4.5803	Don't	-0.1418
-4.5803	Dr	-0.1418
-4.1031	E	-0.1418
-4.5803	END	-0.1418
-4.5803	EXTERNAL	-0.1418
-4.2792	Each	-0.3179
-4.5803	Edition	-0.1418
-4.5803	Edition)	-0.1418
-4.5803	Editor	-0.1418
-3.7352	Edward	-0.2967
-4.5803	Eighth	-0.1418
-4.2792	Either	-0.1418
-4.5803	Empiricism	-0.1418
-4.5803	England	-0.1418
-4.5803	England"	-0.1418
-4.5803	Error	-0.1418
-4.5803	Essays_	-0.1418
-4.5803	Esse	-0.1418
-3.9782	Ethics	-0.1418
-4.2792	Euclidean	-0.1418
-4.2792	Europeans	-0.1418
-4.2792	Even	-0.1998
-4.5803	Every	-0.1418
-4.2792	Everybody	-0.1418
-4.5803	Evolutionary	-0.1418
-4.5803	Existence	-0.1418
-4.2792	Experience	-0.1418
-4.5803	External	-0.1418
-3.8813	F	-0.2210
-4.5803	Facts	-0.1418
-4.5803	False	-0.1418
-4.5803	Few	-0.1418
-4.5803	Finally	-0.1418
-4.1031	First	-0.3179
-4.5803	Fiscal	-0.1418
-3.6260	For	-0.3057
-4.2792	Formal	-0.2668
-4.5803	French	-0.1418
-4.1031	From	-0.4429
-3.8813	G	-0.4429
-3.8021	George	-0.3381
-4.2792	Germans	-0.1418
-4.5803	God	-0.1418
-4.5803	God;	-0.1418
-4.2792	Great	-0.1418
-4.5803	Greeks	-0.1418
-4.5803	Green	-0.1418
-4.5803	HUME'S	-0.1418
-4.5803	Having	-0.1418
-3.6772	He	-0.2165
-4.5803	Heaven	-0.1418
-4.5803	Hegel's	-0.1418
-4.5803	Hegel)	-0.1418
-4.5803	Hence	-0.1418
-3.9782	Here	-0.5098
-4.1031	His	-0.1418
-4.5803	House	-0.1418
-4.5803	House;	-0.1418
-3.6260	How	-0.2801
-4.2792	However	-0.3179
-4.5803	Human	-0.1418
-3.4042	Hume	-0.2916
-3.8021	Hume's	-0.1930
-2.1964	I	-0.8024
-4.5803	IDEALISM	-0.1418
-4.2792	II	-0.1418
-4.2792	III	-0.1418
-4.5803	INTERNAL	-0.1418
-4.5803	INTRINSIC	-0.1418
-4.5803	IV	-0.1418
-4.2792	IX	-0.1418
-4.5803	IX)	-0.1418
-4.5803	Ibid	-0.1418
-3.6772	Idealism	-0.2967
-3.8813	Idealist	-0.1930
-4.2792	Idealist's	-0.1418
-3.8021	Idealistic	-0.1418
-3.4341	Idealists	-0.2668
-4.5803	Idealists--the	-0.1418
-4.5803	Idealists:	-0.1418
-4.5803	Ideas	-0.1418
-4.5803	Ideas_	-0.1418
-4.1031	Identity	-0.6189
-3.4663	If	-0.3075
-4.5803	Imaginary	-0.1418
-3.4042	In	-0.3557
-4.1031	Indeed	-0.1418
-4.5803	Indiscernibles	-0.1418
-4.5803	Inductive	-0.1418
-4.5803	Internal	-0.1418
-4.2792	Into	-0.4429
-4.5803	Intrinsic	-0.1418
-3.2001	Is	-0.5776
-3.1331	It	-0.5245
-4.5803	Italics	-0.1418
-4.5803	Its	-0.1418
-4.5803	JAMES	-0.1418
-4.5803	JUDGMENTS	-0.1418
-3.9782	James	-0.2261
-4.2792	James'	-0.1418
-4.2792	Jew	-0.1418
-4.5803	Jews	-0.1418
-4.5803	Joachim	-0.1418
-4.2792	Journal	-0.1418
-4.5803	Judgments	-0.1418
-4.1031	Julius	-0.6189
-4.2792	Just	-0.3179
-3.9782	Kant	-0.1418
-4.2792	King	-0.3179
-4.5803	Knowledge	-0.1418
-3.9782	Lecture	-0.2668
-4.2792	Lectures	-0.1418
-4.5803	Leibniz;	-0.1418
-3.7352	Let	-0.5398
-4.5803	Locke's	-0.1418
-4.2792	Logic	-0.1418
-4.5803	Logic;	-0.1418
-4.5803	Longmans	-0.1418
-4.5803	MOORE	-0.1418
-4.5803	MORAL	-0.1418
-4.2792	Many	-0.2210
-4.2792	Mathematica	-0.4429
-4.5803	Mathematica_	-0.1418
-4.2792	Mathematics_	-0.2668
-4.5803	Matter	-0.1418
-4.5803	Men	-0.1418
-4.5803	Merely	-0.1418
-4.2792	Mill	-0.1418
-4.5803	Mill-Russell	-0.1418
-4.5803	Modern	-0.1418
-3.6772	Moral	-0.5398
-4.1031	Moreover	-0.3637
-4.5803	Most	-0.1418
-3.1331	Mr	-1.3032
-4.2792	Must	-0.1418
-4.2792	My	-0.2088
-4.5803	N	-0.1418
-4.5803	NATURE	-0.1418
-4.5803	Name	-0.1418
-4.2792	Namely	-0.1418
-4.5803	Napoleon's	-0.1418
-4.5803	Nature	-0.1418
-4.5803	Nay	-0.1418
-3.9782	New	-0.2210
-4.5803	Nights"	-0.1418
-3.9782	No	-0.3179
-4.5803	Nobody	-0.1418
-4.5803	None	-0.1418
-4.5803	Nor	-0.1418
-4.1031	Not	-0.1418
-4.5803	November	-0.1418
-3.9782	Now	-0.2765
-4.5803	O	-0.1418
-4.5803	OBJECTS	-0.1418
-3.7352	OF	-0.1998
-3.9782	Obviously	-0.4429
-4.5803	October	-0.1418
-3.8813	Of	-0.1998
-4.5803	Often	-0.1418
-4.1031	Old	-0.1418
-4.1031	On	-0.3849
-3.9782	One	-0.2088
-4.1031	Only	-0.2668
-4.5803	Only_	-0.1418
-3.8021	Or	-0.2320
-4.5803	Origin	-0.1418
-4.5803	Other	-0.1418
-4.5803	Others	-0.1418
-4.1031	Our	-0.2387
-3.2185	P	-0.5533
-4.1031	P"	-0.1418
-4.5803	P";	-0.1418
-4.5803	P:	-0.1418
-4.5803	PERCEPTION	-0.1418
-4.2792	PHILOSOPHY	-0.4429
-4.5803	Pacific	-0.1418
-4.2792	Part	-0.1418
-4.5803	Paul's;	-0.1418
-4.5803	People	-0.1418
-3.9782	Perhaps	-0.3459
-4.5803	Permanent	-0.1418
-4.2792	Philosophers	-0.1418
-4.5803	Philosophical	-0.1418
-3.8813	Philosophy	-0.1998
-4.5803	Philosophy;	-0.1418
-3.8813	Pickwickian	-0.2210
-4.1031	Plainly	-0.2668
-4.5803	Policy	-0.1418
-4.5803	Popular	-0.1418
-4.5803	Possibility	-0.1418
-4.5803	Possibly	-0.1418
-4.5803	Pragmatism	-0.1418
-4.5803	Pragmatism;	-0.1418
-4.5803	Pragmatists	-0.1418
-4.5803	Principia	-0.1418
-4.5803	Principles	-0.1418
-4.2792	Prof	-0.4429
-3.1331	Professor	-1.1962
-4.5803	Propositions	-0.1418
-4.5803	Provided	-0.1418
-4.5803	Psychology	-0.1418
-4.5803	Put	-0.1418
-3.6260	Q	-0.6537
-4.5803	Q"	-0.1418
-4.5803	Q:	-0.1418
-4.5803	Quarterly_	-0.1418
-4.5803	Quite	-0.1418
-3.8021	R	-0.3459
-4.1031	R"	-0.1418
-4.2792	REALITY	-0.1418
-4.5803	REFUTATION	-0.1418
-4.5803	RELATIONS	-0.1418
-4.1031	Reality	-0.3179
-4.5803	Reality_	-0.1418
-4.5803	Reality_--particularly	-0.1418
-4.5803	Refutation	-0.1418
-3.8021	Reid	-0.1418
-4.5803	Reid)	-0.1418
-4.5803	Relations	-0.1418
-4.5803	Relations"	-0.1418
-4.5803	Revolution	-0.1418
-4.1031	Roc	-0.1418
-4.5803	Roc--meaning	-0.1418
-4.5803	Roc:	-0.1418
-4.5803	Roc;	-0.1418
-4.5803	Roc?	-0.1418
-4.5803	Rome	-0.1418
-4.2792	Russell	-0.1832
-4.5803	Russell's	-0.1418
-4.5803	SENSE-DATA	-0.1418
-4.5803	SOME	-0.1418
-4.5803	STATUS	-0.1418
-4.5803	Sailor	-0.1418
-4.5803	Scepticism--that	-0.1418
-4.5803	Secretary	-0.1418
-4.2792	Senate	-0.1418
-4.5803	Senate-House	-0.1418
-4.5803	Sensation	-0.1418
-4.5803	Sensationalism	-0.1418
-4.5803	Sense	-0.1418
-4.5803	Sense)	-0.1418
-4.2792	Since	-0.1418
-3.8813	Sindbad	-0.4429
-3.9782	Sindbad's	-0.2668
-3.9782	So	-0.3179
-4.5803	Society	-0.1418
-4.5803	Society"	-0.1418
-4.5803	Society;	-0.1418
-4.5803	Society_	-0.1418
-4.1031	Some	-0.2387
-4.5803	Something	-0.1418
-4.2792	Sometimes	-0.4429
-4.5803	St	-0.1418
-4.5803	Stated	-0.1418
-4.1031	Still	-0.1418
-4.5803	Strachey	-0.1418
-4.5803	Strachey's	-0.1418
-4.5803	Studies	-0.1418
-4.5803	Subsequent	-0.1418
-4.2792	Such	-0.2668
-4.2792	Suppose	-0.2387
-4.5803	Supposing	-0.1418
-3.9782	Surely	-0.2088
-4.2792	T	-0.4429
-4.5803	THE	-0.1418
-4.2792	Take	-0.2387
-4.5803	Taylor	-0.1418
-4.5803	Taylor's	-0.1418
-4.2792	Ten	-0.3179
-4.1031	Testament	-0.2088
-3.3761	That	-0.3132
-3.4663	The	-0.2634
-4.5803	Their	-0.1418
-4.5803	Then	-0.1418
-4.2792	Theoretically	-0.4429
-4.5803	Theories	-0.1418
-3.6260	There	-0.4663
-4.1031	These	-0.1998
-3.9782	They	-0.2538
-4.2792	Things	-0.1418
-4.5803	Thinking:	-0.1418
-3.5389	This	-0.2967
-4.5803	Thomas	-0.1418
-4.2792	Those	-0.1418
-4.1031	Thus	-0.1418
-3.3250	Time	-0.4522
-4.2792	Time"	-0.1418
-4.2792	Time;	-0.1418
-4.2792	Time;"	-0.1418
-3.6260	To	-0.2433
-4.5803	Towards	-0.1418
-4.2792	Truth	-0.2387
-4.2792	Two	-0.1418
-4.5803	Understanding	-0.1418
-3.8813	Universe	-0.2880
-4.5803	Universe;	-0.1418
-4.5803	Unless	-0.1418
-4.5803	Upon	-0.1418
-4.5803	Usually	-0.1418
-4.2792	V	-0.2668
-4.5803	VALUE	-0.1418
-4.1031	VI	-0.2668
-3.9782	VII	-0.2387
-4.5803	VIII	-0.1418
-4.5803	Value	-0.1418
-4.5803	Vast	-0.1418
-4.5803	Very	-0.1418
-4.5803	Views	-0.1418
-4.5803	Vol	-0.1418
-4.5803	WILLIAM	-0.1418
-4.5803	Was	-0.1418
-4.5803	Ways	-0.1418
-3.5389	We	-0.3476
-3.8021	Westermarck	-0.3179
-4.5803	Westermarck's	-0.1418
-3.1489	What	-0.3849
-4.2792	Whatever	-0.1418
-3.8813	When	-0.2832
-4.5803	Whenever	-0.1418
-4.5803	Where	-0.1418
-4.2792	Whereas	-0.1418
-4.2792	Whether	-0.1418
-3.8021	Which	-0.6859
-4.2792	While	-0.4429
-4.2792	Whitehead	-0.1418
-4.5803	Why	-0.1418
-4.2792	Will	-0.1418
-4.2792	William	-0.4429
-4.1031	With	-0.2387
-4.5803	World	-0.1418
-4.5803	Would	-0.1418
-4.1031	X	-0.3179
-4.5803	X)	-0.1418
-4.5803	X;	-0.1418
-4.5803	Y	-0.1418
-4.5803	Y;	-0.1418
-4.1031	Yet	-0.2668
-4.5803	You	-0.1418
-4.5803	[1]	-0.1418
-4.5803	[2]	-0.1418
-4.5803	[I	-0.1418
-4.5803	[Propositions	-0.1418
-4.5803	[any	-0.1418
-4.5803	[mine]	-0.1418
-4.5803	_"see"_	-0.1418
-4.5803	_"seems_	-0.1418
-4.5803	_"the_	-0.1418
-4.5803	_'Principles	-0.1418
-4.5803	_'esse	-0.1418
-4.5803	_All_	-0.1418
-3.9782	_Appearance	-0.7439
-4.5803	_Barbara_	-0.1418
-4.5803	_Custom	-0.1418
-4.5803	_Either_	-0.1418
-4.5803	_Enquiry_	-0.1418
-4.1031	_Esse_	-0.4429
-4.2792	_I	-0.1418
-3.8813	_I_	-0.1418
-4.2792	_If_	-0.1418
-4.1031	_In	-0.3179
-4.5803	_International	-0.1418
-4.5803	_January_	-0.1418
-4.5803	_Leicester	-0.1418
-4.5803	_Mind	-0.1418
-4.5803	_New	-0.1418
-4.5803	_Op	-0.1418
-4.2792	_Philosophical	-0.4429
-4.5803	_Pragmatism:	-0.1418
-4.5803	_Principia	-0.1418
-4.2792	_Principles	-0.4429
-4.2792	_Principles_	-0.4429
-4.5803	_Proceedings	-0.1418
-4.5803	_Proceedings_	-0.1418
-4.5803	_Standard_	-0.1418
-4.5803	_That_	-0.1418
-4.5803	_The	-0.1418
-4.5803	_Times	-0.1418
-4.5803	_Times"_	-0.1418
-4.2792	_Times_	-0.1418
-4.5803	_Times_--if	-0.1418
-4.5803	_Times_?	-0.1418
-4.5803	_To	-0.1418
-4.5803	_Treatise_	-0.1418
-4.5803	_What	-0.1418
-4.5803	_What_	-0.1418
-3.5389	_a	-0.3015
-4.2792	_a_	-0.1418
-3.7352	_about_	-0.1418
-4.5803	_absolute_	-0.1418
-4.5803	_actions_	-0.1418
-4.5803	_active	-0.1418
-3.9782	_actually	-0.2668
-4.5803	_affect	-0.1418
-4.5803	_after_	-0.1418
-4.2792	_all	-0.1418
-4.5803	_all)_	-0.1418
-3.2378	_all_	-0.3744
-4.2792	_alone_	-0.1418
-4.5803	_along	-0.1418
-4.5803	_also	-0.1418
-3.6260	_also_	-0.1418
-3.8021	_always_	-0.2088
-4.5803	_always__t_	-0.1418
-4.5803	_am_	-0.1418
-4.5803	_among_	-0.1418
-4.5803	_analytic	-0.1418
-4.5803	_analytically	-0.1418
-4.1031	_and	-0.1418
-3.8021	_and_	-0.1418
-4.2792	_another	-0.1418
-4.5803	_another_	-0.1418
-3.7352	_any_	-0.1418
-4.5803	_anything	-0.1418
-3.9782	_anything_	-0.2668
-4.5803	_apart	-0.1418
-4.5803	_appeal	-0.1418
-4.5803	_appear_	-0.1418
-4.1031	_are	-0.1418
-3.3498	_are_	-0.2210
-4.5803	_arguments_	-0.1418
-3.6772	_as	-0.2967
-3.8021	_at	-0.2210
-4.5803	_attention_;	-0.1418
-4.5803	_aware_	-0.1418
-4.5803	_bad_	-0.1418
-4.5803	_based	-0.1418
-4.5803	_based_	-0.1418
-3.8813	_be_	-0.2210
-4.5803	_beauty_	-0.1418
-4.5803	_beliefs_	-0.1418
-4.2792	_believe_	-0.1418
-4.2792	_belong	-0.1418
-4.5803	_belong_	-0.1418
-4.1031	_best_	-0.1418
-4.2792	_better_	-0.1418
-4.5803	_blue	-0.1418
-4.2792	_blue_	-0.1418
-4.5803	_books	-0.1418
-4.5803	_both	-0.1418
-3.3761	_both_	-0.2165
-4.5803	_but	-0.1418
-3.8813	_by	-0.1418
-4.5803	_called_	-0.1418
-4.5803	_came	-0.1418
-3.8021	_can_	-0.1766
-4.2792	_cannot_	-0.3179
-4.5803	_cause_	-0.1418
-4.5803	_caused	-0.1418
-4.1031	_caused_	-0.1418
-4.2792	_causes_	-0.1418
-4.5803	_certain_	-0.1418
-4.5803	_changing_	-0.1418
-4.5803	_character	-0.1418
-4.5803	_circular_	-0.1418
-4.2792	_coins_	-0.1418
-4.5803	_come	-0.1418
-4.5803	_common_	-0.1418
-4.2792	_complete_	-0.1418
-4.5803	_completely	-0.1418
-4.2792	_completely_	-0.1418
-4.5803	_conceptions_	-0.1418
-4.5803	_conclusion_	-0.1418
-4.5803	_confirm_	-0.1418
-4.5803	_conscious	-0.1418
-4.5803	_consisted_	-0.1418
-4.5803	_constituent_	-0.1418
-4.5803	_content	-0.1418
-3.9782	_content_	-0.4429
-4.2792	_contents_	-0.4429
-4.5803	_converse_	-0.1418
-4.2792	_corresponding_	-0.4429
-4.5803	_could	-0.1418
-3.8021	_could_	-0.2880
-4.5803	_couldn't_	-0.1418
-4.5803	_counterpart_	-0.1418
-4.5803	_custom	-0.1418
-4.5803	_degree_	-0.1418
-4.5803	_denies_	-0.1418
-4.5803	_depend_	-0.1418
-4.5803	_dependent_	-0.1418
-4.5803	_depends	-0.1418
-4.5803	_describe_	-0.1418
-4.1031	_did_	-0.1418
-4.5803	_difference_	-0.1418
-4.5803	_different	-0.1418
-3.9782	_different_	-0.1418
-4.2792	_direct	-0.1418
-4.1031	_directly	-0.1418
-4.2792	_directly_	-0.1418
-4.5803	_distinct_	-0.1418
-4.2792	_distinguishes_	-0.4429
-3.3761	_do_	-0.2510
-4.5803	_do_;	-0.1418
-4.5803	_does	-0.1418
-3.6772	_does_	-0.2668
-3.8813	_e	-0.8408
-4.5803	_each	-0.1418
-3.9782	_each_	-0.7439
-4.5803	_effect_;	-0.1418
-3.8021	_either_	-0.1418
-4.5803	_else_	-0.1418
-4.2792	_enough_	-0.1418
-4.2792	_entail_	-0.1418
-3.8813	_entails_	-0.3637
-3.7352	_esse	-0.3459
-4.5803	_esse?_	-0.1418
-3.2792	_esse_	-0.6392
-4.5803	_even	-0.1418
-4.5803	_even_	-0.1418
-4.1031	_ever_	-0.1418
-3.8813	_every_	-0.1876
-4.5803	_everything	-0.1418
-4.5803	_everything_	-0.1418
-4.2792	_ex	-0.1418
-4.2792	_exactly	-0.1418
-4.2792	_exactly_	-0.4429
-4.2792	_except_	-0.1418
-4.5803	_exclude_	-0.1418
-4.5803	_exclusively_	-0.1418
-4.2792	_exist	-0.1418
-4.5803	_exist_	-0.1418
-4.1031	_existed_	-0.1418
-4.1031	_existence_	-0.1418
-4.5803	_existing;_	-0.1418
-4.5803	_exists	-0.1418
-4.1031	_exists_	-0.3179
-4.2792	_experience	-0.4429
-4.5803	_experience_	-0.1418
-4.2792	_experienced	-0.4429
-4.2792	_experienced_	-0.1418
-4.5803	_experiences_	-0.1418
-3.9782	_external_	-0.3637
-4.5803	_fact_	-0.1418
-4.2792	_facts	-0.4429
-4.1031	_facts_	-0.1418
-4.5803	_fall	-0.1418
-4.5803	_false	-0.1418
-4.5803	_feelings_	-0.1418
-4.5803	_first_	-0.1418
-4.5803	_follow_	-0.1418
-4.5803	_follows	-0.1418
-3.8813	_follows_	-0.3179
-4.1031	_for	-0.3179
-4.5803	_form	-0.1418
-4.5803	_from_	-0.1418
-4.5803	_generalisation	-0.1418
-4.5803	_generalisation_--the	-0.1418
-3.8021	_generally_	-0.2210
-4.5803	_good	-0.1418
-4.2792	_good_	-0.1418
-4.5803	_goodness_	-0.1418
-4.5803	_green	-0.1418
-4.2792	_grounded_	-0.4429
-4.2792	_had_	-0.1418
-4.5803	_has	-0.1418
-3.9782	_has_	-0.2668
-4.5803	_have	-0.1418
-3.8021	_have_	-0.1418
-4.2792	_he	-0.4429
-4.1031	_he_	-0.1418
-4.2792	_hear_	-0.1418
-4.5803	_help_	-0.1418
-4.2792	_higher_	-0.1418
-4.5803	_highly	-0.1418
-4.5803	_him_:	-0.1418
-4.2792	_his	-0.4429
-4.2792	_his_	-0.1418
-4.5803	_how	-0.1418
-4.2792	_how_	-0.1418
-4.1031	_human_	-0.3179
-4.5803	_i	-0.1418
-4.5803	_ideas_	-0.1418
-4.5803	_identical	-0.1418
-4.5803	_identical_	-0.1418
-4.5803	_identifying_	-0.1418
-4.2792	_if	-0.1418
-3.9782	_if_	-0.2832
-4.5803	_illegitimate	-0.1418
-4.5803	_image_	-0.1418
-4.5803	_images	-0.1418
-4.5803	_immediately_	-0.1418
-4.5803	_implies	-0.1418
-4.5803	_implies_	-0.1418
-3.9782	_impossible_	-0.4429
-3.3498	_in	-0.4429
-3.9782	_in_	-0.2668
-4.5803	_include	-0.1418
-4.5803	_include_	-0.1418
-4.5803	_includes_	-0.1418
-4.5803	_infer_	-0.1418
-4.1031	_internal_	-0.2668
-4.1031	_intrinsic_	-0.3179
-3.5011	_is	-0.4180
-4.5803	_is;_	-0.1418
-3.1653	_is_	-0.3132
-4.2792	_is_;	-0.1418
-3.8813	_it	-0.3637
-3.8021	_it_	-0.2510
-4.5803	_it_:	-0.1418
-4.5803	_its_	-0.1418
-4.1031	_itself_	-0.1418
-4.5803	_kind	-0.1418
-4.2792	_kind_	-0.1418
-4.5803	_kind_;	-0.1418
-4.5803	_kinds_	-0.1418
-4.5803	_knew_	-0.1418
-4.2792	_know	-0.1418
-3.5389	_know_	-0.3527
-4.5803	_knowledge_	-0.1418
-4.5803	_knows_	-0.1418
-4.5803	_larger_	-0.1418
-4.2792	_less_	-0.4429
-4.5803	_like	-0.1418
-3.9782	_like_	-0.1418
-4.5803	_logical_	-0.1418
-4.5803	_made_	-0.1418
-4.5803	_make	-0.1418
-4.5803	_making	-0.1418
-4.1031	_many_	-0.6189
-4.5803	_material_	-0.1418
-4.5803	_may	-0.1418
-3.4341	_may_	-0.3917
-4.2792	_me	-0.1418
-4.2792	_me_	-0.1418
-4.1031	_mean_	-0.1418
-4.5803	_meaning_	-0.1418
-4.5803	_meaningless_	-0.1418
-3.6772	_means_	-0.3459
-4.5803	_meant_	-0.1418
-4.1031	_mental	-0.1418
-4.5803	_mere_	-0.1418
-3.5803	_merely_	-0.2088
-3.6772	_might_	-0.3459
-4.2792	_mine	-0.4429
-3.9782	_mine_	-0.1418
-4.5803	_modified_	-0.1418
-4.5803	_modifies_	-0.1418
-4.2792	_moral_	-0.1418
-4.2792	_more	-0.1418
-3.8813	_more_	-0.2210
-4.5803	_most	-0.1418
-3.9782	_most_	-0.4429
-4.5803	_must	-0.1418
-3.3250	_must_	-0.6859
-4.2792	_my	-0.1418
-4.1031	_my_	-0.1418
-4.5803	_naturalistic	-0.1418
-4.5803	_near_	-0.1418
-4.1031	_nearly_	-0.1418
-4.1031	_necessarily_	-0.1418
-4.2792	_necessary	-0.1418
-3.8813	_necessary_	-0.2387
-4.5803	_neither:_	-0.1418
-4.5803	_neither_	-0.1418
-3.9782	_never_	-0.1418
-3.9782	_no	-0.2668
-3.7352	_no_	-0.2290
-4.5803	_none	-0.1418
-4.1031	_none_	-0.6189
-4.5803	_nor_	-0.1418
-4.1031	_not	-0.1418
-4.5803	_not:_	-0.1418
-3.0121	_not_	-0.3471
-4.5803	_nothing	-0.1418
-4.2792	_nothing_	-0.1418
-4.2792	_now	-0.1418
-3.9782	_now_	-0.2387
-4.1031	_numerically_	-0.6189
-4.5803	_object	-0.1418
-4.5803	_objective_	-0.1418
-4.5803	_observe	-0.1418
-4.5803	_observe_	-0.1418
-4.2792	_observed_	-0.1418
-4.5803	_observing_	-0.1418
-4.5803	_occur_	-0.1418
-4.5803	_occurrence_	-0.1418
-3.7352	_of	-0.3459
-3.8813	_of_	-0.2210
-4.5803	_often_	-0.1418
-4.5803	_on	-0.1418
-4.5803	_once	-0.1418
-4.5803	_once_	-0.1418
-3.8813	_one	-0.1418
-3.6260	_one_	-0.2558
-4.5803	_only	-0.1418
-3.4341	_only_	-0.2599
-4.5803	_only_;	-0.1418
-4.2792	_or	-0.4429
-3.7352	_or_	-0.1930
-4.2792	_other	-0.4429
-3.3761	_other_	-0.4227
-4.5803	_others_	-0.1418
-3.6772	_ought_	-0.4429
-4.1031	_our	-0.1418
-4.2792	_our_	-0.1418
-4.5803	_ours	-0.1418
-4.5803	_ours_--that	-0.1418
-4.2792	_p	-0.1418
-3.4042	_p_	-0.3896
-4.2792	_p_"	-0.1418
-3.9782	_part_	-0.5398
-4.5803	_particular_	-0.1418
-4.5803	_parts_	-0.1418
-4.5803	_pay	-0.1418
-4.2792	_perceived_	-0.1418
-4.5803	_perceiving	-0.1418
-4.5803	_perceptibly	-0.1418
-4.1031	_perceptibly_	-0.2387
-4.1031	_perception_	-0.4429
-4.5803	_percipere	-0.1418
-4.5803	_percipere'_	-0.1418
-4.5803	_percipere_	-0.1418
-4.5803	_percipere_;	-0.1418
-3.7352	_percipi	-0.7950
-4.5803	_percipi"_	-0.1418
-4.5803	_percipi'_	-0.1418
-4.5803	_percipi:_	-0.1418
-3.4042	_percipi_	-0.3427
-4.2792	_percipi_'	-0.1418
-4.5803	_percipi_:	-0.1418
-4.1031	_perhaps_	-0.1418
-4.5803	_petitio	-0.1418
-4.5803	_phenomenally_	-0.1418
-4.2792	_physical	-0.1418
-4.2792	_physical_	-0.1418
-4.5803	_pointing	-0.1418
-4.5803	_points	-0.1418
-4.5803	_points_	-0.1418
-4.5803	_positively	-0.1418
-4.2792	_possible_	-0.1418
-4.2792	_possibly_	-0.1418
-4.5803	_preceded_	-0.1418
-4.5803	_present_	-0.1418
-4.2792	_probably_	-0.1418
-4.5803	_properties_	-0.1418
-4.5803	_prove	-0.1418
-4.5803	_proved_	-0.1418
-4.5803	_provided_	-0.1418
-3.9782	_q	-0.1418
-3.7352	_q_	-0.2088
-3.8813	_q_"	-0.1930
-4.5803	_q_";	-0.1418
-4.5803	_qualitative_	-0.1418
-4.5803	_qualitatively	-0.1418
-4.1031	_qualitatively_	-0.6189
-4.5803	_quality_	-0.1418
-4.5803	_r_	-0.1418
-4.1031	_r_)	-0.2210
-4.5803	_r_}	-0.1418
-4.5803	_real	-0.1418
-3.7352	_real_	-0.1998
-4.2792	_real_;	-0.1418
-4.5803	_reality	-0.1418
-4.5803	_reality_	-0.1418
-4.2792	_really	-0.1418
-3.6772	_really_	-0.1796
-3.8021	_reason_	-0.3849
-4.5803	_reason_--I	-0.1418
-4.5803	_reasonable_	-0.1418
-4.5803	_relate_	-0.1418
-4.5803	_relation_	-0.1418
-4.2792	_relational	-0.1418
-4.2792	_relations_	-0.1418
-4.5803	_remember_	-0.1418
-4.2792	_resemble_	-0.1418
-4.5803	_same	-0.1418
-4.1031	_same_	-0.1930
-4.5803	_says;_	-0.1418
-4.5803	_see	-0.1418
-3.8813	_see_	-0.2210
-4.5803	_seeing_	-0.1418
-3.9782	_seem_	-0.2668
-4.5803	_seemed_	-0.1418
-4.1031	_seems_	-0.1418
-4.5803	_self-contradictory	-0.1418
-4.5803	_self-evident	-0.1418
-4.5803	_sensation	-0.1418
-4.2792	_sensations	-0.3179
-4.5803	_sensations_	-0.1418
-4.2792	_senses	-0.4429
-4.5803	_senses_	-0.1418
-4.5803	_sensibles_;	-0.1418
-4.5803	_sentence_--that	-0.1418
-4.5803	_shall_	-0.1418
-4.5803	_short_	-0.1418
-4.2792	_should_	-0.1418
-4.5803	_since_	-0.1418
-4.5803	_smaller_	-0.1418
-4.5803	_so	-0.1418
-4.5803	_solely	-0.1418
-4.1031	_solely_	-0.3179
-4.1031	_some	-0.1418
-3.4042	_some_	-0.3322
-4.2792	_somebody_	-0.1418
-4.5803	_something	-0.1418
-4.1031	_something_	-0.2387
-3.8021	_sometimes_	-0.1418
-4.5803	_source_	-0.1418
-4.2792	_spiritual	-0.1418
-4.5803	_spiritual_	-0.1418
-4.5803	_such	-0.1418
-3.8813	_sufficient_	-0.5398
-4.2792	_suggests_	-0.1418
-4.5803	_tendency_	-0.1418
-4.5803	_tends_	-0.1418
-4.1031	_that	-0.1418
-3.6260	_that_	-0.2210
-3.5803	_the	-0.2668
-3.5803	_the_	-0.4663
-4.1031	_their_	-0.1418
-4.5803	_themselves_	-0.1418
-4.5803	_then	-0.1418
-4.2792	_these_	-0.1418
-4.5803	_they_	-0.1418
-4.5803	_thing	-0.1418
-4.5803	_think	-0.1418
-4.2792	_think_	-0.1418
-4.5803	_thinking	-0.1418
-4.5803	_third	-0.1418
-4.5803	_this	-0.1418
-3.5803	_this_	-0.1962
-4.5803	_those	-0.1418
-4.5803	_though_	-0.1418
-4.2792	_three_	-0.1418
-4.2792	_to	-0.1418
-4.2792	_together	-0.4429
-4.5803	_too_;	-0.1418
-4.5803	_towards_	-0.1418
-4.5803	_true	-0.1418
-4.2792	_true_	-0.1418
-4.2792	_truth_	-0.3179
-4.2792	_two	-0.4429
-4.5803	_two_	-0.1418
-4.5803	_ultimate_	-0.1418
-4.5803	_ultimately_	-0.1418
-4.5803	_unfounded	-0.1418
-4.2792	_unless_	-0.2387
-4.5803	_unlike_	-0.1418
-4.5803	_unreal	-0.1418
-4.5803	_unreal"_	-0.1418
-4.5803	_validly	-0.1418
-4.5803	_verify_	-0.1418
-4.2792	_very	-0.1418
-4.5803	_vice	-0.1418
-3.9782	_was_	-0.2668
-4.1031	_we_	-0.1418
-3.8021	_were_	-0.2088
-4.5803	_whale_	-0.1418
-4.2792	_what	-0.1418
-3.4663	_what_	-0.4429
-4.5803	_whatever_	-0.1418
-4.5803	_whenever	-0.1418
-4.5803	_where_	-0.1418
-4.5803	_which	-0.1418
-4.2792	_which_	-0.1418
-4.2792	_whole_	-0.1418
-4.5803	_wholes_	-0.1418
-4.2792	_will_	-0.4429
-4.5803	_with_	-0.1418
-4.1031	_without_	-0.1418
-4.5803	_words	-0.1418
-3.9782	_words_	-0.1418
-3.8021	_would	-0.1998
-3.4042	_would_	-0.4886
-3.7352	_x	-0.4429
-4.1031	_xP_	-0.1418
-4.5803	_xQ	-0.1418
-3.5011	_x_	-0.3179
-4.2792	_x_P	-0.1418
-4.5803	_x_P"	-0.1418
-3.9782	_x_Q	-0.3637
-4.1031	_x_Q"	-0.2967
-4.5803	_x_Q")	-0.1418
-4.5803	_x_R	-0.1418
-4.5803	_x_R"	-0.1418
-4.5803	_x_°)}	-0.1418
-4.1031	_y	-0.2387
-4.2792	_y_	-0.1418
-4.5803	_y_;	-0.1418
-4.5803	_y_P}	-0.1418
-4.5803	_yet_	-0.1418
-4.5803	_you_	-0.1418
-3.9782	_α	-0.5398
-3.6260	_α_	-0.3381
-3.6260	_β_	-0.3527
-4.5803	_β_:	-0.1418
-4.5803	_εἴδος_	-0.1418
-2.1031	a	-0.5951
-4.2792	ability	-0.1418
-3.7352	able	-0.4429
-2.7229	about	-0.5505
-3.6260	above	-0.2510
-4.5803	above:	-0.1418
-4.5803	absence	-0.1418
-3.9782	absolute	-0.1418
-3.3761	absolutely	-0.3032
-4.5803	absolve	-0.1418
-4.5803	absolved	-0.1418
-4.5803	abstract	-0.1418
-4.5803	abstracted--that	-0.1418
-4.1031	abstraction	-0.1418
-4.5803	abstractions	-0.1418
-4.5803	abstractions'	-0.1418
-4.2792	abstractly	-0.1418
-3.9782	absurd	-0.2668
-4.5803	abundant	-0.1418
-4.1031	accept	-0.2387
-3.8813	accepted	-0.2387
-4.5803	accident	-0.1418
-3.8813	accompanied	-0.5098
-4.5803	accompaniments	-0.1418
-4.2792	accordance	-0.4429
-3.9782	according	-0.4429
-4.2792	accordingly	-0.1418
-4.5803	accordingly:	-0.1418
-3.6260	account	-0.3637
-4.2792	accurate	-0.1418
-3.9782	accurately	-0.2387
-4.5803	accuse	-0.1418
-4.2792	accusing	-0.4429
-4.5803	accustomed	-0.1418
-4.5803	acknowledge	-0.1418
-4.5803	acknowledged	-0.1418
-4.5803	acquaintance	-0.1418
-4.5803	acquainted	-0.1418
-4.5803	acquired--is	-0.1418
-4.5803	acquires	-0.1418
-4.5803	acquiring	-0.1418
-3.7352	act	-0.3179
-4.5803	act;	-0.1418
-4.5803	acting	-0.1418
-3.5803	action	-0.3557
-3.4663	actions	-0.3792
-4.2792	actions;	-0.1418
-4.5803	actively	-0.1418
-4.1031	activity	-0.2387
-4.5803	activity--where	-0.1418
-3.7352	acts	-0.3381
-3.5803	actual	-0.1962
-3.0005	actually	-0.2801
-4.5803	actually_	-0.1418
-4.1031	add	-0.2668
-4.5803	added	-0.1418
-4.5803	addicted	-0.1418
-4.2792	addition	-0.1418
-4.5803	additional	-0.1418
-4.5803	address	-0.1418
-4.1031	adds	-0.1418
-4.5803	adds)	-0.1418
-4.5803	adds:	-0.1418
-4.5803	adequate	-0.1418
-4.5803	adhere	-0.1418
-4.5803	admirers	-0.1418
-4.5803	admission	-0.1418
-3.2185	admit	-0.5855
-4.5803	admit)	-0.1418
-3.6772	admits	-0.4429
-3.6772	admitted	-0.4180
-4.5803	admittedly	-0.1418
-3.8021	admitting	-0.3179
-3.8813	adopt	-0.2088
-3.8021	adopted	-0.2088
-4.5803	adopting	-0.1418
-4.5803	advanced	-0.1418
-4.2792	advantage	-0.4429
-4.5803	advocate	-0.1418
-4.5803	advocating	-0.1418
-4.2792	aesthetic	-0.1418
-4.5803	aesthetics	-0.1418
-4.5803	affairs	-0.1418
-4.2792	affect	-0.1418
-4.2792	affects	-0.1418
-4.1031	affirm	-0.2387
-4.5803	affirmative	-0.1418
-4.5803	affirmed	-0.1418
-4.2792	affirms	-0.1418
-4.5803	afford	-0.1418
-4.1031	afraid	-0.1418
-3.8021	after	-0.3179
-4.5803	after-images	-0.1418
-4.5803	afternoon	-0.1418
-4.2792	afterwards	-0.1418
-3.0488	again	-0.4429
-4.5803	again:	-0.1418
-4.5803	again;	-0.1418
-3.4341	against	-0.4429
-4.5803	agency	-0.1418
-4.5803	agent	-0.1418
-4.5803	agent's	-0.1418
-3.4663	agree	-0.4107
-4.5803	agree;	-0.1418
-4.5803	agreeableness	-0.1418
-3.8813	agreed	-0.2088
-4.2792	agreement	-0.1418
-4.5803	aims	-0.1418
-4.5803	air	-0.1418
-4.5803	akin	-0.1418
-3.9782	alike	-0.2668
-4.5803	alike'	-0.1418
-4.5803	alike--have	-0.1418
-4.5803	alike:	-0.1418
-4.2792	alike;	-0.1418
-4.5803	alike_	-0.1418
-2.5759	all	-0.5398
-4.2792	all)	-0.1418
-4.5803	all--for	-0.1418
-4.5803	all:	-0.1418
-4.2792	all;	-0.1418
-4.5803	all?	-0.1418
-4.5803	all_	-0.1418
-4.5803	alleged)	-0.1418
-4.5803	allied	-0.1418
-3.6260	allow	-0.4429
-4.2792	allowed	-0.3179
-4.1031	allowing	-0.3179
-4.1031	allows	-0.3179
-4.5803	alluded	-0.1418
-4.5803	allusions	-0.1418
-3.3250	almost	-0.5398
-3.2792	alone	-0.3527
-4.5803	alone--but	-0.1418
-4.5803	alone?	-0.1418
-3.8813	along	-0.3637
-3.8021	already	-0.1418
-2.6718	also	-0.4120
-4.5803	also"	-0.1418
-4.5803	also--that	-0.1418
-4.5803	also:	-0.1418
-4.2792	also;	-0.1418
-4.5803	also_	-0.1418
-4.2792	alter	-0.4429
-4.2792	alterations	-0.1418
-4.5803	altered	-0.1418
-3.6772	alternative	-0.1832
-3.8021	alternatives	-0.2387
-4.5803	alters	-0.1418
-3.5803	although	-0.2445
-4.1031	altogether	-0.1418
-4.5803	altogether;	-0.1418
-3.0240	always	-0.3409
-3.4341	am	-0.2369
-3.8021	ambiguity	-0.2210
-4.5803	ambiguity--this	-0.1418
-3.5803	ambiguous	-0.3179
-4.5803	ambiguous;	-0.1418
-4.5803	amended	-0.1418
-3.1823	among	-0.4548
-4.5803	amongst	-0.1418
-3.8021	amount	-0.2880
-4.1031	amounts	-0.3179
-4.5803	ample	-0.1418
-2.6071	an	-0.4911
-4.5803	analogous	-0.1418
-4.2792	analogy	-0.1418
-4.2792	analysable	-0.4429
-4.5803	analysable_;	-0.1418
-4.5803	analysed	-0.1418
-3.6260	analysis	-0.4107
-3.9782	analytic	-0.1418
-1.7886	and	-0.5714
-4.2792	and_	-0.1418
-4.5803	anger	-0.1418
-4.1031	angle	-0.3179
-4.1031	angle"	-0.2668
-4.2792	angle)	-0.1418
-4.5803	angle)"	-0.1418
-4.5803	angrily	-0.1418
-4.1031	angry	-0.1418
-4.5803	angry;	-0.1418
-4.5803	animal	-0.1418
-4.2792	animals	-0.1418
-2.9675	another	-0.4395
-4.1031	another's	-0.3179
-4.5803	another--in	-0.1418
-4.5803	another--namely	-0.1418
-4.2792	another--that	-0.1418
-4.5803	another--the	-0.1418
-4.1031	another:	-0.1418
-3.6260	another;	-0.3381
-3.8813	another?	-0.1998
-4.5803	another_	-0.1418
-3.2185	answer	-0.4728
-4.5803	answer:	-0.1418
-4.5803	answer;	-0.1418
-3.9782	answered	-0.3179
-4.5803	answering	-0.1418
-4.1031	answers	-0.1418
-4.5803	antinomy:	-0.1418
-3.6260	anxious	-1.0961
-2.5084	any	-0.5175
-4.1031	any)	-0.2210
-3.8021	anybody	-0.1930
-3.5011	anyone	-0.2210
-4.5803	anyone;	-0.1418
-2.9368	anything	-0.6141
-4.5803	anything";	-0.1418
-4.5803	anything--when	-0.1418
-4.5803	anything;	-0.1418
-4.5803	anyway	-0.1418
-3.9782	anywhere	-0.4429
-3.8021	apart	-0.9200
-4.5803	apology	-0.1418
-4.5803	apology?"	-0.1418
-4.5803	apparent	-0.1418
-3.8021	apparently	-0.1418
-4.2792	appeal	-0.4429
-4.5803	appeals	-0.1418
-3.6772	appear	-0.5398
-4.1031	appearance	-0.3179
-4.5803	appearance"	-0.1418
-3.8021	appearances	-0.2967
-4.5803	appearances--the	-0.1418
-3.9782	appeared	-0.4429
-4.5803	appearing	-0.1418
-3.4663	appears	-0.5941
-4.5803	appears)	-0.1418
-4.5803	application	-0.1418
-3.8813	applied	-0.1418
-3.8021	applies	-0.3179
-3.4042	apply	-0.4640
-4.1031	apprehend	-0.1418
-4.5803	apprehend_	-0.1418
-3.9782	apprehended	-0.3015
-4.2792	apprehending	-0.2668
-4.5803	apprehending:	-0.1418
-4.2792	apprehends	-0.1418
-4.1031	apprehension	-0.1930
-4.5803	apprehension"	-0.1418
-4.5803	apprehension_	-0.1418
-4.2792	approach	-0.4429
-4.1031	approximately	-0.4429
-3.9782	apt	-0.4429
-4.5803	arbitrarily	-0.1418
-4.5803	arbitrary	-0.1418
-2.2601	are	-0.4756
-4.5803	are--a	-0.1418
-4.5803	are--is	-0.1418
-4.5803	are;	-0.1418
-4.1031	area	-0.2668
-4.5803	area?	-0.1418
-4.5803	area_	-0.1418
-4.2792	areas	-0.1418
-4.5803	arguable	-0.1418
-4.5803	argue	-0.1418
-4.2792	argued	-0.1418
-4.5803	argues	-0.1418
-4.2792	arguing	-0.1418
-4.5803	arguing)	-0.1418
-3.1653	argument	-0.4081
-4.5803	argument)	-0.1418
-4.5803	argument:	-0.1418
-4.5803	argument_	-0.1418
-3.2580	arguments	-0.4194
-3.6772	arise	-0.2668
-4.5803	arise;	-0.1418
-4.1031	arise?"	-0.3179
-3.8813	arises	-0.2880
-4.5803	arising	-0.1418
-4.5803	army	-0.1418
-4.5803	arranged	-0.1418
-4.5803	arrangement	-0.1418
-4.1031	arrive	-0.6189
-4.1031	arrived	-0.1418
-4.1031	arrow-heads	-0.1418
-4.5803	arrowheads	-0.1418
-4.5803	art	-0.1418
-4.1031	article	-0.1418
-4.2792	articles	-0.1418
-4.5803	arty	-0.1418
-2.1457	as	-0.6153
-4.1031	as_	-0.1418
-4.5803	ascribe	-0.1418
-4.5803	aside	-0.1418
-3.6260	ask	-0.3093
-4.5803	ask)	-0.1418
-4.5803	ask--from	-0.1418
-3.9782	ask:	-0.3849
-4.5803	ask;	-0.1418
-3.9782	asked	-0.2668
-4.5803	asked:	-0.1418
-3.5389	asking	-0.5036
-4.2792	asking:	-0.3179
-4.5803	asks	-0.1418
-4.1031	asleep	-0.3179
-4.5803	asleep;	-0.1418
-4.2792	aspect	-0.2668
-4.1031	aspects	-0.3179
-4.5803	ass	-0.1418
-4.1031	assent	-0.4429
-3.0751	assert	-0.4477
-4.5803	assert:	-0.1418
-4.5803	assert;	-0.1418
-4.2792	assert?	-0.1418
-3.3250	asserted	-0.3179
-4.5803	asserted)	-0.1418
-4.2792	asserted;	-0.1418
-4.5803	asserted?--for	-0.1418
-3.1823	asserting	-0.4859
-3.2185	assertion	-0.4692
-4.5803	assertion:	-0.1418
-4.5803	assertion;	-0.1418
-3.6260	assertions	-0.1998
-3.1823	asserts	-0.5129
-4.5803	asserts:	-0.1418
-4.5803	assigned	-0.1418
-4.5803	assigning	-0.1418
-4.5803	assimilate	-0.1418
-4.5803	association	-0.1418
-3.4042	assume	-0.4871
-4.5803	assume)	-0.1418
-3.6772	assumed	-0.3971
-4.1031	assumes	-0.2668
-3.6260	assuming	-0.4051
-3.4663	assumption	-0.3179
-4.5803	assumption;	-0.1418
-4.5803	assumption?	-0.1418
-3.7352	assumptions	-0.1876
-4.1031	assure	-0.2668
-4.5803	astronomy	-0.1418
-2.2858	at	-0.9275
-4.2792	atmosphere	-0.1418
-4.5803	attach	-0.1418
-4.2792	attached	-0.4429
-4.2792	attaching	-0.1418
-3.9782	attack	-0.1418
-4.5803	attacks	-0.1418
-4.5803	attain	-0.1418
-4.5803	attainment	-0.1418
-3.8021	attempt	-0.5098
-4.2792	attempted	-0.4429
-4.5803	attempting	-0.1418
-4.1031	attend	-0.2668
-4.5803	attendant	-0.1418
-3.9782	attending	-0.7439
-3.6772	attention	-0.2558
-4.5803	attentive	-0.1418
-4.5803	attentively	-0.1418
-3.9782	attitude	-0.4429
-4.5803	attitude"	-0.1418
-3.9782	attribute	-0.4429
-4.2792	attributes	-0.1418
-3.9782	attributing	-0.7439
-4.1031	audience	-0.3179
-4.5803	auditory	-0.1418
-3.8813	avoid	-0.1418
-4.2792	avoided	-0.1418
-4.5803	avoided;	-0.1418
-4.5803	avoiding	-0.1418
-4.5803	awake	-0.1418
-3.3498	aware	-0.5476
-4.1031	aware:	-0.1418
-3.6772	awareness	-0.3381
-4.5803	awareness;	-0.1418
-4.5803	awareness_:	-0.1418
-3.8813	away	-0.3637
-4.5803	awkward	-0.1418
-4.5803	axiom	-0.1418
-4.1031	back	-0.3179
-3.5803	bad	-0.2668
-4.5803	badly	-0.1418
-4.2792	balance	-0.4429
-4.2792	ball	-0.4429
-4.2792	balloon	-0.1418
-4.5803	bar	-0.1418
-4.5803	barest	-0.1418
-4.5803	barren	-0.1418
-4.5803	base	-0.1418
-3.6772	based	-0.5398
-4.5803	baseless	-0.1418
-3.8813	basis	-0.8408
-4.5803	basis?	-0.1418
-2.5349	be	-0.5179
-4.2792	be)	-0.1418
-4.5803	be);	-0.1418
-4.5803	be--do	-0.1418
-4.5803	be--namely	-0.1418
-4.5803	be:	-0.1418
-4.5803	be;	-0.1418
-4.5803	be?	-0.1418
-4.2792	be_	-0.1418
-4.5803	bead	-0.1418
-3.9782	bear	-0.2668
-4.2792	beard	-0.4429
-4.1031	bearing	-0.3179
-4.5803	bearing;	-0.1418
-4.5803	bears	-0.1418
-4.2792	beautiful	-0.1418
-4.5803	beautiful"	-0.1418
-4.1031	beauty	-0.2387
-3.1031	because	-0.5029
-3.7352	become	-0.2088
-4.1031	becomes	-0.1418
-4.5803	bed?	-0.1418
-3.2792	been	-0.2874
-3.2378	before	-0.3682
-4.5803	before--the	-0.1418
-4.1031	beg	-0.3179
-4.1031	began	-0.3179
-4.5803	beggarly	-0.1418
-4.2792	begging	-0.4429
-3.6772	begin	-0.3971
-4.5803	beginning	-0.1418
-4.2792	begins	-0.1418
-4.5803	behave	-0.1418
-4.2792	behaviour	-0.1418
-4.1031	behind	-0.3179
-3.0005	being	-0.2838
-4.5803	being--a	-0.1418
-3.1331	belief	-0.4940
-4.5803	belief"	-0.1418
-4.5803	belief--any	-0.1418
-4.5803	belief:	-0.1418
-4.1031	belief;	-0.3179
-4.1031	belief?	-0.1418
-3.0751	beliefs	-0.5363
-4.2792	beliefs?	-0.1418
-3.1179	believe	-0.4765
-4.5803	believe"	-0.1418
-4.5803	believe:	-0.1418
-3.6260	believed	-0.3015
-4.5803	believed--were	-0.1418
-3.4663	believes	-0.5398
-4.5803	believes;	-0.1418
-3.6260	believing	-0.3093
-4.5803	believing"	-0.1418
-3.2378	belong	-0.9377
-4.5803	belong--about	-0.1418
-4.1031	belonged	-0.1418
-3.8021	belonging	-0.9200
-3.3250	belongs	-0.9657
-4.5803	belongs--I	-0.1418
-4.5803	belongs:	-0.1418
-4.5803	beneficent	-0.1418
-4.5803	benefits	-0.1418
-4.5803	benevolent	-0.1418
-3.9782	beside	-0.2210
-4.1031	besides	-0.2088
-4.5803	besides_:	-0.1418
-4.1031	best	-0.1418
-4.5803	bestowed	-0.1418
-3.3498	better	-0.4291
-4.5803	better:	-0.1418
-2.9082	between	-0.5220
-3.8021	beyond	-0.4429
-4.2792	big	-0.1418
-3.9782	bigger	-0.7439
-4.5803	billiard	-0.1418
-4.5803	billiard-ball	-0.1418
-4.5803	billiard-balls	-0.1418
-4.5803	bird	-0.1418
-4.5803	birth	-0.1418
-4.5803	bit	-0.1418
-3.7352	black	-0.3849
-4.5803	black;	-0.1418
-4.2792	blackish	-0.4429
-4.5803	blemishes	-0.1418
-4.5803	blemishes;	-0.1418
-4.5803	blemishes?	-0.1418
-4.5803	bless	-0.1418
-4.5803	blessing	-0.1418
-4.1031	blind	-0.3179
-4.2792	blood	-0.1418
-4.5803	blow	-0.1418
-4.5803	blowing	-0.1418
-4.5803	blown	-0.1418
-3.0617	blue	-0.4263
-4.2792	blue"	-0.1418
-4.5803	blue--namely	-0.1418
-3.9782	blue:	-0.1418
-3.9782	blue;	-0.1418
-4.5803	blush	-0.1418
-4.5803	blushing	-0.1418
-4.1031	bodies	-0.1418
-4.5803	bodies;	-0.1418
-3.5803	body	-0.3255
-4.5803	boldly	-0.1418
-3.5803	book	-0.3917
-4.5803	book";	-0.1418
-4.5803	book--indeed	-0.1418
-3.6772	books	-0.4429
-4.5803	bore	-0.1418
-2.7809	both	-0.3712
-4.2792	bound	-0.4429
-4.5803	brain	-0.1418
-4.5803	brains	-0.1418
-4.5803	breadth	-0.1418
-4.5803	breadths	-0.1418
-4.2792	break	-0.1418
-4.5803	breakfast-table	-0.1418
-4.2792	brevity	-0.4429
-4.5803	brevity's	-0.1418
-4.5803	briefer	-0.1418
-3.6260	briefly	-0.2387
-4.5803	bright	-0.1418
-3.9782	bring	-0.3179
-3.9782	bringing	-0.4429
-4.1031	brings	-0.3179
-3.9782	brought	-0.3179
-4.2792	burn	-0.4429
-4.5803	burn";	-0.1418
-4.2792	burning	-0.1418
-4.1031	business	-0.1418
-2.4799	but	-0.5557
-4.5803	but:	-0.1418
-4.2792	but_	-0.4429
-2.3372	by	-0.5122
-4.5803	calculated	-0.1418
-3.3015	call	-0.3361
-3.4341	called	-0.2261
-3.9782	calling	-0.2967
-3.8021	calls	-0.2668
-3.8813	came	-0.2210
-2.5011	can	-0.5755
-4.1031	can't	-0.1418
-4.5803	can;	-0.1418
-2.9468	cannot	-0.5123
-4.5803	cannot_	-0.1418
-4.1031	capable	-0.3179
-4.2792	capacity	-0.1418
-4.5803	capital	-0.1418
-3.9782	card	-0.2880
-3.8813	cards	-0.1418
-4.5803	careful	-0.1418
-4.2792	carefully	-0.1418
-4.5803	carried	-0.1418
-4.5803	carries	-0.1418
-4.2792	carry	-0.1418
-3.2185	case	-0.5138
-4.5803	case:	-0.1418
-4.5803	case;	-0.1418
-4.5803	case?	-0.1418
-3.0889	cases	-0.5398
-4.5803	cases--I	-0.1418
-4.5803	cases;	-0.1418
-4.5803	cases?"	-0.1418
-4.5803	cases_	-0.1418
-4.1031	catch	-0.1418
-4.2792	catching	-0.4429
-4.5803	caught	-0.1418
-3.4663	causal	-0.4429
-3.8813	causally	-0.5678
-3.4042	cause	-0.3179
-4.5803	cause:	-0.1418
-4.5803	cause;	-0.1418
-3.9782	caused	-0.7439
-3.7352	causes	-0.1418
-4.5803	causes"	-0.1418
-4.5803	causes:	-0.1418
-4.5803	causing	-0.1418
-3.8813	cease	-0.8408
-4.5803	ceased	-0.1418
-4.5803	ceases	-0.1418
-4.2792	century	-0.4429
-2.7352	certain	-0.4206
-4.5803	certain--only	-0.1418
-4.5803	certain;	-0.1418
-2.8560	certainly	-0.4377
-3.6772	certainty	-0.2801
-4.5803	certainty:	-0.1418
-4.5803	chain	-0.1418
-4.2792	chair	-0.1418
-4.5803	challenge	-0.1418
-4.5803	chance	-0.1418
-3.2001	change	-0.4728
-4.5803	change--that	-0.1418
-4.5803	change:	-0.1418
-4.5803	change;	-0.1418
-3.8813	changed	-0.2088
-3.6260	changes	-0.2510
-4.5803	changing	-0.1418
-3.8813	chapter	-0.2210
-3.3250	character	-0.4728
-4.5803	character--as	-0.1418
-4.5803	character--some	-0.1418
-4.5803	character;	-0.1418
-4.5803	character_	-0.1418
-4.5803	character_--some	-0.1418
-3.5389	characteristic	-0.3337
-3.8021	characteristics	-0.2880
-4.1031	characters	-0.6189
-4.5803	characters;	-0.1418
-4.2792	charge	-0.3179
-4.5803	chariot	-0.1418
-4.5803	chase	-0.1418
-4.5803	cheek	-0.1418
-4.5803	chemistry	-0.1418
-4.1031	chief	-0.1418
-3.9782	chiefly	-0.1418
-4.2792	child	-0.1418
-4.5803	child's	-0.1418
-4.5803	childish	-0.1418
-4.2792	childishly	-0.1418
-4.2792	children	-0.1418
-4.5803	chimera	-0.1418
-4.5803	chimera;	-0.1418
-4.2792	choose	-0.1418
-4.2792	chooses	-0.4429
-4.5803	choosing	-0.1418
-4.5803	chose	-0.1418
-4.5803	chose;	-0.1418
-3.9782	chosen	-0.2210
-3.9782	circle	-0.1418
-3.6260	circular	-0.3179
-4.5803	circular;	-0.1418
-4.5803	circular?	-0.1418
-3.5011	circumstances	-0.4728
-4.5803	cit	-0.1418
-3.9782	claim	-0.2668
-4.5803	claimed	-0.1418
-4.5803	claims	-0.1418
-3.3015	class	-0.5300
-4.5803	class;	-0.1418
-3.8021	classes	-0.3971
-4.2792	classes--(1)	-0.4429
-4.5803	classes:	-0.1418
-4.5803	classes?	-0.1418
-3.1031	clear	-0.6034
-4.5803	clear?	-0.1418
-3.9782	clearer	-0.1418
-4.5803	clearest	-0.1418
-3.0889	clearly	-0.3309
-4.2792	clearness	-0.1418
-3.8813	clock	-0.3637
-4.5803	clock;"	-0.1418
-4.5803	close	-0.1418
-4.5803	closed	-0.1418
-4.2792	closely	-0.1418
-4.5803	closing	-0.1418
-4.5803	cloth	-0.1418
-4.5803	clothes	-0.1418
-4.5803	cloud	-0.1418
-4.1031	clouds	-0.4429
-4.5803	clumsily	-0.1418
-4.5803	clumsy	-0.1418
-4.2792	cogent	-0.4429
-3.8813	coin	-0.3637
-4.5803	coincided	-0.1418
-4.5803	coincides	-0.1418
-3.9782	coins	-0.1682
-4.5803	coins;	-0.1418
-4.5803	coins;_	-0.1418
-4.1031	cold	-0.2668
-4.5803	cold)	-0.1418
-3.9782	collection	-0.7439
-3.4042	colour	-0.3337
-4.2792	colour-blind	-0.1418
-3.6260	coloured	-0.3179
-4.5803	coloured"	-0.1418
-3.6772	colours	-0.3637
-4.5803	combined	-0.1418
-4.5803	combines	-0.1418
-3.2378	come	-0.4776
-3.4341	comes	-0.4728
-4.5803	comfortable	-0.1418
-4.5803	coming	-0.1418
-4.2792	commandment	-0.4429
-4.5803	commences	-0.1418
-4.2792	committed	-0.1418
-4.5803	committing	-0.1418
-3.3761	common	-0.3264
-4.5803	common!	-0.1418
-4.5803	common--that	-0.1418
-4.2792	common-sense	-0.1418
-4.5803	common:	-0.1418
-4.5803	common?	-0.1418
-4.5803	commoner	-0.1418
-4.1031	commonest	-0.3179
-3.2378	commonly	-0.3368
-3.8021	commonplace	-0.4429
-4.1031	commonplace?	-0.1418
-4.5803	commonplaces	-0.1418
-4.2792	comparable	-0.4429
-4.2792	comparative	-0.1418
-3.8021	comparatively	-0.2880
-4.1031	compare	-0.1418
-4.2792	comparing	-0.1418
-4.2792	comparison	-0.1418
-4.5803	compel	-0.1418
-4.5803	complains	-0.1418
-4.1031	complete	-0.2088
-3.8021	completely	-0.2088
-3.9782	complex	-0.1418
-4.5803	complexion	-0.1418
-4.1031	complicated	-0.2668
-4.5803	complicated;	-0.1418
-4.2792	composed	-0.4429
-4.5803	conceal	-0.1418
-3.8813	conceivable	-0.3849
-4.1031	conceivably	-0.3637
-3.6772	conceive	-0.2801
-3.8813	conceived	-0.1418
-4.2792	conceiving	-0.1418
-4.5803	concentrate	-0.1418
-3.6260	conception	-0.2931
-4.5803	conception:	-0.1418
-3.6772	conceptions	-0.3381
-4.5803	concern;	-0.1418
-3.3498	concerned	-0.5918
-4.5803	concerned:	-0.1418
-4.2792	concerned;	-0.4429
-3.6772	concerning	-0.6647
-4.2792	concerns	-0.1418
-3.7352	conclude	-0.5678
-4.2792	concludes	-0.4429
-4.1031	concluding	-0.2387
-3.3498	conclusion	-0.2820
-3.8813	conclusions	-0.3637
-3.6772	conclusive	-0.2387
-4.2792	conclusively	-0.1418
-4.1031	concrete	-0.1418
-4.2792	condemn	-0.1418
-4.2792	condemning	-0.1418
-3.5803	condition	-0.4429
-4.5803	conditional	-0.1418
-3.4042	conditions	-0.4581
-4.5803	conditions;	-0.1418
-4.5803	conduce	-0.1418
-4.5803	conduct	-0.1418
-4.5803	confer	-0.1418
-4.2792	confess	-0.2210
-4.5803	confidently	-0.1418
-4.5803	configuration	-0.1418
-4.5803	configurations	-0.1418
-4.1031	confine	-0.2668
-4.1031	confined	-0.6189
-4.5803	confining	-0.1418
-3.9782	confirm	-0.4429
-4.1031	confirms	-0.3179
-4.2792	conflict	-0.1418
-4.5803	conflict?	-0.1418
-4.2792	conflicts	-0.1418
-4.5803	conforms	-0.1418
-4.1031	confuse	-0.3179
-4.1031	confused	-0.2668
-4.5803	confused:	-0.1418
-4.2792	confusing	-0.1418
-3.7352	confusion	-0.2967
-3.7352	conjoined	-0.3381
-4.5803	conjoined"	-0.1418
-4.1031	conjunction	-0.2668
-4.5803	conjunction"	-0.1418
-4.5803	conjunctions	-0.1418
-4.5803	conjunctions"	-0.1418
-4.5803	conjunctions--for	-0.1418
-4.1031	conjunctive	-0.2668
-4.5803	conjuring	-0.1418
-4.5803	connect	-0.1418
-3.5803	connected	-0.6189
-4.5803	connected"	-0.1418
-4.5803	connected:	-0.1418
-4.5803	connected?	-0.1418
-3.4663	connection	-0.5098
-4.5803	connection?	-0.1418
-4.5803	connections	-0.1418
-4.1031	connexion	-0.1418
-4.1031	connexions	-0.1418
-4.5803	conquests	-0.1418
-3.4042	consciousness	-0.3971
-4.5803	consciousness"	-0.1418
-4.5803	consciousness--whether	-0.1418
-3.9782	consequence	-0.2387
-3.6772	consequences	-0.3637
-3.5389	consider	-0.3179
-4.5803	consider:	-0.1418
-4.1031	considerable	-0.1998
-4.5803	considerably	-0.1418
-4.2792	consideration	-0.4429
-3.8021	considerations	-0.3849
-3.7352	considered	-0.1930
-4.5803	considered;	-0.1418
-3.7352	considering	-0.2088
-4.5803	considering--namely	-0.1418
-4.2792	considers	-0.1418
-3.7352	consist	-0.3849
-4.2792	consisted	-0.1418
-4.2792	consistency	-0.4429
-3.9782	consistent	-0.4429
-4.1031	consistently	-0.1418
-4.1031	consisting	-0.3179
-3.7352	consists	-0.4429
-4.2792	constant	-0.1418
-3.2580	constantly	-0.2986
-3.9782	constituent	-0.1418
-3.7352	constituents	-0.2880
-3.6260	constitute	-0.4843
-4.2792	constituted	-0.1418
-3.8021	constitutes	-0.2668
-3.9782	constitution	-0.4429
-3.9782	contain	-0.1418
-4.1031	contained	-0.3179
-4.5803	containing	-0.1418
-3.6772	contains	-0.2290
-4.5803	contemplate	-0.1418
-4.1031	contemporary	-0.2668
-4.5803	contempt	-0.1418
-4.1031	contend	-0.3179
-4.5803	contended	-0.1418
-3.4663	content	-0.5493
-4.5803	content:	-0.1418
-3.8813	contention	-0.5398
-3.9782	contents	-0.1418
-4.5803	contents--myself	-0.1418
-4.2792	contexts	-0.4429
-4.5803	continuance;	-0.1418
-3.7352	continue	-0.9869
-4.1031	continued	-0.1418
-3.9782	contradict	-0.1876
-4.5803	contradicted	-0.1418
-3.8813	contradicting	-0.3849
-3.8021	contradiction	-0.1418
-3.6772	contradictory	-0.2801
-4.5803	contradictory--in	-0.1418
-4.5803	contradicts	-0.1418
-4.2792	contrary	-0.1998
-4.5803	contrast	-0.1418
-4.5803	contrasted	-0.1418
-4.2792	contributed	-0.4429
-4.1031	control	-0.1418
-4.5803	control:	-0.1418
-4.2792	controversy	-0.1418
-4.5803	convenience	-0.1418
-3.9782	convenient	-0.2668
-4.5803	convenient;	-0.1418
-3.8813	convention	-0.3179
-3.9782	conventions	-0.2668
-4.2792	converse	-0.1418
-4.2792	conversely	-0.1418
-4.1031	convey	-0.2387
-4.5803	conveyed	-0.1418
-3.9782	conviction	-0.2668
-4.5803	conviction--the	-0.1418
-3.6260	convinced	-0.5098
-4.5803	convincing	-0.1418
-4.5803	copula	-0.1418
-4.1031	copy	-0.6189
-4.5803	corollary	-0.1418
-3.5389	correct	-0.1740
-4.1031	correctly	-0.2668
-4.2792	correspond	-0.1418
-4.2792	corresponded	-0.4429
-4.5803	correspondent	-0.1418
-4.5803	correspondent's	-0.1418
-4.5803	correspondent?	-0.1418
-3.8021	corresponding	-0.1766
-4.2792	corresponds	-0.3179
-4.2792	corroborate	-0.4429
-3.0005	could	-0.5540
-4.2792	count	-0.4429
-4.1031	counterpart	-0.4429
-4.5803	counterparts"	-0.1418
-4.5803	country;	-0.1418
-3.9782	course	-0.2668
-4.2792	course;	-0.1418
-4.5803	course_	-0.1418
-4.5803	covers	-0.1418
-4.2792	covet	-0.1418
-4.5803	coveting	-0.1418
-3.9782	covetous	-0.2668
-4.2792	covetousness	-0.4429
-4.2792	criterion	-0.1418
-4.5803	criticises	-0.1418
-4.5803	critics	-0.1418
-4.5803	crudely	-0.1418
-4.5803	culture	-0.1418
-4.5803	cumbrous	-0.1418
-4.5803	cups	-0.1418
-4.5803	curious	-0.1418
-4.5803	curse	-0.1418
-3.8813	custom	-0.2387
-4.5803	cuts	-0.1418
-4.1031	danger	-0.6189
-4.5803	daresay	-0.1418
-4.5803	dark	-0.1418
-4.1031	data	-0.2387
-4.5803	dates	-0.1418
-3.7352	day	-0.2144
-3.9782	dead	-0.3179
-4.5803	dead;	-0.1418
-3.8021	deal	-0.3381
-4.1031	dealing	-0.1418
-4.5803	dealt	-0.1418
-4.2792	death	-0.1418
-4.5803	deceive	-0.1418
-4.5803	deceived	-0.1418
-4.5803	decent	-0.1418
-4.2792	deception	-0.1418
-4.5803	deceptive	-0.1418
-4.2792	decide	-0.1418
-4.2792	declare	-0.1418
-4.2792	declared	-0.1418
-3.8813	declares	-0.3849
-4.5803	declaring	-0.1418
-4.5803	decrease	-0.1418
-4.2792	deduced	-0.3179
-4.1031	deducible	-0.4429
-4.2792	defect	-0.1418
-4.5803	defective	-0.1418
-4.5803	defence	-0.1418
-4.5803	defend	-0.1418
-4.5803	defenders	-0.1418
-4.5803	definable	-0.1418
-3.9782	define	-0.1718
-4.5803	define;	-0.1418
-3.6772	defined	-0.5398
-4.2792	defining	-0.1418
-4.1031	definite	-0.1418
-3.9782	definitely	-0.1418
-3.2185	definition	-0.5594
-4.1031	definitions	-0.2668
-3.4042	degree	-0.4622
-4.2792	degrees	-0.3179
-4.5803	deliberate	-0.1418
-4.1031	deliverance	-0.6189
-4.5803	delusion;	-0.1418
-3.8021	denial	-0.2210
-4.5803	denial:	-0.1418
-4.1031	denied	-0.2387
-3.7352	denies	-0.3849
-4.5803	denote	-0.1418
-4.2792	denoted	-0.4429
-4.5803	denotes	-0.1418
-4.2792	denoting	-0.1418
-3.5011	deny	-0.3759
-3.5389	denying	-0.4429
-3.9782	department	-0.4429
-4.2792	departments	-0.1418
-4.5803	departs	-0.1418
-3.4663	depend	-0.3414
-4.5803	depended	-0.1418
-4.5803	dependence	-0.1418
-4.1031	dependent	-0.2387
-4.5803	depending	-0.1418
-3.4663	depends	-0.5610
-4.5803	derive	-0.1418
-3.9782	derived	-0.2668
-3.9782	describe	-0.2668
-4.2792	described	-0.1418
-4.5803	described?	-0.1418
-4.5803	describes	-0.1418
-4.5803	describing	-0.1418
-3.8021	description	-0.2510
-4.5803	description--things	-0.1418
-4.5803	description_;	-0.1418
-4.2792	deserve	-0.1418
-4.2792	deserves	-0.1418
-3.9782	designed	-0.4429
-3.9782	desirable	-0.2088
-3.5389	desire	-0.2668
-4.5803	desire;	-0.1418
-3.5803	desires	-0.2668
-4.5803	desperately	-0.1418
-4.5803	despitefully	-0.1418
-4.2792	destroyed	-0.1418
-4.5803	destroyed;	-0.1418
-4.5803	detailed	-0.1418
-4.5803	details	-0.1418
-4.5803	detain	-0.1418
-4.5803	detect	-0.1418
-4.2792	determine	-0.3179
-4.5803	developed	-0.1418
-4.5803	devoutly	-0.1418
-4.5803	diamonds	-0.1418
-4.5803	diaphanous	-0.1418
-4.5803	dictate	-0.1418
-4.5803	dictum	-0.1418
-3.0617	did	-0.4830
-4.1031	didn't	-0.1418
-4.5803	died	-0.1418
-3.3250	differ	-0.7254
-4.5803	differ?	-0.1418
-3.1653	difference	-0.5553
-4.2792	difference;	-0.1418
-4.5803	differences	-0.1418
-2.7290	different	-0.4506
-4.2792	different'	-0.3179
-4.5803	different--that	-0.1418
-3.8021	differing	-0.5098
-3.6260	differs	-0.6647
-3.5389	difficult	-0.4728
-3.8813	difficulties	-0.3179
-4.5803	difficulties;	-0.1418
-3.4341	difficulty	-0.4886
-4.5803	difficulty--the	-0.1418
-4.5803	digression	-0.1418
-4.5803	dilemma	-0.1418
-4.5803	dimensions	-0.1418
-4.2792	diminishing	-0.4429
-4.5803	diminution	-0.1418
-3.6772	direct	-0.4776
-4.5803	direction	-0.1418
-4.5803	direction--in	-0.1418
-4.5803	directions	-0.1418
-3.0121	directly	-0.5617
-4.2792	disadvantage	-0.4429
-4.5803	disadvantageous	-0.1418
-4.5803	disagreed	-0.1418
-4.5803	disagreement	-0.1418
-4.5803	disagreements	-0.1418
-4.2792	disapproval	-0.4429
-4.1031	disc	-0.2088
-4.2792	discarded	-0.1418
-4.5803	discord	-0.1418
-4.5803	discount	-0.1418
-4.2792	discover	-0.1418
-4.5803	discover)	-0.1418
-4.1031	discovered	-0.1418
-4.5803	discovering	-0.1418
-4.5803	discredit	-0.1418
-4.5803	discreditable	-0.1418
-3.9782	discuss	-0.2144
-4.5803	discuss;	-0.1418
-3.9782	discussed	-0.2668
-4.5803	discussed--such	-0.1418
-3.8813	discussing	-0.2210
-3.6772	discussion	-0.2967
-4.5803	disobey	-0.1418
-4.1031	disproof	-0.1418
-4.2792	disprove	-0.2088
-4.5803	disproving	-0.1418
-4.5803	disputable	-0.1418
-3.8813	dispute	-0.2387
-4.5803	dispute:	-0.1418
-4.1031	disputed	-0.2210
-4.5803	disputed)	-0.1418
-4.5803	disputes	-0.1418
-4.5803	disputing	-0.1418
-4.5803	dissected	-0.1418
-3.8021	distance	-0.3971
-4.5803	distances	-0.1418
-4.5803	distant	-0.1418
-3.4663	distinct	-0.2599
-3.4663	distinction	-0.5098
-4.2792	distinctly	-0.1418
-3.5803	distinguish	-0.3093
-3.6260	distinguished	-0.3381
-4.5803	distinguished;	-0.1418
-3.8813	distinguishes	-0.2387
-3.9782	distinguishing	-0.1418
-4.5803	divide	-0.1418
-4.5803	divided	-0.1418
-4.2792	divides	-0.1418
-4.5803	divinity	-0.1418
-3.8813	division	-0.1418
-4.5803	division:	-0.1418
-2.5389	do	-0.5815
-3.8813	do)	-0.2387
-4.5803	do:	-0.1418
-4.5803	do;	-0.1418
-4.5803	do?	-0.1418
-4.5803	do]	-0.1418
-4.5803	doctor	-0.1418
-3.5011	doctrine	-0.3066
-4.2792	doctrines	-0.1418
-2.5803	does	-0.6266
-4.5803	does--are	-0.1418
-4.5803	does;	-0.1418
-3.9782	dogma	-0.2880
-4.5803	dogmatically	-0.1418
-4.5803	dogmatize	-0.1418
-3.5389	doing	-0.2668
-4.5803	doll	-0.1418
-3.7352	don't	-0.2040
-3.6772	done	-0.2387
-4.5803	done;	-0.1418
-4.5803	done?	-0.1418
-4.5803	door	-0.1418
-4.5803	dots	-0.1418
-3.3498	doubt	-0.4429
-4.2792	doubted	-0.2668
-4.5803	doubted)	-0.1418
-3.5389	doubtful	-0.5678
-4.5803	doubtful)	-0.1418
-4.5803	doubtful--in	-0.1418
-4.5803	doubtful;	-0.1418
-4.5803	doubting	-0.1418
-4.2792	doubts	-0.1418
-3.9782	down	-0.1418
-4.5803	down-right	-0.1418
-4.2792	draw	-0.2668
-4.5803	drawing	-0.1418
-4.1031	drawn	-0.1418
-4.5803	dreams	-0.1418
-4.1031	drop	-0.2668
-4.5803	dubious	-0.1418
-4.1031	due	-0.6189
-3.9782	during	-0.1418
-4.5803	duties	-0.1418
-3.4341	duty	-0.4027
-4.5803	duty--"rules	-0.1418
-4.5803	duty--the	-0.1418
-4.5803	duty;	-0.1418
-4.1031	dwell	-0.2387
-4.5803	dwelt	-0.1418
-3.2001	each	-0.3929
-3.8021	earlier	-0.1766
-4.5803	ears	-0.1418
-4.5803	earth	-0.1418
-3.5803	easily	-0.1998
-3.5011	easy	-0.4728
-4.5803	edn	-0.1418
-3.9782	effect	-0.1418
-4.1031	effects	-0.1418
-4.5803	effects:	-0.1418
-4.5803	effort	-0.1418
-3.6772	egg	-0.2931
-4.5803	egg;	-0.1418
-3.8813	eggs	-0.2880
-4.5803	eggs"	-0.1418
-4.5803	eggs;	-0.1418
-4.5803	eighth	-0.1418
-2.8727	either	-0.4539
-4.2792	elaborate	-0.1418
-3.5803	element	-0.2466
-4.1031	elements	-0.4429
-4.5803	elephant	-0.1418
-4.5803	ellipse	-0.1418
-3.7352	elliptical	-0.2880
-4.5803	elliptical;	-0.1418
-3.4042	else	-0.3759
-4.2792	else's	-0.1418
-4.5803	else--something	-0.1418
-4.5803	else--that	-0.1418
-4.1031	else;	-0.2668
-4.5803	else?	-0.1418
-4.5803	else_	-0.1418
-4.5803	else_--either_	-0.1418
-3.9782	elsewhere	-0.3637
-4.5803	embedded	-0.1418
-4.5803	embody	-0.1418
-3.9782	eminently	-0.2668
-4.2792	emotion	-0.1418
-4.5803	emotions	-0.1418
-4.5803	emphasising	-0.1418
-4.5803	emphatic	-0.1418
-3.7352	emphatically	-0.4940
-3.7352	empirical	-0.2387
-4.2792	employed	-0.1418
-4.5803	employment	-0.1418
-4.5803	emptiness	-0.1418
-4.2792	enable	-0.3179
-4.1031	enables	-0.2668
-4.5803	encamped	-0.1418
-4.1031	end	-0.3179
-4.5803	endowments	-0.1418
-4.5803	ends	-0.1418
-3.9782	enemies	-0.2210
-4.5803	enemy	-0.1418
-3.9782	engaged	-0.4429
-4.5803	enjoined	-0.1418
-3.8021	enormous	-0.5098
-4.5803	enormous?	-0.1418
-3.5803	enough	-0.3637
-4.5803	enough;	-0.1418
-4.2792	enquire	-0.1418
-4.1031	enquiry	-0.3179
-4.5803	enquiry:	-0.1418
-4.2792	entail	-0.1418
-3.2185	entails	-0.2525
-4.5803	enter	-0.1418
-4.5803	enter:	-0.1418
-4.5803	enters	-0.1418
-4.1031	entertain	-0.1418
-4.5803	entertained	-0.1418
-3.5389	entirely	-0.2558
-3.6772	entities	-0.4429
-3.9782	entitle	-0.7439
-4.5803	entitled	-0.1418
-4.5803	entitles	-0.1418
-3.5803	entity	-0.4180
-4.5803	enumerate	-0.1418
-3.8021	equal	-0.1418
-3.3250	equally	-0.2483
-4.5803	equally--is	-0.1418
-4.5803	equivalence	-0.1418
-3.3498	equivalent	-0.7439
-4.1031	equivalents	-0.3179
-4.2792	erecting	-0.1418
-4.5803	erroneous	-0.1418
-3.6772	error	-0.1930
-4.2792	error:	-0.1418
-4.5803	escape	-0.1418
-4.5803	escaped	-0.1418
-4.1031	especially	-0.1418
-4.2792	essence	-0.1418
-3.6260	essential	-0.3971
-4.5803	essential_	-0.1418
-4.1031	essentially	-0.1418
-4.5803	establish	-0.1418
-4.2792	established	-0.1418
-4.5803	estimate	-0.1418
-4.5803	estimating	-0.1418
-3.9782	etc	-0.3971
-4.5803	etc;	-0.1418
-4.1031	eternal	-0.1418
-4.5803	ethers	-0.1418
-4.1031	ethical	-0.1418
-4.2792	ethics	-0.1418
-4.5803	etymologies	-0.1418
-4.2792	etymology	-0.1418
-4.5803	evaded	-0.1418
-2.9570	even	-0.3888
-4.5803	even:	-0.1418
-3.5803	event	-0.3015
-3.4663	events	-0.3501
-4.5803	events--ideas	-0.1418
-2.8560	ever	-0.3317
-4.5803	everlastingly	-0.1418
-3.2378	every	-0.3665
-3.6260	everybody	-0.3381
-4.5803	everybody;	-0.1418
-4.5803	everyday	-0.1418
-3.9782	everyone	-0.2880
-3.7352	everything	-0.5098
-3.5011	evidence	-0.3066
-3.6772	evident	-0.3637
-3.9782	evidently	-0.2210
-4.5803	evidently_	-0.1418
-4.2792	evil	-0.1418
-4.5803	evils	-0.1418
-4.2792	evolution	-0.1418
-4.2792	evolutionary	-0.4429
-3.8813	exact	-0.2387
-3.0005	exactly	-0.6900
-4.5803	exaggerate	-0.1418
-4.5803	exaggerated	-0.1418
-4.5803	exalted	-0.1418
-4.5803	examine	-0.1418
-3.8021	example	-0.4429
-4.5803	example--the	-0.1418
-4.5803	example--to	-0.1418
-4.2792	examples	-0.1418
-3.8813	exceedingly	-0.3637
-3.6772	excellence	-0.2967
-4.5803	excellence--he	-0.1418
-4.5803	excellence--the	-0.1418
-4.2792	excellence;	-0.4429
-4.2792	excellences	-0.1418
-3.8021	excellent	-0.1998
-3.4042	except	-0.3637
-4.2792	exception	-0.2668
-4.5803	exception:	-0.1418
-4.5803	exception;	-0.1418
-4.2792	exceptions	-0.1418
-4.2792	excessively	-0.1418
-3.7352	excite	-0.2387
-4.1031	excites	-0.1418
-4.2792	exciting	-0.1418
-4.2792	exclude	-0.1418
-4.5803	excluded	-0.1418
-3.9782	excludes	-0.1418
-4.1031	exclusively	-0.3179
-4.5803	excusable	-0.1418
-3.8813	excuse	-0.2387
-4.5803	excuse:	-0.1418
-4.2792	exercise	-0.1418
-4.5803	exercise_	-0.1418
-4.2792	exhibit	-0.1418
-4.5803	exhibit--Time	-0.1418
-4.5803	exhibit--or	-0.1418
-4.5803	exhibit_	-0.1418
-4.1031	exhibits	-0.1930
-4.5803	exhibits"	-0.1418
-4.5803	exhibits_";	-0.1418
-4.5803	exhibits_--change	-0.1418
-2.8244	exist	-0.6500
-4.5803	exist"	-0.1418
-4.5803	exist":	-0.1418
-4.1031	exist)	-0.1418
-4.5803	exist--unless	-0.1418
-4.1031	exist:	-0.1418
-3.8021	exist;	-0.1998
-3.8813	exist?	-0.2088
-4.1031	exist?"	-0.1418
-4.5803	exist_	-0.1418
-3.1653	existed	-0.5258
-4.5803	existed;	-0.1418
-4.5803	existed?	-0.1418
-4.5803	existed?"	-0.1418
-3.3015	existence	-0.4429
-4.5803	existence?"	-0.1418
-4.2792	existing	-0.1418
-2.9570	exists	-0.6189
-3.8813	exists"	-0.2088
-4.5803	exists"--in	-0.1418
-4.5803	exists";	-0.1418
-4.5803	exists'	-0.1418
-3.9782	exists;	-0.4429
-4.1031	exists?	-0.1418
-3.9782	expect	-0.1418
-4.1031	expectations	-0.3179
-3.6772	expedient	-0.2387
-4.5803	expedient:	-0.1418
-4.5803	expedient?	-0.1418
-4.5803	expediently	-0.1418
-2.9468	experience	-0.5932
-4.2792	experience"	-0.1418
-4.5803	experience";	-0.1418
-4.5803	experience--from	-0.1418
-4.5803	experience--the	-0.1418
-4.2792	experience:	-0.1418
-4.2792	experience;	-0.1418
-3.9782	experience?	-0.1418
-4.2792	experience_	-0.1418
-3.2378	experienced	-0.5237
-4.5803	experienced"	-0.1418
-4.5803	experienced'	-0.1418
-4.1031	experienced;	-0.2668
-4.1031	experienced_	-0.1418
-3.2792	experiences	-0.4271
-4.5803	experiences--the	-0.1418
-3.9782	experiencing	-0.1418
-4.5803	experient	-0.1418
-3.8021	explain	-0.2668
-3.5011	explained	-0.3792
-4.5803	explained)	-0.1418
-4.2792	explaining	-0.1418
-4.5803	explains	-0.1418
-3.3761	explanation	-0.6647
-4.5803	explanation?	-0.1418
-4.5803	explanations	-0.1418
-4.5803	explicit	-0.1418
-4.2792	explicitly	-0.1418
-4.1031	exposed	-0.3179
-3.1823	express	-0.4776
-4.5803	express--namely	-0.1418
-3.3015	expressed	-0.5812
-3.8021	expresses	-0.1998
-3.7352	expressing	-0.2261
-3.5803	expression	-0.2510
-4.5803	expression:	-0.1418
-3.5803	expressions	-0.2088
-4.5803	expressions:	-0.1418
-3.5803	expressly	-0.1418
-4.5803	extend	-0.1418
-4.5803	extended	-0.1418
-3.6772	extent	-0.2387
-4.5803	extent;	-0.1418
-4.5803	extent_	-0.1418
-3.1653	external	-0.4531
-4.5803	external";	-0.1418
-4.5803	extinguish	-0.1418
-4.5803	extraordinary	-0.1418
-3.9782	extreme	-0.1418
-3.5389	extremely	-0.3309
-4.5803	eye	-0.1418
-4.2792	eyes	-0.2668
-4.5803	eyes;	-0.1418
-3.8813	face	-0.2210
-4.2792	faced	-0.4429
-2.9675	fact	-0.4396
-4.2792	fact"	-0.2668
-4.2792	fact)	-0.1418
-4.5803	fact--the	-0.1418
-4.5803	fact:	-0.1418
-4.5803	fact:_	-0.1418
-4.5803	fact]	-0.1418
-3.9782	fact_	-0.2210
-4.5803	fact_"_	-0.1418
-3.0240	facts	-0.4295
-4.5803	facts"	-0.1418
-4.5803	facts--facts	-0.1418
-4.5803	facts--supposing	-0.1418
-4.5803	facts--the	-0.1418
-4.2792	facts:	-0.3179
-4.2792	facts;	-0.1418
-4.5803	facts?	-0.1418
-4.1031	faculties	-0.3179
-3.8021	fail	-0.6189
-4.1031	failed	-0.6189
-4.1031	fails	-0.3179
-4.5803	fails;	-0.1418
-4.5803	failure	-0.1418
-4.5803	fair	-0.1418
-4.1031	fairly	-0.1418
-3.9782	fall	-0.4429
-4.5803	fall:	-0.1418
-4.2792	fallacious	-0.4429
-4.1031	fallacy	-0.1418
-4.5803	fallacy;	-0.1418
-4.5803	fallible	-0.1418
-4.5803	falls?	-0.1418
-3.1031	false	-0.4958
-4.5803	false"	-0.1418
-4.5803	false"--is	-0.1418
-4.5803	false";	-0.1418
-4.5803	false--whether	-0.1418
-4.2792	false:	-0.1418
-3.6772	false;	-0.3527
-4.1031	false?	-0.1418
-4.1031	falsehood	-0.1418
-4.5803	falsehood--the	-0.1418
-4.1031	falsely	-0.1418
-4.5803	falsely)	-0.1418
-4.5803	falsity	-0.1418
-3.5803	familiar	-0.3309
-4.5803	familiar;	-0.1418
-4.5803	famous	-0.1418
-3.3761	far	-0.4299
-4.5803	farther	-0.1418
-4.2792	fashion	-0.1418
-4.5803	fashionable	-0.1418
-4.1031	fast	-0.1418
-3.9782	fatal	-0.2668
-3.5389	father	-0.6189
-4.5803	father's	-0.1418
-4.2792	fatherhood	-0.2668
-4.5803	fatherhood;	-0.1418
-4.5803	fault--they	-0.1418
-4.2792	faults	-0.1418
-3.8813	favour	-0.2668
-4.2792	favoured	-0.1418
-4.5803	fear	-0.1418
-3.4042	feel	-0.3544
-3.2185	feeling	-0.5469
-4.5803	feeling--the	-0.1418
-3.2580	feelings	-0.5272
-4.5803	feelings--and	-0.1418
-4.5803	feelings--or	-0.1418
-4.5803	feelings:	-0.1418
-4.5803	feelings?	-0.1418
-4.5803	feels	-0.1418
-4.5803	fellow-countrymen	-0.1418
-3.4663	felt	-0.3289
-4.2792	few	-0.1418
-4.5803	few)	-0.1418
-4.5803	fiction	-0.1418
-4.1031	field	-0.2668
-4.5803	field;	-0.1418
-4.5803	fiery	-0.1418
-4.2792	fifth	-0.1418
-4.5803	final	-0.1418
-3.8021	finally	-0.2668
-3.5389	find	-0.3179
-4.5803	finding	-0.1418
-4.2792	finger	-0.1418
-4.5803	finger:	-0.1418
-4.2792	fingers	-0.1418
-4.5803	finite	-0.1418
-3.9782	fire	-0.1418
-4.5803	firmly	-0.1418
-3.1179	first	-0.2937
-4.5803	first--that	-0.1418
-4.5803	first:	-0.1418
-4.5803	fitted	-0.1418
-3.8813	five	-0.3459
-4.5803	fix	-0.1418
-4.2792	fixed	-0.4429
-4.5803	fixity	-0.1418
-4.2792	flame	-0.1418
-4.5803	flames	-0.1418
-4.1031	flatly	-0.3179
-4.5803	flatter	-0.1418
-4.5803	flies	-0.1418
-4.5803	flint	-0.1418
-4.5803	floor	-0.1418
-4.1031	florin	-0.2510
-4.5803	florin:	-0.1418
-4.5803	flow	-0.1418
-4.2792	flower	-0.1418
-4.5803	flower--and	-0.1418
-4.5803	flower:	-0.1418
-3.1489	follow	-0.9780
-3.6260	followed	-0.3179
-4.5803	followers	-0.1418
-4.2792	following	-0.1418
-3.2185	follows	-0.6603
-4.5803	follows--that	-0.1418
-4.5803	follows:	-0.1418
-4.5803	follows:--	-0.1418
-4.5803	follows:--A	-0.1418
-4.5803	follows:--I	-0.1418
-4.5803	follows:--To	-0.1418
-4.5803	follows?	-0.1418
-4.5803	fond	-0.1418
-3.9782	foot	-0.2210
-4.5803	foot--this	-0.1418
-2.3154	for	-0.6920
-4.5803	fora	-0.1418
-4.5803	forbidden	-0.1418
-3.7352	force	-0.4940
-4.5803	forced	-0.1418
-4.5803	forcing	-0.1418
-4.5803	foreigner	-0.1418
-4.5803	foreigners	-0.1418
-4.2792	forget	-0.1418
-3.9782	forgotten	-0.4429
-3.3250	form	-0.4051
-4.2792	form:	-0.1418
-4.5803	form;	-0.1418
-4.1031	formal	-0.2387
-4.5803	formed	-0.1418
-4.1031	former	-0.1699
-4.5803	former:--in	-0.1418
-3.7352	formerly	-0.2088
-4.5803	forming	-0.1418
-3.5389	forms	-0.4843
-4.5803	forms;	-0.1418
-4.1031	forward	-0.1418
-3.9782	found	-0.2144
-3.5803	foundation	-0.4429
-3.6772	founded	-0.7439
-3.6772	four	-0.2210
-4.5803	four'	-0.1418
-4.5803	four;	-0.1418
-4.2792	fourth	-0.1418
-4.5803	free	-0.1418
-4.5803	freely	-0.1418
-4.5803	frequency	-0.1418
-4.5803	frequent	-0.1418
-3.7352	frequently	-0.1998
-4.5803	friends	-0.1418
-2.4799	from	-0.5846
-4.5803	from'	-0.1418
-4.5803	from--A:	-0.1418
-4.5803	from_	-0.1418
-4.5803	front	-0.1418
-4.5803	fulfil	-0.1418
-4.2792	fulfilled	-0.1418
-4.5803	full	-0.1418
-4.5803	full)	-0.1418
-4.5803	full;	-0.1418
-3.6772	fully	-0.2967
-4.5803	function	-0.1418
-3.6260	fundamental	-0.3275
-4.5803	fundamentally	-0.1418
-4.5803	furnish	-0.1418
-3.2378	further	-0.2387
-4.5803	fuss	-0.1418
-3.5389	future	-0.2668
-4.5803	future--about	-0.1418
-4.5803	future;	-0.1418
-4.5803	gain	-0.1418
-4.5803	gained	-0.1418
-4.5803	game	-0.1418
-4.5803	games	-0.1418
-4.5803	gather	-0.1418
-4.2792	gave	-0.1418
-3.5389	general	-0.2165
-4.5803	general_	-0.1418
-3.3250	generalisation	-0.4206
-4.5803	generalisation--for	-0.1418
-4.2792	generalisation:	-0.3179
-4.2792	generalisation;	-0.1418
-4.1031	generalisation?	-0.1418
-3.3761	generalisations	-0.3849
-4.5803	generalisations--for	-0.1418
-3.1823	generally	-0.3744
-4.5803	generations	-0.1418
-4.5803	geography	-0.1418
-3.6772	get	-0.2210
-4.5803	gets	-0.1418
-4.1031	getting	-0.1418
-3.0889	give	-0.6092
-3.2001	given	-0.3364
-4.5803	given-thing	-0.1418
-4.5803	given;	-0.1418
-3.5011	gives	-0.3501
-4.5803	gives)	-0.1418
-3.5389	giving	-0.2880
-4.5803	glad	-0.1418
-4.5803	glance	-0.1418
-4.5803	glance"	-0.1418
-3.8813	glass	-0.2210
-4.5803	glass:	-0.1418
-4.5803	glass;	-0.1418
-3.8021	go	-0.4429
-4.5803	go;	-0.1418
-3.7352	goes	-0.2668
-4.5803	goes)	-0.1418
-4.5803	goes--which	-0.1418
-3.6260	going	-0.5812
-4.2792	gold	-0.1418
-4.5803	gone	-0.1418
-2.9782	good	-0.4233
-4.5803	good"	-0.1418
-4.2792	good;	-0.4429
-3.7352	goodness	-0.2558
-4.5803	goodness:	-0.1418
-4.5803	goods	-0.1418
-3.6260	got	-0.4015
-4.5803	got--a	-0.1418
-4.5803	got--namely	-0.1418
-4.5803	grammatical	-0.1418
-4.5803	grammatically	-0.1418
-4.5803	grand	-0.1418
-4.1031	grant	-0.1418
-4.2792	granted	-0.1418
-4.5803	granted:	-0.1418
-4.5803	grate	-0.1418
-4.2792	grave	-0.1418
-3.3498	great	-0.2908
-3.8813	greater	-0.2387
-4.5803	greatest	-0.1418
-3.8021	green	-0.3337
-4.5803	green--is	-0.1418
-4.5803	green;	-0.1418
-4.5803	greets	-0.1418
-4.5803	grey	-0.1418
-4.5803	griffin	-0.1418
-4.5803	griffin?	-0.1418
-4.1031	gross	-0.1418
-4.5803	grossest	-0.1418
-4.2792	grossly	-0.1418
-3.7352	ground	-0.2510
-4.2792	ground;	-0.1418
-4.5803	ground?	-0.1418
-4.2792	grounded	-0.4429
-3.8813	grounds	-0.4429
-4.5803	grown	-0.1418
-4.5803	guide	-0.1418
-4.2792	guilty	-0.4429
-4.5803	habit	-0.1418
-2.8321	had	-0.4744
-4.5803	had:	-0.1418
-4.5803	had;	-0.1418
-4.5803	had_	-0.1418
-4.5803	hair	-0.1418
-4.5803	hair:	-0.1418
-4.5803	hair;	-0.1418
-3.9782	half	-0.2668
-4.5803	half)	-0.1418
-3.8021	half-crown	-0.2880
-4.5803	half-crown"	-0.1418
-4.5803	half-crown_	-0.1418
-4.1031	hallucinations	-0.1418
-3.5011	hand	-0.3936
-4.5803	hand--as	-0.1418
-4.5803	hand?	-0.1418
-4.5803	handled	-0.1418
-3.9782	hands	-0.2668
-4.5803	hands;	-0.1418
-3.6772	happen	-0.2387
-4.2792	happen?	-0.4429
-3.8813	happened	-0.1418
-4.5803	happened--with	-0.1418
-3.9782	happening	-0.1418
-3.9782	happens	-0.2387
-4.5803	happy	-0.1418
-4.1031	hard	-0.6189
-3.6772	hardly	-0.2801
-4.2792	harm	-0.1418
-4.5803	harmful	-0.1418
-4.5803	harmony	-0.1418
-2.5272	has	-0.5544
-4.5803	has;	-0.1418
-4.2792	hate	-0.1418
-2.4799	have	-0.5915
-4.5803	have;	-0.1418
-4.1031	have_	-0.1418
-3.2580	having	-0.2558
-2.5509	he	-0.5690
-3.8813	head	-0.2088
-4.5803	headed	-0.1418
-4.5803	heads	-0.1418
-4.5803	heads;	-0.1418
-3.8813	hear	-0.2668
-3.7352	heard	-0.3459
-3.8021	hearing	-0.2668
-4.5803	hearing;	-0.1418
-4.1031	hears	-0.3179
-4.5803	heart--as	-0.1418
-4.5803	heat	-0.1418
-4.5803	height	-0.1418
-4.5803	heights	-0.1418
-3.4042	held	-0.4429
-4.5803	hell	-0.1418
-4.5803	hell--is	-0.1418
-3.6772	help	-0.3381
-4.2792	helped	-0.1418
-4.2792	helps	-0.1418
-3.8813	hen	-0.4051
-4.5803	hen:	-0.1418
-4.5803	hen;	-0.1418
-3.9782	hence	-0.3179
-3.6260	hens	-0.2801
-4.5803	hens"	-0.1418
-4.1031	hens'	-0.6189
-3.0889	here	-0.3309
-4.5803	hesitate	-0.1418
-3.6772	higher	-0.2510
-3.7352	highly	-0.3637
-3.1489	him	-0.4319
-4.5803	him;	-0.1418
-4.2792	him?	-0.1418
-3.2001	himself	-0.3281
-4.5803	himself:	-0.1418
-4.5803	himself_	-0.1418
-4.5803	hindering	-0.1418
-2.8901	his	-0.3576
-4.5803	historian	-0.1418
-4.1031	historians	-0.1418
-4.2792	historical	-0.1418
-4.2792	history	-0.1418
-4.5803	history;	-0.1418
-4.5803	hit	-0.1418
-3.7352	hitherto	-0.1718
-3.1031	hold	-0.5073
-4.5803	hold";	-0.1418
-4.5803	hold)	-0.1418
-3.5011	holding	-0.3309
-3.4042	holds	-0.6647
-4.5803	home	-0.1418
-4.5803	honour	-0.1418
-3.6772	hope	-0.3637
-4.5803	hopeless	-0.1418
-4.5803	hosts	-0.1418
-4.5803	hot	-0.1418
-4.5803	hour's	-0.1418
-4.2792	house	-0.1418
-3.1179	how	-0.3226
-4.2792	however	-0.1796
-4.5803	huge	-0.1418
-3.5803	human	-0.3179
-4.5803	humanly	-0.1418
-4.5803	hundred	-0.1418
-4.5803	hunted	-0.1418
-4.5803	hunted";	-0.1418
-4.5803	hunted--that	-0.1418
-4.5803	hunting	-0.1418
-4.1031	hypotheses	-0.3179
-4.2792	hypothesi	-0.4429
-3.6772	hypothesis	-0.2668
-4.5803	hypothesis--they	-0.1418
-4.5803	hypothesis;	-0.1418
-4.5803	hypothesis?	-0.1418
-4.5803	hypothesis_	-0.1418
-4.5803	hypothetical	-0.1418
-3.0240	idea	-0.6478
-4.5803	idea--or	-0.1418
-4.2792	idea?	-0.1418
-4.5803	idea?'	-0.1418
-3.8021	ideal	-0.2880
-4.2792	idealist	-0.1418
-4.5803	idealistic	-0.1418
-2.9570	ideas	-0.5735
-4.5803	ideas"	-0.1418
-4.5803	ideas";	-0.1418
-4.5803	ideas--cases	-0.1418
-4.5803	ideas--is	-0.1418
-4.5803	ideas--that	-0.1418
-4.5803	ideas--the	-0.1418
-4.5803	ideas:	-0.1418
-3.8813	ideas;	-0.3179
-4.2792	ideas?	-0.1418
-3.3015	identical	-0.7591
-4.1031	identification	-0.2668
-4.5803	identified	-0.1418
-3.7352	identify	-0.3179
-4.2792	identifying	-0.1418
-4.5803	identity	-0.1418
-4.2792	idle	-0.1418
-4.2792	idly	-0.1418
-2.7673	if	-0.6124
-4.2792	if_	-0.1418
-4.5803	ignorance	-0.1418
-4.5803	ignore	-0.1418
-4.5803	ill	-0.1418
-4.2792	illegitimate	-0.1418
-4.5803	illegitimate;	-0.1418
-4.5803	illusion";	-0.1418
-4.5803	illusory	-0.1418
-4.5803	illustrate	-0.1418
-4.1031	illustrated	-0.3179
-3.8021	illustration	-0.2210
-3.6772	image	-0.3527
-4.5803	image--of	-0.1418
-4.5803	image;	-0.1418
-3.8813	images	-0.2210
-4.2792	imaginary	-0.1418
-4.5803	imagination	-0.1418
-3.7352	imagine	-0.2668
-4.5803	imagined	-0.1418
-4.5803	imagining	-0.1418
-3.8021	immediately	-0.2510
-4.2792	immediately;	-0.1418
-4.2792	immense	-0.4429
-3.8813	immensely	-0.1418
-4.2792	immoral	-0.1418
-4.5803	immortal	-0.1418
-4.1031	immutable	-0.3179
-4.5803	immutable--in	-0.1418
-4.2792	impartial	-0.4429
-4.5803	impartiality	-0.1418
-3.8813	implication	-0.2880
-4.2792	implication"	-0.1418
-4.5803	implication)	-0.1418
-4.5803	implications	-0.1418
-4.5803	implicitly	-0.1418
-3.6260	implied	-0.3759
-3.3015	implies	-0.3946
-3.2580	imply	-0.5455
-4.5803	imply"	-0.1418
-4.5803	imply;	-0.1418
-4.5803	imply_	-0.1418
-3.9782	implying	-0.3637
-3.6772	importance	-0.3179
-3.2378	important	-0.3420
-4.1031	impossibility	-0.6189
-3.6260	impossible	-0.4728
-4.5803	impossible--that	-0.1418
-4.5803	impression	-0.1418
-4.5803	improbable	-0.1418
-4.5803	improperly	-0.1418
-4.5803	improve	-0.1418
-3.6772	improvement	-0.3459
-4.5803	improvement:	-0.1418
-1.8431	in	-0.8286
-4.2792	in_	-0.1418
-4.5803	inadequacy	-0.1418
-4.5803	inanimate:	-0.1418
-3.8813	incapable	-0.6189
-4.2792	incidentally	-0.1418
-4.5803	incidentally);	-0.1418
-4.5803	incidents	-0.1418
-4.5803	incline	-0.1418
-3.8021	inclined	-0.6859
-3.8813	include	-0.1418
-3.8021	included	-0.2088
-3.6260	includes	-0.3015
-4.5803	inclusive	-0.1418
-3.4663	incompatible	-0.3849
-4.5803	incomplete	-0.1418
-4.5803	inconceivability	-0.1418
-4.2792	inconceivable	-0.2668
-4.2792	inconclusive	-0.4429
-3.9782	inconsistency	-0.4429
-4.5803	inconsistency;	-0.1418
-4.5803	inconsistency?	-0.1418
-3.6772	inconsistent	-0.5812
-4.5803	incontrovertibly	-0.1418
-4.5803	incorrect;	-0.1418
-4.5803	incorrectly	-0.1418
-4.5803	increase	-0.1418
-4.5803	incredible	-0.1418
-4.5803	inculcate	-0.1418
-3.5389	indeed	-0.3337
-4.5803	indeed;	-0.1418
-4.5803	indeed_	-0.1418
-4.5803	indefensible	-0.1418
-4.5803	indefinitely	-0.1418
-3.9782	independent	-0.2668
-4.1031	independently	-0.3179
-4.5803	index	-0.1418
-4.5803	india-rubber	-0.1418
-4.2792	indicate	-0.1418
-3.7352	indignation	-0.3637
-4.5803	indirectly)	-0.1418
-4.2792	indisputable	-0.4429
-4.1031	indisputably	-0.1418
-4.5803	indistinguishable	-0.1418
-3.8813	individual	-0.2210
-4.5803	individual's	-0.1418
-4.5803	individuals	-0.1418
-4.5803	indoors	-0.1418
-4.5803	indubitable	-0.1418
-4.2792	indubitably	-0.1418
-4.5803	induced	-0.1418
-4.2792	induces	-0.1418
-4.5803	induction	-0.1418
-4.5803	inductions	-0.1418
-4.5803	inevitably	-0.1418
-4.5803	inexcusable	-0.1418
-4.5803	infallible	-0.1418
-4.5803	infected	-0.1418
-3.9782	infer	-0.3179
-3.6260	inference	-0.3179
-4.5803	inference?	-0.1418
-4.2792	inferences	-0.1418
-3.7352	inferred	-0.1876
-4.1031	inferring	-0.1418
-4.5803	infers	-0.1418
-4.2792	influenced	-0.4429
-3.9782	information	-0.1418
-4.2792	informed	-0.4429
-4.5803	ingenious	-0.1418
-4.5803	initial	-0.1418
-4.5803	ink	-0.1418
-3.5803	inkstand	-0.4796
-4.2792	inkstand"	-0.1418
-4.5803	inkstand":	-0.1418
-4.5803	inkstand--a	-0.1418
-4.5803	inkstand--that	-0.1418
-4.5803	inkstand:	-0.1418
-4.2792	inkstand;	-0.3179
-4.2792	inkstand?	-0.1418
-3.8813	inkstands	-0.4429
-4.2792	inner	-0.1418
-4.5803	inquire	-0.1418
-3.8813	inseparable	-0.3849
-4.5803	inserted	-0.1418
-4.5803	inserted;	-0.1418
-4.1031	inside	-0.3179
-4.5803	insignificant	-0.1418
-3.8813	insist	-0.3179
-3.9782	insisted	-0.4429
-4.2792	insistence	-0.3179
-4.5803	insisting	-0.1418
-4.5803	insists	-0.1418
-4.2792	inspection	-0.4429
-3.4663	instance	-0.4903
-3.4341	instances	-0.4206
-3.7352	instead	-0.7439
-4.5803	instinctive	-0.1418
-4.5803	insufficient	-0.1418
-4.5803	insuperable	-0.1418
-4.5803	insure	-0.1418
-4.1031	intellectual	-0.2668
-4.5803	intelligent;	-0.1418
-3.9782	intelligible	-0.2668
-4.2792	intend	-0.3179
-3.8021	intended	-0.3179
-4.5803	intending	-0.1418
-4.2792	intends	-0.4429
-4.5803	intense	-0.1418
-4.1031	intensely	-0.6189
-4.5803	intention	-0.1418
-4.5803	intentions	-0.1418
-3.6260	interest	-0.2387
-4.2792	interested	-0.1418
-3.6260	interesting	-0.2290
-3.9782	interests	-0.2387
-4.2792	intermediate	-0.1418
-3.5803	internal	-0.4129
-4.5803	internal:	-0.1418
-4.5803	internal;	-0.1418
-4.1031	interpret	-0.1418
-3.4663	interpretation	-0.3971
-4.2792	interpretations	-0.1418
-4.1031	interpreted	-0.1418
-4.5803	interpreted_--in	-0.1418
-4.2792	interval	-0.4429
-4.5803	interval;	-0.1418
-4.5803	intimate	-0.1418
-3.1823	into	-0.4903
-4.5803	intricacies	-0.1418
-4.5803	intricate	-0.1418
-3.0889	intrinsic	-0.5594
-4.5803	intrinsical"	-0.1418
-3.8021	intrinsically	-0.2880
-4.5803	introduce	-0.1418
-4.2792	introduced	-0.1418
-4.5803	introduces	-0.1418
-4.5803	introspect	-0.1418
-4.1031	introspection	-0.1418
-4.5803	invalidate	-0.1418
-4.2792	invalidly)	-0.1418
-4.5803	investigate	-0.1418
-4.2792	investigates	-0.1418
-4.5803	investigating	-0.1418
-4.5803	investigation	-0.1418
-4.2792	invisible	-0.1418
-3.8813	involve	-0.3637
-4.5803	involve:	-0.1418
-4.5803	involve?	-0.1418
-3.6260	involved	-0.6537
-3.6260	involves	-0.2210
-4.5803	involving	-0.1418
-4.5803	irrational	-0.1418
-3.7352	irrelevant	-0.2088
-4.5803	irrelevant?	-0.1418
-1.8560	is	-0.6792
-4.5803	is)	-0.1418
-4.5803	is--"connected	-0.1418
-4.5803	is--a	-0.1418
-3.5011	is:	-0.1930
-4.1031	is;	-0.1418
-4.5803	is?	-0.1418
-4.5803	is_	-0.1418
-4.5803	is_--he	-0.1418
-4.5803	isn't	-0.1418
-4.1031	issue	-0.2880
-4.5803	issue;	-0.1418
-2.0437	it	-0.7823
-4.5803	it"	-0.1418
-4.1031	it";	-0.1418
-4.2792	it)	-0.1418
-4.5803	it--a	-0.1418
-4.5803	it--no	-0.1418
-4.5803	it--objections	-0.1418
-4.5803	it--than	-0.1418
-4.2792	it--that	-0.1418
-4.1031	it--the	-0.2668
-4.5803	it--vaguely	-0.1418
-4.5803	it--which	-0.1418
-3.5389	it:	-0.3179
-3.2792	it;	-0.5855
-4.1031	it?	-0.3179
-4.2792	it?"	-0.1418
-4.5803	it_--not_	-0.1418
-2.8990	its	-0.3610
-3.0889	itself	-0.4171
-4.5803	itself--what	-0.1418
-4.5803	itself:_	-0.1418
-4.5803	itself;	-0.1418
-4.2792	itself_	-0.1418
-4.5803	itself_--the	-0.1418
-4.5803	itself_;	-0.1418
-4.5803	joint	-0.1418
-3.5389	judge	-0.4313
-4.5803	judge:	-0.1418
-4.1031	judged	-0.1418
-4.2792	judges	-0.1418
-3.4341	judging	-0.6189
-4.5803	judging:	-0.1418
-4.5803	judging;	-0.1418
-3.5011	judgment	-0.4122
-4.1031	judgment;	-0.3179
-4.2792	judgment?	-0.4429
-3.3015	judgments	-0.4972
-4.5803	judgments:	-0.1418
-2.9570	just	-0.6314
-4.5803	justice	-0.1418
-4.5803	justifiable	-0.1418
-4.1031	justification	-0.6189
-3.7352	justified	-0.4429
-4.2792	justifies	-0.1418
-3.6772	justify	-0.4429
-4.5803	justly	-0.1418
-4.1031	keep	-0.1418
-2.9468	kind	-0.6906
-4.5803	kind--a	-0.1418
-4.5803	kind--judgments	-0.1418
-4.2792	kind--those	-0.1418
-4.5803	kind:	-0.1418
-4.5803	kind;	-0.1418
-4.5803	kind_	-0.1418
-3.1823	kinds	-0.7950
-4.5803	kinds--no	-0.1418
-4.2792	kinds;	-0.1418
-4.5803	king	-0.1418
-4.5803	knew	-0.1418
-4.5803	knew;	-0.1418
-4.5803	knew_	-0.1418
-2.9782	know	-0.5941
-4.2792	know;	-0.4429
-4.2792	know?	-0.1418
-4.5803	know_	-0.1418
-3.8021	knowing	-0.3179
-3.4341	knowledge	-0.4180
-4.5803	knowledge:	-0.1418
-3.5803	known	-0.4776
-4.5803	known;	-0.1418
-3.9782	knows	-0.1418
-4.5803	laborious	-0.1418
-4.1031	laid	-0.3179
-3.4663	language	-0.3414
-3.8021	large	-0.3849
-4.5803	large_	-0.1418
-3.8813	largely	-0.2387
-3.7352	larger	-0.2880
-3.4663	last	-0.2538
-4.5803	last;	-0.1418
-4.5803	lastly	-0.1418
-4.5803	lasts	-0.1418
-4.5803	latent	-0.1418
-3.8813	later	-0.1930
-3.9782	latter	-0.1813
-3.9782	law	-0.1418
-4.5803	law:	-0.1418
-4.1031	laws	-0.1418
-3.8813	lay	-0.4429
-4.1031	laying	-0.1418
-3.5803	lead	-0.8408
-4.5803	leading	-0.1418
-4.2792	leads	-0.1418
-4.2792	learn	-0.1418
-4.5803	learnt	-0.1418
-3.9782	least	-0.1986
-4.5803	least)	-0.1418
-4.5803	least_	-0.1418
-3.8813	leave	-0.2880
-4.5803	lecture	-0.1418
-4.1031	led	-0.4429
-3.8021	left	-0.2880
-4.2792	legal	-0.1418
-4.1031	legitimate	-0.2387
-3.8813	length	-0.2387
-3.5011	less	-0.2240
-4.5803	lest	-0.1418
-3.7352	let	-0.3179
-4.1031	letter	-0.1418
-4.2792	letters	-0.4429
-4.5803	level	-0.1418
-4.1031	liable	-0.6189
-4.2792	lie	-0.2668
-4.5803	lie"	-0.1418
-3.8813	lies	-0.5398
-3.5803	life	-0.3179
-4.5803	life--with	-0.1418
-4.5803	lifeless	-0.1418
-4.5803	lifetime	-0.1418
-4.2792	light	-0.1418
-3.1031	like	-0.3932
-4.5803	like"	-0.1418
-4.2792	like_	-0.1418
-3.7352	likely	-0.1930
-4.2792	likeness	-0.1418
-4.1031	limit	-0.1418
-3.6772	limited	-0.1930
-4.2792	limits	-0.4429
-4.2792	line	-0.1418
-4.5803	lines	-0.1418
-4.2792	lion	-0.1418
-4.5803	lion"	-0.1418
-4.5803	lion"--that	-0.1418
-4.5803	lion";	-0.1418
-4.1031	lions	-0.1418
-4.5803	lions--at	-0.1418
-4.5803	list)	-0.1418
-3.6260	little	-0.1418
-4.5803	lived	-0.1418
-3.8021	lives	-0.1998
-4.2792	lives"	-0.4429
-4.2792	living	-0.1418
-4.2792	logical	-0.1418
-3.8813	logically	-0.5098
-4.1031	logicians	-0.1418
-3.5011	long	-0.2538
-4.1031	longer	-0.1418
-3.8021	look	-0.3015
-3.8813	looking	-0.4429
-4.2792	looking-glass	-0.1418
-4.1031	looks	-0.1418
-4.2792	loose	-0.1418
-4.2792	loosely	-0.1418
-4.5803	loud	-0.1418
-4.2792	love	-0.1418
-4.1031	lower	-0.1418
-4.5803	lowest	-0.1418
-4.5803	luminous	-0.1418
-4.2792	lying	-0.1418
-3.2378	made	-0.3593
-4.5803	made--the	-0.1418
-4.5803	made;	-0.1418
-4.5803	magnitude	-0.1418
-3.6260	main	-0.2445
-3.9782	mainly	-0.1418
-3.5011	maintain	-0.4281
-3.8813	maintained	-0.3849
-4.5803	maintained)	-0.1418
-3.7352	maintaining	-0.4051
-4.1031	maintains	-0.3179
-4.1031	majority	-0.3179
-4.5803	majority)	-0.1418
-3.1179	make	-0.4903
-3.6772	makes	-0.2931
-4.5803	makes)	-0.1418
-4.5803	makes--some	-0.1418
-3.4042	making	-0.3878
-4.5803	making;	-0.1418
-4.5803	making?	-0.1418
-4.5803	mammal"	-0.1418
-4.5803	mammalian	-0.1418
-4.5803	mammalian"	-0.1418
-3.2185	man	-0.3983
-3.7352	man's	-0.2290
-4.5803	man--even	-0.1418
-4.5803	man--which	-0.1418
-4.2792	man-made	-0.1418
-4.5803	man-made--indeed	-0.1418
-4.5803	man-made?	-0.1418
-4.5803	man?	-0.1418
-4.5803	manifestation	-0.1418
-4.2792	mankind	-0.2210
-3.9782	manner	-0.1418
-4.5803	manners	-0.1418
-4.5803	manufacture	-0.1418
-2.9892	many	-0.4571
-4.5803	many--I	-0.1418
-3.9782	mark	-0.2668
-3.9782	marks	-0.3179
-4.5803	mass	-0.1418
-4.5803	massacre	-0.1418
-3.2378	material	-0.5961
-4.5803	materialists	-0.1418
-4.5803	materially	-0.1418
-3.4042	matter	-0.3896
-3.4341	matters	-0.7159
-2.4532	may	-0.6012
-4.5803	may)	-0.1418
-3.0751	me	-0.3994
-4.5803	me)	-0.1418
-4.5803	me--an	-0.1418
-4.5803	me;	-0.1418
-2.9175	mean	-0.6218
-4.5803	mean--connected	-0.1418
-4.5803	mean--just	-0.1418
-4.5803	mean--propositions	-0.1418
-3.9782	mean:	-0.4429
-3.9782	mean;	-0.2668
-3.8813	mean?	-0.1418
-3.0617	meaning	-0.6116
-4.5803	meaning:	-0.1418
-3.6260	meanings	-0.4051
-2.8901	means	-0.5070
-4.5803	means)	-0.1418
-4.5803	means?	-0.1418
-3.0121	meant	-0.6077
-4.5803	meant:	-0.1418
-4.2792	meant;	-0.3179
-4.2792	meant?	-0.1418
-4.5803	meantime	-0.1418
-4.5803	meantime;	-0.1418
-4.5803	mechanical;	-0.1418
-4.5803	mediate	-0.1418
-4.5803	mediated	-0.1418
-4.2792	mediates	-0.4429
-4.5803	mediating	-0.1418
-4.5803	medium	-0.1418
-4.5803	medium;	-0.1418
-4.1031	meet	-0.1418
-4.5803	meeting	-0.1418
-4.5803	meets	-0.1418
-4.5803	melancholy	-0.1418
-4.5803	melt	-0.1418
-4.5803	melted	-0.1418
-3.8021	memory	-0.3179
-4.5803	memory;	-0.1418
-3.2001	men	-0.3759
-4.5803	men's	-0.1418
-4.5803	men--are	-0.1418
-4.5803	men--that	-0.1418
-4.5803	men;	-0.1418
-4.5803	men?	-0.1418
-3.1823	mental	-0.3849
-4.5803	mental;	-0.1418
-4.1031	mention	-0.2387
-3.9782	mentioned	-0.3179
-4.5803	mentioning	-0.1418
-4.1031	mentions	-0.1418
-3.3015	mere	-0.1757
-2.8643	merely	-0.3902
-4.5803	merely:	-0.1418
-4.5803	merest	-0.1418
-4.5803	met	-0.1418
-4.5803	metaphor	-0.1418
-3.9782	metaphorical	-0.3637
-4.5803	metaphysics	-0.1418
-4.2792	method	-0.4429
-4.5803	microscope	-0.1418
-4.5803	middle	-0.1418
-2.9675	might	-0.5046
-4.5803	mile	-0.1418
-4.2792	miles	-0.1418
-3.5389	mind	-0.3917
-4.5803	mind";	-0.1418
-4.5803	mind--the	-0.1418
-4.5803	mind;	-0.1418
-4.5803	mind?	-0.1418
-4.5803	mind_:	-0.1418
-3.8813	minds	-0.3015
-4.5803	minds"	-0.1418
-4.5803	minds;	-0.1418
-4.5803	minds_	-0.1418
-3.5803	mine	-0.3179
-4.5803	mine--which	-0.1418
-4.5803	mine:	-0.1418
-4.5803	mine;	-0.1418
-4.5803	minerals	-0.1418
-4.2792	minimum	-0.1418
-4.5803	minority	-0.1418
-4.5803	miracles	-0.1418
-4.5803	miserable;	-0.1418
-4.5803	miserably	-0.1418
-4.2792	misery	-0.1418
-4.5803	mislead	-0.1418
-4.2792	misleading	-0.1418
-4.2792	misled	-0.1418
-4.5803	misnomer	-0.1418
-4.5803	miss	-0.1418
-3.6772	mistake	-0.3792
-4.5803	mistake;	-0.1418
-3.9782	mistaken	-0.2387
-4.5803	mistaken;	-0.1418
-4.2792	mistakes	-0.1418
-4.5803	mistakes;	-0.1418
-4.2792	mistaking	-0.1418
-4.5803	mistook	-0.1418
-4.5803	mistranslation	-0.1418
-4.5803	misunderstandings	-0.1418
-4.5803	misunderstood;	-0.1418
-4.5803	moans	-0.1418
-3.9782	modern	-0.2668
-4.2792	modification	-0.1418
-4.5803	modifications	-0.1418
-4.5803	modifications";	-0.1418
-4.1031	modified	-0.1418
-4.1031	modifies	-0.1418
-3.6772	modify	-0.3179
-3.6772	moment	-0.2832
-4.5803	moment)	-0.1418
-4.5803	moments	-0.1418
-4.2792	monads	-0.1418
-4.5803	monstrous	-0.1418
-4.5803	mood	-0.1418
-4.5803	moon	-0.1418
-4.5803	moon;	-0.1418
-3.1653	moral	-0.3890
-3.6772	morality	-0.3759
-3.9782	morally	-0.4429
-4.5803	morbid	-0.1418
-2.8244	more	-0.4068
-4.5803	more)	-0.1418
-4.5803	more?	-0.1418
-4.5803	more_	-0.1418
-4.1031	moreover	-0.6189
-4.2792	mortal	-0.1418
-4.5803	mortal"--a	-0.1418
-2.8643	most	-0.4331
-4.5803	mother	-0.1418
-4.5803	motion	-0.1418
-4.5803	motions	-0.1418
-4.5803	motor-car	-0.1418
-4.5803	mountains	-0.1418
-4.2792	mouth	-0.1418
-4.5803	move	-0.1418
-4.5803	moved	-0.1418
-3.7352	movement	-0.4728
-3.6772	movements	-0.3459
-3.9782	moving	-0.2880
-3.2378	much	-0.3527
-4.5803	murder	-0.1418
-4.2792	murdered	-0.2668
-4.5803	murdered;	-0.1418
-2.6826	must	-0.4981
-4.5803	must_	-0.1418
-4.2792	mutability	-0.1418
-3.9782	mutable	-0.4429
-4.5803	mutable--that	-0.1418
-4.5803	mutable:	-0.1418
-4.5803	mutable;	-0.1418
-4.5803	mutable?	-0.1418
-4.5803	mutually	-0.1418
-2.6407	my	-0.4808
-3.2001	myself	-0.3298
-4.5803	mystery	-0.1418
-4.5803	naked	-0.1418
-3.4663	name	-0.3381
-4.5803	name:	-0.1418
-4.5803	name?	-0.1418
-3.4663	namely	-0.4940
-4.5803	namely:	-0.1418
-4.5803	namely:--	-0.1418
-3.9782	names	-0.4429
-4.5803	narrow	-0.1418
-4.5803	narrower	-0.1418
-4.5803	narrowest	-0.1418
-4.5803	nation	-0.1418
-3.3761	natural	-0.3179
-4.1031	naturalistic	-0.1418
